{"learner":{"attributes":{"scikit_learn":"{\"_estimator_type\": \"classifier\"}"},"feature_names":[],"feature_types":[],"gradient_booster":{"model":{"gbtree_model_param":{"num_parallel_tree":"1","num_trees":"2250"},"iteration_indptr":[0,9,18,27,36,45,54,63,72,81,90,99,108,117,126,135,144,153,162,171,180,189,198,207,216,225,234,243,252,261,270,279,288,297,306,315,324,333,342,351,360,369,378,387,396,405,414,423,432,441,450,459,468,477,486,495,504,513,522,531,540,549,558,567,576,585,594,603,612,621,630,639,648,657,666,675,684,693,702,711,720,729,738,747,756,765,774,783,792,801,810,819,828,837,846,855,864,873,882,891,900,909,918,927,936,945,954,963,972,981,990,999,1008,1017,1026,1035,1044,1053,1062,1071,1080,1089,1098,1107,1116,1125,1134,1143,1152,1161,1170,1179,1188,1197,1206,1215,1224,1233,1242,1251,1260,1269,1278,1287,1296,1305,1314,1323,1332,1341,1350,1359,1368,1377,1386,1395,1404,1413,1422,1431,1440,1449,1458,1467,1476,1485,1494,1503,1512,1521,1530,1539,1548,1557,1566,1575,1584,1593,1602,1611,1620,1629,1638,1647,1656,1665,1674,1683,1692,1701,1710,1719,1728,1737,1746,1755,1764,1773,1782,1791,1800,1809,1818,1827,1836,1845,1854,1863,1872,1881,1890,1899,1908,1917,1926,1935,1944,1953,1962,1971,1980,1989,1998,2007,2016,2025,2034,2043,2052,2061,2070,2079,2088,2097,2106,2115,2124,2133,2142,2151,2160,2169,2178,2187,2196,2205,2214,2223,2232,2241,2250],"tree_info":[0,1,2,3,4,5,6,7,8,0,1,2,3,4,5,6,7,8,0,1,2,3,4,5,6,7,8,0,1,2,3,4,5,6,7,8,0,1,2,3,4,5,6,7,8,0,1,2,3,4,5,6,7,8,0,1,2,3,4,5,6,7,8,0,1,2,3,4,5,6,7,8,0,1,2,3,4,5,6,7,8,0,1,2,3,4,5,6,7,8,0,1,2,3,4,5,6,7,8,0,1,2,3,4,5,6,7,8,0,1,2,3,4,5,6,7,8,0,1,2,3,4,5,6,7,8,0,1,2,3,4,5,6,7,8,0,1,2,3,4,5,6,7,8,0,1,2,3,4,5,6,7,8,0,1,2,3,4,5,6,7,8,0,1,2,3,4,5,6,7,8,0,1,2,3,4,5,6,7,8,0,1,2,3,4,5,6,7,8,0,1,2,3,4,5,6,7,8,0,1,2,3,4,5,6,7,8,0,1,2,3,4,5,6,7,8,0,1,2,3,4,5,6,7,8,0,1,2,3,4,5,6,7,8,0,1,2,3,4,5,6,7,8,0,1,2,3,4,5,6,7,8,0,1,2,3,4,5,6,7,8,0,1,2,3,4,5,6,7,8,0,1,2,3,4,5,6,7,8,0,1,2,3,4,5,6,7,8,0,1,2,3,4,5,6,7,8,0,1,2,3,4,5,6,7,8,0,1,2,3,4,5,6,7,8,0,1,2,3,4,5,6,7,8,0,1,2,3,4,5,6,7,8,0,1,2,3,4,5,6,7,8,0,1,2,3,4,5,6,7,8,0,1,2,3,4,5,6,7,8,0,1,2,3,4,5,6,7,8,0,1,2,3,4,5,6,7,8,0,1,2,3,4,5,6,7,8,0,1,2,3,4,5,6,7,8,0,1,2,3,4,5,6,7,8,0,1,2,3,4,5,6,7,8,0,1,2,3,4,5,6,7,8,0,1,2,3,4,5,6,7,8,0,1,2,3,4,5,6,7,8,0,1,2,3,4,5,6,7,8,0,1,2,3,4,5,6,7,8,0,1,2,3,4,5,6,7,8,0,1,2,3,4,5,6,7,8,0,1,2,3,4,5,6,7,8,0,1,2,3,4,5,6,7,8,0,1,2,3,4,5,6,7,8,0,1,2,3,4,5,6,7,8,0,1,2,3,4,5,6,7,8,0,1,2,3,4,5,6,7,8,0,1,2,3,4,5,6,7,8,0,1,2,3,4,5,6,7,8,0,1,2,3,4,5,6,7,8,0,1,2,3,4,5,6,7,8,0,1,2,3,4,5,6,7,8,0,1,2,3,4,5,6,7,8,0,1,2,3,4,5,6,7,8,0,1,2,3,4,5,6,7,8,0,1,2,3,4,5,6,7,8,0,1,2,3,4,5,6,7,8,0,1,2,3,4,5,6,7,8,0,1,2,3,4,5,6,7,8,0,1,2,3,4,5,6,7,8,0,1,2,3,4,5,6,7,8,0,1,2,3,4,5,6,7,8,0,1,2,3,4,5,6,7,8,0,1,2,3,4,5,6,7,8,0,1,2,3,4,5,6,7,8,0,1,2,3,4,5,6,7,8,0,1,2,3,4,5,6,7,8,0,1,2,3,4,5,6,7,8,0,1,2,3,4,5,6,7,8,0,1,2,3,4,5,6,7,8,0,1,2,3,4,5,6,7,8,0,1,2,3,4,5,6,7,8,0,1,2,3,4,5,6,7,8,0,1,2,3,4,5,6,7,8,0,1,2,3,4,5,6,7,8,0,1,2,3,4,5,6,7,8,0,1,2,3,4,5,6,7,8,0,1,2,3,4,5,6,7,8,0,1,2,3,4,5,6,7,8,0,1,2,3,4,5,6,7,8,0,1,2,3,4,5,6,7,8,0,1,2,3,4,5,6,7,8,0,1,2,3,4,5,6,7,8,0,1,2,3,4,5,6,7,8,0,1,2,3,4,5,6,7,8,0,1,2,3,4,5,6,7,8,0,1,2,3,4,5,6,7,8,0,1,2,3,4,5,6,7,8,0,1,2,3,4,5,6,7,8,0,1,2,3,4,5,6,7,8,0,1,2,3,4,5,6,7,8,0,1,2,3,4,5,6,7,8,0,1,2,3,4,5,6,7,8,0,1,2,3,4,5,6,7,8,0,1,2,3,4,5,6,7,8,0,1,2,3,4,5,6,7,8,0,1,2,3,4,5,6,7,8,0,1,2,3,4,5,6,7,8,0,1,2,3,4,5,6,7,8,0,1,2,3,4,5,6,7,8,0,1,2,3,4,5,6,7,8,0,1,2,3,4,5,6,7,8,0,1,2,3,4,5,6,7,8,0,1,2,3,4,5,6,7,8,0,1,2,3,4,5,6,7,8,0,1,2,3,4,5,6,7,8,0,1,2,3,4,5,6,7,8,0,1,2,3,4,5,6,7,8,0,1,2,3,4,5,6,7,8,0,1,2,3,4,5,6,7,8,0,1,2,3,4,5,6,7,8,0,1,2,3,4,5,6,7,8,0,1,2,3,4,5,6,7,8,0,1,2,3,4,5,6,7,8,0,1,2,3,4,5,6,7,8,0,1,2,3,4,5,6,7,8,0,1,2,3,4,5,6,7,8,0,1,2,3,4,5,6,7,8,0,1,2,3,4,5,6,7,8,0,1,2,3,4,5,6,7,8,0,1,2,3,4,5,6,7,8,0,1,2,3,4,5,6,7,8,0,1,2,3,4,5,6,7,8,0,1,2,3,4,5,6,7,8,0,1,2,3,4,5,6,7,8,0,1,2,3,4,5,6,7,8,0,1,2,3,4,5,6,7,8,0,1,2,3,4,5,6,7,8,0,1,2,3,4,5,6,7,8,0,1,2,3,4,5,6,7,8,0,1,2,3,4,5,6,7,8,0,1,2,3,4,5,6,7,8,0,1,2,3,4,5,6,7,8,0,1,2,3,4,5,6,7,8,0,1,2,3,4,5,6,7,8,0,1,2,3,4,5,6,7,8,0,1,2,3,4,5,6,7,8,0,1,2,3,4,5,6,7,8,0,1,2,3,4,5,6,7,8,0,1,2,3,4,5,6,7,8,0,1,2,3,4,5,6,7,8,0,1,2,3,4,5,6,7,8,0,1,2,3,4,5,6,7,8,0,1,2,3,4,5,6,7,8,0,1,2,3,4,5,6,7,8,0,1,2,3,4,5,6,7,8,0,1,2,3,4,5,6,7,8,0,1,2,3,4,5,6,7,8,0,1,2,3,4,5,6,7,8,0,1,2,3,4,5,6,7,8,0,1,2,3,4,5,6,7,8,0,1,2,3,4,5,6,7,8,0,1,2,3,4,5,6,7,8,0,1,2,3,4,5,6,7,8,0,1,2,3,4,5,6,7,8,0,1,2,3,4,5,6,7,8,0,1,2,3,4,5,6,7,8,0,1,2,3,4,5,6,7,8,0,1,2,3,4,5,6,7,8,0,1,2,3,4,5,6,7,8,0,1,2,3,4,5,6,7,8,0,1,2,3,4,5,6,7,8,0,1,2,3,4,5,6,7,8,0,1,2,3,4,5,6,7,8,0,1,2,3,4,5,6,7,8,0,1,2,3,4,5,6,7,8,0,1,2,3,4,5,6,7,8,0,1,2,3,4,5,6,7,8,0,1,2,3,4,5,6,7,8,0,1,2,3,4,5,6,7,8,0,1,2,3,4,5,6,7,8,0,1,2,3,4,5,6,7,8,0,1,2,3,4,5,6,7,8,0,1,2,3,4,5,6,7,8,0,1,2,3,4,5,6,7,8,0,1,2,3,4,5,6,7,8,0,1,2,3,4,5,6,7,8,0,1,2,3,4,5,6,7,8,0,1,2,3,4,5,6,7,8,0,1,2,3,4,5,6,7,8,0,1,2,3,4,5,6,7,8,0,1,2,3,4,5,6,7,8,0,1,2,3,4,5,6,7,8,0,1,2,3,4,5,6,7,8,0,1,2,3,4,5,6,7,8,0,1,2,3,4,5,6,7,8,0,1,2,3,4,5,6,7,8,0,1,2,3,4,5,6,7,8,0,1,2,3,4,5,6,7,8,0,1,2,3,4,5,6,7,8,0,1,2,3,4,5,6,7,8,0,1,2,3,4,5,6,7,8,0,1,2,3,4,5,6,7,8,0,1,2,3,4,5,6,7,8,0,1,2,3,4,5,6,7,8,0,1,2,3,4,5,6,7,8,0,1,2,3,4,5,6,7,8,0,1,2,3,4,5,6,7,8,0,1,2,3,4,5,6,7,8,0,1,2,3,4,5,6,7,8,0,1,2,3,4,5,6,7,8,0,1,2,3,4,5,6,7,8,0,1,2,3,4,5,6,7,8,0,1,2,3,4,5,6,7,8,0,1,2,3,4,5,6,7,8,0,1,2,3,4,5,6,7,8,0,1,2,3,4,5,6,7,8,0,1,2,3,4,5,6,7,8,0,1,2,3,4,5,6,7,8,0,1,2,3,4,5,6,7,8,0,1,2,3,4,5,6,7,8,0,1,2,3,4,5,6,7,8,0,1,2,3,4,5,6,7,8,0,1,2,3,4,5,6,7,8,0,1,2,3,4,5,6,7,8,0,1,2,3,4,5,6,7,8,0,1,2,3,4,5,6,7,8,0,1,2,3,4,5,6,7,8,0,1,2,3,4,5,6,7,8,0,1,2,3,4,5,6,7,8,0,1,2,3,4,5,6,7,8,0,1,2,3,4,5,6,7,8,0,1,2,3,4,5,6,7,8,0,1,2,3,4,5,6,7,8,0,1,2,3,4,5,6,7,8,0,1,2,3,4,5,6,7,8,0,1,2,3,4,5,6,7,8,0,1,2,3,4,5,6,7,8,0,1,2,3,4,5,6,7,8,0,1,2,3,4,5,6,7,8,0,1,2,3,4,5,6,7,8,0,1,2,3,4,5,6,7,8,0,1,2,3,4,5,6,7,8,0,1,2,3,4,5,6,7,8,0,1,2,3,4,5,6,7,8,0,1,2,3,4,5,6,7,8,0,1,2,3,4,5,6,7,8,0,1,2,3,4,5,6,7,8],"trees":[{"base_weights":[-4.4649385E-2,4.696589E-1,-2.0469235E-1,7.833206E-2,5.2961424E-2,-0E0,-2.9022524E-1,1.0810352E-2,-0E0,-0E0,-2.9698232E-2],"categories":[],"categories_nodes":[],"categories_segments":[],"categories_sizes":[],"default_left":[0,0,0,0,0,0,0,0,0,0,0],"id":0,"left_children":[1,3,5,-1,7,-1,9,-1,-1,-1,-1],"loss_changes":[2.952729E2,1.8211868E1,4.798416E1,0E0,2.5455115E0,0E0,1.5173035E0,0E0,0E0,0E0,0E0],"parents":[2147483647,0,0,1,1,2,2,4,4,6,6],"right_children":[2,4,6,-1,8,-1,10,-1,-1,-1,-1],"split_conditions":[-7.5952876E-1,7.862224E-1,7.862224E-1,7.833206E-2,-9.4998336E-1,-0E0,-6.643014E-1,1.0810352E-2,-0E0,-0E0,-2.9698232E-2],"split_indices":[0,1,1,0,0,0,0,0,0,0,0],"split_type":[0,0,0,0,0,0,0,0,0,0,0],"sum_hessian":[3.9070044E3,7.784948E2,3.1285098E3,3.0673975E2,4.7175507E2,1.003119E3,2.1253906E3,3.302874E2,1.4146765E2,7.845728E1,2.0469333E3],"tree_param":{"num_deleted":"0","num_feature":"3","num_nodes":"11","size_leaf_vector":"1"}},{"base_weights":[6.309502E-2,7.777952E-2,-2.1710811E-2,3.0397674E-2,-2.2203833E-1,-0E0,-2.6411016E-2],"categories":[],"categories_nodes":[],"categories_segments":[],"categories_sizes":[],"default_left":[0,0,0,0,0,0,0],"id":1,"left_children":[1,-1,3,-1,5,-1,-1],"loss_changes":[3.100406E2,0E0,2.0934604E2,0E0,2.4195305E1,0E0,0E0],"parents":[2147483647,0,0,2,2,4,4],"right_children":[2,-1,4,-1,6,-1,-1],"split_conditions":[-9.4998336E-1,7.777952E-2,7.862224E-1,3.0397674E-2,-5.690741E-1,-0E0,-2.6411016E-2],"split_indices":[0,0,1,0,0,0,0],"split_type":[0,0,0,0,0,0,0],"sum_hessian":[3.8665542E3,5.343467E2,3.3322075E3,1.0787318E3,2.2534756E3,3.1418668E2,1.939289E3],"tree_param":{"num_deleted":"0","num_feature":"3","num_nodes":"7","size_leaf_vector":"1"}},{"base_weights":[3.7027606E-1,7.041365E-1,9.88531E-2,-0E0,7.179495E-2,1.53899165E-2,-0E0],"categories":[],"categories_nodes":[],"categories_segments":[],"categories_sizes":[],"default_left":[0,0,0,0,0,0,0],"id":2,"left_children":[1,3,5,-1,-1,-1,-1],"loss_changes":[2.705849E2,9.753967E0,2.1460064E1,0E0,0E0,0E0,0E0],"parents":[2147483647,0,0,1,1,2,2],"right_children":[2,4,6,-1,-1,-1,-1],"split_conditions":[-1.8816483E-1,-1.4261199E0,1.2032331E0,-0E0,7.179495E-2,1.53899165E-2,-0E0],"split_indices":[0,0,2,0,0,0,0],"split_type":[0,0,0,0,0,0,0],"sum_hessian":[3.871915E3,1.5703289E3,2.3015862E3,4.0958023E1,1.5293708E3,1.8550637E3,4.4652246E2],"tree_param":{"num_deleted":"0","num_feature":"3","num_nodes":"7","size_leaf_vector":"1"}},{"base_weights":[2.2242776E-1,-0E0,2.831301E-1,3.2935265E-2,-0E0],"categories":[],"categories_nodes":[],"categories_segments":[],"categories_sizes":[],"default_left":[0,0,0,0,0],"id":3,"left_children":[1,-1,3,-1,-1],"loss_changes":[7.49131E1,0E0,1.2879883E1,0E0,0E0],"parents":[2147483647,0,0,2,2],"right_children":[2,-1,4,-1,-1],"split_conditions":[-9.4998336E-1,-0E0,1.0497903E0,3.2935265E-2,-0E0],"split_indices":[0,0,0,0,0],"split_type":[0,0,0,0,0],"sum_hessian":[3.8930686E3,5.562469E2,3.3368218E3,2.5844187E3,7.5240295E2],"tree_param":{"num_deleted":"0","num_feature":"3","num_nodes":"5","size_leaf_vector":"1"}},{"base_weights":[5.986029E-2,-2.6298609E-2,1.4240795E-1,-7.1251877E-3,-0E0,1.5255576E-1,-0E0,-0E0,1.5959326E-2],"categories":[],"categories_nodes":[],"categories_segments":[],"categories_sizes":[],"default_left":[0,0,0,0,0,0,0,0,0],"id":4,"left_children":[1,3,5,-1,-1,7,-1,-1,-1],"loss_changes":[3.911185E1,3.6871135E0,3.9856339E0,0E0,0E0,2.8728104E0,0E0,0E0,0E0],"parents":[2147483647,0,0,1,1,2,2,5,5],"right_children":[2,4,6,-1,-1,8,-1,-1,-1],"split_conditions":[7.862224E-1,3.900722E-1,1.9945796E0,-7.1251877E-3,-0E0,-1.2627645E0,-0E0,-0E0,1.5959326E-2],"split_indices":[1,2,2,0,0,2,0,0,0],"split_type":[0,0,0,0,0,0,0,0,0],"sum_hessian":[3.8651892E3,1.2988148E3,2.5663743E3,9.023368E2,3.9647803E2,2.4074312E3,1.589432E2,9.493136E1,2.3124998E3],"tree_param":{"num_deleted":"0","num_feature":"3","num_nodes":"9","size_leaf_vector":"1"}},{"base_weights":[-6.214152E-2,-2.8644795E-2,1.24987345E-2,-3.073925E-3,8.934491E-2,-0E0,9.409177E-3],"categories":[],"categories_nodes":[],"categories_segments":[],"categories_sizes":[],"default_left":[0,0,0,0,0,0,0],"id":5,"left_children":[1,-1,3,-1,5,-1,-1],"loss_changes":[9.262196E1,0E0,1.4467394E1,0E0,7.5812626E-1,0E0,0E0],"parents":[2147483647,0,0,2,2,4,4],"right_children":[2,-1,4,-1,6,-1,-1],"split_conditions":[-3.7861946E-1,-2.8644795E-2,7.862224E-1,-3.073925E-3,-2.8339216E-1,-0E0,9.409177E-3],"split_indices":[0,0,1,0,0,0,0],"split_type":[0,0,0,0,0,0,0],"sum_hessian":[3.894732E3,1.3062262E3,2.5885056E3,8.241126E2,1.7643931E3,8.8E1,1.6763931E3],"tree_param":{"num_deleted":"0","num_feature":"3","num_nodes":"7","size_leaf_vector":"1"}},{"base_weights":[-1.1653663E-1,-2.6437968E-1,-4.101545E-3,-3.0641882E-2,-0E0,-5.7990723E-3,-0E0],"categories":[],"categories_nodes":[],"categories_segments":[],"categories_sizes":[],"default_left":[0,0,0,0,0,0,0],"id":6,"left_children":[1,3,5,-1,-1,-1,-1],"loss_changes":[3.803187E1,1.6162453E1,4.1287208E0,0E0,0E0,0E0,0E0],"parents":[2147483647,0,0,1,1,2,2],"right_children":[2,4,6,-1,-1,-1,-1],"split_conditions":[7.862224E-1,1.4355992E0,-1.609537E-1,-3.0641882E-2,-0E0,-5.7990723E-3,-0E0],"split_indices":[1,2,2,0,0,0,0],"split_type":[0,0,0,0,0,0,0],"sum_hessian":[3.9021511E3,1.3008652E3,2.601286E3,1.1402885E3,1.605768E2,1.2397354E3,1.3615507E3],"tree_param":{"num_deleted":"0","num_feature":"3","num_nodes":"7","size_leaf_vector":"1"}},{"base_weights":[-1.9903868E-1,-3.50335E-1,-1.1440506E-2,-3.59711E-2,-0E0,-6.1942325E-3,-0E0],"categories":[],"categories_nodes":[],"categories_segments":[],"categories_sizes":[],"default_left":[0,0,0,0,0,0,0],"id":7,"left_children":[1,3,5,-1,-1,-1,-1],"loss_changes":[7.475728E1,5.4654846E0,3.600324E0,0E0,0E0,0E0,0E0],"parents":[2147483647,0,0,1,1,2,2],"right_children":[2,4,6,-1,-1,-1,-1],"split_conditions":[2.289801E-3,2.2650306E0,-8.020406E-2,-3.59711E-2,-0E0,-6.1942325E-3,-0E0],"split_indices":[0,2,2,0,0,0,0],"split_type":[0,0,0,0,0,0,0],"sum_hessian":[3.9076484E3,1.8675575E3,2.0400908E3,1.8136573E3,5.3900246E1,1.0069808E3,1.0331101E3],"tree_param":{"num_deleted":"0","num_feature":"3","num_nodes":"7","size_leaf_vector":"1"}},{"base_weights":[-2.5693437E-1,-2.8750239E-2,-0E0],"categories":[],"categories_nodes":[],"categories_segments":[],"categories_sizes":[],"default_left":[0,0,0],"id":8,"left_children":[1,-1,-1],"loss_changes":[3.5172974E1,0E0,0E0],"parents":[2147483647,0,0],"right_children":[2,-1,-1],"split_conditions":[1.7795687E0,-2.8750239E-2,-0E0],"split_indices":[2,0,0],"split_type":[0,0,0],"sum_hessian":[3.88256E3,3.526167E3,3.563931E2],"tree_param":{"num_deleted":"0","num_feature":"3","num_nodes":"3","size_leaf_vector":"1"}},{"base_weights":[-5.4839756E-2,1.1950108E-1,-1.8512923E-1,2.1415834E-1,-0E0,-0E0,-2.238351E-2,-0E0,2.182726E-2],"categories":[],"categories_nodes":[],"categories_segments":[],"categories_sizes":[],"default_left":[0,0,0,0,0,0,0,0,0],"id":9,"left_children":[1,3,5,7,-1,-1,-1,-1,-1],"loss_changes":[9.437026E1,1.8697184E1,2.0596298E1,1.1560249E0,0E0,0E0,0E0,0E0,0E0],"parents":[2147483647,0,0,1,1,2,2,3,3],"right_children":[2,4,6,8,-1,-1,-1,-1,-1],"split_conditions":[7.862224E-1,1.2239317E-1,-9.743557E-1,-1.3186866E0,-0E0,-0E0,-2.238351E-2,-0E0,2.182726E-2],"split_indices":[1,2,2,2,0,0,0,0,0],"split_type":[0,0,0,0,0,0,0,0,0],"sum_hessian":[3.8636797E3,1.3242528E3,2.5394268E3,8.193087E2,5.0494415E2,3.9153885E2,2.147888E3,6.3685174E0,8.129402E2],"tree_param":{"num_deleted":"0","num_feature":"3","num_nodes":"9","size_leaf_vector":"1"}},{"base_weights":[6.9540255E-2,6.570431E-2,-2.802299E-2,-0E0,-1.3373123E-1,5.6612724E-3,-0E0,-0E0,-1.6408864E-2],"categories":[],"categories_nodes":[],"categories_segments":[],"categories_sizes":[],"default_left":[0,0,0,0,0,0,0,0,0],"id":10,"left_children":[1,-1,3,5,7,-1,-1,-1,-1],"loss_changes":[2.8674597E2,0E0,1.9735693E1,2.461664E0,6.218691E0,0E0,0E0,0E0,0E0],"parents":[2147483647,0,0,2,2,3,3,4,4],"right_children":[2,-1,4,6,8,-1,-1,-1,-1],"split_conditions":[-8.5475606E-1,6.570431E-2,2.4737433E-1,2.289801E-3,-4.738468E-1,5.6612724E-3,-0E0,-0E0,-1.6408864E-2],"split_indices":[0,0,2,0,0,0,0,0,0],"split_type":[0,0,0,0,0,0,0,0,0],"sum_hessian":[3.903932E3,7.0113055E2,3.2028015E3,1.959586E3,1.2432155E3,7.670698E2,1.1925162E3,1.8682613E2,1.0563893E3],"tree_param":{"num_deleted":"0","num_feature":"3","num_nodes":"9","size_leaf_vector":"1"}},{"base_weights":[3.3472356E-1,5.6526995E-1,1.7872934E-1,5.7993677E-2,-0E0,2.2027811E-2,-0E0],"categories":[],"categories_nodes":[],"categories_segments":[],"categories_sizes":[],"default_left":[0,0,0,0,0,0,0],"id":11,"left_children":[1,3,5,-1,-1,-1,-1],"loss_changes":[6.99762E1,9.668335E0,2.024424E1,0E0,0E0,0E0,0E0],"parents":[2147483647,0,0,1,1,2,2],"right_children":[2,4,6,-1,-1,-1,-1],"split_conditions":[7.862224E-1,2.2351413E0,1.2296274E0,5.7993677E-2,-0E0,2.2027811E-2,-0E0],"split_indices":[1,2,2,0,0,0,0],"split_type":[0,0,0,0,0,0,0],"sum_hessian":[4.0162827E3,1.3610669E3,2.6552158E3,1.3217908E3,3.9276176E1,2.1649019E3,4.9031387E2],"tree_param":{"num_deleted":"0","num_feature":"3","num_nodes":"7","size_leaf_vector":"1"}},{"base_weights":[2.1317464E-1,-0E0,2.6649186E-1,2.8031692E-1,-0E0,2.9661978E-2,-0E0],"categories":[],"categories_nodes":[],"categories_segments":[],"categories_sizes":[],"default_left":[0,0,0,0,0,0,0],"id":12,"left_children":[1,-1,3,5,-1,-1,-1],"loss_changes":[7.017876E1,0E0,1.1870087E1,6.088806E0,0E0,0E0,0E0],"parents":[2147483647,0,0,2,2,3,3],"right_children":[2,-1,4,6,-1,-1,-1],"split_conditions":[-1.0452107E0,-0E0,2.0972908E0,1.8059629E0,-0E0,2.9661978E-2,-0E0],"split_indices":[0,0,0,2,0,0,0],"split_type":[0,0,0,0,0,0,0],"sum_hessian":[3.9557754E3,4.3670294E2,3.5190725E3,3.3314812E3,1.8759135E2,3.0444316E3,2.8704956E2],"tree_param":{"num_deleted":"0","num_feature":"3","num_nodes":"7","size_leaf_vector":"1"}},{"base_weights":[4.856844E-2,-1.6053528E-1,1.3187389E-1,-1.9883128E-2,-0E0,-0E0,1.8913119E-1,2.1469528E-2,-0E0],"categories":[],"categories_nodes":[],"categories_segments":[],"categories_sizes":[],"default_left":[0,0,0,0,0,0,0,0,0],"id":13,"left_children":[1,3,5,-1,-1,-1,7,-1,-1],"loss_changes":[6.5481735E1,1.3875942E0,2.2185661E1,0E0,0E0,0E0,1.1699051E1,0E0,0E0],"parents":[2147483647,0,0,1,1,2,2,6,6],"right_children":[2,4,6,-1,-1,-1,8,-1,-1],"split_conditions":[-7.5952876E-1,-9.4998336E-1,7.862224E-1,-1.9883128E-2,-0E0,-0E0,1.8116088E0,2.1469528E-2,-0E0],"split_indices":[0,0,1,0,0,0,0,0,0],"split_type":[0,0,0,0,0,0,0,0,0],"sum_hessian":[3.9214307E3,7.7493915E2,3.1464915E3,5.399226E2,2.3501656E2,9.97044E2,2.1494475E3,1.9216309E3,2.2781664E2],"tree_param":{"num_deleted":"0","num_feature":"3","num_nodes":"9","size_leaf_vector":"1"}},{"base_weights":[-6.2009007E-2,-3.0044748E-2,3.1468968E-4,-3.0671023E-2,6.7308575E-2,-5.3818E-3,-0E0,-0E0,7.4629644E-3],"categories":[],"categories_nodes":[],"categories_segments":[],"categories_sizes":[],"default_left":[0,0,0,0,0,0,0,0,0],"id":14,"left_children":[1,-1,3,5,7,-1,-1,-1,-1],"loss_changes":[8.799588E1,0E0,9.3989105E0,1.1745036E0,5.010433E-1,0E0,0E0,0E0,0E0],"parents":[2147483647,0,0,2,2,3,3,4,4],"right_children":[2,-1,4,6,8,-1,-1,-1,-1],"split_conditions":[-4.738468E-1,-3.0044748E-2,7.862224E-1,1.2402449E0,-1.8816483E-1,-5.3818E-3,-0E0,-0E0,7.4629644E-3],"split_indices":[0,0,1,0,0,0,0,0,0],"split_type":[0,0,0,0,0,0,0,0,0],"sum_hessian":[3.9008225E3,1.1400222E3,2.7608003E3,8.6745667E2,1.8933436E3,6.865732E2,1.808835E2,2.6347464E2,1.629869E3],"tree_param":{"num_deleted":"0","num_feature":"3","num_nodes":"9","size_leaf_vector":"1"}},{"base_weights":[-1.0738836E-1,-1.7003459E-1,-0E0,-2.8229144E-1,-4.7667615E-2,-2.8494796E-2,-0E0,-5.5683143E-3,-0E0],"categories":[],"categories_nodes":[],"categories_segments":[],"categories_sizes":[],"default_left":[0,0,0,0,0,0,0,0,0],"id":15,"left_children":[1,3,-1,5,7,-1,-1,-1,-1],"loss_changes":[2.597253E1,5.370407E-1,0E0,8.935394E-1,5.098555E-1,0E0,0E0,0E0,0E0],"parents":[2147483647,0,0,1,1,3,3,4,4],"right_children":[2,4,-1,6,8,-1,-1,-1,-1],"split_conditions":[3.0353752E-1,7.862224E-1,-0E0,2.8268722E-1,-4.1998636E-2,-2.8494796E-2,-0E0,-5.5683143E-3,-0E0],"split_indices":[2,1,0,2,2,0,0,0,0],"split_type":[0,0,0,0,0,0,0,0,0],"sum_hessian":[3.8693394E3,2.4411306E3,1.4282089E3,8.462645E2,1.594866E3,8.415451E2,4.7194076E0,1.3329252E3,2.619409E2],"tree_param":{"num_deleted":"0","num_feature":"3","num_nodes":"9","size_leaf_vector":"1"}},{"base_weights":[-1.7968681E-1,-3.23808E-1,-2.4460559E-3,-3.393025E-2,-0E0,-1.0349381E-2,-0E0],"categories":[],"categories_nodes":[],"categories_segments":[],"categories_sizes":[],"default_left":[0,0,0,0,0,0,0],"id":16,"left_children":[1,3,5,-1,-1,-1,-1],"loss_changes":[6.515206E1,1.2317139E1,1.0439462E1,0E0,0E0,0E0,0E0],"parents":[2147483647,0,0,1,1,2,2],"right_children":[2,4,6,-1,-1,-1,-1],"split_conditions":[2.289801E-3,2.2650306E0,-8.020406E-2,-3.393025E-2,-0E0,-1.0349381E-2,-0E0],"split_indices":[0,2,2,0,0,0,0],"split_type":[0,0,0,0,0,0,0],"sum_hessian":[3.8268137E3,1.798971E3,2.0278428E3,1.7453188E3,5.365202E1,9.7478485E2,1.0530579E3],"tree_param":{"num_deleted":"0","num_feature":"3","num_nodes":"7","size_leaf_vector":"1"}},{"base_weights":[-2.444393E-1,-2.8602576E-2,-0E0],"categories":[],"categories_nodes":[],"categories_segments":[],"categories_sizes":[],"default_left":[0,0,0],"id":17,"left_children":[1,-1,-1],"loss_changes":[2.8164566E1,0E0,0E0],"parents":[2147483647,0,0],"right_children":[2,-1,-1],"split_conditions":[1.2296274E0,-2.8602576E-2,-0E0],"split_indices":[2,0,0],"split_type":[0,0,0],"sum_hessian":[3.7756345E3,3.101535E3,6.740996E2],"tree_param":{"num_deleted":"0","num_feature":"3","num_nodes":"3","size_leaf_vector":"1"}},{"base_weights":[-5.950759E-2,1.1340433E-1,-1.9330925E-1,2.0535165E-2,-0E0,-0E0,-2.375747E-2],"categories":[],"categories_nodes":[],"categories_segments":[],"categories_sizes":[],"default_left":[0,0,0,0,0,0,0],"id":18,"left_children":[1,3,5,-1,-1,-1,-1],"loss_changes":[9.636635E1,1.7339338E1,2.4558983E1,0E0,0E0,0E0,0E0],"parents":[2147483647,0,0,1,1,2,2],"right_children":[2,4,6,-1,-1,-1,-1],"split_conditions":[7.862224E-1,1.05640635E-1,-9.6374977E-1,2.0535165E-2,-0E0,-0E0,-2.375747E-2],"split_indices":[1,2,2,0,0,0,0],"split_type":[0,0,0,0,0,0,0],"sum_hessian":[3.81791E3,1.339566E3,2.478344E3,8.190218E2,5.205442E2,4.0271994E2,2.075624E3],"tree_param":{"num_deleted":"0","num_feature":"3","num_nodes":"7","size_leaf_vector":"1"}},{"base_weights":[5.453255E-2,4.0775502E-1,-9.440814E-2,4.420224E-2,-0E0,-0E0,-1.2355088E-2],"categories":[],"categories_nodes":[],"categories_segments":[],"categories_sizes":[],"default_left":[0,0,0,0,0,0,0],"id":19,"left_children":[1,3,5,-1,-1,-1,-1],"loss_changes":[2.3874503E2,8.239868E0,1.1327509E1,0E0,0E0,0E0,0E0],"parents":[2147483647,0,0,1,1,2,2],"right_children":[2,4,6,-1,-1,-1,-1],"split_conditions":[7.862224E-1,1.4355992E0,-1.0190693E0,4.420224E-2,-0E0,-0E0,-1.2355088E-2],"split_indices":[1,2,2,0,0,0,0],"split_type":[0,0,0,0,0,0,0],"sum_hessian":[3.9407412E3,1.3674398E3,2.5733015E3,1.2056627E3,1.6177707E2,3.2913983E2,2.2441616E3],"tree_param":{"num_deleted":"0","num_feature":"3","num_nodes":"7","size_leaf_vector":"1"}},{"base_weights":[3.0703902E-1,5.885842E-1,6.3281424E-2,-0E0,5.9743952E-2,1.5383756E-1,-0E0,1.5561794E-2,-0E0],"categories":[],"categories_nodes":[],"categories_segments":[],"categories_sizes":[],"default_left":[0,0,0,0,0,0,0,0,0],"id":20,"left_children":[1,3,5,-1,-1,7,-1,-1,-1],"loss_changes":[2.1807877E2,3.2750854E0,2.0432632E1,0E0,0E0,5.2662086E-1,0E0,0E0,0E0],"parents":[2147483647,0,0,1,1,2,2,5,5],"right_children":[2,4,6,-1,-1,8,-1,-1,-1],"split_conditions":[-1.8816483E-1,-1.4261199E0,3.9594658E-2,-0E0,5.9743952E-2,3.049564E0,-0E0,1.5561794E-2,-0E0],"split_indices":[0,0,2,0,0,0,0,0,0],"split_type":[0,0,0,0,0,0,0,0,0],"sum_hessian":[4.127044E3,1.7240602E3,2.402984E3,4.158372E1,1.6824764E3,1.2691549E3,1.133829E3,1.2620042E3,7.1506796E0],"tree_param":{"num_deleted":"0","num_feature":"3","num_nodes":"9","size_leaf_vector":"1"}},{"base_weights":[1.9476579E-1,2.0627886E-2,-0E0],"categories":[],"categories_nodes":[],"categories_segments":[],"categories_sizes":[],"default_left":[0,0,0],"id":21,"left_children":[1,-1,-1],"loss_changes":[4.7711487E0,0E0,0E0],"parents":[2147483647,0,0],"right_children":[2,-1,-1],"split_conditions":[1.8333213E0,2.0627886E-2,-0E0],"split_indices":[2,0,0],"split_type":[0,0,0],"sum_hessian":[4.059941E3,3.7314114E3,3.2852954E2],"tree_param":{"num_deleted":"0","num_feature":"3","num_nodes":"3","size_leaf_vector":"1"}},{"base_weights":[3.460036E-2,-9.27532E-2,1.4865641E-1,-1.878329E-2,-0E0,1.7492702E-2,-0E0],"categories":[],"categories_nodes":[],"categories_segments":[],"categories_sizes":[],"default_left":[0,0,0,0,0,0,0],"id":22,"left_children":[1,3,5,-1,-1,-1,-1],"loss_changes":[6.290015E1,6.4555626E0,1.1634636E1,0E0,0E0,0E0,0E0],"parents":[2147483647,0,0,1,1,2,2],"right_children":[2,4,6,-1,-1,-1,-1],"split_conditions":[-2.8339216E-1,-9.4998336E-1,1.8116088E0,-1.878329E-2,-0E0,1.7492702E-2,-0E0],"split_indices":[0,0,0,0,0,0,0],"split_type":[0,0,0,0,0,0,0],"sum_hessian":[3.9435298E3,1.449009E3,2.4945208E3,5.355526E2,9.134565E2,2.181472E3,3.130487E2],"tree_param":{"num_deleted":"0","num_feature":"3","num_nodes":"7","size_leaf_vector":"1"}},{"base_weights":[-5.860476E-2,-2.0249793E-1,-0E0,-2.1436503E-2,-0E0,-0E0,1.1338043E-3],"categories":[],"categories_nodes":[],"categories_segments":[],"categories_sizes":[],"default_left":[0,0,0,0,0,0,0],"id":23,"left_children":[1,3,5,-1,-1,-1,-1],"loss_changes":[3.9520233E1,1.6006851E0,2.080751E-1,0E0,0E0,0E0,0E0],"parents":[2147483647,0,0,1,1,2,2],"right_children":[2,4,6,-1,-1,-1,-1],"split_conditions":[7.862224E-1,1.6776072E0,-4.38395E-1,-2.1436503E-2,-0E0,-0E0,1.1338043E-3],"split_indices":[1,2,2,0,0,0,0],"split_type":[0,0,0,0,0,0,0],"sum_hessian":[3.8934233E3,1.2889688E3,2.6044546E3,1.184932E3,1.040367E2,9.8683813E2,1.6176166E3],"tree_param":{"num_deleted":"0","num_feature":"3","num_nodes":"7","size_leaf_vector":"1"}},{"base_weights":[-9.494112E-2,-2.4246329E-1,3.8837763E-3,-2.4981042E-2,-0E0,-0E0,1.0785256E-1,1.1921644E-2,-0E0],"categories":[],"categories_nodes":[],"categories_segments":[],"categories_sizes":[],"default_left":[0,0,0,0,0,0,0,0,0],"id":24,"left_children":[1,3,5,-1,-1,-1,7,-1,-1],"loss_changes":[7.973874E1,2.788559E0,9.648243E0,0E0,0E0,0E0,1.8016558E0,0E0,0E0],"parents":[2147483647,0,0,1,1,2,2,6,6],"right_children":[2,4,6,-1,-1,-1,8,-1,-1],"split_conditions":[9.751712E-2,2.1862094E0,2.20739E-1,-2.4981042E-2,-0E0,-0E0,2.5516317E0,1.1921644E-2,-0E0],"split_indices":[0,2,2,0,0,0,2,0,0],"split_type":[0,0,0,0,0,0,0,0,0],"sum_hessian":[3.831937E3,1.9425729E3,1.889364E3,1.8746145E3,6.795838E1,1.0584684E3,8.3089575E2,8.0662463E2,2.427109E1],"tree_param":{"num_deleted":"0","num_feature":"3","num_nodes":"9","size_leaf_vector":"1"}},{"base_weights":[-1.4972642E-1,-3.8288975E-1,-1.653676E-2,-3.869165E-2,-0E0,-1.3508795E-1,4.881776E-2,-1.3949628E-2,-0E0,5.6601143E-3,-0E0],"categories":[],"categories_nodes":[],"categories_segments":[],"categories_sizes":[],"default_left":[0,0,0,0,0,0,0,0,0,0,0],"id":25,"left_children":[1,3,5,-1,-1,7,9,-1,-1,-1,-1],"loss_changes":[7.706726E1,2.3098145E0,2.9337076E1,0E0,0E0,1.3249931E0,8.614931E-1,0E0,0E0,0E0,0E0],"parents":[2147483647,0,0,1,1,2,2,5,5,6,6],"right_children":[2,4,6,-1,-1,8,10,-1,-1,-1,-1],"split_conditions":[-4.738468E-1,2.575254E0,1.05640635E-1,-3.869165E-2,-0E0,2.6686547E0,2.5734274E0,-1.3949628E-2,-0E0,5.6601143E-3,-0E0],"split_indices":[0,2,2,0,0,0,0,0,0,0,0],"split_type":[0,0,0,0,0,0,0,0,0,0,0],"sum_hessian":[3.767039E3,1.0958855E3,2.6711536E3,1.0886022E3,7.2833242E0,1.4926248E3,1.1785288E3,1.4678048E3,2.4819866E1,1.1453395E3,3.31893E1],"tree_param":{"num_deleted":"0","num_feature":"3","num_nodes":"11","size_leaf_vector":"1"}},{"base_weights":[-2.3880064E-1,-3.88433E-2,-2.5514927E-2,-2.083315E-1,-0E0,-2.1136794E-2,-0E0],"categories":[],"categories_nodes":[],"categories_segments":[],"categories_sizes":[],"default_left":[0,0,0,0,0,0,0],"id":26,"left_children":[1,-1,3,5,-1,-1,-1],"loss_changes":[7.7867935E1,0E0,2.2817127E1,2.7313232E-1,0E0,0E0,0E0],"parents":[2147483647,0,0,2,2,3,3],"right_children":[2,-1,4,6,-1,-1,-1],"split_conditions":[9.751712E-2,-3.88433E-2,7.862224E-1,2.8591094E0,-0E0,-2.1136794E-2,-0E0],"split_indices":[0,0,1,0,0,0,0],"split_type":[0,0,0,0,0,0,0],"sum_hessian":[3.7362607E3,1.9197607E3,1.8165E3,5.5197754E2,1.2645225E3,5.4231757E2,9.660028E0],"tree_param":{"num_deleted":"0","num_feature":"3","num_nodes":"7","size_leaf_vector":"1"}},{"base_weights":[-4.142195E-2,4.0771902E-1,-2.2129901E-1,4.715261E-1,-0E0,-0E0,-2.55736E-1,5.1160514E-2,-0E0,-0E0,-2.8955856E-2],"categories":[],"categories_nodes":[],"categories_segments":[],"categories_sizes":[],"default_left":[0,0,0,0,0,0,0,0,0,0,0],"id":27,"left_children":[1,3,5,7,-1,-1,9,-1,-1,-1,-1],"loss_changes":[2.8999637E2,1.8906006E1,1.8082138E1,5.258484E0,0E0,0E0,9.004028E0,0E0,0E0,0E0,0E0],"parents":[2147483647,0,0,1,1,2,2,3,3,6,6],"right_children":[2,4,6,8,-1,-1,10,-1,-1,-1,-1],"split_conditions":[-6.643014E-1,1.0293201E0,-9.743557E-1,-7.5952876E-1,-0E0,-0E0,-2.8339216E-1,5.1160514E-2,-0E0,-0E0,-2.8955856E-2],"split_indices":[0,2,2,0,0,0,0,0,0,0,0],"split_type":[0,0,0,0,0,0,0,0,0,0,0],"sum_hessian":[3.81813E3,9.325108E2,2.885619E3,7.8199207E2,1.5051878E2,4.4859036E2,2.4370286E3,6.842089E2,9.778309E1,4.2890497E2,2.0081237E3],"tree_param":{"num_deleted":"0","num_feature":"3","num_nodes":"11","size_leaf_vector":"1"}},{"base_weights":[4.6623282E-2,3.8997477E-1,-9.994025E-2,4.038161E-1,-0E0,-0E0,-1.2917422E-2,-0E0,4.0581655E-2],"categories":[],"categories_nodes":[],"categories_segments":[],"categories_sizes":[],"default_left":[0,0,0,0,0,0,0,0,0],"id":28,"left_children":[1,3,5,7,-1,-1,-1,-1,-1],"loss_changes":[2.2898181E2,3.845459E0,1.1704294E1,7.625122E-1,0E0,0E0,0E0,0E0,0E0],"parents":[2147483647,0,0,1,1,2,2,3,3],"right_children":[2,4,6,8,-1,-1,-1,-1,-1],"split_conditions":[7.862224E-1,1.9945796E0,-1.0190693E0,-1.3186866E0,-0E0,-0E0,-1.2917422E-2,-0E0,4.0581655E-2],"split_indices":[1,2,2,2,0,0,0,0,0],"split_type":[0,0,0,0,0,0,0,0,0],"sum_hessian":[3.972137E3,1.3919292E3,2.580208E3,1.3216586E3,7.0270615E1,3.346786E2,2.2455293E3,8.377313E0,1.3132812E3],"tree_param":{"num_deleted":"0","num_feature":"3","num_nodes":"9","size_leaf_vector":"1"}},{"base_weights":[2.9026756E-1,5.0695115E-1,1.41807E-1,5.1828433E-2,-0E0,1.6856058E-2,-0E0],"categories":[],"categories_nodes":[],"categories_segments":[],"categories_sizes":[],"default_left":[0,0,0,0,0,0,0],"id":29,"left_children":[1,3,5,-1,-1,-1,-1],"loss_changes":[7.260034E1,6.7228394E0,1.0289917E1,0E0,0E0,0E0,0E0],"parents":[2147483647,0,0,1,1,2,2],"right_children":[2,4,6,-1,-1,-1,-1],"split_conditions":[7.862224E-1,2.2351413E0,1.2920578E0,5.1828433E-2,-0E0,1.6856058E-2,-0E0],"split_indices":[1,2,2,0,0,0,0],"split_type":[0,0,0,0,0,0,0],"sum_hessian":[4.2747983E3,1.4632041E3,2.811594E3,1.4248972E3,3.8306908E1,2.3517886E3,4.598054E2],"tree_param":{"num_deleted":"0","num_feature":"3","num_nodes":"7","size_leaf_vector":"1"}},{"base_weights":[1.82574E-1,-0E0,1.8444277E-2],"categories":[],"categories_nodes":[],"categories_segments":[],"categories_sizes":[],"default_left":[0,0,0],"id":30,"left_children":[1,-1,-1],"loss_changes":[1.1070099E0,0E0,0E0],"parents":[2147483647,0,0],"right_children":[2,-1,-1],"split_conditions":[-1.3095269E0,-0E0,1.8444277E-2],"split_indices":[2,0,0],"split_type":[0,0,0],"sum_hessian":[4.098542E3,5.0110874E1,4.0484312E3],"tree_param":{"num_deleted":"0","num_feature":"3","num_nodes":"3","size_leaf_vector":"1"}},{"base_weights":[4.4615902E-2,-1.4821696E-2,1.2262129E-1,-0E0,1.7328429E-1,1.8849611E-2,-0E0],"categories":[],"categories_nodes":[],"categories_segments":[],"categories_sizes":[],"default_left":[0,0,0,0,0,0,0],"id":31,"left_children":[1,-1,3,-1,5,-1,-1],"loss_changes":[5.7103237E1,0E0,1.7408024E1,0E0,6.232292E0,0E0,0E0],"parents":[2147483647,0,0,2,2,4,4],"right_children":[2,-1,4,-1,6,-1,-1],"split_conditions":[-7.5952876E-1,-1.4821696E-2,7.862224E-1,-0E0,2.0020635E0,1.8849611E-2,-0E0],"split_indices":[0,0,1,0,0,0,0],"split_type":[0,0,0,0,0,0,0],"sum_hessian":[3.9642056E3,7.72266E2,3.1919397E3,1.0143662E3,2.1775735E3,2.0155411E3,1.6203223E2],"tree_param":{"num_deleted":"0","num_feature":"3","num_nodes":"7","size_leaf_vector":"1"}},{"base_weights":[-7.0738025E-2,-3.0178238E-2,2.0267926E-3,-0E0,3.6641322E-2,-0E0,4.598046E-3],"categories":[],"categories_nodes":[],"categories_segments":[],"categories_sizes":[],"default_left":[0,0,0,0,0,0,0],"id":32,"left_children":[1,-1,3,-1,5,-1,-1],"loss_changes":[9.426133E1,0E0,1.9542092E0,0E0,9.891069E-1,0E0,0E0],"parents":[2147483647,0,0,2,2,4,4],"right_children":[2,-1,4,-1,6,-1,-1],"split_conditions":[-3.7861946E-1,-3.0178238E-2,-2.8762215E-1,-0E0,-2.8339216E-1,-0E0,4.598046E-3],"split_indices":[0,0,2,0,0,0,0],"split_type":[0,0,0,0,0,0,0],"sum_hessian":[3.8227896E3,1.24399E3,2.5787996E3,1.1163506E3,1.462449E3,6.6272705E1,1.3961763E3],"tree_param":{"num_deleted":"0","num_feature":"3","num_nodes":"7","size_leaf_vector":"1"}},{"base_weights":[-8.714663E-2,-2.3934996E-1,1.5994905E-2,-2.4982652E-2,-0E0,-0E0,5.9161235E-2,6.22181E-3,-0E0],"categories":[],"categories_nodes":[],"categories_segments":[],"categories_sizes":[],"default_left":[0,0,0,0,0,0,0,0,0],"id":33,"left_children":[1,3,5,-1,-1,-1,7,-1,-1],"loss_changes":[8.1841965E1,3.2308807E0,4.784082E0,0E0,0E0,0E0,4.6336317E-1,0E0,0E0],"parents":[2147483647,0,0,1,1,2,2,6,6],"right_children":[2,4,6,-1,-1,-1,8,-1,-1],"split_conditions":[9.751712E-2,1.9945796E0,-8.314168E-1,-2.4982652E-2,-0E0,-0E0,2.8591094E0,6.22181E-3,-0E0],"split_indices":[0,2,2,0,0,0,0,0,0],"split_type":[0,0,0,0,0,0,0,0,0],"sum_hessian":[3.7893418E3,1.9217239E3,1.8676178E3,1.8156113E3,1.0611263E2,3.651703E2,1.5024476E3,1.4780421E3,2.4405487E1],"tree_param":{"num_deleted":"0","num_feature":"3","num_nodes":"9","size_leaf_vector":"1"}},{"base_weights":[-1.4888462E-1,-3.69614E-1,-2.401153E-2,-3.739325E-2,-0E0,-9.4824985E-2,2.0931454E-2,-9.675422E-3,-0E0,3.842913E-3,-0E0],"categories":[],"categories_nodes":[],"categories_segments":[],"categories_sizes":[],"default_left":[0,0,0,0,0,0,0,0,0,0,0],"id":34,"left_children":[1,3,5,-1,-1,7,9,-1,-1,-1,-1],"loss_changes":[6.3753143E1,2.5903625E0,1.5920528E1,0E0,0E0,5.4891586E-1,7.730482E-1,0E0,0E0,0E0,0E0],"parents":[2147483647,0,0,1,1,2,2,5,5,6,6],"right_children":[2,4,6,-1,-1,8,10,-1,-1,-1,-1],"split_conditions":[-4.738468E-1,2.6151466E0,6.78481E-1,-3.739325E-2,-0E0,2.8591094E0,2.5734274E0,-9.675422E-3,-0E0,3.842913E-3,-0E0],"split_indices":[0,2,2,0,0,0,0,0,0,0,0],"split_type":[0,0,0,0,0,0,0,0,0,0,0],"sum_hessian":[3.7403916E3,1.0614204E3,2.6789712E3,1.0555483E3,5.872064E0,1.9035751E3,7.7539606E2,1.8870161E3,1.6558971E1,7.527979E2,2.259813E1],"tree_param":{"num_deleted":"0","num_feature":"3","num_nodes":"11","size_leaf_vector":"1"}},{"base_weights":[-2.3256123E-1,-2.6437983E-2,-0E0],"categories":[],"categories_nodes":[],"categories_segments":[],"categories_sizes":[],"default_left":[0,0,0],"id":35,"left_children":[1,-1,-1],"loss_changes":[3.3464798E1,0E0,0E0],"parents":[2147483647,0,0],"right_children":[2,-1,-1],"split_conditions":[1.7349756E0,-2.6437983E-2,-0E0],"split_indices":[2,0,0],"split_type":[0,0,0],"sum_hessian":[3.6509133E3,3.3035562E3,3.473573E2],"tree_param":{"num_deleted":"0","num_feature":"3","num_nodes":"3","size_leaf_vector":"1"}},{"base_weights":[-4.380926E-2,1.16721705E-1,-1.7284544E-1,1.9881196E-2,-0E0,-0E0,-2.0187857E-2],"categories":[],"categories_nodes":[],"categories_segments":[],"categories_sizes":[],"default_left":[0,0,0,0,0,0,0],"id":36,"left_children":[1,3,5,-1,-1,-1,-1],"loss_changes":[8.419054E1,1.9958405E1,1.6212524E1,0E0,0E0,0E0,0E0],"parents":[2147483647,0,0,1,1,2,2],"right_children":[2,4,6,-1,-1,-1,-1],"split_conditions":[7.862224E-1,4.5045364E-1,-1.0982522E0,1.9881196E-2,-0E0,-0E0,-2.0187857E-2],"split_indices":[1,2,2,0,0,0,0],"split_type":[0,0,0,0,0,0,0],"sum_hessian":[3.791452E3,1.3442367E3,2.4472153E3,9.6761975E2,3.7661697E2,2.5573846E2,2.1914768E3],"tree_param":{"num_deleted":"0","num_feature":"3","num_nodes":"7","size_leaf_vector":"1"}},{"base_weights":[5.3820055E-2,3.431229E-1,-7.388576E-2,3.5547897E-1,-0E0,-0E0,-1.2156367E-2,-0E0,3.5674755E-2],"categories":[],"categories_nodes":[],"categories_segments":[],"categories_sizes":[],"default_left":[0,0,0,0,0,0,0,0,0],"id":37,"left_children":[1,3,5,7,-1,-1,-1,-1,-1],"loss_changes":[1.7466576E2,4.341339E0,1.2869831E1,2.6097107E-1,0E0,0E0,0E0,0E0,0E0],"parents":[2147483647,0,0,1,1,2,2,3,3],"right_children":[2,4,6,8,-1,-1,-1,-1,-1],"split_conditions":[7.862224E-1,2.021938E0,-6.823312E-1,-1.3186866E0,-0E0,-0E0,-1.2156367E-2,-0E0,3.5674755E-2],"split_indices":[1,2,2,2,0,0,0,0,0],"split_type":[0,0,0,0,0,0,0,0,0],"sum_hessian":[3.9972158E3,1.4634044E3,2.5338113E3,1.3977268E3,6.567759E1,7.275216E2,1.8062898E3,7.879418E0,1.3898473E3],"tree_param":{"num_deleted":"0","num_feature":"3","num_nodes":"9","size_leaf_vector":"1"}},{"base_weights":[2.6815253E-1,5.0478405E-1,4.971101E-2,-0E0,5.1422603E-2,2.9422984E-1,-7.014399E-3,3.0041499E-2,-0E0,-0E0,-2.1996056E-3],"categories":[],"categories_nodes":[],"categories_segments":[],"categories_sizes":[],"default_left":[0,0,0,0,0,0,0,0,0,0,0],"id":38,"left_children":[1,3,5,-1,-1,7,9,-1,-1,-1,-1],"loss_changes":[1.6832245E2,6.227295E0,6.301378E1,0E0,0E0,3.2035828E-1,5.8125687E-1,0E0,0E0,0E0,0E0],"parents":[2147483647,0,0,1,1,2,2,5,5,6,6],"right_children":[2,4,6,-1,-1,8,10,-1,-1,-1,-1],"split_conditions":[-1.8816483E-1,-1.4261199E0,7.862224E-1,-0E0,5.1422603E-2,2.4782E0,9.751712E-2,3.0041499E-2,-0E0,-0E0,-2.1996056E-3],"split_indices":[0,0,1,0,0,0,0,0,0,0,0],"split_type":[0,0,0,0,0,0,0,0,0,0,0],"sum_hessian":[4.3285874E3,1.8574092E3,2.471178E3,4.406974E1,1.8133394E3,7.965002E2,1.6746779E3,7.675491E2,2.895109E1,3.0389838E2,1.3707795E3],"tree_param":{"num_deleted":"0","num_feature":"3","num_nodes":"11","size_leaf_vector":"1"}},{"base_weights":[1.7117472E-1,1.8369979E-1,-0E0,-0E0,1.8702446E-2],"categories":[],"categories_nodes":[],"categories_segments":[],"categories_sizes":[],"default_left":[0,0,0,0,0],"id":39,"left_children":[1,3,-1,-1,-1],"loss_changes":[6.700432E0,1.7736053E0,0E0,0E0,0E0],"parents":[2147483647,0,0,1,1],"right_children":[2,4,-1,-1,-1],"split_conditions":[1.8059629E0,-1.3003672E0,-0E0,-0E0,1.8702446E-2],"split_indices":[2,2,0,0,0],"split_type":[0,0,0,0,0],"sum_hessian":[4.189678E3,3.8362568E3,3.5342157E2,8.450772E1,3.751749E3],"tree_param":{"num_deleted":"0","num_feature":"3","num_nodes":"5","size_leaf_vector":"1"}},{"base_weights":[5.036943E-2,-4.51875E-2,1.5632015E-1,-1.4974622E-1,-0E0,1.7463899E-1,-0E0,-1.5497602E-2,-0E0,1.7753104E-2,-0E0],"categories":[],"categories_nodes":[],"categories_segments":[],"categories_sizes":[],"default_left":[0,0,0,0,0,0,0,0,0,0,0],"id":40,"left_children":[1,3,5,7,-1,9,-1,-1,-1,-1,-1],"loss_changes":[5.1503937E1,8.42094E0,4.937084E0,5.6463337E-1,0E0,1.5032616E0,0E0,0E0,0E0,0E0,0E0],"parents":[2147483647,0,0,1,1,2,2,3,3,5,5],"right_children":[2,4,6,8,-1,10,-1,-1,-1,-1,-1],"split_conditions":[-1.8816483E-1,-9.4998336E-1,1.8116088E0,2.333005E0,-0E0,2.575254E0,-0E0,-1.5497602E-2,-0E0,1.7753104E-2,-0E0],"split_indices":[0,0,0,2,0,2,0,0,0,0,0],"split_type":[0,0,0,0,0,0,0,0,0,0,0],"sum_hessian":[3.9877698E3,1.6007722E3,2.3869976E3,5.203901E2,1.0803822E3,2.074171E3,3.1282657E2,5.0930356E2,1.1086527E1,2.0548071E3,1.9363632E1],"tree_param":{"num_deleted":"0","num_feature":"3","num_nodes":"11","size_leaf_vector":"1"}},{"base_weights":[-4.6946015E-2,-2.8685695E-2,1.134216E-2,-0E0,7.913264E-2,8.175231E-3,-0E0],"categories":[],"categories_nodes":[],"categories_segments":[],"categories_sizes":[],"default_left":[0,0,0,0,0,0,0],"id":41,"left_children":[1,-1,3,-1,5,-1,-1],"loss_changes":[8.0769775E1,0E0,9.373773E0,0E0,4.3537903E-1,0E0,0E0],"parents":[2147483647,0,0,2,2,4,4],"right_children":[2,-1,4,-1,6,-1,-1],"split_conditions":[-4.738468E-1,-2.8685695E-2,-2.8762215E-1,-0E0,2.6686547E0,8.175231E-3,-0E0],"split_indices":[0,0,2,0,0,0,0],"split_type":[0,0,0,0,0,0,0],"sum_hessian":[3.804432E3,1.0782219E3,2.72621E3,1.1742472E3,1.5519628E3,1.5191744E3,3.2788372E1],"tree_param":{"num_deleted":"0","num_feature":"3","num_nodes":"7","size_leaf_vector":"1"}},{"base_weights":[-7.123625E-2,-2.2672962E-1,-0E0,-2.7655771E-2,-0E0,-3.8627428E-3,3.96744E-3],"categories":[],"categories_nodes":[],"categories_segments":[],"categories_sizes":[],"default_left":[0,0,0,0,0,0,0],"id":42,"left_children":[1,3,5,-1,-1,-1,-1],"loss_changes":[4.3566772E1,1.9203651E1,3.9049892E0,0E0,0E0,0E0,0E0],"parents":[2147483647,0,0,1,1,2,2],"right_children":[2,4,6,-1,-1,-1,-1],"split_conditions":[7.862224E-1,1.4738047E0,-1.609537E-1,-2.7655771E-2,-0E0,-3.8627428E-3,3.96744E-3],"split_indices":[1,2,2,0,0,0,0],"split_type":[0,0,0,0,0,0,0],"sum_hessian":[3.7578167E3,1.2175521E3,2.5402646E3,1.06909E3,1.4846219E2,1.1783467E3,1.3619178E3],"tree_param":{"num_deleted":"0","num_feature":"3","num_nodes":"7","size_leaf_vector":"1"}},{"base_weights":[-1.5592624E-1,-2.7455646E-1,-0E0,-2.9400095E-2,-0E0,-3.5449985E-2,-0E0,-0E0,-5.9013627E-3],"categories":[],"categories_nodes":[],"categories_segments":[],"categories_sizes":[],"default_left":[0,0,0,0,0,0,0,0,0],"id":43,"left_children":[1,3,5,-1,-1,7,-1,-1,-1],"loss_changes":[4.7364418E1,1.4956421E1,1.2644215E0,0E0,0E0,1.6520317E0,0E0,0E0,0E0],"parents":[2147483647,0,0,1,1,2,2,5,5],"right_children":[2,4,6,-1,-1,8,-1,-1,-1],"split_conditions":[9.751712E-2,2.2650306E0,1.3673528E-1,-2.9400095E-2,-0E0,2.8797176E-1,-0E0,-0E0,-5.9013627E-3],"split_indices":[0,2,2,0,0,0,0,0,0],"split_type":[0,0,0,0,0,0,0,0,0],"sum_hessian":[3.6869775E3,1.8168284E3,1.870149E3,1.7573602E3,5.9468086E1,1.0051431E3,8.65006E2,1.6870958E2,8.3643353E2],"tree_param":{"num_deleted":"0","num_feature":"3","num_nodes":"9","size_leaf_vector":"1"}},{"base_weights":[-2.2710465E-1,-2.72177E-2,-0E0],"categories":[],"categories_nodes":[],"categories_segments":[],"categories_sizes":[],"default_left":[0,0,0],"id":44,"left_children":[1,-1,-1],"loss_changes":[3.2788635E1,0E0,0E0],"parents":[2147483647,0,0],"right_children":[2,-1,-1],"split_conditions":[1.2296274E0,-2.72177E-2,-0E0],"split_indices":[2,0,0],"split_type":[0,0,0],"sum_hessian":[3.5688162E3,2.9270022E3,6.4181384E2],"tree_param":{"num_deleted":"0","num_feature":"3","num_nodes":"3","size_leaf_vector":"1"}},{"base_weights":[-3.3618957E-2,3.9838666E-1,-1.8844348E-1,4.4022378E-2,-0E0,-0E0,-2.5701237E-1,-0E0,-2.708065E-2],"categories":[],"categories_nodes":[],"categories_segments":[],"categories_sizes":[],"default_left":[0,0,0,0,0,0,0,0,0],"id":45,"left_children":[1,3,5,-1,-1,-1,7,-1,-1],"loss_changes":[2.3088115E2,4.6974487E0,2.380317E1,0E0,0E0,0E0,2.2149658E0,0E0,0E0],"parents":[2147483647,0,0,1,1,2,2,6,6],"right_children":[2,4,6,-1,-1,-1,8,-1,-1],"split_conditions":[-7.5952876E-1,-8.5475606E-1,7.862224E-1,4.4022378E-2,-0E0,-0E0,-5.690741E-1,-0E0,-2.708065E-2],"split_indices":[0,0,1,0,0,0,0,0,0],"split_type":[0,0,0,0,0,0,0,0,0],"sum_hessian":[3.7636729E3,8.2215497E2,2.9415178E3,6.973698E2,1.2478514E2,1.0002866E3,1.9412313E3,1.626214E2,1.7786099E3],"tree_param":{"num_deleted":"0","num_feature":"3","num_nodes":"9","size_leaf_vector":"1"}},{"base_weights":[5.0170343E-2,5.021788E-1,-4.4658404E-2,5.9443302E-2,-0E0,-0E0,-1.11346856E-1,-0E0,-1.3942189E-2],"categories":[],"categories_nodes":[],"categories_segments":[],"categories_sizes":[],"default_left":[0,0,0,0,0,0,0,0,0],"id":46,"left_children":[1,3,5,-1,-1,-1,7,-1,-1],"loss_changes":[2.169741E2,1.6499023E0,1.9601776E1,0E0,0E0,0E0,7.9555855E0,0E0,0E0],"parents":[2147483647,0,0,1,1,2,2,6,6],"right_children":[2,4,6,-1,-1,-1,8,-1,-1],"split_conditions":[-7.5952876E-1,-9.4998336E-1,-5.5554223E-1,5.9443302E-2,-0E0,-0E0,-3.7861946E-1,-0E0,-1.3942189E-2],"split_indices":[0,0,2,0,0,0,0,0,0],"split_type":[0,0,0,0,0,0,0,0,0],"sum_hessian":[3.9930754E3,8.7457654E2,3.118499E3,6.285613E2,2.4601523E2,1.0366656E3,2.0818333E3,3.4510278E2,1.7367305E3],"tree_param":{"num_deleted":"0","num_feature":"3","num_nodes":"9","size_leaf_vector":"1"}},{"base_weights":[2.4519072E-1,5.053963E-1,8.7791435E-2,-0E0,5.1470723E-2,1.5980496E-1,-0E0,1.6316343E-2,-0E0],"categories":[],"categories_nodes":[],"categories_segments":[],"categories_sizes":[],"default_left":[0,0,0,0,0,0,0,0,0],"id":47,"left_children":[1,3,5,-1,-1,7,-1,-1,-1],"loss_changes":[1.2232388E2,2.2589111E0,2.292371E1,0E0,0E0,9.357567E-1,0E0,0E0,0E0],"parents":[2147483647,0,0,1,1,2,2,5,5],"right_children":[2,4,6,-1,-1,8,-1,-1,-1],"split_conditions":[-4.738468E-1,-1.4261199E0,2.284524E-1,-0E0,5.1470723E-2,2.5734274E0,-0E0,1.6316343E-2,-0E0],"split_indices":[0,0,2,0,0,0,0,0,0],"split_type":[0,0,0,0,0,0,0,0,0],"sum_hessian":[4.435132E3,1.4313496E3,3.003782E3,4.2826195E1,1.3885234E3,1.8034973E3,1.2002847E3,1.7651259E3,3.8371483E1],"tree_param":{"num_deleted":"0","num_feature":"3","num_nodes":"9","size_leaf_vector":"1"}},{"base_weights":[1.527159E-1,-3.9068097E-4,1.9834472E-1,2.4954872E-2,-0E0],"categories":[],"categories_nodes":[],"categories_segments":[],"categories_sizes":[],"default_left":[0,0,0,0,0],"id":48,"left_children":[1,-1,3,-1,-1],"loss_changes":[4.9699234E1,0E0,1.7291763E1,0E0,0E0],"parents":[2147483647,0,0,2,2],"right_children":[2,-1,4,-1,-1],"split_conditions":[-1.0452107E0,-3.9068097E-4,7.6410836E-1,2.4954872E-2,-0E0],"split_indices":[0,0,0,0,0],"split_type":[0,0,0,0,0],"sum_hessian":[4.2324883E3,4.6063995E2,3.7718484E3,2.6600864E3,1.111762E3],"tree_param":{"num_deleted":"0","num_feature":"3","num_nodes":"5","size_leaf_vector":"1"}},{"base_weights":[4.22594E-2,-2.1149946E-2,1.08684905E-1,-5.7872203E-3,-0E0,1.2503798E-1,-0E0,-0E0,1.2926589E-2],"categories":[],"categories_nodes":[],"categories_segments":[],"categories_sizes":[],"default_left":[0,0,0,0,0,0,0,0,0],"id":49,"left_children":[1,3,5,-1,-1,7,-1,-1,-1],"loss_changes":[2.5574057E1,2.4902265E0,1.6923485E0,0E0,0E0,4.5994186E-1,0E0,0E0,0E0],"parents":[2147483647,0,0,1,1,2,2,5,5],"right_children":[2,4,6,-1,-1,8,-1,-1,-1],"split_conditions":[7.862224E-1,4.744375E-1,1.0453495E0,-5.7872203E-3,-0E0,-1.2531227E0,-0E0,-0E0,1.2926589E-2],"split_indices":[1,2,2,0,0,2,0,0,0],"split_type":[0,0,0,0,0,0,0,0,0],"sum_hessian":[3.9919424E3,1.2724785E3,2.7194639E3,9.1261725E2,3.5986127E2,2.1626501E3,5.5681366E2,1.1169384E2,2.0509563E3],"tree_param":{"num_deleted":"0","num_feature":"3","num_nodes":"9","size_leaf_vector":"1"}},{"base_weights":[-5.0178625E-2,-2.5820324E-2,-0E0,-0E0,4.6002608E-2,-0E0,5.6207348E-3],"categories":[],"categories_nodes":[],"categories_segments":[],"categories_sizes":[],"default_left":[0,0,0,0,0,0,0],"id":50,"left_children":[1,-1,3,-1,5,-1,-1],"loss_changes":[6.022504E1,0E0,3.2386796E0,0E0,1.155853E0,0E0,0E0],"parents":[2147483647,0,0,2,2,4,4],"right_children":[2,-1,4,-1,6,-1,-1],"split_conditions":[-4.738468E-1,-2.5820324E-2,-2.723159E-1,-0E0,-2.8339216E-1,-0E0,5.6207348E-3],"split_indices":[0,0,2,0,0,0,0],"split_type":[0,0,0,0,0,0,0],"sum_hessian":[3.7601843E3,1.0443943E3,2.71579E3,1.1863966E3,1.5293936E3,1.3939543E2,1.389998E3],"tree_param":{"num_deleted":"0","num_feature":"3","num_nodes":"7","size_leaf_vector":"1"}},{"base_weights":[-7.518962E-2,-2.2148097E-1,-0E0,-2.6276642E-2,-0E0],"categories":[],"categories_nodes":[],"categories_segments":[],"categories_sizes":[],"default_left":[0,0,0,0,0],"id":51,"left_children":[1,3,-1,-1,-1],"loss_changes":[3.701646E1,1.4456886E1,0E0,0E0,0E0],"parents":[2147483647,0,0,1,1],"right_children":[2,4,-1,-1,-1],"split_conditions":[7.862224E-1,1.4988732E0,-0E0,-2.6276642E-2,-0E0],"split_indices":[1,2,0,0,0],"split_type":[0,0,0,0,0],"sum_hessian":[3.733741E3,1.18404E3,2.549701E3,1.0502906E3,1.3374936E2],"tree_param":{"num_deleted":"0","num_feature":"3","num_nodes":"5","size_leaf_vector":"1"}},{"base_weights":[-1.5170117E-1,-3.231545E-2,-3.2200776E-2,-2.125947E-2,-0E0],"categories":[],"categories_nodes":[],"categories_segments":[],"categories_sizes":[],"default_left":[0,0,0,0,0],"id":52,"left_children":[1,-1,3,-1,-1],"loss_changes":[3.8267693E1,0E0,3.1448486E1,0E0,0E0],"parents":[2147483647,0,0,2,2],"right_children":[2,-1,4,-1,-1],"split_conditions":[-3.7861946E-1,-3.231545E-2,7.862224E-1,-2.125947E-2,-0E0],"split_indices":[0,0,1,0,0],"split_type":[0,0,0,0,0],"sum_hessian":[3.6016436E3,1.1348683E3,2.4667754E3,7.5143207E2,1.7153433E3],"tree_param":{"num_deleted":"0","num_feature":"3","num_nodes":"5","size_leaf_vector":"1"}},{"base_weights":[-2.0835088E-1,-3.0167872E-1,-0E0,-3.0939093E-2,-0E0],"categories":[],"categories_nodes":[],"categories_segments":[],"categories_sizes":[],"default_left":[0,0,0,0,0],"id":53,"left_children":[1,3,-1,-1,-1],"loss_changes":[7.2975876E1,4.596863E0,0E0,0E0,0E0],"parents":[2147483647,0,0,1,1],"right_children":[2,4,-1,-1,-1],"split_conditions":[6.68881E-1,2.2650306E0,-0E0,-3.0939093E-2,-0E0],"split_indices":[0,2,0,0,0],"split_type":[0,0,0,0,0],"sum_hessian":[3.5282244E3,2.484218E3,1.0440062E3,2.4098865E3,7.433161E1],"tree_param":{"num_deleted":"0","num_feature":"3","num_nodes":"5","size_leaf_vector":"1"}},{"base_weights":[-3.4624644E-2,3.6009648E-1,-1.8515389E-1,4.971004E-2,-0E0,-0E0,-2.6242736E-1,-0E0,-2.6995534E-2],"categories":[],"categories_nodes":[],"categories_segments":[],"categories_sizes":[],"default_left":[0,0,0,0,0,0,0,0,0],"id":54,"left_children":[1,3,5,-1,-1,-1,7,-1,-1],"loss_changes":[2.0529153E2,8.767517E0,3.1555092E1,0E0,0E0,0E0,2.3544617E0,0E0,0E0],"parents":[2147483647,0,0,1,1,2,2,6,6],"right_children":[2,4,6,-1,-1,-1,8,-1,-1],"split_conditions":[-7.5952876E-1,-1.0452107E0,7.862224E-1,4.971004E-2,-0E0,-0E0,-6.643014E-1,-0E0,-2.6995534E-2],"split_indices":[0,0,1,0,0,0,0,0,0],"split_type":[0,0,0,0,0,0,0,0,0],"sum_hessian":[3.747403E3,8.5077277E2,2.8966304E3,4.814452E2,3.6932755E2,9.970189E2,1.8996115E3,7.2215256E1,1.8273962E3],"tree_param":{"num_deleted":"0","num_feature":"3","num_nodes":"9","size_leaf_vector":"1"}},{"base_weights":[4.8277836E-2,3.183452E-1,-7.116052E-2,3.3752013E-2,-0E0,-0E0,-1.1596034E-2],"categories":[],"categories_nodes":[],"categories_segments":[],"categories_sizes":[],"default_left":[0,0,0,0,0,0,0],"id":55,"left_children":[1,3,5,-1,-1,-1,-1],"loss_changes":[1.5422585E2,8.034607E0,9.790786E0,0E0,0E0,0E0,0E0],"parents":[2147483647,0,0,1,1,2,2],"right_children":[2,4,6,-1,-1,-1,-1],"split_conditions":[7.862224E-1,1.8333213E0,-5.475878E-1,3.3752013E-2,-0E0,-0E0,-1.1596034E-2],"split_indices":[1,2,2,0,0,0,0],"split_type":[0,0,0,0,0,0,0],"sum_hessian":[4.0132332E3,1.4868461E3,2.526387E3,1.3931243E3,9.3721855E1,8.475066E2,1.6788805E3],"tree_param":{"num_deleted":"0","num_feature":"3","num_nodes":"7","size_leaf_vector":"1"}},{"base_weights":[2.3220159E-1,4.314605E-2,3.5309583E-2,1.1495924E-2,-0E0],"categories":[],"categories_nodes":[],"categories_segments":[],"categories_sizes":[],"default_left":[0,0,0,0,0],"id":56,"left_children":[1,-1,3,-1,-1],"loss_changes":[1.3002573E2,0E0,1.4472432E1,0E0,0E0],"parents":[2147483647,0,0,2,2],"right_children":[2,-1,4,-1,-1],"split_conditions":[-1.8816483E-1,4.314605E-2,6.6921934E-3,1.1495924E-2,-0E0],"split_indices":[0,0,2,0,0],"split_type":[0,0,0,0,0],"sum_hessian":[4.5033784E3,1.9852148E3,2.5181638E3,1.3317588E3,1.186405E3],"tree_param":{"num_deleted":"0","num_feature":"3","num_nodes":"5","size_leaf_vector":"1"}},{"base_weights":[1.5190497E-1,1.647887E-2,-0E0],"categories":[],"categories_nodes":[],"categories_segments":[],"categories_sizes":[],"default_left":[0,0,0],"id":57,"left_children":[1,-1,-1],"loss_changes":[7.203453E0,0E0,0E0],"parents":[2147483647,0,0],"right_children":[2,-1,-1],"split_conditions":[1.7795687E0,1.647887E-2,-0E0],"split_indices":[2,0,0],"split_type":[0,0,0],"sum_hessian":[4.271295E3,3.8946343E3,3.7666077E2],"tree_param":{"num_deleted":"0","num_feature":"3","num_nodes":"3","size_leaf_vector":"1"}},{"base_weights":[4.0765584E-2,-8.331725E-3,9.9782236E-2,-6.3683325E-3,-0E0,1.1002471E-1,-0E0,-0E0,1.1611833E-2],"categories":[],"categories_nodes":[],"categories_segments":[],"categories_sizes":[],"default_left":[0,0,0,0,0,0,0,0,0],"id":58,"left_children":[1,3,5,-1,-1,7,-1,-1,-1],"loss_changes":[2.0782879E1,3.4868524E0,3.726694E0,0E0,0E0,1.9238625E0,0E0,0E0,0E0],"parents":[2147483647,0,0,1,1,2,2,5,5],"right_children":[2,4,6,-1,-1,8,-1,-1,-1],"split_conditions":[7.862224E-1,3.900722E-1,1.9945796E0,-6.3683325E-3,-0E0,-1.2531227E0,-0E0,-0E0,1.1611833E-2],"split_indices":[1,2,2,0,0,2,0,0,0],"split_type":[0,0,0,0,0,0,0,0,0],"sum_hessian":[4.0151377E3,1.26728E3,2.7478577E3,8.804784E2,3.8680164E2,2.5677363E3,1.8012138E2,1.1984502E2,2.4478914E3],"tree_param":{"num_deleted":"0","num_feature":"3","num_nodes":"9","size_leaf_vector":"1"}},{"base_weights":[-4.7087178E-2,-2.5584383E-2,8.230027E-3,-0E0,3.638906E-2,4.1811815E-3,-0E0],"categories":[],"categories_nodes":[],"categories_segments":[],"categories_sizes":[],"default_left":[0,0,0,0,0,0,0],"id":59,"left_children":[1,-1,3,-1,5,-1,-1],"loss_changes":[6.800107E1,0E0,1.9404359E0,0E0,5.264962E-1,0E0,0E0],"parents":[2147483647,0,0,2,2,4,4],"right_children":[2,-1,4,-1,6,-1,-1],"split_conditions":[-3.7861946E-1,-2.5584383E-2,-4.112776E-1,-0E0,2.2650306E0,4.1811815E-3,-0E0],"split_indices":[0,0,2,0,2,0,0],"split_type":[0,0,0,0,0,0,0],"sum_hessian":[3.743216E3,1.1620375E3,2.5811785E3,9.8469055E2,1.596488E3,1.5101484E3,8.6339554E1],"tree_param":{"num_deleted":"0","num_feature":"3","num_nodes":"7","size_leaf_vector":"1"}},{"base_weights":[-7.5769715E-2,-3.0545065E-2,-0E0,-0E0,3.3892862E-2,-0E0,4.439076E-3],"categories":[],"categories_nodes":[],"categories_segments":[],"categories_sizes":[],"default_left":[0,0,0,0,0,0,0],"id":60,"left_children":[1,-1,3,-1,5,-1,-1],"loss_changes":[7.9389145E1,0E0,1.589398E0,0E0,7.876581E-1,0E0,0E0],"parents":[2147483647,0,0,2,2,4,4],"right_children":[2,-1,4,-1,6,-1,-1],"split_conditions":[-4.738468E-1,-3.0545065E-2,-1.19735226E-1,-0E0,-1.8816483E-1,-0E0,4.439076E-3],"split_indices":[0,0,2,0,0,0,0],"split_type":[0,0,0,0,0,0,0],"sum_hessian":[3.7119443E3,1.0783701E3,2.6335742E3,1.2509564E3,1.3826179E3,1.7732089E2,1.205297E3],"tree_param":{"num_deleted":"0","num_feature":"3","num_nodes":"7","size_leaf_vector":"1"}},{"base_weights":[-1.6128811E-1,-3.1751305E-2,-3.8146853E-2,-1.7560985E-2,-0E0],"categories":[],"categories_nodes":[],"categories_segments":[],"categories_sizes":[],"default_left":[0,0,0,0,0],"id":61,"left_children":[1,-1,3,-1,-1],"loss_changes":[3.3054657E1,0E0,1.850069E1,0E0,0E0],"parents":[2147483647,0,0,2,2],"right_children":[2,-1,4,-1,-1],"split_conditions":[-2.8339216E-1,-3.1751305E-2,7.862224E-1,-1.7560985E-2,-0E0],"split_indices":[0,0,1,0,0],"split_type":[0,0,0,0,0],"sum_hessian":[3.566611E3,1.2134705E3,2.3531406E3,7.099999E2,1.6431409E3],"tree_param":{"num_deleted":"0","num_feature":"3","num_nodes":"5","size_leaf_vector":"1"}},{"base_weights":[-2.0583303E-1,-2.4781922E-2,-0E0],"categories":[],"categories_nodes":[],"categories_segments":[],"categories_sizes":[],"default_left":[0,0,0],"id":62,"left_children":[1,-1,-1],"loss_changes":[2.6407074E1,0E0,0E0],"parents":[2147483647,0,0],"right_children":[2,-1,-1],"split_conditions":[1.2296274E0,-2.4781922E-2,-0E0],"split_indices":[2,0,0],"split_type":[0,0,0],"sum_hessian":[3.406557E3,2.7797156E3,6.268414E2],"tree_param":{"num_deleted":"0","num_feature":"3","num_nodes":"3","size_leaf_vector":"1"}},{"base_weights":[-2.6448883E-2,1.0223541E-1,-1.4370392E-1,1.5837591E-2,-0E0,-0E0,-1.8679643E-2],"categories":[],"categories_nodes":[],"categories_segments":[],"categories_sizes":[],"default_left":[0,0,0,0,0,0,0],"id":63,"left_children":[1,3,5,-1,-1,-1,-1],"loss_changes":[5.9332172E1,1.0714847E1,1.7244347E1,0E0,0E0,0E0,0E0],"parents":[2147483647,0,0,1,1,2,2],"right_children":[2,4,6,-1,-1,-1,-1],"split_conditions":[7.862224E-1,4.8853856E-1,-8.8854414E-1,1.5837591E-2,-0E0,-0E0,-1.8679643E-2],"split_indices":[1,2,2,0,0,0,0],"split_type":[0,0,0,0,0,0,0],"sum_hessian":[3.6553765E3,1.3362089E3,2.3191675E3,9.83393E2,3.528159E2,4.5280515E2,1.8663624E3],"tree_param":{"num_deleted":"0","num_feature":"3","num_nodes":"7","size_leaf_vector":"1"}},{"base_weights":[3.7785485E-2,4.1801848E-2,-6.0173225E-2,1.4087207E-2,-2.265966E-1,-2.3436455E-2,-0E0],"categories":[],"categories_nodes":[],"categories_segments":[],"categories_sizes":[],"default_left":[0,0,0,0,0,0,0],"id":64,"left_children":[1,-1,3,-1,5,-1,-1],"loss_changes":[1.8452567E2,0E0,1.0786025E2,0E0,4.134041E0,0E0,0E0],"parents":[2147483647,0,0,2,2,4,4],"right_children":[2,-1,4,-1,6,-1,-1],"split_conditions":[-6.643014E-1,4.1801848E-2,7.862224E-1,1.4087207E-2,2.4782E0,-2.3436455E-2,-0E0],"split_indices":[0,0,1,0,0,0,0],"split_type":[0,0,0,0,0,0,0],"sum_hessian":[3.991683E3,1.0261577E3,2.9655254E3,1.0709983E3,1.8945272E3,1.8462205E3,4.8306725E1],"tree_param":{"num_deleted":"0","num_feature":"3","num_nodes":"7","size_leaf_vector":"1"}},{"base_weights":[2.1910153E-1,3.6042115E-1,2.0119702E-2,-0E0,3.6441464E-2,8.5161375E-3,-0E0],"categories":[],"categories_nodes":[],"categories_segments":[],"categories_sizes":[],"default_left":[0,0,0,0,0,0,0],"id":65,"left_children":[1,3,5,-1,-1,-1,-1],"loss_changes":[9.1286194E1,9.6759033E-1,8.345355E0,0E0,0E0,0E0,0E0],"parents":[2147483647,0,0,1,1,2,2],"right_children":[2,4,6,-1,-1,-1,-1],"split_conditions":[2.289801E-3,-1.4261199E0,1.5830868E-1,-0E0,3.6441464E-2,8.5161375E-3,-0E0],"split_indices":[0,0,2,0,0,0,0],"split_type":[0,0,0,0,0,0,0],"sum_hessian":[4.5988345E3,2.3947092E3,2.204125E3,4.493342E1,2.349776E3,1.2727739E3,9.313511E2],"tree_param":{"num_deleted":"0","num_feature":"3","num_nodes":"7","size_leaf_vector":"1"}},{"base_weights":[1.4660706E-1,-0E0,1.9508265E-1,2.0848548E-1,-0E0,2.1874135E-2,-0E0],"categories":[],"categories_nodes":[],"categories_segments":[],"categories_sizes":[],"default_left":[0,0,0,0,0,0,0],"id":66,"left_children":[1,-1,3,5,-1,-1,-1],"loss_changes":[5.0369637E1,0E0,1.1189819E1,4.9327087E-1,0E0,0E0,0E0],"parents":[2147483647,0,0,2,2,3,3],"right_children":[2,-1,4,6,-1,-1,-1],"split_conditions":[-9.4998336E-1,-0E0,2.0972908E0,1.7349756E0,-0E0,2.1874135E-2,-0E0],"split_indices":[0,0,0,2,0,0,0],"split_type":[0,0,0,0,0,0,0],"sum_hessian":[4.349915E3,5.701204E2,3.7797947E3,3.5667476E3,2.1304707E2,3.2503457E3,3.1640195E2],"tree_param":{"num_deleted":"0","num_feature":"3","num_nodes":"7","size_leaf_vector":"1"}},{"base_weights":[4.583612E-2,-1.2338033E-1,1.2533396E-1,-1.66936E-2,-0E0,-0E0,1.6192366E-1,1.7281625E-2,-0E0],"categories":[],"categories_nodes":[],"categories_segments":[],"categories_sizes":[],"default_left":[0,0,0,0,0,0,0,0,0],"id":67,"left_children":[1,3,5,-1,-1,-1,7,-1,-1],"loss_changes":[5.4331043E1,1.0707111E0,8.529095E0,0E0,0E0,0E0,3.1449928E0,0E0,0E0],"parents":[2147483647,0,0,1,1,2,2,6,6],"right_children":[2,4,6,-1,-1,-1,8,-1,-1],"split_conditions":[-6.643014E-1,-9.4998336E-1,7.862224E-1,-1.66936E-2,-0E0,-0E0,2.0020635E0,1.7281625E-2,-0E0],"split_indices":[0,0,1,0,0,0,0,0,0],"split_type":[0,0,0,0,0,0,0,0,0],"sum_hessian":[4.0221064E3,8.833626E2,3.1387437E3,5.205048E2,3.6285776E2,9.3334814E2,2.2053955E3,2.0413285E3,1.6406705E2],"tree_param":{"num_deleted":"0","num_feature":"3","num_nodes":"9","size_leaf_vector":"1"}},{"base_weights":[-4.8039846E-2,-2.3115024E-2,2.9799282E-3,-0E0,5.522081E-3],"categories":[],"categories_nodes":[],"categories_segments":[],"categories_sizes":[],"default_left":[0,0,0,0,0],"id":68,"left_children":[1,-1,3,-1,-1],"loss_changes":[5.770325E1,0E0,5.3177195E0,0E0,0E0],"parents":[2147483647,0,0,2,2],"right_children":[2,-1,4,-1,-1],"split_conditions":[-2.8339216E-1,-2.3115024E-2,7.862224E-1,-0E0,5.522081E-3],"split_indices":[0,0,1,0,0],"split_type":[0,0,0,0,0],"sum_hessian":[3.7331672E3,1.2398453E3,2.4933218E3,7.431651E2,1.7501566E3],"tree_param":{"num_deleted":"0","num_feature":"3","num_nodes":"5","size_leaf_vector":"1"}},{"base_weights":[-8.8370435E-2,-2.7307069E-2,-0E0,-2.827269E-4,4.3679282E-2,-0E0,5.8568707E-3],"categories":[],"categories_nodes":[],"categories_segments":[],"categories_sizes":[],"default_left":[0,0,0,0,0,0,0],"id":69,"left_children":[1,-1,3,-1,5,-1,-1],"loss_changes":[7.015701E1,0E0,1.7992479E0,0E0,1.2897724E0,0E0,0E0],"parents":[2147483647,0,0,2,2,4,4],"right_children":[2,-1,4,-1,6,-1,-1],"split_conditions":[-2.8339216E-1,-2.7307069E-2,3.0353752E-1,-2.827269E-4,-1.8816483E-1,-0E0,5.8568707E-3],"split_indices":[0,0,2,0,0,0,0],"split_type":[0,0,0,0,0,0,0],"sum_hessian":[3.6796187E3,1.3253157E3,2.3543027E3,1.4181874E3,9.361155E2,3.9910454E1,8.96205E2],"tree_param":{"num_deleted":"0","num_feature":"3","num_nodes":"7","size_leaf_vector":"1"}},{"base_weights":[-1.430078E-1,-2.0744627E-2,-0E0],"categories":[],"categories_nodes":[],"categories_segments":[],"categories_sizes":[],"default_left":[0,0,0],"id":70,"left_children":[1,-1,-1],"loss_changes":[2.6035667E1,0E0,0E0],"parents":[2147483647,0,0],"right_children":[2,-1,-1],"split_conditions":[4.004371E-1,-2.0744627E-2,-0E0],"split_indices":[2,0,0],"split_type":[0,0,0],"sum_hessian":[3.5113386E3,2.2731887E3,1.2381499E3],"tree_param":{"num_deleted":"0","num_feature":"3","num_nodes":"3","size_leaf_vector":"1"}},{"base_weights":[-2.1335433E-1,-3.3405486E-2,-0E0,-8.113393E-2,-0E0,-8.525132E-3,-0E0],"categories":[],"categories_nodes":[],"categories_segments":[],"categories_sizes":[],"default_left":[0,0,0,0,0,0,0],"id":71,"left_children":[1,-1,3,5,-1,-1,-1],"loss_changes":[7.3871155E1,0E0,2.6038048E0,2.1819401E-1,0E0,0E0,0E0],"parents":[2147483647,0,0,2,2,3,3],"right_children":[2,-1,4,6,-1,-1,-1],"split_conditions":[3.8319907E-1,-3.3405486E-2,7.862224E-1,2.8591094E0,-0E0,-8.525132E-3,-0E0],"split_indices":[0,0,1,0,0,0,0],"split_type":[0,0,0,0,0,0,0],"sum_hessian":[3.3895933E3,2.044038E3,1.3455553E3,3.9455182E2,9.510035E2,3.8728864E2,7.263175E0],"tree_param":{"num_deleted":"0","num_feature":"3","num_nodes":"7","size_leaf_vector":"1"}},{"base_weights":[-1.5915196E-2,2.925875E-1,-1.8986279E-1,3.9675027E-1,-0E0,-0E0,-2.153534E-1,3.9813045E-2,-0E0,-2.1738147E-2,-0E0],"categories":[],"categories_nodes":[],"categories_segments":[],"categories_sizes":[],"default_left":[0,0,0,0,0,0,0,0,0,0,0],"id":72,"left_children":[1,3,5,7,-1,-1,9,-1,-1,-1,-1],"loss_changes":[1.8667197E2,2.1377495E1,1.4053734E1,3.8298798E-1,0E0,0E0,1.7602615E0,0E0,0E0,0E0,0E0],"parents":[2147483647,0,0,1,1,2,2,3,3,6,6],"right_children":[2,4,6,8,-1,-1,10,-1,-1,-1,-1],"split_conditions":[-5.690741E-1,-8.5475606E-1,-1.116933E0,2.6151466E0,-0E0,-0E0,3.2400186E0,3.9813045E-2,-0E0,-2.1738147E-2,-0E0],"split_indices":[0,0,2,2,0,0,0,0,0,0,0],"split_type":[0,0,0,0,0,0,0,0,0,0,0],"sum_hessian":[3.6679673E3,1.1149656E3,2.5530017E3,7.417219E2,3.7324365E2,2.6580118E2,2.2872007E3,7.389975E2,2.7244296E0,2.2819548E3,5.245878E0],"tree_param":{"num_deleted":"0","num_feature":"3","num_nodes":"11","size_leaf_vector":"1"}},{"base_weights":[4.0491737E-2,3.8789045E-2,-5.2551355E-2,-0E0,-1.1549276E-1,-1.2493665E-2,-0E0],"categories":[],"categories_nodes":[],"categories_segments":[],"categories_sizes":[],"default_left":[0,0,0,0,0,0,0],"id":73,"left_children":[1,-1,3,-1,5,-1,-1],"loss_changes":[1.6402182E2,0E0,1.7646229E1,0E0,3.3407059E0,0E0,0E0],"parents":[2147483647,0,0,2,2,4,4],"right_children":[2,-1,4,-1,6,-1,-1],"split_conditions":[-6.643014E-1,3.8789045E-2,-5.303532E-1,-0E0,2.3829727E0,-1.2493665E-2,-0E0],"split_indices":[0,0,2,0,0,0,0],"split_type":[0,0,0,0,0,0,0],"sum_hessian":[4.035361E3,1.0788431E3,2.956518E3,1.02224097E3,1.9342771E3,1.8667836E3,6.749348E1],"tree_param":{"num_deleted":"0","num_feature":"3","num_nodes":"7","size_leaf_vector":"1"}},{"base_weights":[2.0198782E-1,2.9268068E-1,-0E0,2.9933056E-2,-0E0,5.4985494E-3,-0E0],"categories":[],"categories_nodes":[],"categories_segments":[],"categories_sizes":[],"default_left":[0,0,0,0,0,0,0],"id":74,"left_children":[1,3,5,-1,-1,-1,-1],"loss_changes":[7.0124725E1,3.7373962E0,2.82601E0,0E0,0E0,0E0,0E0],"parents":[2147483647,0,0,1,1,2,2],"right_children":[2,4,6,-1,-1,-1,-1],"split_conditions":[3.8319907E-1,2.2351413E0,2.284524E-1,2.9933056E-2,-0E0,5.4985494E-3,-0E0],"split_indices":[0,2,2,0,0,0,0],"split_type":[0,0,0,0,0,0,0],"sum_hessian":[4.6749478E3,3.044682E3,1.6302662E3,2.9525723E3,9.210955E1,9.337112E2,6.96555E2],"tree_param":{"num_deleted":"0","num_feature":"3","num_nodes":"7","size_leaf_vector":"1"}},{"base_weights":[1.3420211E-1,-3.6326477E-3,1.8131056E-1,-2.2578493E-3,-0E0,2.2826258E-2,-0E0],"categories":[],"categories_nodes":[],"categories_segments":[],"categories_sizes":[],"default_left":[0,0,0,0,0,0,0],"id":75,"left_children":[1,3,5,-1,-1,-1,-1],"loss_changes":[4.6228355E1,2.2530836E-1,1.3746025E1,0E0,0E0,0E0,0E0],"parents":[2147483647,0,0,1,1,2,2],"right_children":[2,4,6,-1,-1,-1,-1],"split_conditions":[-9.4998336E-1,-1.0452107E0,7.6410836E-1,-2.2578493E-3,-0E0,2.2826258E-2,-0E0],"split_indices":[0,0,0,0,0,0,0],"split_type":[0,0,0,0,0,0,0],"sum_hessian":[4.3820435E3,5.757161E2,3.8063274E3,4.558931E2,1.1982304E2,2.664953E3,1.1413745E3],"tree_param":{"num_deleted":"0","num_feature":"3","num_nodes":"7","size_leaf_vector":"1"}},{"base_weights":[1.7814789E-2,-2.5728047E-2,7.3382586E-2,-8.119042E-3,-0E0,8.041844E-2,-0E0,-0E0,8.444109E-3],"categories":[],"categories_nodes":[],"categories_segments":[],"categories_sizes":[],"default_left":[0,0,0,0,0,0,0,0,0],"id":76,"left_children":[1,3,5,-1,-1,7,-1,-1,-1],"loss_changes":[1.4566438E1,4.8872104E0,2.1261969E0,0E0,0E0,9.043045E-1,0E0,0E0,0E0],"parents":[2147483647,0,0,1,1,2,2,5,5],"right_children":[2,4,6,-1,-1,8,-1,-1,-1],"split_conditions":[7.862224E-1,3.900722E-1,2.1198018E0,-8.119042E-3,-0E0,-1.2531227E0,-0E0,-0E0,8.444109E-3],"split_indices":[1,2,2,0,0,2,0,0,0],"split_type":[0,0,0,0,0,0,0,0,0],"sum_hessian":[4.0489172E3,1.2614111E3,2.787506E3,8.671647E2,3.9424646E2,2.6496853E3,1.3782082E2,1.1970839E2,2.5299768E3],"tree_param":{"num_deleted":"0","num_feature":"3","num_nodes":"9","size_leaf_vector":"1"}},{"base_weights":[-4.1177403E-2,-2.4730904E-2,6.544229E-3,-0E0,4.6007115E-2,-0E0,5.8237254E-3],"categories":[],"categories_nodes":[],"categories_segments":[],"categories_sizes":[],"default_left":[0,0,0,0,0,0,0],"id":77,"left_children":[1,-1,3,-1,5,-1,-1],"loss_changes":[6.056001E1,0E0,3.1040893E0,0E0,1.555043E0,0E0,0E0],"parents":[2147483647,0,0,2,2,4,4],"right_children":[2,-1,4,-1,6,-1,-1],"split_conditions":[-3.7861946E-1,-2.4730904E-2,3.8319907E-1,-0E0,-1.1364576E0,-0E0,5.8237254E-3],"split_indices":[0,0,0,0,2,0,0],"split_type":[0,0,0,0,0,0,0],"sum_hessian":[3.7076648E3,1.0901425E3,2.6175222E3,1.0990337E3,1.5184885E3,1.126873E2,1.4058013E3],"tree_param":{"num_deleted":"0","num_feature":"3","num_nodes":"7","size_leaf_vector":"1"}},{"base_weights":[-8.155405E-2,-2.376136E-2,-0E0,-0E0,1.7915174E-2,-0E0,3.7642417E-3],"categories":[],"categories_nodes":[],"categories_segments":[],"categories_sizes":[],"default_left":[0,0,0,0,0,0,0],"id":78,"left_children":[1,-1,3,-1,5,-1,-1],"loss_changes":[5.5342133E1,0E0,5.061018E-1,0E0,1.2008488E0,0E0,0E0],"parents":[2147483647,0,0,2,2,4,4],"right_children":[2,-1,4,-1,6,-1,-1],"split_conditions":[-1.8816483E-1,-2.376136E-2,7.862224E-1,-0E0,1.9274443E-1,-0E0,3.7642417E-3],"split_indices":[0,0,1,0,0,0,0],"split_type":[0,0,0,0,0,0,0],"sum_hessian":[3.6308115E3,1.4070275E3,2.223784E3,6.479144E2,1.5758696E3,3.7220563E2,1.203664E3],"tree_param":{"num_deleted":"0","num_feature":"3","num_nodes":"7","size_leaf_vector":"1"}},{"base_weights":[-1.5255213E-1,-2.2243263E-2,-0E0,-7.2617926E-2,-0E0,-0E0,-8.352293E-3],"categories":[],"categories_nodes":[],"categories_segments":[],"categories_sizes":[],"default_left":[0,0,0,0,0,0,0],"id":79,"left_children":[1,-1,3,5,-1,-1,-1],"loss_changes":[2.6156387E1,0E0,2.0288432E0,3.807268E-1,0E0,0E0,0E0],"parents":[2147483647,0,0,2,2,3,3],"right_children":[2,-1,4,6,-1,-1,-1],"split_conditions":[4.784264E-1,-2.2243263E-2,7.862224E-1,5.736537E-1,-0E0,-0E0,-8.352293E-3],"split_indices":[0,0,1,0,0,0,0],"split_type":[0,0,0,0,0,0,0],"sum_hessian":[3.4894873E3,2.1694856E3,1.3200018E3,3.8373413E2,9.362677E2,3.9329475E1,3.4440466E2],"tree_param":{"num_deleted":"0","num_feature":"3","num_nodes":"7","size_leaf_vector":"1"}},{"base_weights":[-1.8045439E-1,-3.1563807E-1,-0E0,-3.2774013E-2,-0E0,-2.356749E-3,8.2879685E-2,1.0114151E-2,-0E0],"categories":[],"categories_nodes":[],"categories_segments":[],"categories_sizes":[],"default_left":[0,0,0,0,0,0,0,0,0],"id":80,"left_children":[1,3,5,-1,-1,-1,7,-1,-1],"loss_changes":[9.092667E1,3.11615E0,4.57064E0,0E0,0E0,0E0,1.4841509E0,0E0,0E0],"parents":[2147483647,0,0,1,1,2,2,6,6],"right_children":[2,4,6,-1,-1,-1,8,-1,-1],"split_conditions":[3.8319907E-1,1.9945796E0,1.5830868E-1,-3.2774013E-2,-0E0,-2.356749E-3,2.2877455E0,1.0114151E-2,-0E0],"split_indices":[0,2,2,0,0,0,0,0,0],"split_type":[0,0,0,0,0,0,0,0,0],"sum_hessian":[3.2832395E3,1.9851396E3,1.2980997E3,1.8701791E3,1.14960556E2,6.8953937E2,6.085604E2,5.533955E2,5.51649E1],"tree_param":{"num_deleted":"0","num_feature":"3","num_nodes":"9","size_leaf_vector":"1"}},{"base_weights":[-2.9337022E-2,3.4128937E-1,-1.8157476E-1,4.700061E-2,-0E0,-0E0,-2.1488513E-1,-0E0,-2.3324693E-2],"categories":[],"categories_nodes":[],"categories_segments":[],"categories_sizes":[],"default_left":[0,0,0,0,0,0,0,0,0],"id":81,"left_children":[1,3,5,-1,-1,-1,7,-1,-1],"loss_changes":[1.9082541E2,9.711395E0,1.5206902E1,0E0,0E0,0E0,8.040718E0,0E0,0E0],"parents":[2147483647,0,0,1,1,2,2,6,6],"right_children":[2,4,6,-1,-1,-1,8,-1,-1],"split_conditions":[-7.5952876E-1,-1.0452107E0,-9.6965533E-1,4.700061E-2,-0E0,-0E0,-5.690741E-1,-0E0,-2.3324693E-2],"split_indices":[0,0,2,0,0,0,0,0,0],"split_type":[0,0,0,0,0,0,0,0,0],"sum_hessian":[3.662997E3,8.749067E2,2.7880903E3,5.0480695E2,3.7009973E2,4.6835223E2,2.319738E3,2.0321045E2,2.1165276E3],"tree_param":{"num_deleted":"0","num_feature":"3","num_nodes":"9","size_leaf_vector":"1"}},{"base_weights":[2.8996589E-2,2.7759502E-2,-8.499871E-2,1.586667E-1,-2.215022E-1,3.2633122E-2,-0E0,-2.3163212E-2,-0E0],"categories":[],"categories_nodes":[],"categories_segments":[],"categories_sizes":[],"default_left":[0,0,0,0,0,0,0,0,0],"id":82,"left_children":[1,-1,3,5,7,-1,-1,-1,-1],"loss_changes":[1.3401982E2,0E0,8.9498795E1,1.0089059E1,5.321968E0,0E0,0E0,0E0,0E0],"parents":[2147483647,0,0,2,2,3,3,4,4],"right_children":[2,-1,4,6,8,-1,-1,-1,-1],"split_conditions":[7.862224E-1,2.7759502E-2,-6.643014E-1,-1.140438E0,2.3829727E0,3.2633122E-2,-0E0,-2.3163212E-2,-0E0],"split_indices":[1,0,0,0,0,0,0,0,0],"split_type":[0,0,0,0,0,0,0,0,0],"sum_hessian":[4.0477092E3,1.5478928E3,2.4998164E3,6.3448505E2,1.8653314E3,2.4397102E2,3.90514E2,1.8048525E3,6.047892E1],"tree_param":{"num_deleted":"0","num_feature":"3","num_nodes":"9","size_leaf_vector":"1"}},{"base_weights":[1.8563268E-1,3.7149146E-1,5.5410706E-2,-0E0,3.8001962E-2,2.7678961E-2,-7.167711E-3,-0E0,-2.7349722E-3],"categories":[],"categories_nodes":[],"categories_segments":[],"categories_sizes":[],"default_left":[0,0,0,0,0,0,0,0,0],"id":83,"left_children":[1,3,5,-1,-1,-1,7,-1,-1],"loss_changes":[7.205975E1,3.7232513E0,6.999196E1,0E0,0E0,0E0,1.0173118E0,0E0,0E0],"parents":[2147483647,0,0,1,1,2,2,6,6],"right_children":[2,4,6,-1,-1,-1,8,-1,-1],"split_conditions":[-4.738468E-1,-1.4261199E0,7.862224E-1,-0E0,3.8001962E-2,2.7678961E-2,2.289801E-3,-0E0,-2.7349722E-3],"split_indices":[0,0,1,0,0,0,0,0,0],"split_type":[0,0,0,0,0,0,0,0,0],"sum_hessian":[4.7410166E3,1.6361111E3,3.1049055E3,4.6871628E1,1.5892395E3,1.0356693E3,2.0692363E3,5.680151E2,1.5012212E3],"tree_param":{"num_deleted":"0","num_feature":"3","num_nodes":"9","size_leaf_vector":"1"}},{"base_weights":[1.2288063E-1,-0E0,1.6130581E-1,2.0770155E-1,-0E0,-0E0,2.130396E-2],"categories":[],"categories_nodes":[],"categories_segments":[],"categories_sizes":[],"default_left":[0,0,0,0,0,0,0],"id":84,"left_children":[1,-1,3,5,-1,-1,-1],"loss_changes":[3.6461906E1,0E0,1.3334358E1,9.792099E-1,0E0,0E0,0E0],"parents":[2147483647,0,0,2,2,3,3],"right_children":[2,-1,4,6,-1,-1,-1],"split_conditions":[-1.0452107E0,-0E0,6.68881E-1,-9.4998336E-1,-0E0,-0E0,2.130396E-2],"split_indices":[0,0,0,0,0,0,0],"split_type":[0,0,0,0,0,0,0],"sum_hessian":[4.438357E3,4.617873E2,3.9765698E3,2.7071409E3,1.2694291E3,1.1243798E2,2.594703E3],"tree_param":{"num_deleted":"0","num_feature":"3","num_nodes":"7","size_leaf_vector":"1"}},{"base_weights":[2.7703788E-2,-1.8384948E-2,8.348593E-2,-5.7564834E-3,-0E0,9.323263E-2,-0E0,-0E0,9.520567E-3],"categories":[],"categories_nodes":[],"categories_segments":[],"categories_sizes":[],"default_left":[0,0,0,0,0,0,0,0,0],"id":85,"left_children":[1,3,5,-1,-1,7,-1,-1,-1],"loss_changes":[1.7019213E1,2.5254066E0,3.6447067E0,0E0,0E0,6.312599E-1,0E0,0E0,0E0],"parents":[2147483647,0,0,1,1,2,2,5,5],"right_children":[2,4,6,-1,-1,8,-1,-1,-1],"split_conditions":[7.862224E-1,4.5045364E-1,2.1198018E0,-5.7564834E-3,-0E0,-1.306996E0,-0E0,-0E0,9.520567E-3],"split_indices":[1,2,2,0,0,2,0,0,0],"split_type":[0,0,0,0,0,0,0,0,0],"sum_hessian":[4.0860757E3,1.2561731E3,2.8299026E3,8.8934326E2,3.6682983E2,2.6882488E3,1.4165392E2,4.066486E1,2.6475837E3],"tree_param":{"num_deleted":"0","num_feature":"3","num_nodes":"9","size_leaf_vector":"1"}},{"base_weights":[-5.369969E-2,-2.2687605E-1,-0E0,-2.3010584E-2,-0E0],"categories":[],"categories_nodes":[],"categories_segments":[],"categories_sizes":[],"default_left":[0,0,0,0,0],"id":86,"left_children":[1,3,-1,-1,-1],"loss_changes":[5.1337067E1,1.4804039E0,0E0,0E0,0E0],"parents":[2147483647,0,0,1,1],"right_children":[2,4,-1,-1,-1],"split_conditions":[-2.8339216E-1,2.6151466E0,-0E0,-2.3010584E-2,-0E0],"split_indices":[0,2,0,0,0],"split_type":[0,0,0,0,0],"sum_hessian":[3.7068716E3,1.2040901E3,2.5027815E3,1.1984573E3,5.632852E0],"tree_param":{"num_deleted":"0","num_feature":"3","num_nodes":"5","size_leaf_vector":"1"}},{"base_weights":[-7.4227266E-2,-2.3027338E-1,-0E0,-2.3711223E-2,-0E0,-3.709212E-4,5.2414924E-2,5.849577E-3,-0E0],"categories":[],"categories_nodes":[],"categories_segments":[],"categories_sizes":[],"default_left":[0,0,0,0,0,0,0,0,0],"id":87,"left_children":[1,3,5,-1,-1,-1,7,-1,-1],"loss_changes":[5.2724022E1,2.2928467E0,2.6958766E0,0E0,0E0,0E0,6.248207E-1,0E0,0E0],"parents":[2147483647,0,0,1,1,2,2,6,6],"right_children":[2,4,6,-1,-1,-1,8,-1,-1],"split_conditions":[-1.8816483E-1,2.333005E0,2.20739E-1,-2.3711223E-2,-0E0,-3.709212E-4,2.9543366E0,5.849577E-3,-0E0],"split_indices":[0,2,2,0,0,0,0,0,0],"split_type":[0,0,0,0,0,0,0,0,0],"sum_hessian":[3.6299565E3,1.3705853E3,2.259371E3,1.3333892E3,3.7196247E1,1.2855404E3,9.7383075E2,9.642933E2,9.537504E0],"tree_param":{"num_deleted":"0","num_feature":"3","num_nodes":"9","size_leaf_vector":"1"}},{"base_weights":[-1.3513292E-1,-2.9529703E-1,-1.7197035E-2,-2.9915953E-2,-0E0,-9.274176E-3,-0E0],"categories":[],"categories_nodes":[],"categories_segments":[],"categories_sizes":[],"default_left":[0,0,0,0,0,0,0],"id":88,"left_children":[1,3,5,-1,-1,-1,-1],"loss_changes":[3.3086887E1,1.9713364E0,9.900883E0,0E0,0E0,0E0,0E0],"parents":[2147483647,0,0,1,1,2,2],"right_children":[2,4,6,-1,-1,-1,-1],"split_conditions":[7.862224E-1,2.575254E0,4.815171E-2,-2.9915953E-2,-0E0,-9.274176E-3,-0E0],"split_indices":[1,2,2,0,0,0,0],"split_type":[0,0,0,0,0,0,0],"sum_hessian":[3.4052705E3,1.0838772E3,2.3213933E3,1.078071E3,5.8061757E0,1.2299805E3,1.0914127E3],"tree_param":{"num_deleted":"0","num_feature":"3","num_nodes":"7","size_leaf_vector":"1"}},{"base_weights":[-1.9565399E-1,-2.2374524E-2,-0E0],"categories":[],"categories_nodes":[],"categories_segments":[],"categories_sizes":[],"default_left":[0,0,0],"id":89,"left_children":[1,-1,-1],"loss_changes":[2.0389297E1,0E0,0E0],"parents":[2147483647,0,0],"right_children":[2,-1,-1],"split_conditions":[1.7349756E0,-2.2374524E-2,-0E0],"split_indices":[2,0,0],"split_type":[0,0,0],"sum_hessian":[3.2537227E3,2.8950461E3,3.5867648E2],"tree_param":{"num_deleted":"0","num_feature":"3","num_nodes":"3","size_leaf_vector":"1"}},{"base_weights":[-2.074051E-2,2.8894845E-1,-1.7745967E-1,3.0563065E-1,-0E0,-0E0,-2.0584345E-1,3.3022683E-2,-0E0,-0E0,-2.2179145E-2],"categories":[],"categories_nodes":[],"categories_segments":[],"categories_sizes":[],"default_left":[0,0,0,0,0,0,0,0,0,0,0],"id":90,"left_children":[1,3,5,7,-1,-1,9,-1,-1,-1,-1],"loss_changes":[1.6708876E2,3.3234634E0,9.314751E0,2.9471054E0,0E0,0E0,5.2649918E0,0E0,0E0,0E0,0E0],"parents":[2147483647,0,0,1,1,2,2,3,3,6,6],"right_children":[2,4,6,8,-1,-1,10,-1,-1,-1,-1],"split_conditions":[-6.643014E-1,1.7795687E0,-9.6965533E-1,-7.5952876E-1,-0E0,-0E0,-4.738468E-1,3.3022683E-2,-0E0,-0E0,-2.2179145E-2],"split_indices":[0,2,2,0,0,0,0,0,0,0,0],"split_type":[0,0,0,0,0,0,0,0,0,0,0],"sum_hessian":[3.6703572E3,1.0185995E3,2.6517578E3,9.459112E2,7.268831E1,4.6130414E2,2.1904536E3,8.371327E2,1.08778496E2,1.9679327E2,1.9936604E3],"tree_param":{"num_deleted":"0","num_feature":"3","num_nodes":"11","size_leaf_vector":"1"}},{"base_weights":[2.5533728E-2,3.2944944E-2,-5.469213E-2,1.3882033E-2,-2.2626612E-1,-2.3460576E-2,-0E0],"categories":[],"categories_nodes":[],"categories_segments":[],"categories_sizes":[],"default_left":[0,0,0,0,0,0,0],"id":91,"left_children":[1,-1,3,-1,5,-1,-1],"loss_changes":[1.262601E2,0E0,1.0656679E2,0E0,3.2411728E0,0E0,0E0],"parents":[2147483647,0,0,2,2,4,4],"right_children":[2,-1,4,-1,6,-1,-1],"split_conditions":[-6.643014E-1,3.2944944E-2,7.862224E-1,1.3882033E-2,2.3829727E0,-2.3460576E-2,-0E0],"split_indices":[0,0,1,0,0,0,0],"split_type":[0,0,0,0,0,0,0],"sum_hessian":[4.0498066E3,1.1054519E3,2.9443547E3,1.1098945E3,1.8344602E3,1.7651754E3,6.9284874E1],"tree_param":{"num_deleted":"0","num_feature":"3","num_nodes":"7","size_leaf_vector":"1"}},{"base_weights":[1.7153089E-1,2.8255928E-1,1.9394599E-2,-0E0,2.862343E-2,2.2071752E-1,-1.8785223E-2,2.218415E-2,-0E0,-2.3153834E-3,-0E0],"categories":[],"categories_nodes":[],"categories_segments":[],"categories_sizes":[],"default_left":[0,0,0,0,0,0,0,0,0,0,0],"id":92,"left_children":[1,3,5,-1,-1,7,9,-1,-1,-1,-1],"loss_changes":[5.036792E1,1.372879E0,3.8594395E1,0E0,0E0,3.419609E-1,2.7746415E-1,0E0,0E0,0E0,0E0],"parents":[2147483647,0,0,1,1,2,2,5,5,6,6],"right_children":[2,4,6,-1,-1,8,10,-1,-1,-1,-1],"split_conditions":[-9.2937514E-2,-1.4261199E0,7.862224E-1,-0E0,2.862343E-2,3.2400186E0,2.763882E0,2.218415E-2,-0E0,-2.3153834E-3,-0E0],"split_indices":[0,0,1,0,0,0,0,0,0,0,0],"split_type":[0,0,0,0,0,0,0,0,0,0,0],"sum_hessian":[4.7687993E3,2.3763713E3,2.3924277E3,4.389845E1,2.332473E3,7.9815344E2,1.5942744E3,7.970244E2,1.1290019E0,1.5666403E3,2.7634161E1],"tree_param":{"num_deleted":"0","num_feature":"3","num_nodes":"11","size_leaf_vector":"1"}},{"base_weights":[1.05265535E-1,-0E0,1.4142895E-1,1.6520603E-2,-0E0],"categories":[],"categories_nodes":[],"categories_segments":[],"categories_sizes":[],"default_left":[0,0,0,0,0],"id":93,"left_children":[1,-1,3,-1,-1],"loss_changes":[3.0918743E1,0E0,7.4022675E0,0E0,0E0],"parents":[2147483647,0,0,2,2],"right_children":[2,-1,4,-1,-1],"split_conditions":[-1.0452107E0,-0E0,1.0497903E0,1.6520603E-2,-0E0],"split_indices":[0,0,0,0,0],"split_type":[0,0,0,0,0],"sum_hessian":[4.4577705E3,4.4291965E2,4.014851E3,3.2132966E3,8.015544E2],"tree_param":{"num_deleted":"0","num_feature":"3","num_nodes":"5","size_leaf_vector":"1"}},{"base_weights":[1.5179179E-2,-4.6595685E-2,1.03434555E-1,-1.4773673E-1,-0E0,1.18496366E-1,-0E0,-1.5421978E-2,-0E0,1.2208752E-2,-0E0],"categories":[],"categories_nodes":[],"categories_segments":[],"categories_sizes":[],"default_left":[0,0,0,0,0,0,0,0,0,0,0],"id":94,"left_children":[1,3,5,7,-1,9,-1,-1,-1,-1,-1],"loss_changes":[2.7913013E1,7.062847E0,3.448265E0,7.345953E-1,0E0,1.4947052E0,0E0,0E0,0E0,0E0,0E0],"parents":[2147483647,0,0,1,1,2,2,3,3,5,5],"right_children":[2,4,6,8,-1,10,-1,-1,-1,-1,-1],"split_conditions":[-9.2937514E-2,-9.4998336E-1,1.8116088E0,2.3656664E0,-0E0,2.575254E0,-0E0,-1.5421978E-2,-0E0,1.2208752E-2,-0E0],"split_indices":[0,0,0,2,0,2,0,0,0,0,0],"split_type":[0,0,0,0,0,0,0,0,0,0,0],"sum_hessian":[4.0753857E3,1.7310935E3,2.3442925E3,4.9489597E2,1.2361975E3,2.0315524E3,3.1274002E2,4.8496613E2,9.929859E0,2.0140172E3,1.7535084E1],"tree_param":{"num_deleted":"0","num_feature":"3","num_nodes":"11","size_leaf_vector":"1"}},{"base_weights":[-4.329443E-2,-2.0284161E-2,-0E0,-0E0,3.796653E-2,-0E0,5.282671E-3],"categories":[],"categories_nodes":[],"categories_segments":[],"categories_sizes":[],"default_left":[0,0,0,0,0,0,0],"id":95,"left_children":[1,-1,3,-1,5,-1,-1],"loss_changes":[4.174865E1,0E0,2.15619E0,0E0,3.2893753E-1,0E0,0E0],"parents":[2147483647,0,0,2,2,4,4],"right_children":[2,-1,4,-1,6,-1,-1],"split_conditions":[-2.8339216E-1,-2.0284161E-2,-3.7066174E-1,-0E0,4.784264E-1,-0E0,5.282671E-3],"split_indices":[0,0,2,0,0,0,0],"split_type":[0,0,0,0,0,0,0],"sum_hessian":[3.6528794E3,1.1801359E3,2.4727437E3,9.7790344E2,1.4948401E3,6.0532446E2,8.895156E2],"tree_param":{"num_deleted":"0","num_feature":"3","num_nodes":"7","size_leaf_vector":"1"}},{"base_weights":[-7.354512E-2,-2.389596E-2,-0E0,-1.5443929E-4,3.4982316E-2,-0E0,4.942739E-3],"categories":[],"categories_nodes":[],"categories_segments":[],"categories_sizes":[],"default_left":[0,0,0,0,0,0,0],"id":96,"left_children":[1,-1,3,-1,5,-1,-1],"loss_changes":[5.688755E1,0E0,1.9686011E0,0E0,1.0433856E0,0E0,0E0],"parents":[2147483647,0,0,2,2,4,4],"right_children":[2,-1,4,-1,6,-1,-1],"split_conditions":[-1.8816483E-1,-2.389596E-2,7.862224E-1,-1.5443929E-4,1.9274443E-1,-0E0,4.942739E-3],"split_indices":[0,0,1,0,0,0,0],"split_type":[0,0,0,0,0,0,0],"sum_hessian":[3.5903743E3,1.3354384E3,2.2549358E3,6.4855554E2,1.6063802E3,3.75143E2,1.2312373E3],"tree_param":{"num_deleted":"0","num_feature":"3","num_nodes":"7","size_leaf_vector":"1"}},{"base_weights":[-1.21851325E-1,-2.176206E-2,-0E0,-2.5941506E-3,4.9646523E-2,6.4825066E-3,-0E0],"categories":[],"categories_nodes":[],"categories_segments":[],"categories_sizes":[],"default_left":[0,0,0,0,0,0,0],"id":97,"left_children":[1,-1,3,-1,5,-1,-1],"loss_changes":[4.8024487E1,0E0,2.6075685E0,0E0,1.4490464E0,0E0,0E0],"parents":[2147483647,0,0,2,2,4,4],"right_children":[2,-1,4,-1,6,-1,-1],"split_conditions":[4.784264E-1,-2.176206E-2,7.862224E-1,-2.5941506E-3,2.4782E0,6.4825066E-3,-0E0],"split_indices":[0,0,1,0,0,0,0],"split_type":[0,0,0,0,0,0,0],"sum_hessian":[3.4102024E3,2.0825266E3,1.3276759E3,3.7280325E2,9.548726E2,9.044731E2,5.0399525E1],"tree_param":{"num_deleted":"0","num_feature":"3","num_nodes":"7","size_leaf_vector":"1"}},{"base_weights":[-1.8467413E-1,-3.0359833E-2,-0E0,-4.9843467E-3,5.00166E-3,2.5335592E-3,-0E0],"categories":[],"categories_nodes":[],"categories_segments":[],"categories_sizes":[],"default_left":[0,0,0,0,0,0,0],"id":98,"left_children":[1,-1,3,-1,5,-1,-1],"loss_changes":[6.521919E1,0E0,9.594423E-1,0E0,5.060546E-1,0E0,0E0],"parents":[2147483647,0,0,2,2,4,4],"right_children":[2,-1,4,-1,6,-1,-1],"split_conditions":[3.8319907E-1,-3.0359833E-2,7.862224E-1,-4.9843467E-3,2.2877455E0,2.5335592E-3,-0E0],"split_indices":[0,0,1,0,0,0,0],"split_type":[0,0,0,0,0,0,0],"sum_hessian":[3.1653052E3,1.8781462E3,1.287159E3,3.760062E2,9.1115283E2,8.2292896E2,8.822385E1],"tree_param":{"num_deleted":"0","num_feature":"3","num_nodes":"7","size_leaf_vector":"1"}},{"base_weights":[-2.6896704E-2,2.1067008E-1,-1.7982149E-1,4.0615965E-2,-0E0,-0E0,-2.4658799E-1,-2.4877725E-2,-0E0],"categories":[],"categories_nodes":[],"categories_segments":[],"categories_sizes":[],"default_left":[0,0,0,0,0,0,0,0,0],"id":99,"left_children":[1,3,5,-1,-1,-1,7,-1,-1],"loss_changes":[1.2978563E2,2.9550743E1,1.7537674E1,0E0,0E0,0E0,1.4805832E0,0E0,0E0],"parents":[2147483647,0,0,1,1,2,2,6,6],"right_children":[2,4,6,-1,-1,-1,8,-1,-1],"split_conditions":[-5.690741E-1,7.862224E-1,7.862224E-1,4.0615965E-2,-0E0,-0E0,3.2400186E0,-2.4877725E-2,-0E0],"split_indices":[0,1,1,0,0,0,0,0,0],"split_type":[0,0,0,0,0,0,0,0,0],"sum_hessian":[3.6552937E3,1.1752552E3,2.4800386E3,4.9458902E2,6.8066626E2,8.7322766E2,1.6068108E3,1.6025605E3,4.250308E0],"tree_param":{"num_deleted":"0","num_feature":"3","num_nodes":"9","size_leaf_vector":"1"}},{"base_weights":[2.8995434E-2,3.777185E-1,-3.4929246E-2,-0E0,3.7897468E-2,2.5170457E-5,-1.00725256E-1,-0E0,-1.3246233E-2],"categories":[],"categories_nodes":[],"categories_segments":[],"categories_sizes":[],"default_left":[0,0,0,0,0,0,0,0,0],"id":100,"left_children":[1,3,5,-1,-1,-1,7,-1,-1],"loss_changes":[1.2434318E2,2.550354E-1,1.7390743E1,0E0,0E0,0E0,6.357136E0,0E0,0E0],"parents":[2147483647,0,0,1,1,2,2,6,6],"right_children":[2,4,6,-1,-1,-1,8,-1,-1],"split_conditions":[-8.5475606E-1,-1.3186866E0,-5.5554223E-1,-0E0,3.7897468E-2,2.5170457E-5,-2.8339216E-1,-0E0,-1.3246233E-2],"split_indices":[0,2,2,0,0,0,0,0,0],"split_type":[0,0,0,0,0,0,0,0,0],"sum_hessian":[4.0386113E3,8.672121E2,3.1713992E3,3.970363E0,8.6324176E2,1.0767897E3,2.0946094E3,5.215818E2,1.5730276E3],"tree_param":{"num_deleted":"0","num_feature":"3","num_nodes":"9","size_leaf_vector":"1"}},{"base_weights":[1.5621299E-1,3.069869E-1,4.4297688E-2,-0E0,3.1374678E-2,2.4093103E-2,-8.658487E-3,-0E0,-2.102847E-3],"categories":[],"categories_nodes":[],"categories_segments":[],"categories_sizes":[],"default_left":[0,0,0,0,0,0,0,0,0],"id":101,"left_children":[1,3,5,-1,-1,-1,7,-1,-1],"loss_changes":[4.7120163E1,2.4977875E0,5.6342323E1,0E0,0E0,0E0,4.648111E-1,0E0,0E0],"parents":[2147483647,0,0,1,1,2,2,6,6],"right_children":[2,4,6,-1,-1,-1,8,-1,-1],"split_conditions":[-4.738468E-1,-1.4261199E0,7.862224E-1,-0E0,3.1374678E-2,2.4093103E-2,9.751712E-2,-0E0,-2.102847E-3],"split_indices":[0,0,1,0,0,0,0,0,0],"split_type":[0,0,0,0,0,0,0,0,0],"sum_hessian":[4.8741123E3,1.6951309E3,3.1789812E3,4.6926746E1,1.6482041E3,1.0743989E3,2.1045823E3,6.9746313E2,1.4071191E3],"tree_param":{"num_deleted":"0","num_feature":"3","num_nodes":"9","size_leaf_vector":"1"}},{"base_weights":[9.8345146E-2,-9.853314E-4,1.3495237E-1,1.6306624E-2,-0E0],"categories":[],"categories_nodes":[],"categories_segments":[],"categories_sizes":[],"default_left":[0,0,0,0,0],"id":102,"left_children":[1,-1,3,-1,-1],"loss_changes":[3.0501225E1,0E0,9.17128E0,0E0,0E0],"parents":[2147483647,0,0,2,2],"right_children":[2,-1,4,-1,-1],"split_conditions":[-1.0452107E0,-9.853314E-4,9.5456296E-1,1.6306624E-2,-0E0],"split_indices":[0,0,0,0,0],"split_type":[0,0,0,0,0],"sum_hessian":[4.5409546E3,4.5756836E2,4.0833862E3,3.14134E3,9.42046E2],"tree_param":{"num_deleted":"0","num_feature":"3","num_nodes":"5","size_leaf_vector":"1"}},{"base_weights":[1.0616623E-2,-1.2348043E-2,6.908778E-2,8.00295E-2,-0E0,-0E0,9.788985E-3],"categories":[],"categories_nodes":[],"categories_segments":[],"categories_sizes":[],"default_left":[0,0,0,0,0,0,0],"id":103,"left_children":[1,-1,3,5,-1,-1,-1],"loss_changes":[2.6827412E1,0E0,3.4670944E0,4.4584274E0,0E0,0E0,0E0],"parents":[2147483647,0,0,2,2,3,3],"right_children":[2,-1,4,6,-1,-1,-1],"split_conditions":[-7.5952876E-1,-1.2348043E-2,1.8116088E0,-3.7861946E-1,-0E0,-0E0,9.788985E-3],"split_indices":[0,0,0,0,0,0,0],"split_type":[0,0,0,0,0,0,0],"sum_hessian":[4.1131343E3,7.2927264E2,3.3838618E3,3.062904E3,3.209578E2,5.507735E2,2.5121306E3],"tree_param":{"num_deleted":"0","num_feature":"3","num_nodes":"7","size_leaf_vector":"1"}},{"base_weights":[-3.595148E-2,-1.7062193E-1,1.8151803E-2,-1.9684479E-2,-0E0,-0E0,4.8941225E-2,5.1062587E-3,-0E0],"categories":[],"categories_nodes":[],"categories_segments":[],"categories_sizes":[],"default_left":[0,0,0,0,0,0,0,0,0],"id":104,"left_children":[1,3,5,-1,-1,-1,7,-1,-1],"loss_changes":[4.206001E1,3.70224E-1,2.4856305E0,0E0,0E0,0E0,2.6945186E-1,0E0,0E0],"parents":[2147483647,0,0,1,1,2,2,6,6],"right_children":[2,4,6,-1,-1,-1,8,-1,-1],"split_conditions":[2.289801E-3,7.5597656E-1,-4.257402E-1,-1.9684479E-2,-0E0,-0E0,3.2400186E0,5.1062587E-3,-0E0],"split_indices":[0,2,2,0,0,0,0,0,0],"split_type":[0,0,0,0,0,0,0,0,0],"sum_hessian":[3.6785886E3,1.5834153E3,2.0951733E3,1.1989491E3,3.844662E2,7.7008923E2,1.3250842E3,1.3205319E3,4.5523214E0],"tree_param":{"num_deleted":"0","num_feature":"3","num_nodes":"9","size_leaf_vector":"1"}},{"base_weights":[-6.7862235E-2,-2.0800331E-1,-0E0,-2.4539949E-1,-0E0,-1.5701943E-3,2.6984996E-4,-0E0,-2.4728578E-2],"categories":[],"categories_nodes":[],"categories_segments":[],"categories_sizes":[],"default_left":[0,0,0,0,0,0,0,0,0],"id":105,"left_children":[1,3,5,7,-1,-1,-1,-1,-1],"loss_changes":[3.0781168E1,9.952343E0,3.0047795E-1,5.276451E-1,0E0,0E0,0E0,0E0,0E0],"parents":[2147483647,0,0,1,1,2,2,3,3],"right_children":[2,4,6,8,-1,-1,-1,-1,-1],"split_conditions":[7.862224E-1,1.4572932E0,-1.1334757E-1,-1.3186866E0,-0E0,-1.5701943E-3,2.6984996E-4,-0E0,-2.4728578E-2],"split_indices":[1,2,2,2,0,0,0,0,0],"split_type":[0,0,0,0,0,0,0,0,0],"sum_hessian":[3.5645151E3,1.0899733E3,2.4745417E3,9.480677E2,1.4190561E2,1.179445E3,1.2950967E3,5.7950087E0,9.422727E2],"tree_param":{"num_deleted":"0","num_feature":"3","num_nodes":"9","size_leaf_vector":"1"}},{"base_weights":[-1.0154003E-1,-2.11923E-2,-0E0,-0E0,4.3316935E-3],"categories":[],"categories_nodes":[],"categories_segments":[],"categories_sizes":[],"default_left":[0,0,0,0,0],"id":106,"left_children":[1,-1,3,-1,-1],"loss_changes":[5.210944E1,0E0,1.8747377E0,0E0,0E0],"parents":[2147483647,0,0,2,2],"right_children":[2,-1,4,-1,-1],"split_conditions":[1.5830868E-1,-2.11923E-2,7.862224E-1,-0E0,4.3316935E-3],"split_indices":[2,0,1,0,0],"split_type":[0,0,0,0,0],"sum_hessian":[3.3373596E3,1.9256661E3,1.4116935E3,4.1355624E2,9.981372E2],"tree_param":{"num_deleted":"0","num_feature":"3","num_nodes":"5","size_leaf_vector":"1"}},{"base_weights":[-1.705732E-1,-3.1919654E-2,-0E0,-1.2673387E-1,7.5918944E-3,-1.3065736E-2,-0E0,2.6623232E-3,-0E0],"categories":[],"categories_nodes":[],"categories_segments":[],"categories_sizes":[],"default_left":[0,0,0,0,0,0,0,0,0],"id":107,"left_children":[1,-1,3,5,7,-1,-1,-1,-1],"loss_changes":[6.2778152E1,0E0,7.7303886E0,3.5382843E-1,6.753827E-1,0E0,0E0,0E0,0E0],"parents":[2147483647,0,0,2,2,3,3,4,4],"right_children":[2,-1,4,6,8,-1,-1,-1,-1],"split_conditions":[9.751712E-2,-3.1919654E-2,7.862224E-1,2.8591094E0,2.192518E0,-1.3065736E-2,-0E0,2.6623232E-3,-0E0],"split_indices":[0,0,1,0,0,0,0,0,0],"split_type":[0,0,0,0,0,0,0,0,0],"sum_hessian":[3.1274778E3,1.5085426E3,1.6189353E3,4.7619568E2,1.1427395E3,4.6869324E2,7.502442E0,1.0448634E3,9.787614E1],"tree_param":{"num_deleted":"0","num_feature":"3","num_nodes":"9","size_leaf_vector":"1"}},{"base_weights":[-5.680766E-4,2.7365318E-1,-1.505513E-1,2.905155E-1,-0E0,-0E0,-2.0163915E-1,3.125473E-2,-0E0,-0E0,-2.2871366E-2],"categories":[],"categories_nodes":[],"categories_segments":[],"categories_sizes":[],"default_left":[0,0,0,0,0,0,0,0,0,0,0],"id":108,"left_children":[1,3,5,7,-1,-1,9,-1,-1,-1,-1],"loss_changes":[1.3561893E2,4.0404816E0,2.2634293E1,2.4210358E0,0E0,0E0,8.410385E0,0E0,0E0,0E0,0E0],"parents":[2147483647,0,0,1,1,2,2,3,3,6,6],"right_children":[2,4,6,8,-1,-1,10,-1,-1,-1,-1],"split_conditions":[-6.643014E-1,1.8059629E0,-8.5070026E-1,-7.5952876E-1,-0E0,-0E0,-3.7861946E-1,3.125473E-2,-0E0,-0E0,-2.2871366E-2],"split_indices":[0,2,2,0,0,0,0,0,0,0,0],"split_type":[0,0,0,0,0,0,0,0,0,0,0],"sum_hessian":[3.5947454E3,1.0349438E3,2.5598013E3,9.66049E2,6.889487E1,5.7654346E2,1.9832579E3,8.5930164E2,1.0674735E2,2.8119653E2,1.7020614E3],"tree_param":{"num_deleted":"0","num_feature":"3","num_nodes":"11","size_leaf_vector":"1"}},{"base_weights":[2.7340442E-2,3.2785814E-2,-4.1125618E-2,-0E0,-1.230201E-1,-0E0,-1.5136369E-2],"categories":[],"categories_nodes":[],"categories_segments":[],"categories_sizes":[],"default_left":[0,0,0,0,0,0,0],"id":109,"left_children":[1,-1,3,-1,5,-1,-1],"loss_changes":[1.1258368E2,0E0,1.57552395E1,0E0,5.2884808E0,0E0,0E0],"parents":[2147483647,0,0,2,2,4,4],"right_children":[2,-1,4,-1,6,-1,-1],"split_conditions":[-7.5952876E-1,3.2785814E-2,6.6921934E-3,-0E0,-3.7861946E-1,-0E0,-1.5136369E-2],"split_indices":[0,0,2,0,0,0,0],"split_type":[0,0,0,0,0,0,0],"sum_hessian":[4.076564E3,1.0267306E3,3.0498335E3,1.6688301E3,1.3810033E3,2.3828697E2,1.1427164E3],"tree_param":{"num_deleted":"0","num_feature":"3","num_nodes":"7","size_leaf_vector":"1"}},{"base_weights":[1.527128E-1,3.500442E-2,5.2753117E-2,2.5603522E-2,-9.941218E-3,-0E0,-2.9867238E-3],"categories":[],"categories_nodes":[],"categories_segments":[],"categories_sizes":[],"default_left":[0,0,0,0,0,0,0],"id":110,"left_children":[1,-1,3,-1,5,-1,-1],"loss_changes":[5.714884E1,0E0,7.0705505E1,0E0,1.4450636E0,0E0,0E0],"parents":[2147483647,0,0,2,2,4,4],"right_children":[2,-1,4,-1,6,-1,-1],"split_conditions":[-6.643014E-1,3.500442E-2,7.862224E-1,2.5603522E-2,-2.8339216E-1,-0E0,-2.9867238E-3],"split_indices":[0,0,1,0,0,0,0],"split_type":[0,0,0,0,0,0,0],"sum_hessian":[4.9392354E3,1.3235326E3,3.6157026E3,1.2275176E3,2.388185E3,5.0456192E2,1.8836232E3],"tree_param":{"num_deleted":"0","num_feature":"3","num_nodes":"7","size_leaf_vector":"1"}},{"base_weights":[1.0407495E-1,-1.0158712E-4,1.3961236E-1,1.813142E-2,4.72031E-3,3.4907316E-3,-0E0],"categories":[],"categories_nodes":[],"categories_segments":[],"categories_sizes":[],"default_left":[0,0,0,0,0,0,0],"id":111,"left_children":[1,-1,3,-1,5,-1,-1],"loss_changes":[3.083553E1,0E0,4.5036545E0,0E0,1.3721061E0,0E0,0E0],"parents":[2147483647,0,0,2,2,4,4],"right_children":[2,-1,4,-1,6,-1,-1],"split_conditions":[-1.0452107E0,-1.0158712E-4,4.784264E-1,1.813142E-2,9.3651825E-1,3.4907316E-3,-0E0],"split_indices":[0,0,0,0,2,0,0],"split_type":[0,0,0,0,0,0,0],"sum_hessian":[4.5444614E3,4.3755746E2,4.106904E3,2.5705437E3,1.5363604E3,1.1531539E3,3.8320642E2],"tree_param":{"num_deleted":"0","num_feature":"3","num_nodes":"7","size_leaf_vector":"1"}},{"base_weights":[2.0500856E-2,-6.7508146E-2,8.645069E-2,-1.5110971E-2,-0E0,9.876248E-2,-0E0,-0E0,1.16752E-2],"categories":[],"categories_nodes":[],"categories_segments":[],"categories_sizes":[],"default_left":[0,0,0,0,0,0,0,0,0],"id":112,"left_children":[1,3,5,-1,-1,7,-1,-1,-1],"loss_changes":[2.5868479E1,3.874072E0,3.6647472E0,0E0,0E0,2.2247696E0,0E0,0E0,0E0],"parents":[2147483647,0,0,1,1,2,2,5,5],"right_children":[2,4,6,-1,-1,8,-1,-1,-1],"split_conditions":[-4.738468E-1,7.862224E-1,1.8116088E0,-1.5110971E-2,-0E0,-9.2937514E-2,-0E0,-0E0,1.16752E-2],"split_indices":[0,1,0,0,0,0,0,0,0],"split_type":[0,0,0,0,0,0,0,0,0],"sum_hessian":[4.1285054E3,1.1189529E3,3.0095525E3,3.92187E2,7.2676587E2,2.6814587E3,3.2809363E2,5.9974384E2,2.0817148E3],"tree_param":{"num_deleted":"0","num_feature":"3","num_nodes":"9","size_leaf_vector":"1"}},{"base_weights":[-2.5996128E-2,-1.5253095E-1,-0E0,-1.6889129E-2,-0E0,-0E0,3.363782E-2,3.7485734E-3,-0E0],"categories":[],"categories_nodes":[],"categories_segments":[],"categories_sizes":[],"default_left":[0,0,0,0,0,0,0,0,0],"id":113,"left_children":[1,3,5,-1,-1,-1,7,-1,-1],"loss_changes":[2.406991E1,3.7425137E0,1.7742472E0,0E0,0E0,0E0,3.5267043E-1,0E0,0E0],"parents":[2147483647,0,0,1,1,2,2,6,6],"right_children":[2,4,6,-1,-1,-1,8,-1,-1],"split_conditions":[7.862224E-1,1.8333213E0,-4.3405622E-1,-1.6889129E-2,-0E0,-0E0,2.405559E0,3.7485734E-3,-0E0],"split_indices":[1,2,2,0,0,0,2,0,0],"split_type":[0,0,0,0,0,0,0,0,0],"sum_hessian":[3.628309E3,1.1389874E3,2.4893218E3,1.06003E3,7.895733E1,9.2227747E2,1.5670443E3,1.5126265E3,5.441791E1],"tree_param":{"num_deleted":"0","num_feature":"3","num_nodes":"9","size_leaf_vector":"1"}},{"base_weights":[-5.83588E-2,-2.0199126E-1,-0E0,-2.3477001E-2,-0E0],"categories":[],"categories_nodes":[],"categories_segments":[],"categories_sizes":[],"default_left":[0,0,0,0,0],"id":114,"left_children":[1,3,-1,-1,-1],"loss_changes":[3.1537933E1,1.0943565E1,0E0,0E0,0E0],"parents":[2147483647,0,0,1,1],"right_children":[2,4,-1,-1,-1],"split_conditions":[7.862224E-1,1.9031035E0,-0E0,-2.3477001E-2,-0E0],"split_indices":[1,2,0,0,0],"split_type":[0,0,0,0,0],"sum_hessian":[3.5067173E3,1.0647804E3,2.441937E3,9.864985E2,7.828193E1],"tree_param":{"num_deleted":"0","num_feature":"3","num_nodes":"5","size_leaf_vector":"1"}},{"base_weights":[-1.2757534E-1,-2.8911082E-2,-9.941591E-3,-6.719947E-3,-0E0],"categories":[],"categories_nodes":[],"categories_segments":[],"categories_sizes":[],"default_left":[0,0,0,0,0],"id":115,"left_children":[1,-1,3,-1,-1],"loss_changes":[3.265397E1,0E0,6.746865E0,0E0,0E0],"parents":[2147483647,0,0,2,2],"right_children":[2,-1,4,-1,-1],"split_conditions":[7.862224E-1,-2.8911082E-2,5.925489E-1,-6.719947E-3,-0E0],"split_indices":[1,0,2,0,0],"split_type":[0,0,0,0,0],"sum_hessian":[3.2913904E3,1.0280757E3,2.2633147E3,1.5426263E3,7.206885E2],"tree_param":{"num_deleted":"0","num_feature":"3","num_nodes":"5","size_leaf_vector":"1"}},{"base_weights":[-1.8273772E-1,-2.7664593E-1,-0E0,-2.8985709E-2,-0E0],"categories":[],"categories_nodes":[],"categories_segments":[],"categories_sizes":[],"default_left":[0,0,0,0,0],"id":116,"left_children":[1,3,-1,-1,-1],"loss_changes":[5.664556E1,7.485565E0,0E0,0E0,0E0],"parents":[2147483647,0,0,1,1],"right_children":[2,4,-1,-1,-1],"split_conditions":[6.68881E-1,2.145714E0,-0E0,-2.8985709E-2,-0E0],"split_indices":[0,2,0,0,0],"split_type":[0,0,0,0,0],"sum_hessian":[3.0650828E3,2.0769475E3,9.8813525E2,1.9809414E3,9.600603E1],"tree_param":{"num_deleted":"0","num_feature":"3","num_nodes":"5","size_leaf_vector":"1"}},{"base_weights":[-1.42983375E-2,1.0537208E-1,-1.3257994E-1,1.8508968E-1,-0E0,-0E0,-1.698899E-2,-0E0,1.8676182E-2],"categories":[],"categories_nodes":[],"categories_segments":[],"categories_sizes":[],"default_left":[0,0,0,0,0,0,0,0,0],"id":117,"left_children":[1,3,5,7,-1,-1,-1,-1,-1],"loss_changes":[5.3743946E1,1.4656404E1,1.29338455E1,2.5388145E-1,0E0,0E0,0E0,0E0,0E0],"parents":[2147483647,0,0,1,1,2,2,3,3],"right_children":[2,4,6,8,-1,-1,-1,-1,-1],"split_conditions":[7.862224E-1,1.3673528E-1,-9.327756E-1,-1.3186866E0,-0E0,-0E0,-1.698899E-2,-0E0,1.8676182E-2],"split_indices":[1,2,2,2,0,0,0,0,0],"split_type":[0,0,0,0,0,0,0,0,0],"sum_hessian":[3.6026653E3,1.3706206E3,2.232045E3,8.713721E2,4.9924854E2,4.249927E2,1.8070521E3,8.272668E0,8.6309937E2],"tree_param":{"num_deleted":"0","num_feature":"3","num_nodes":"9","size_leaf_vector":"1"}},{"base_weights":[3.0453824E-2,2.5399807E-1,-7.779766E-2,3.0658474E-2,-0E0,1.2925127E-1,-2.1360895E-1,2.8414939E-2,-0E0,-2.2057181E-2,-0E0],"categories":[],"categories_nodes":[],"categories_segments":[],"categories_sizes":[],"default_left":[0,0,0,0,0,0,0,0,0,0,0],"id":118,"left_children":[1,3,5,-1,-1,7,9,-1,-1,-1,-1],"loss_changes":[1.1607836E2,3.7786407E0,7.7077126E1,0E0,0E0,1.0471519E1,3.3951492E0,0E0,0E0,0E0,0E0],"parents":[2147483647,0,0,1,1,2,2,5,5,6,6],"right_children":[2,4,6,-1,-1,8,10,-1,-1,-1,-1],"split_conditions":[7.862224E-1,4.784264E-1,-6.643014E-1,3.0658474E-2,-0E0,-1.140438E0,2.5734274E0,2.8414939E-2,-0E0,-2.2057181E-2,-0E0],"split_indices":[1,0,0,0,0,0,0,0,0,0,0],"split_type":[0,0,0,0,0,0,0,0,0,0,0],"sum_hessian":[4.066878E3,1.6278082E3,2.4390698E3,1.1571694E3,4.706388E2,6.7450165E2,1.7645681E3,2.6845932E2,4.0604233E2,1.7246434E3,3.992473E1],"tree_param":{"num_deleted":"0","num_feature":"3","num_nodes":"11","size_leaf_vector":"1"}},{"base_weights":[1.4054564E-1,3.251887E-1,4.6185214E-2,-0E0,3.31149E-1,9.7702846E-2,-0E0,-0E0,3.37382E-2,9.841428E-3,-0E0],"categories":[],"categories_nodes":[],"categories_segments":[],"categories_sizes":[],"default_left":[0,0,0,0,0,0,0,0,0,0,0],"id":119,"left_children":[1,3,5,-1,7,9,-1,-1,-1,-1,-1],"loss_changes":[4.8896027E1,1.3111115E0,1.5133704E1,0E0,3.5064697E-1,2.3431206E-1,0E0,0E0,0E0,0E0,0E0],"parents":[2147483647,0,0,1,1,2,2,4,4,5,5],"right_children":[2,4,6,-1,8,10,-1,-1,-1,-1,-1],"split_conditions":[-6.643014E-1,-1.3003672E0,3.900722E-1,-0E0,-1.4261199E0,3.049564E0,-0E0,-0E0,3.37382E-2,9.841428E-3,-0E0],"split_indices":[0,2,2,0,0,0,0,0,0,0,0],"split_type":[0,0,0,0,0,0,0,0,0,0,0],"sum_hessian":[4.937785E3,1.3107385E3,3.6270464E3,3.4838413E1,1.2759001E3,2.3950789E3,1.2319677E3,4.366394E1,1.2322362E3,2.3847537E3,1.0325051E1],"tree_param":{"num_deleted":"0","num_feature":"3","num_nodes":"11","size_leaf_vector":"1"}},{"base_weights":[9.8008476E-2,-0E0,1.3218544E-1,1.4138989E-1,-0E0,1.4590546E-2,-0E0],"categories":[],"categories_nodes":[],"categories_segments":[],"categories_sizes":[],"default_left":[0,0,0,0,0,0,0],"id":120,"left_children":[1,-1,3,5,-1,-1,-1],"loss_changes":[2.8492767E1,0E0,3.9661407E0,2.1192245E0,0E0,0E0,0E0],"parents":[2147483647,0,0,2,2,3,3],"right_children":[2,-1,4,6,-1,-1,-1],"split_conditions":[-1.0452107E0,-0E0,1.8333213E0,2.192518E0,-0E0,1.4590546E-2,-0E0],"split_indices":[0,0,2,0,0,0,0],"split_type":[0,0,0,0,0,0,0],"sum_hessian":[4.6051255E3,4.4326334E2,4.1618623E3,3.8358962E3,3.259658E2,3.7016272E3,1.34269E2],"tree_param":{"num_deleted":"0","num_feature":"3","num_nodes":"7","size_leaf_vector":"1"}},{"base_weights":[8.52245E-3,-1.5232169E-2,5.3320777E-2,-3.5654013E-3,-0E0,6.181121E-2,-0E0,-0E0,6.509135E-3],"categories":[],"categories_nodes":[],"categories_segments":[],"categories_sizes":[],"default_left":[0,0,0,0,0,0,0,0,0],"id":121,"left_children":[1,3,5,-1,-1,7,-1,-1,-1],"loss_changes":[8.201219E0,9.9480045E-1,2.1521702E0,0E0,0E0,5.8753204E-1,0E0,0E0,0E0],"parents":[2147483647,0,0,1,1,2,2,5,5],"right_children":[2,4,6,-1,-1,8,-1,-1,-1],"split_conditions":[7.862224E-1,9.5302975E-1,2.021938E0,-3.5654013E-3,-0E0,-1.2476993E0,-0E0,-0E0,6.509135E-3],"split_indices":[1,2,2,0,0,2,0,0,0],"split_type":[0,0,0,0,0,0,0,0,0],"sum_hessian":[4.125744E3,1.237817E3,2.8879272E3,1.00766974E3,2.3014725E2,2.7120881E3,1.7583917E2,1.278798E2,2.5842083E3],"tree_param":{"num_deleted":"0","num_feature":"3","num_nodes":"9","size_leaf_vector":"1"}},{"base_weights":[-3.7935264E-2,-2.4863211E-2,-0E0,-0E0,1.1700768E-3],"categories":[],"categories_nodes":[],"categories_segments":[],"categories_sizes":[],"default_left":[0,0,0,0,0],"id":122,"left_children":[1,-1,3,-1,-1],"loss_changes":[3.5443764E1,0E0,2.4991679E-1,0E0,0E0],"parents":[2147483647,0,0,2,2],"right_children":[2,-1,4,-1,-1],"split_conditions":[-6.643014E-1,-2.4863211E-2,-3.9175305E-1,-0E0,1.1700768E-3],"split_indices":[0,0,2,0,0],"split_type":[0,0,0,0,0],"sum_hessian":[3.620957E3,6.566745E2,2.9642825E3,1.1398457E3,1.8244368E3],"tree_param":{"num_deleted":"0","num_feature":"3","num_nodes":"5","size_leaf_vector":"1"}},{"base_weights":[-6.2009938E-2,-1.3723278E-2,-0E0],"categories":[],"categories_nodes":[],"categories_segments":[],"categories_sizes":[],"default_left":[0,0,0],"id":123,"left_children":[1,-1,-1],"loss_changes":[1.8142548E1,0E0,0E0],"parents":[2147483647,0,0],"right_children":[2,-1,-1],"split_conditions":[-1.609537E-1,-1.3723278E-2,-0E0],"split_indices":[2,0,0],"split_type":[0,0,0],"sum_hessian":[3.5134705E3,1.6799204E3,1.8335499E3],"tree_param":{"num_deleted":"0","num_feature":"3","num_nodes":"3","size_leaf_vector":"1"}},{"base_weights":[-9.722812E-2,-2.0194748E-2,-0E0,-1.5829516E-3,5.9430813E-3],"categories":[],"categories_nodes":[],"categories_segments":[],