{"learner":{"attributes":{"scikit_learn":"{\"_estimator_type\": \"classifier\"}"},"feature_names":[],"feature_types":[],"gradient_booster":{"model":{"gbtree_model_param":{"num_parallel_tree":"1","num_trees":"420"},"iteration_indptr":[0,6,12,18,24,30,36,42,48,54,60,66,72,78,84,90,96,102,108,114,120,126,132,138,144,150,156,162,168,174,180,186,192,198,204,210,216,222,228,234,240,246,252,258,264,270,276,282,288,294,300,306,312,318,324,330,336,342,348,354,360,366,372,378,384,390,396,402,408,414,420],"tree_info":[0,1,2,3,4,5,0,1,2,3,4,5,0,1,2,3,4,5,0,1,2,3,4,5,0,1,2,3,4,5,0,1,2,3,4,5,0,1,2,3,4,5,0,1,2,3,4,5,0,1,2,3,4,5,0,1,2,3,4,5,0,1,2,3,4,5,0,1,2,3,4,5,0,1,2,3,4,5,0,1,2,3,4,5,0,1,2,3,4,5,0,1,2,3,4,5,0,1,2,3,4,5,0,1,2,3,4,5,0,1,2,3,4,5,0,1,2,3,4,5,0,1,2,3,4,5,0,1,2,3,4,5,0,1,2,3,4,5,0,1,2,3,4,5,0,1,2,3,4,5,0,1,2,3,4,5,0,1,2,3,4,5,0,1,2,3,4,5,0,1,2,3,4,5,0,1,2,3,4,5,0,1,2,3,4,5,0,1,2,3,4,5,0,1,2,3,4,5,0,1,2,3,4,5,0,1,2,3,4,5,0,1,2,3,4,5,0,1,2,3,4,5,0,1,2,3,4,5,0,1,2,3,4,5,0,1,2,3,4,5,0,1,2,3,4,5,0,1,2,3,4,5,0,1,2,3,4,5,0,1,2,3,4,5,0,1,2,3,4,5,0,1,2,3,4,5,0,1,2,3,4,5,0,1,2,3,4,5,0,1,2,3,4,5,0,1,2,3,4,5,0,1,2,3,4,5,0,1,2,3,4,5,0,1,2,3,4,5,0,1,2,3,4,5,0,1,2,3,4,5,0,1,2,3,4,5,0,1,2,3,4,5,0,1,2,3,4,5,0,1,2,3,4,5,0,1,2,3,4,5,0,1,2,3,4,5,0,1,2,3,4,5,0,1,2,3,4,5,0,1,2,3,4,5,0,1,2,3,4,5,0,1,2,3,4,5,0,1,2,3,4,5,0,1,2,3,4,5,0,1,2,3,4,5,0,1,2,3,4,5],"trees":[{"base_weights":[1.8079171E-2,2.6576757E-1,-1.0781592E-2,3.3206893E-3,1.981697E-3,6.1751086E-2,-3.8685296E-2,8.7756704E-4,5.2920805E-4,-6.6368707E-4,8.236244E-5],"categories":[],"categories_nodes":[],"categories_segments":[],"categories_sizes":[],"default_left":[0,0,0,0,0,0,0,0,0,0,0],"id":0,"left_children":[1,3,5,-1,-1,7,9,-1,-1,-1,-1],"loss_changes":[5.8794098E1,3.7810745E0,1.4912629E1,0E0,0E0,4.6544886E-1,6.9120703E0,0E0,0E0,0E0,0E0],"parents":[2147483647,0,0,1,1,2,2,5,5,6,6],"right_children":[2,4,6,-1,-1,8,10,-1,-1,-1,-1],"split_conditions":[-1.1137325E0,-1.3022133E0,-4.540494E-1,3.3206893E-3,1.981697E-3,-9.252516E-1,6.7683583E-1,8.7756704E-4,5.2920805E-4,-6.6368707E-4,8.236244E-5],"split_indices":[0,0,0,0,0,0,0,0,0,0,0],"split_type":[0,0,0,0,0,0,0,0,0,0,0],"sum_hessian":[8.223303E3,8.5732996E2,7.3659727E3,4.3084036E2,4.264896E2,2.0461118E3,5.319861E3,5.163874E2,1.5297245E3,3.3455771E3,1.9742837E3],"tree_param":{"num_deleted":"0","num_feature":"3","num_nodes":"11","size_leaf_vector":"1"}},{"base_weights":[4.980092E-2,1.1724084E-1,3.2548122E-2,1.719592E-3,1.0865956E-3,1.26575725E-2,9.324907E-2,-5.2563765E-4,1.6909279E-4,8.7651267E-4,4.3028123E-3],"categories":[],"categories_nodes":[],"categories_segments":[],"categories_sizes":[],"default_left":[0,0,0,0,0,0,0,0,0,0,0],"id":1,"left_children":[1,3,5,-1,-1,7,9,-1,-1,-1,-1],"loss_changes":[9.539106E0,7.656517E-1,7.8857865E0,0E0,0E0,1.3655636E0,3.0036774E0,0E0,0E0,0E0,0E0],"parents":[2147483647,0,0,1,1,2,2,5,5,6,6],"right_children":[2,4,6,-1,-1,8,10,-1,-1,-1,-1],"split_conditions":[-8.310112E-1,-1.3964537E0,8.653167E-1,1.719592E-3,1.0865956E-3,-7.367707E-1,3.0328467E0,-5.2563765E-4,1.6909279E-4,8.7651267E-4,4.3028123E-3],"split_indices":[0,0,0,0,0,0,0,0,0,0,0],"split_type":[0,0,0,0,0,0,0,0,0,0,0],"sum_hessian":[8.200717E3,1.6693918E3,6.5313247E3,2.2373158E2,1.4456603E3,4.9202583E3,1.6110667E3,3.0042126E2,4.619837E3,1.585985E3,2.5081741E1],"tree_param":{"num_deleted":"0","num_feature":"3","num_nodes":"11","size_leaf_vector":"1"}},{"base_weights":[2.73492E-2,-2.0093268E-3,9.6959926E-2,-4.974484E-2,3.9896234E-3,6.567696E-2,1.5190578E-1,-1.5940108E-4,-1.1493388E-3,2.204408E-4,-4.471193E-5,7.008538E-4,-1.2664886E-5,1.6427054E-3,4.6405237E-4],"categories":[],"categories_nodes":[],"categories_segments":[],"categories_sizes":[],"default_left":[0,0,0,0,0,0,0,0,0,0,0,0,0,0,0],"id":2,"left_children":[1,3,5,7,9,11,13,-1,-1,-1,-1,-1,-1,-1,-1],"loss_changes":[1.671994E1,1.648307E0,4.1615925E0,1.414267E0,7.8124595E-1,4.5699406E-1,1.1399441E0,0E0,0E0,0E0,0E0,0E0,0E0,0E0,0E0],"parents":[2147483647,0,0,1,1,2,2,3,3,4,4,5,5,6,6],"right_children":[2,4,6,8,10,12,14,-1,-1,-1,-1,-1,-1,-1,-1],"split_conditions":[4.8835495E-1,-1.2079729E0,1.4307593E0,-1.3022133E0,-6.4253026E-1,1.3365189E0,2.655885E0,-1.5940108E-4,-1.1493388E-3,2.204408E-4,-4.471193E-5,7.008538E-4,-1.2664886E-5,1.6427054E-3,4.6405237E-4],"split_indices":[0,0,0,0,0,0,0,0,0,0,0,0,0,0,0],"split_type":[0,0,0,0,0,0,0,0,0,0,0,0,0,0,0],"sum_hessian":[8.1802407E3,5.7543135E3,2.4259272E3,6.416012E2,5.1127124E3,1.5472235E3,8.7870386E2,4.2332455E2,2.1827661E2,1.6309143E3,3.4817979E3,1.4515852E3,9.5638275E1,7.860239E2,9.267992E1],"tree_param":{"num_deleted":"0","num_feature":"3","num_nodes":"15","size_leaf_vector":"1"}},{"base_weights":[-1.8300347E-2,-1.0337451E-3,2.8678714E-4],"categories":[],"categories_nodes":[],"categories_segments":[],"categories_sizes":[],"default_left":[0,0,0],"id":3,"left_children":[1,-1,-1],"loss_changes":[3.2589016E1,0E0,0E0],"parents":[2147483647,0,0],"right_children":[2,-1,-1],"split_conditions":[7.8633666E-1,-1.0337451E-3,2.8678714E-4],"split_indices":[1,0,0],"split_type":[0,0,0],"sum_hessian":[8.1522305E3,2.8997986E3,5.252432E3],"tree_param":{"num_deleted":"0","num_feature":"3","num_nodes":"3","size_leaf_vector":"1"}},{"base_weights":[-3.278034E-2,9.6270135E-3,-1.0843257E-1,3.1484056E-2,-2.3395458E-2,-9.3271144E-2,-1.4457466E-1,-2.2308007E-3,3.4267746E-4,-9.832202E-4,1.0362374E-5,-1.0538752E-3,-7.7514196E-5,-2.5235945E-3,-1.1549726E-3],"categories":[],"categories_nodes":[],"categories_segments":[],"categories_sizes":[],"default_left":[0,0,0,0,0,0,0,0,0,0,0,0,0,0,0],"id":4,"left_children":[1,3,5,7,9,11,13,-1,-1,-1,-1,-1,-1,-1,-1],"loss_changes":[2.6256529E1,3.78651E0,1.5973892E0,2.2444565E0,3.825208E0,2.1480293E0,2.6879501E0,0E0,0E0,0E0,0E0,0E0,0E0,0E0,0E0],"parents":[2147483647,0,0,1,1,2,2,3,3,4,4,5,5,6,6],"right_children":[2,4,6,8,10,12,14,-1,-1,-1,-1,-1,-1,-1,-1],"split_conditions":[2.8917593E-1,-5.2986085E-1,1.4561336E0,-1.4757465E0,-3.4611264E-1,1.2898729E0,1.5840266E0,-2.2308007E-3,3.4267746E-4,-9.832202E-4,1.0362374E-5,-1.0538752E-3,-7.7514196E-5,-2.5235945E-3,-1.1549726E-3],"split_indices":[2,2,2,2,2,2,2,0,0,0,0,0,0,0,0],"split_type":[0,0,0,0,0,0,0,0,0,0,0,0,0,0,0],"sum_hessian":[8.1828394E3,5.244098E3,2.938741E3,3.1555422E3,2.088556E3,2.0727947E3,8.6594635E2,3.3276955E1,3.1222654E3,5.128217E2,1.5757343E3,1.8153629E3,2.5743182E2,1.8234538E2,6.8360095E2],"tree_param":{"num_deleted":"0","num_feature":"3","num_nodes":"15","size_leaf_vector":"1"}},{"base_weights":[-5.7811655E-2,-1.8985503E-3,1.4960686E-4],"categories":[],"categories_nodes":[],"categories_segments":[],"categories_sizes":[],"default_left":[0,0,0],"id":5,"left_children":[1,-1,-1],"loss_changes":[7.8980736E1,0E0,0E0],"parents":[2147483647,0,0],"right_children":[2,-1,-1],"split_conditions":[7.8633666E-1,-1.8985503E-3,1.4960686E-4],"split_indices":[1,0,0],"split_type":[0,0,0],"sum_hessian":[8.218067E3,2.9193604E3,5.298707E3],"tree_param":{"num_deleted":"0","num_feature":"3","num_nodes":"3","size_leaf_vector":"1"}},{"base_weights":[2.0897591E-2,2.665317E-3,-1.1258766E-3],"categories":[],"categories_nodes":[],"categories_segments":[],"categories_sizes":[],"default_left":[0,0,0],"id":6,"left_children":[1,-1,-1],"loss_changes":[2.6930396E2,0E0,0E0],"parents":[2147483647,0,0],"right_children":[2,-1,-1],"split_conditions":[7.8633666E-1,2.665317E-3,-1.1258766E-3],"split_indices":[1,0,0],"split_type":[0,0,0],"sum_hessian":[8.211443E3,2.8908403E3,5.320603E3],"tree_param":{"num_deleted":"0","num_feature":"3","num_nodes":"3","size_leaf_vector":"1"}},{"base_weights":[5.013357E-2,1.2810835E-1,3.0101927E-2,1.1331314E-3,1.4403475E-3,3.1900797E-3,8.369542E-2,-7.920523E-4,9.5555006E-5,7.879131E-4,5.0477283E-3],"categories":[],"categories_nodes":[],"categories_segments":[],"categories_sizes":[],"default_left":[0,0,0,0,0,0,0,0,0,0,0],"id":7,"left_children":[1,3,5,-1,-1,7,9,-1,-1,-1,-1],"loss_changes":[1.2882612E1,3.8095093E-1,9.468748E0,0E0,0E0,2.2935748E0,4.4921503E0,0E0,0E0,0E0,0E0],"parents":[2147483647,0,0,1,1,2,2,5,5,6,6],"right_children":[2,4,6,-1,-1,8,10,-1,-1,-1,-1],"split_conditions":[-8.310112E-1,-1.1137325E0,5.8259535E-1,1.1331314E-3,1.4403475E-3,-7.367707E-1,3.0328467E0,-7.920523E-4,9.5555006E-5,7.879131E-4,5.0477283E-3],"split_indices":[0,0,0,0,0,0,0,0,0,0,0],"split_type":[0,0,0,0,0,0,0,0,0,0,0],"sum_hessian":[8.249175E3,1.6849554E3,6.5642188E3,8.7770557E2,8.072498E2,4.3705947E3,2.1936243E3,3.126139E2,4.057981E3,2.1695437E3,2.4080645E1],"tree_param":{"num_deleted":"0","num_feature":"3","num_nodes":"11","size_leaf_vector":"1"}},{"base_weights":[2.2792952E-2],"categories":[],"categories_nodes":[],"categories_segments":[],"categories_sizes":[],"default_left":[0],"id":8,"left_children":[-1],"loss_changes":[0E0],"parents":[2147483647],"right_children":[-1],"split_conditions":[2.2792951E-4],"split_indices":[0],"split_type":[0],"sum_hessian":[8.1866353E3],"tree_param":{"num_deleted":"0","num_feature":"3","num_nodes":"1","size_leaf_vector":"1"}},{"base_weights":[-4.906886E-3,4.5283005E-2,-4.2673085E-2,8.074752E-2,2.4639107E-2,-5.6207795E-2,1.4074892E-2,6.255191E-4,1.5319027E-3,-1.042342E-4,6.727486E-4,-4.4002302E-4,-1.7366399E-3,9.809929E-4,-3.2951936E-4],"categories":[],"categories_nodes":[],"categories_segments":[],"categories_sizes":[],"default_left":[0,0,0,0,0,0,0,0,0,0,0,0,0,0,0],"id":9,"left_children":[1,3,5,7,9,11,13,-1,-1,-1,-1,-1,-1,-1,-1],"loss_changes":[1.5553616E1,2.5775423E0,3.597085E0,1.698596E0,3.3320408E0,5.4125195E0,3.569325E0,0E0,0E0,0E0,0E0,0E0,0E0,0E0,0E0],"parents":[2147483647,0,0,1,1,2,2,3,3,4,4,5,5,6,6],"right_children":[2,4,6,8,10,12,14,-1,-1,-1,-1,-1,-1,-1,-1],"split_conditions":[-4.0353394E-1,-1.1176463E0,1.4376022E0,-1.193338E0,-7.4388576E-1,1.2157471E0,1.644841E0,6.255191E-4,1.5319027E-3,-1.042342E-4,6.727486E-4,-4.4002302E-4,-1.7366399E-3,9.809929E-4,-3.2951936E-4],"split_indices":[2,2,2,2,2,2,2,0,0,0,0,0,0,0,0],"split_type":[0,0,0,0,0,0,0,0,0,0,0,0,0,0,0],"sum_hessian":[8.203608E3,3.5223442E3,4.6812646E3,1.2949003E3,2.2274438E3,3.7797766E3,9.0148816E2,1.036439E3,2.5846133E2,1.2226907E3,1.0047533E3,3.4252188E3,3.545579E2,3.2310306E2,5.783851E2],"tree_param":{"num_deleted":"0","num_feature":"3","num_nodes":"15","size_leaf_vector":"1"}},{"base_weights":[-3.5015497E-2,1.0097805E-2,-1.0192661E-1,6.436964E-3,9.8672554E-2,-9.0701886E-2,-1.6613698E-1,1.1972832E-4,-1.9017381E-3,2.2034834E-3,-2.0464463E-4,-9.4949786E-4,-4.0513543E-5,-2.3615037E-3,-6.535091E-4],"categories":[],"categories_nodes":[],"categories_segments":[],"categories_sizes":[],"default_left":[0,0,0,0,0,0,0,0,0,0,0,0,0,0,0],"id":10,"left_children":[1,3,5,7,9,11,13,-1,-1,-1,-1,-1,-1,-1,-1],"loss_changes":[2.4812183E1,1.591577E0,2.3707008E0,5.1357727E0,2.82866E0,1.0375366E0,3.4516993E0,0E0,0E0,0E0,0E0,0E0,0E0,0E0,0E0],"parents":[2147483647,0,0,1,1,2,2,3,3,4,4,5,5,6,6],"right_children":[2,4,6,8,10,12,14,-1,-1,-1,-1,-1,-1,-1,-1],"split_conditions":[1.3779245E-1,5.5836577E-2,1.7158346E0,5.033101E-4,9.6031494E-2,1.6286585E0,1.954916E0,1.1972832E-4,-1.9017381E-3,2.2034834E-3,-2.0464463E-4,-9.4949786E-4,-4.0513543E-5,-2.3615037E-3,-6.535091E-4],"split_indices":[2,2,2,2,2,2,2,0,0,0,0,0,0,0,0],"split_type":[0,0,0,0,0,0,0,0,0,0,0,0,0,0,0],"sum_hessian":[8.218476E3,4.909324E3,3.3091514E3,4.715503E3,1.9382153E2,2.818804E3,4.9034747E2,4.5872803E3,1.2822258E2,9.5468796E1,9.8352745E1,2.6869832E3,1.3182082E2,2.885538E2,2.0179367E2],"tree_param":{"num_deleted":"0","num_feature":"3","num_nodes":"15","size_leaf_vector":"1"}},{"base_weights":[-5.0430283E-2,-1.9074039E-3,2.6198156E-4],"categories":[],"categories_nodes":[],"categories_segments":[],"categories_sizes":[],"default_left":[0,0,0],"id":11,"left_children":[1,-1,-1],"loss_changes":[8.8517044E1,0E0,0E0],"parents":[2147483647,0,0],"right_children":[2,-1,-1],"split_conditions":[7.8633666E-1,-1.9074039E-3,2.6198156E-4],"split_indices":[1,0,0],"split_type":[0,0,0],"sum_hessian":[8.231342E3,2.9070017E3,5.32434E3],"tree_param":{"num_deleted":"0","num_feature":"3","num_nodes":"3","size_leaf_vector":"1"}},{"base_weights":[1.914663E-2,-3.285246E-2,7.3782146E-2,-5.1362496E-2,-1.0070394E-2,6.3879E-2,1.6855402E-1,-3.8556533E-4,-1.323121E-3,9.665911E-4,-2.2391176E-4,3.772304E-3,6.1190675E-4,3.4566314E-3,1.1339313E-3],"categories":[],"categories_nodes":[],"categories_segments":[],"categories_sizes":[],"default_left":[0,0,0,0,0,0,0,0,0,0,0,0,0,0,0],"id":12,"left_children":[1,3,5,7,9,11,13,-1,-1,-1,-1,-1,-1,-1,-1],"loss_changes":[2.3245583E1,1.7674465E0,3.733858E0,2.3925161E0,2.4751594E0,3.0212908E0,3.6425638E0,0E0,0E0,0E0,0E0,0E0,0E0,0E0,0E0],"parents":[2147483647,0,0,1,1,2,2,3,3,4,4,5,5,6,6],"right_children":[2,4,6,8,10,12,14,-1,-1,-1,-1,-1,-1,-1,-1],"split_conditions":[-1.5035814E-1,-8.075712E-1,1.7946584E0,-9.067535E-1,-7.4388576E-1,-1.3991791E-1,1.8724382E0,-3.8556533E-4,-1.323121E-3,9.665911E-4,-2.2391176E-4,3.772304E-3,6.1190675E-4,3.4566314E-3,1.1339313E-3],"split_indices":[2,2,2,2,2,2,2,0,0,0,0,0,0,0,0],"split_type":[0,0,0,0,0,0,0,0,0,0,0,0,0,0,0],"sum_hessian":[8.180338E3,4.191498E3,3.9888396E3,2.3118806E3,1.8796176E3,3.6129768E3,3.7586276E2,1.9973784E3,3.1450235E2,1.9381743E2,1.6858002E3,2.9547844E1,3.583429E3,8.801145E1,2.8785132E2],"tree_param":{"num_deleted":"0","num_feature":"3","num_nodes":"15","size_leaf_vector":"1"}},{"base_weights":[4.9967248E-2,1.15870476E-1,3.336862E-2,1.4453004E-3,9.779833E-4,1.4516277E-2,8.311734E-2,-4.5058187E-4,1.8648144E-4,7.993486E-4,3.1945922E-3],"categories":[],"categories_nodes":[],"categories_segments":[],"categories_sizes":[],"default_left":[0,0,0,0,0,0,0,0,0,0,0],"id":13,"left_children":[1,3,5,-1,-1,7,9,-1,-1,-1,-1],"loss_changes":[8.9982815E0,8.4319496E-1,6.1654553E0,0E0,0E0,1.1748474E0,1.3333826E0,0E0,0E0,0E0,0E0],"parents":[2147483647,0,0,1,1,2,2,5,5,6,6],"right_children":[2,4,6,-1,-1,8,10,-1,-1,-1,-1],"split_conditions":[-8.310112E-1,-1.2079729E0,7.7107626E-1,1.4453004E-3,9.779833E-4,-7.367707E-1,3.0328467E0,-4.5058187E-4,1.8648144E-4,7.993486E-4,3.1945922E-3],"split_indices":[0,0,0,0,0,0,0,0,0,0,0],"split_type":[0,0,0,0,0,0,0,0,0,0,0],"sum_hessian":[8.22838E3,1.6542723E3,6.574107E3,6.3703613E2,1.01723627E3,4.7684053E3,1.8057018E3,3.0862692E2,4.4597783E3,1.7830304E3,2.2671352E1],"tree_param":{"num_deleted":"0","num_feature":"3","num_nodes":"11","size_leaf_vector":"1"}},{"base_weights":[2.5895033E-2,-4.2319302E-3,7.359561E-2,1.14974165E-2,-1.7192312E-2,5.0311547E-2,1.1922556E-1,-5.8670314E-5,3.8130162E-4,-6.602417E-4,-1.0560124E-4,5.561765E-4,-5.112077E-4,1.2764517E-3,3.186959E-4],"categories":[],"categories_nodes":[],"categories_segments":[],"categories_sizes":[],"default_left":[0,0,0,0,0,0,0,0,0,0,0,0,0,0,0],"id":14,"left_children":[1,3,5,7,9,11,13,-1,-1,-1,-1,-1,-1,-1,-1],"loss_changes":[1.1819075E1,1.0279616E0,3.3764515E0,1.0537549E0,8.946101E-1,1.1383076E0,7.865429E-1,0E0,0E0,0E0,0E0,0E0,0E0,0E0,0E0],"parents":[2147483647,0,0,1,1,2,2,3,3,4,4,5,5,6,6],"right_children":[2,4,6,8,10,12,14,-1,-1,-1,-1,-1,-1,-1,-1],"split_conditions":[2.0563364E-1,-6.4253026E-1,1.2422785E0,-9.252516E-1,-5.4828984E-1,1.148038E0,2.655885E0,-5.8670314E-5,3.8130162E-4,-6.602417E-4,-1.0560124E-4,5.561765E-4,-5.112077E-4,1.2764517E-3,3.186959E-4],"split_indices":[0,0,0,0,0,0,0,0,0,0,0,0,0,0,0],"split_type":[0,0,0,0,0,0,0,0,0,0,0,0,0,0,0],"sum_hessian":[8.2231875E3,5.0405586E3,3.1826292E3,2.2770876E3,2.763471E3,2.1087024E3,1.0739268E3,1.3788577E3,8.982301E2,3.2937494E2,2.434096E3,2.0043052E3,1.04397095E2,9.790975E2,9.482932E1],"tree_param":{"num_deleted":"0","num_feature":"3","num_nodes":"15","size_leaf_vector":"1"}},{"base_weights":[-4.996537E-3,5.612333E-2,-1.7241033E-2,4.5524694E-2,4.444569E-3,-1.9015988E-2,1.0239282E-3,-6.6839624E-5,7.964661E-4,-1.4726484E-4,-9.129919E-4],"categories":[],"categories_nodes":[],"categories_segments":[],"categories_sizes":[],"default_left":[0,0,0,0,0,0,0,0,0,0,0],"id":15,"left_children":[1,3,5,7,-1,9,-1,-1,-1,-1,-1],"loss_changes":[6.1503043E0,5.6251063E0,1.4557064E0,2.3810928E0,0E0,2.0906165E0,0E0,0E0,0E0,0E0,0E0],"parents":[2147483647,0,0,1,1,2,2,3,3,5,5],"right_children":[2,4,6,8,-1,10,-1,-1,-1,-1,-1],"split_conditions":[-1.0920677E0,-1.1019859E0,2.0319128E0,-1.3274951E0,4.444569E-3,1.7158346E0,1.0239282E-3,-6.6839624E-5,7.964661E-4,-1.4726484E-4,-9.129919E-4],"split_indices":[2,2,2,2,0,2,0,0,0,0,0],"split_type":[0,0,0,0,0,0,0,0,0,0,0],"sum_hessian":[8.215844E3,1.3706243E3,6.845219E3,1.3352977E3,3.532653E1,6.745973E3,9.924608E1,5.280905E2,8.072072E2,6.3692085E3,3.7676443E2],"tree_param":{"num_deleted":"0","num_feature":"3","num_nodes":"11","size_leaf_vector":"1"}},{"base_weights":[-2.575639E-2,-1.157231E-1,-1.4942691E-2,-2.4645098E-3,-1.0626364E-3,-4.236044E-3,-8.472444E-2,-3.856232E-4,8.660325E-5,-1.2529199E-3,-5.010913E-4],"categories":[],"categories_nodes":[],"categories_segments":[],"categories_sizes":[],"default_left":[0,0,0,0,0,0,0,0,0,0,0],"id":16,"left_children":[1,3,5,-1,-1,7,9,-1,-1,-1,-1],"loss_changes":[7.942106E0,1.0570736E0,5.4464674E0,0E0,0E0,2.7988207E0,1.355454E0,0E0,0E0,0E0,0E0],"parents":[2147483647,0,0,1,1,2,2,5,5,6,6],"right_children":[2,4,6,-1,-1,8,10,-1,-1,-1,-1],"split_conditions":[-1.1137325E0,-1.4906942E0,1.3365189E0,-2.4645098E-3,-1.0626364E-3,-5.4828984E-1,1.807721E0,-3.856232E-4,8.660325E-5,-1.2529199E-3,-5.010913E-4],"split_indices":[0,0,0,0,0,0,0,0,0,0,0],"split_type":[0,0,0,0,0,0,0,0,0,0,0],"sum_hessian":[8.164336E3,8.749892E2,7.2893467E3,5.7351368E1,8.176378E2,6.32063E3,9.6871655E2,1.7256024E3,4.595028E3,4.4480548E2,5.23911E2],"tree_param":{"num_deleted":"0","num_feature":"3","num_nodes":"11","size_leaf_vector":"1"}},{"base_weights":[-4.6444647E-2,-1.98257E-3,3.6152307E-4],"categories":[],"categories_nodes":[],"categories_segments":[],"categories_sizes":[],"default_left":[0,0,0],"id":17,"left_children":[1,-1,-1],"loss_changes":[1.0240974E2,0E0,0E0],"parents":[2147483647,0,0],"right_children":[2,-1,-1],"split_conditions":[7.8633666E-1,-1.98257E-3,3.6152307E-4],"split_indices":[1,0,0],"split_type":[0,0,0],"sum_hessian":[8.16557E3,2.876744E3,5.288826E3],"tree_param":{"num_deleted":"0","num_feature":"3","num_nodes":"3","size_leaf_vector":"1"}},{"base_weights":[1.0777305E-2,-3.9086677E-2,6.315784E-2,-5.7749245E-2,-1.7187946E-2,5.6053173E-2,1.4238541E-1,-5.060722E-4,-2.1611126E-3,7.618504E-4,-3.0874796E-4,1.9232441E-3,5.2639865E-4,2.335442E-3,1.1948074E-3],"categories":[],"categories_nodes":[],"categories_segments":[],"categories_sizes":[],"default_left":[0,0,0,0,0,0,0,0,0,0,0,0,0,0,0],"id":18,"left_children":[1,3,5,7,9,11,13,-1,-1,-1,-1,-1,-1,-1,-1],"loss_changes":[2.146089E1,1.7193899E0,2.2475529E0,2.559062E0,2.4794207E0,1.7010984E0,6.5927076E-1,0E0,0E0,0E0,0E0,0E0,0E0,0E0,0E0],"parents":[2147483647,0,0,1,1,2,2,3,3,4,4,5,5,6,6],"right_children":[2,4,6,8,10,12,14,-1,-1,-1,-1,-1,-1,-1,-1],"split_conditions":[-1.5035814E-1,-8.169674E-1,1.8468596E0,-8.477661E-1,-7.337065E-1,-1.13817304E-1,1.9011488E0,-5.060722E-4,-2.1611126E-3,7.618504E-4,-3.0874796E-4,1.9232441E-3,5.2639865E-4,2.335442E-3,1.1948074E-3],"split_indices":[2,2,2,2,2,2,2,0,0,0,0,0,0,0,0],"split_type":[0,0,0,0,0,0,0,0,0,0,0,0,0,0,0],"sum_hessian":[8.21463E3,4.208539E3,4.0060913E3,2.2712737E3,1.9372651E3,3.6779788E3,3.2811243E2,2.1745237E3,9.675003E1,2.4708202E2,1.6901831E3,8.852194E1,3.5894568E3,6.404036E1,2.6407205E2],"tree_param":{"num_deleted":"0","num_feature":"3","num_nodes":"15","size_leaf_vector":"1"}},{"base_weights":[5.2986413E-2,3.251233E-3,9.553631E-2,-6.4072125E-2,2.3422634E-2,6.450386E-2,1.1607487E-1,-2.543191E-4,-8.284097E-4,5.691263E-4,-6.434033E-5,8.8952534E-4,-1.4880465E-4,1.1955491E-3,-1.606217E-4],"categories":[],"categories_nodes":[],"categories_segments":[],"categories_sizes":[],"default_left":[0,0,0,0,0,0,0,0,0,0,0,0,0,0,0],"id":19,"left_children":[1,3,5,7,9,11,13,-1,-1,-1,-1,-1,-1,-1,-1],"loss_changes":[1.7385061E1,5.1467853E0,2.8143806E0,6.315756E-1,2.9161596E0,3.4278898E0,1.226448E0,0E0,0E0,0E0,0E0,0E0,0E0,0E0,0E0],"parents":[2147483647,0,0,1,1,2,2,3,3,4,4,5,5,6,6],"right_children":[2,4,6,8,10,12,14,-1,-1,-1,-1,-1,-1,-1,-1],"split_conditions":[-3.090498E-1,-1.236143E0,4.1237074E-1,-1.4037088E0,-8.2740766E-1,2.317546E-1,2.0658436E0,-2.543191E-4,-8.284097E-4,5.691263E-4,-6.434033E-5,8.8952534E-4,-1.4880465E-4,1.1955491E-3,-1.606217E-4],"split_indices":[2,2,2,2,2,2,2,0,0,0,0,0,0,0,0],"split_type":[0,0,0,0,0,0,0,0,0,0,0,0,0,0,0],"sum_hessian":[8.2142705E3,3.7878513E3,4.4264194E3,8.727651E2,2.9150864E3,1.7645056E3,2.6619138E3,2.8610464E2,5.8666046E2,1.3735168E3,1.5415695E3,1.3489404E3,4.1556516E2,2.5936995E3,6.821427E1],"tree_param":{"num_deleted":"0","num_feature":"3","num_nodes":"15","size_leaf_vector":"1"}},{"base_weights":[2.540048E-2,-2.133019E-2,6.396926E-2,-3.3233654E-2,-4.9530067E-3,5.5497248E-2,1.2069157E-1,5.8315286E-6,-4.388817E-4,7.166677E-4,-1.5455211E-4,1.1162622E-3,4.8096853E-4,1.7596703E-3,1.6501363E-4],"categories":[],"categories_nodes":[],"categories_segments":[],"categories_sizes":[],"default_left":[0,0,0,0,0,0,0,0,0,0,0,0,0,0,0],"id":20,"left_children":[1,3,5,7,9,11,13,-1,-1,-1,-1,-1,-1,-1,-1],"loss_changes":[1.4854671E1,7.264011E-1,2.1630306E0,7.7760243E-1,1.2643677E0,1.62714E0,3.371296E0,0E0,0E0,0E0,0E0,0E0,0E0,0E0,0E0],"parents":[2147483647,0,0,1,1,2,2,3,3,4,4,5,5,6,6],"right_children":[2,4,6,8,10,12,14,-1,-1,-1,-1,-1,-1,-1,-1],"split_conditions":[-3.4611264E-1,-8.602944E-1,1.644841E0,-1.3363693E0,-7.966089E-1,-1.7437069E-1,1.954916E0,5.8315286E-6,-4.388817E-4,7.166677E-4,-1.5455211E-4,1.1162622E-3,4.8096853E-4,1.7596703E-3,1.6501363E-4],"split_indices":[2,2,2,2,2,2,2,0,0,0,0,0,0,0,0],"split_type":[0,0,0,0,0,0,0,0,0,0,0,0,0,0,0],"sum_hessian":[8.2401E3,3.7260244E3,4.514075E3,2.1571265E3,1.568898E3,3.9291914E3,5.848837E2,5.170346E2,1.6400919E3,1.8842229E2,1.3804756E3,4.5606195E2,3.4731296E3,3.8169583E2,2.0318793E2],"tree_param":{"num_deleted":"0","num_feature":"3","num_nodes":"15","size_leaf_vector":"1"}},{"base_weights":[-1.1615843E-2,-1.2145332E-3,4.738786E-4],"categories":[],"categories_nodes":[],"categories_segments":[],"categories_sizes":[],"default_left":[0,0,0],"id":21,"left_children":[1,-1,-1],"loss_changes":[5.33212E1,0E0,0E0],"parents":[2147483647,0,0],"right_children":[2,-1,-1],"split_conditions":[7.8633666E-1,-1.2145332E-3,4.738786E-4],"split_indices":[1,0,0],"split_type":[0,0,0],"sum_hessian":[8.225654E3,2.8741897E3,5.3514644E3],"tree_param":{"num_deleted":"0","num_feature":"3","num_nodes":"3","size_leaf_vector":"1"}},{"base_weights":[-3.6229096E-2,-2.5065847E-2,-1.1911938E-1,-6.618846E-2,-6.4116493E-3,-1.21061735E-1,1.7994855E-3,-1.6838259E-3,-5.5583054E-4,3.85642E-5,-4.7129835E-4,-1.1916705E-3,-3.331484E-3],"categories":[],"categories_nodes":[],"categories_segments":[],"categories_sizes":[],"default_left":[0,0,0,0,0,0,0,0,0,0,0,0,0],"id":22,"left_children":[1,3,5,7,9,11,-1,-1,-1,-1,-1,-1,-1],"loss_changes":[7.602412E0,5.557203E0,5.8831406E-1,2.4408798E0,2.084451E0,3.4990692E-1,0E0,0E0,0E0,0E0,0E0,0E0,0E0],"parents":[2147483647,0,0,1,1,2,2,3,3,4,4,5,5],"right_children":[2,4,6,8,10,12,-1,-1,-1,-1,-1,-1,-1],"split_conditions":[1.3365189E0,-6.4253026E-1,3.2213275E0,-1.3964537E0,6.7683583E-1,3.127087E0,1.7994855E-3,-1.6838259E-3,-5.5583054E-4,3.85642E-5,-4.7129835E-4,-1.1916705E-3,-3.331484E-3],"split_indices":[0,0,0,0,0,0,0,0,0,0,0,0,0],"split_type":[0,0,0,0,0,0,0,0,0,0,0,0,0],"sum_hessian":[8.218165E3,7.2438955E3,9.742691E2,2.259765E3,4.984131E3,9.685737E2,5.695373E0,2.1106416E2,2.0487007E3,3.981105E3,1.00302594E3,9.6154565E2,7.0280695E0],"tree_param":{"num_deleted":"0","num_feature":"3","num_nodes":"13","size_leaf_vector":"1"}},{"base_weights":[-4.849251E-2,-1.6822041E-3,1.6630383E-4],"categories":[],"categories_nodes":[],"categories_segments":[],"categories_sizes":[],"default_left":[0,0,0],"id":23,"left_children":[1,-1,-1],"loss_changes":[6.4527855E1,0E0,0E0],"parents":[2147483647,0,0],"right_children":[2,-1,-1],"split_conditions":[7.8633666E-1,-1.6822041E-3,1.6630383E-4],"split_indices":[1,0,0],"split_type":[0,0,0],"sum_hessian":[8.274597E3,2.9145808E3,5.360016E3],"tree_param":{"num_deleted":"0","num_feature":"3","num_nodes":"3","size_leaf_vector":"1"}},{"base_weights":[1.8454289E-2,-3.5542443E-2,7.5222045E-2,-5.9798896E-2,-6.26368E-3,5.632541E-2,1.4201556E-1,-5.171409E-4,-1.6007468E-3,8.530439E-4,-1.9824518E-4,7.2093535E-4,7.894463E-5,3.2961348E-3,1.2034986E-3],"categories":[],"categories_nodes":[],"categories_segments":[],"categories_sizes":[],"default_left":[0,0,0,0,0,0,0,0,0,0,0,0,0,0,0],"id":24,"left_children":[1,3,5,7,9,11,13,-1,-1,-1,-1,-1,-1,-1,-1],"loss_changes":[2.5114275E1,2.9819627E0,5.033106E0,1.8535233E0,2.365704E0,2.3781586E0,3.5374832E0,0E0,0E0,0E0,0E0,0E0,0E0,0E0,0E0],"parents":[2147483647,0,0,1,1,2,2,3,3,4,4,5,5,6,6],"right_children":[2,4,6,8,10,12,14,-1,-1,-1,-1,-1,-1,-1,-1],"split_conditions":[-1.5035814E-1,-8.169674E-1,1.4376022E0,-8.681246E-1,-7.337065E-1,9.646594E-1,1.4939795E0,-5.171409E-4,-1.6007468E-3,8.530439E-4,-1.9824518E-4,7.2093535E-4,7.894463E-5,3.2961348E-3,1.2034986E-3],"split_indices":[2,2,2,2,2,2,2,0,0,0,0,0,0,0,0],"split_type":[0,0,0,0,0,0,0,0,0,0,0,0,0,0,0],"sum_hessian":[8.1912876E3,4.1982974E3,3.9929902E3,2.2955063E3,1.9027908E3,3.1138813E3,8.7910895E2,2.1256409E3,1.6986562E2,2.4476324E2,1.6580276E3,2.348703E3,7.6517834E2,8.954526E1,7.8956366E2],"tree_param":{"num_deleted":"0","num_feature":"3","num_nodes":"15","size_leaf_vector":"1"}},{"base_weights":[5.331523E-2,1.3017811E-1,3.373074E-2,1.4024754E-1,1.087096E-3,1.1292074E-2,9.429365E-2,1.2153973E-3,1.6534432E-3,-5.876211E-4,1.6054745E-4,8.936873E-4,4.6681305E-3],"categories":[],"categories_nodes":[],"categories_segments":[],"categories_sizes":[],"default_left":[0,0,0,0,0,0,0,0,0,0,0,0,0],"id":25,"left_children":[1,3,5,7,-1,9,11,-1,-1,-1,-1,-1,-1],"loss_changes":[1.2317709E1,3.4400177E-1,8.865915E0,5.0940895E-1,0E0,1.5897855E0,3.1941957E0,0E0,0E0,0E0,0E0,0E0,0E0],"parents":[2147483647,0,0,1,1,2,2,3,3,5,5,6,6],"right_children":[2,4,6,8,-1,10,12,-1,-1,-1,-1,-1,-1],"split_conditions":[-8.310112E-1,-1.019492E0,7.7107626E-1,-1.2079729E0,1.087096E-3,-7.367707E-1,3.0328467E0,1.2153973E-3,1.6534432E-3,-5.876211E-4,1.6054745E-4,8.936873E-4,4.6681305E-3],"split_indices":[0,0,0,0,0,0,0,0,0,0,0,0,0],"split_type":[0,0,0,0,0,0,0,0,0,0,0,0,0],"sum_hessian":[8.1847007E3,1.6608291E3,6.5238716E3,1.1267932E3,5.340358E2,4.7610723E3,1.7627997E3,6.4891656E2,4.7787668E2,3.0235736E2,4.458715E3,1.7410222E3,2.1777382E1],"tree_param":{"num_deleted":"0","num_feature":"3","num_nodes":"13","size_leaf_vector":"1"}},{"base_weights":[2.807126E-2,3.7707208E-4,2.2806812E-4],"categories":[],"categories_nodes":[],"categories_segments":[],"categories_sizes":[],"default_left":[0,0,0],"id":26,"left_children":[1,-1,-1],"loss_changes":[4.1675472E-1,0E0,0E0],"parents":[2147483647,0,0],"right_children":[2,-1,-1],"split_conditions":[7.8633666E-1,3.7707208E-4,2.2806812E-4],"split_indices":[1,0,0],"split_type":[0,0,0],"sum_hessian":[8.231446E3,2.9060684E3,5.3253774E3],"tree_param":{"num_deleted":"0","num_feature":"3","num_nodes":"3","size_leaf_vector":"1"}},{"base_weights":[-6.0821366E-3,4.3214362E-2,-2.3882668E-2,3.8695183E-2,1.8629886E-1,-1.0272805E-1,-1.937852E-2,4.651518E-4,-5.4615986E-4,2.7161948E-3,8.3504163E-4,-3.159173E-4,-1.704107E-3,1.2506377E-3,-2.416717E-4],"categories":[],"categories_nodes":[],"categories_segments":[],"categories_sizes":[],"default_left":[0,0,0,0,0,0,0,0,0,0,0,0,0,0,0],"id":27,"left_children":[1,3,5,7,9,11,13,-1,-1,-1,-1,-1,-1,-1,-1],"loss_changes":[7.248806E0,1.4099154E0,2.1532884E0,1.5536747E0,5.635147E-1,1.572536E0,3.9748316E0,0E0,0E0,0E0,0E0,0E0,0E0,0E0,0E0],"parents":[2147483647,0,0,1,1,2,2,3,3,4,4,5,5,6,6],"right_children":[2,4,6,8,10,12,14,-1,-1,-1,-1,-1,-1,-1,-1],"split_conditions":[-8.477661E-1,-8.681246E-1,-7.4388576E-1,-9.177157E-1,-8.602944E-1,-7.966089E-1,-6.8698645E-1,4.651518E-4,-5.4615986E-4,2.7161948E-3,8.3504163E-4,-3.159173E-4,-1.704107E-3,1.2506377E-3,-2.416717E-4],"split_indices":[2,2,2,2,2,2,2,0,0,0,0,0,0,0,0],"split_type":[0,0,0,0,0,0,0,0,0,0,0,0,0,0,0],"sum_hessian":[8.258534E3,2.1905723E3,6.0679624E3,2.124735E3,6.583717E1,3.2672992E2,5.7412324E3,1.960902E3,1.6383307E2,3.5078945E1,3.0758226E1,1.6001578E2,1.6671416E2,1.8342361E2,5.5578086E3],"tree_param":{"num_deleted":"0","num_feature":"3","num_nodes":"15","size_leaf_vector":"1"}},{"base_weights":[-2.8781055E-2,1.7823625E-2,-1.1952976E-1,4.3341205E-2,-1.6628178E-2,-2.1557908E-3,-1.1258864E-1,2.1278432E-4,7.9100823E-4,-9.071854E-4,6.0657912E-5,-9.631186E-4,-1.4460232E-3],"categories":[],"categories_nodes":[],"categories_segments":[],"categories_sizes":[],"default_left":[0,0,0,0,0,0,0,0,0,0,0,0,0],"id":28,"left_children":[1,3,5,7,9,-1,11,-1,-1,-1,-1,-1,-1],"loss_changes":[3.4597866E1,4.7527056E0,1.8262215E0,2.4484959E0,3.869046E0,0E0,1.3360176E0,0E0,0E0,0E0,0E0,0E0,0E0],"parents":[2147483647,0,0,1,1,2,2,3,3,4,4,6,6],"right_children":[2,4,6,8,10,-1,12,-1,-1,-1,-1,-1,-1],"split_conditions":[3.5651547E-1,-5.5335134E-1,4.4682354E-1,-9.28678E-1,-3.5655287E-1,-2.1557908E-3,1.4561336E0,2.1278432E-4,7.9100823E-4,-9.071854E-4,6.0657912E-5,-9.631186E-4,-1.4460232E-3],"split_indices":[2,2,2,2,2,0,2,0,0,0,0,0,0],"split_type":[0,0,0,0,0,0,0,0,0,0,0,0,0],"sum_hessian":[8.1789873E3,5.4043477E3,2.7746396E3,3.1045947E3,2.2997527E3,1.8497331E2,2.5896663E3,1.9209888E3,1.183606E3,5.3854266E2,1.7612101E3,1.7194514E3,8.7021484E2],"tree_param":{"num_deleted":"0","num_feature":"3","num_nodes":"13","size_leaf_vector":"1"}},{"base_weights":[-5.4676943E-2,-1.8234975E-3,1.5209448E-4],"categories":[],"categories_nodes":[],"categories_segments":[],"categories_sizes":[],"default_left":[0,0,0],"id":29,"left_children":[1,-1,-1],"loss_changes":[7.3216675E1,0E0,0E0],"parents":[2147483647,0,0],"right_children":[2,-1,-1],"split_conditions":[7.8633666E-1,-1.8234975E-3,1.5209448E-4],"split_indices":[1,0,0],"split_type":[0,0,0],"sum_hessian":[8.204452E3,2.9017485E3,5.302704E3],"tree_param":{"num_deleted":"0","num_feature":"3","num_nodes":"3","size_leaf_vector":"1"}},{"base_weights":[1.5395187E-2,2.5929825E-3,-1.1829276E-3],"categories":[],"categories_nodes":[],"categories_segments":[],"categories_sizes":[],"default_left":[0,0,0],"id":30,"left_children":[1,-1,-1],"loss_changes":[2.6902792E2,0E0,0E0],"parents":[2147483647,0,0],"right_children":[2,-1,-1],"split_conditions":[7.8633666E-1,2.5929825E-3,-1.1829276E-3],"split_indices":[1,0,0],"split_type":[0,0,0],"sum_hessian":[8.248703E3,2.9201611E3,5.328542E3],"tree_param":{"num_deleted":"0","num_feature":"3","num_nodes":"3","size_leaf_vector":"1"}},{"base_weights":[4.3931425E-2,1.7970426E-3,-3.0596528E-4],"categories":[],"categories_nodes":[],"categories_segments":[],"categories_sizes":[],"default_left":[0,0,0],"id":31,"left_children":[1,-1,-1],"loss_changes":[8.355447E1,0E0,0E0],"parents":[2147483647,0,0],"right_children":[2,-1,-1],"split_conditions":[7.8633666E-1,1.7970426E-3,-3.0596528E-4],"split_indices":[1,0,0],"split_type":[0,0,0],"sum_hessian":[8.255747E3,2.925233E3,5.3305146E3],"tree_param":{"num_deleted":"0","num_feature":"3","num_nodes":"3","size_leaf_vector":"1"}},{"base_weights":[2.7231006E-2,-1.732761E-2,5.792456E-2,-3.952723E-2,-5.1726396E-3,3.6935225E-2,8.674283E-2,2.6467125E-4,-4.748386E-4,2.3160274E-3,-9.0967165E-5,7.4936E-4,2.1982456E-4,9.264217E-4,3.0317565E-4],"categories":[],"categories_nodes":[],"categories_segments":[],"categories_sizes":[],"default_left":[0,0,0,0,0,0,0,0,0,0,0,0,0,0,0],"id":32,"left_children":[1,3,5,7,9,11,13,-1,-1,-1,-1,-1,-1,-1,-1],"loss_changes":[1.1296752E1,9.090029E-1,2.9550533E0,6.271696E-1,2.026187E0,1.6072295E0,6.829834E-1,0E0,0E0,0E0,0E0,0E0,0E0,0E0,0E0],"parents":[2147483647,0,0,1,1,2,2,3,3,4,4,5,5,6,6],"right_children":[2,4,6,8,10,12,14,-1,-1,-1,-1,-1,-1,-1,-1],"split_conditions":[-4.7348353E-1,-1.1557531E0,7.375842E-1,-1.4470358E0,-1.1447909E0,-1.7437069E-1,1.954916E0,2.6467125E-4,-4.748386E-4,2.3160274E-3,-9.0967165E-5,7.4936E-4,2.1982456E-4,9.264217E-4,3.0317565E-4],"split_indices":[2,2,2,2,2,2,2,0,0,0,0,0,0,0,0],"split_type":[0,0,0,0,0,0,0,0,0,0,0,0,0,0,0],"sum_hessian":[8.258164E3,3.3684844E3,4.889679E3,1.191004E3,2.1774805E3,2.8304482E3,2.059231E3,1.27893745E2,1.0631102E3,3.4553143E1,2.1429272E3,7.981155E2,2.0323326E3,1.8637333E3,1.9549768E2],"tree_param":{"num_deleted":"0","num_feature":"3","num_nodes":"15","size_leaf_vector":"1"}},{"base_weights":[-1.0726471E-2,-7.688774E-2,2.7371787E-3,-5.3009175E-2,-9.8018706E-2,4.5090042E-2,-3.765705E-3,-9.644512E-4,-3.1192685E-4,-1.3230684E-3,-8.27935E-4,1.7558895E-4,5.765941E-4,-1.4559562E-4,3.4313943E-4],"categories":[],"categories_nodes":[],"categories_segments":[],"categories_sizes":[],"default_left":[0,0,0,0,0,0,0,0,0,0,0,0,0,0,0],"id":33,"left_children":[1,3,5,7,9,11,13,-1,-1,-1,-1,-1,-1,-1,-1],"loss_changes":[7.2831435E0,6.923809E-1,1.8714763E0,6.1410904E-1,3.713212E-1,3.1197095E-1,2.4218686E0,0E0,0E0,0E0,0E0,0E0,0E0,0E0,0E0],"parents":[2147483647,0,0,1,1,2,2,3,3,4,4,5,5,6,6],"right_children":[2,4,6,8,10,12,14,-1,-1,-1,-1,-1,-1,-1,-1],"split_conditions":[-9.252516E-1,-1.2079729E0,-6.4253026E-1,-1.3964537E0,-1.1137325E0,-8.310112E-1,1.0537976E0,-9.644512E-4,-3.1192685E-4,-1.3230684E-3,-8.27935E-4,1.7558895E-4,5.765941E-4,-1.4559562E-4,3.4313943E-4],"split_indices":[0,0,0,0,0,0,0,0,0,0,0,0,0,0,0],"split_type":[0,0,0,0,0,0,0,0,0,0,0,0,0,0,0],"sum_hessian":[8.1749766E3,1.3814972E3,6.7934795E3,6.502291E2,7.31268E2,9.034479E2,5.8900312E3,2.1625381E2,4.3397534E2,2.2249811E2,5.087699E2,2.8393396E2,6.195139E2,4.5896816E3,1.3003496E3],"tree_param":{"num_deleted":"0","num_feature":"3","num_nodes":"15","size_leaf_vector":"1"}},{"base_weights":[-3.1157408E-2,-2.1638382E-2,-1.0222657E-1,-6.619454E-4,-6.7535625E-4,-1.4882416E-1,-8.370926E-2,6.0413894E-4,-1.4551595E-4,-9.2936214E-4,-1.7903368E-3,-8.6190086E-4,1.8749576E-3],"categories":[],"categories_nodes":[],"categories_segments":[],"categories_sizes":[],"default_left":[0,0,0,0,0,0,0,0,0,0,0,0,0],"id":34,"left_children":[1,3,5,-1,7,9,11,-1,-1,-1,-1,-1,-1],"loss_changes":[5.556949E0,6.7698693E0,8.248358E-1,0E0,4.1800127E0,4.4709444E-1,4.8491E-1,0E0,0E0,0E0,0E0,0E0,0E0],"parents":[2147483647,0,0,1,1,2,2,4,4,5,5,6,6],"right_children":[2,4,6,-1,8,10,12,-1,-1,-1,-1,-1,-1],"split_conditions":[1.3365189E0,-6.4253026E-1,1.6192402E0,-6.619454E-4,-3.5980898E-1,1.4307593E0,3.2213275E0,6.0413894E-4,-1.4551595E-4,-9.2936214E-4,-1.7903368E-3,-8.6190086E-4,1.8749576E-3],"split_indices":[0,0,0,0,0,0,0,0,0,0,0,0,0],"split_type":[0,0,0,0,0,0,0,0,0,0,0,0,0],"sum_hessian":[8.216422E3,7.2470537E3,9.69368E2,2.3180225E3,4.929031E3,2.7366672E2,6.957013E2,9.117512E2,4.0172798E3,9.7453384E1,1.7621332E2,6.900711E2,5.6301794E0],"tree_param":{"num_deleted":"0","num_feature":"3","num_nodes":"13","size_leaf_vector":"1"}},{"base_weights":[-4.3876976E-2,-9.377796E-3,-1.3718821E-1,3.3936016E-2,-4.1192297E-2,-1.0549395E-1,-1.5445739E-1,1.6310408E-4,1.2526455E-3,-6.421617E-4,1.9252562E-4,-1.743794E-3,-2.5891827E-4,-3.405158E-3,-1.408123E-3],"categories":[],"categories_nodes":[],"categories_segments":[],"categories_sizes":[],"default_left":[0,0,0,0,0,0,0,0,0,0,0,0,0,0,0],"id":35,"left_children":[1,3,5,7,9,11,13,-1,-1,-1,-1,-1,-1,-1,-1],"loss_changes":[2.635278E1,8.239025E0,1.1931458E0,4.0737934E0,4.7982173E0,4.286295E0,3.5779305E0,0E0,0E0,0E0,0E0,0E0,0E0,0E0,0E0],"parents":[2147483647,0,0,1,1,2,2,3,3,4,4,5,5,6,6],"right_children":[2,4,6,8,10,12,14,-1,-1,-1,-1,-1,-1,-1,-1],"split_conditions":[6.4832014E-1,-7.337065E-1,1.0982945E0,-8.681246E-1,1.9312572E-1,8.879236E-1,1.1562377E0,1.6310408E-4,1.2526455E-3,-6.421617E-4,1.9252562E-4,-1.743794E-3,-2.5891827E-4,-3.405158E-3,-1.408123E-3],"split_indices":[2,2,2,2,2,2,2,0,0,0,0,0,0,0,0],"split_type":[0,0,0,0,0,0,0,0,0,0,0,0,0,0,0],"sum_hessian":[8.1856245E3,5.9769263E3,2.2086982E3,2.531014E3,3.4459124E3,7.815051E2,1.4271931E3,2.1225574E3,4.0845645E2,2.4953525E3,9.505598E2,4.1831573E2,3.6318936E2,9.587881E1,1.3313143E3],"tree_param":{"num_deleted":"0","num_feature":"3","num_nodes":"15","size_leaf_vector":"1"}},{"base_weights":[9.865234E-3,-3.838236E-2,5.984749E-2,-4.4834968E-2,-1.2587907E-2,4.4532962E-2,1.1325676E-1,-2.927557E-4,-5.941665E-4,8.024773E-4,-5.4441404E-4,2.4845055E-3,4.270645E-4,2.1504548E-3,9.565613E-4],"categories":[],"categories_nodes":[],"categories_segments":[],"categories_sizes":[],"default_left":[0,0,0,0,0,0,0,0,0,0,0,0,0,0,0],"id":36,"left_children":[1,3,5,7,9,11,13,-1,-1,-1,-1,-1,-1,-1,-1],"loss_changes":[1.9902824E1,6.9842434E-1,3.3105965E0,7.603302E-1,3.2748983E0,1.1633687E0,1.5966158E0,0E0,0E0,0E0,0E0,0E0,0E0,0E0,0E0],"parents":[2147483647,0,0,1,1,2,2,3,3,4,4,5,5,6,6],"right_children":[2,4,6,8,10,12,14,-1,-1,-1,-1,-1,-1,-1,-1],"split_conditions":[-1.5035814E-1,-4.6199927E-1,1.4376022E0,-1.014288E0,-3.6542708E-1,-1.3991791E-1,1.5187751E0,-2.927557E-4,-5.941665E-4,8.024773E-4,-5.4441404E-4,2.4845055E-3,4.270645E-4,2.1504548E-3,9.565613E-4],"split_indices":[2,2,2,2,2,2,2,0,0,0,0,0,0,0,0],"split_type":[0,0,0,0,0,0,0,0,0,0,0,0,0,0,0],"sum_hessian":[8.251263E3,4.198605E3,4.052658E3,3.3578774E3,8.407276E2,3.150982E3,9.016761E2,1.6259326E3,1.7319448E3,2.6096387E2,5.7976373E2,2.6774405E1,3.1242075E3,1.312732E2,7.704029E2],"tree_param":{"num_deleted":"0","num_feature":"3","num_nodes":"15","size_leaf_vector":"1"}},{"base_weights":[5.481795E-2,2.017278E-3,-2.6800038E-4],"categories":[],"categories_nodes":[],"categories_segments":[],"categories_sizes":[],"default_left":[0,0,0],"id":37,"left_children":[1,-1,-1],"loss_changes":[9.907646E1,0E0,0E0],"parents":[2147483647,0,0],"right_children":[2,-1,-1],"split_conditions":[7.8633666E-1,2.017278E-3,-2.6800038E-4],"split_indices":[1,0,0],"split_type":[0,0,0],"sum_hessian":[8.261472E3,2.950033E3,5.311439E3],"tree_param":{"num_deleted":"0","num_feature":"3","num_nodes":"3","size_leaf_vector":"1"}},{"base_weights":[2.3552684E-2,1.5123039E-4,2.8138372E-4],"categories":[],"categories_nodes":[],"categories_segments":[],"categories_sizes":[],"default_left":[0,0,0],"id":38,"left_children":[1,-1,-1],"loss_changes":[3.1844997E-1,0E0,0E0],"parents":[2147483647,0,0],"right_children":[2,-1,-1],"split_conditions":[7.8633666E-1,1.5123039E-4,2.8138372E-4],"split_indices":[1,0,0],"split_type":[0,0,0],"sum_hessian":[8.248127E3,2.907574E3,5.3405527E3],"tree_param":{"num_deleted":"0","num_feature":"3","num_nodes":"3","size_leaf_vector":"1"}},{"base_weights":[-1.0891347E-2,-1.0840246E-3,4.2469986E-4],"categories":[],"categories_nodes":[],"categories_segments":[],"categories_sizes":[],"default_left":[0,0,0],"id":39,"left_children":[1,-1,-1],"loss_changes":[4.2746197E1,0E0,0E0],"parents":[2147483647,0,0],"right_children":[2,-1,-1],"split_conditions":[7.8633666E-1,-1.0840246E-3,4.2469986E-4],"split_indices":[1,0,0],"split_type":[0,0,0],"sum_hessian":[8.213289E3,2.9045532E3,5.308736E3],"tree_param":{"num_deleted":"0","num_feature":"3","num_nodes":"3","size_leaf_vector":"1"}},{"base_weights":[-2.5503887E-2,-1.4556537E-3,-1.9032033E-2,-6.257051E-4,-7.238295E-2,-3.6187167E-4,1.6062247E-4,-6.944626E-4,-2.3333924E-3],"categories":[],"categories_nodes":[],"categories_segments":[],"categories_sizes":[],"default_left":[0,0,0,0,0,0,0,0,0],"id":40,"left_children":[1,-1,3,5,7,-1,-1,-1,-1],"loss_changes":[6.35946E0,0E0,7.630387E0,3.429638E0,9.2591286E-1,0E0,0E0,0E0,0E0],"parents":[2147483647,0,0,2,2,3,3,4,4],"right_children":[2,-1,4,6,8,-1,-1,-1,-1],"split_conditions":[-1.3022133E0,-1.4556537E-3,6.7683583E-1,-6.4253026E-1,2.9386063E0,-3.6187167E-4,1.6062247E-4,-6.944626E-4,-2.3333924E-3],"split_indices":[0,0,0,0,0,0,0,0,0],"split_type":[0,0,0,0,0,0,0,0,0],"sum_hessian":[8.186984E3,4.176438E2,7.7693403E3,5.7771924E3,1.9921478E3,1.8448055E3,3.932387E3,1.9578578E3,3.4290127E1],"tree_param":{"num_deleted":"0","num_feature":"3","num_nodes":"9","size_leaf_vector":"1"}},{"base_weights":[-4.326474E-2,-1.1554859E-2,-1.3066573E-1,2.7014447E-2,-3.9257564E-2,-1.2298193E-1,-2.8194832E-3,2.3546486E-4,4.0136655E-3,-1.6273017E-3,-3.5636465E-4,-1.3617554E-3,6.7039905E-4],"categories":[],"categories_nodes":[],"categories_segments":[],"categories_sizes":[],"default_left":[0,0,0,0,0,0,0,0,0,0,0,0,0],"id":41,"left_children":[1,3,5,7,9,11,-1,-1,-1,-1,-1,-1,-1],"loss_changes":[2.2735981E1,6.434448E0,2.5040817E0,3.2588677E0,1.5611291E0,5.2243977E0,0E0,0E0,0E0,0E0,0E0,0E0,0E0],"parents":[2147483647,0,0,1,1,2,2,3,3,4,4,5,5],"right_children":[2,4,6,8,10,12,-1,-1,-1,-1,-1,-1,-1],"split_conditions":[6.681566E-1,-7.337065E-1,2.0319128E0,-7.4388576E-1,-7.0421284E-1,1.9298595E0,-2.8194832E-3,2.3546486E-4,4.0136655E-3,-1.6273017E-3,-3.5636465E-4,-1.3617554E-3,6.7039905E-4],"split_indices":[2,2,2,2,2,2,0,0,0,0,0,0,0],"split_type":[0,0,0,0,0,0,0,0,0,0,0,0,0],"sum_hessian":[8.203112E3,6.020098E3,2.1830142E3,2.5165027E3,3.5035955E3,2.0792212E3,1.0379299E2,2.4944573E3,2.2045504E1,9.8571045E1,3.4050244E3,1.9444944E3,1.3472687E2],"tree_param":{"num_deleted":"0","num_feature":"3","num_nodes":"13","size_leaf_vector":"1"}},{"base_weights":[1.2936066E-2,-3.8221307E-2,6.5784365E-2,-3.6411732E-2,-2.9317334E-3,6.1522357E-2,2.9989397E-3,-5.411902E-4,-1.5078136E-4,4.8323514E-4,9.4487023E-4],"categories":[],"categories_nodes":[],"categories_segments":[],"categories_sizes":[],"default_left":[0,0,0,0,0,0,0,0,0,0,0],"id":42,"left_children":[1,3,5,7,-1,9,-1,-1,-1,-1,-1],"loss_changes":[2.2161205E1,1.9109993E0,4.0043545E0,1.5620046E0,0E0,1.7188215E0,0E0,0E0,0E0,0E0,0E0],"parents":[2147483647,0,0,1,1,2,2,3,3,5,5],"right_children":[2,4,6,8,-1,10,-1,-1,-1,-1,-1],"split_conditions":[-1.6549648E-1,-1.7437069E-1,2.0658436E0,-8.169674E-1,-2.9317334E-3,1.2350615E0,2.9989397E-3,-5.411902E-4,-1.5078136E-4,4.8323514E-4,9.4487023E-4],"split_indices":[2,2,2,2,0,2,0,0,0,0,0],"split_type":[0,0,0,0,0,0,0,0,0,0,0],"sum_hessian":[8.195055E3,4.1642856E3,4.0307693E3,4.136072E3,2.8213799E1,3.9599407E3,7.08286E1,2.2592856E3,1.8767861E3,2.829495E3,1.1304456E3],"tree_param":{"num_deleted":"0","num_feature":"3","num_nodes":"11","size_leaf_vector":"1"}},{"base_weights":[5.5600706E-2,-4.009833E-2,7.533019E-2,-6.876512E-2,-9.919074E-3,6.0090505E-2,1.1393967E-1,2.6245332E-5,-1.17397E-3,2.5158508E-3,-2.2828522E-4,3.7359653E-4,7.3132326E-4,5.403734E-3,1.0679119E-3],"categories":[],"categories_nodes":[],"categories_segments":[],"categories_sizes":[],"default_left":[0,0,0,0,0,0,0,0,0,0,0,0,0,0,0],"id":43,"left_children":[1,3,5,7,9,11,13,-1,-1,-1,-1,-1,-1,-1,-1],"loss_changes":[1.5614971E1,1.222594E0,4.0270042E0,2.5173101E0,2.3350205E0,1.4550972E0,5.853321E0,0E0,0E0,0E0,0E0,0E0,0E0,0E0,0E0],"parents":[2147483647,0,0,1,1,2,2,3,3,4,4,5,5,6,6],"right_children":[2,4,6,8,10,12,14,-1,-1,-1,-1,-1,-1,-1,-1],"split_conditions":[-1.0920677E0,-1.27947E0,8.070118E-1,-1.4037088E0,-1.2711178E0,-5.2986085E-1,8.252822E-1,2.6245332E-5,-1.17397E-3,2.5158508E-3,-2.2828522E-4,3.7359653E-4,7.3132326E-4,5.403734E-3,1.0679119E-3],"split_indices":[2,2,2,2,2,2,2,0,0,0,0,0,0,0,0],"split_type":[0,0,0,0,0,0,0,0,0,0,0,0,0,0,0],"sum_hessian":[8.267634E3,1.4129594E3,6.854674E3,7.2398193E2,6.8897736E2,4.9165864E3,1.9380876E3,2.9373575E2,4.3024622E2,3.1542318E1,6.5743506E2,1.7938737E3,3.1227126E3,3.072351E1,1.9073641E3],"tree_param":{"num_deleted":"0","num_feature":"3","num_nodes":"15","size_leaf_vector":"1"}},{"base_weights":[2.3027921E-2,-2.5400903E-2,6.188662E-2,-3.9224137E-2,-6.141172E-3,3.745995E-2,9.4010316E-2,-3.170932E-4,-1.6304989E-3,3.5496397E-4,-2.6596684E-4,8.429728E-4,2.730152E-4,1.0386793E-3,7.627903E-5],"categories":[],"categories_nodes":[],"categories_segments":[],"categories_sizes":[],"default_left":[0,0,0,0,0,0,0,0,0,0,0,0,0,0,0],"id":44,"left_children":[1,3,5,7,9,11,13,-1,-1,-1,-1,-1,-1,-1,-1],"loss_changes":[1.5462564E1,9.736836E-1,3.5734425E0,1.9763691E0,1.3038204E0,1.2305543E0,1.6753254E0,0E0,0E0,0E0,0E0,0E0,0E0,0E0,0E0],"parents":[2147483647,0,0,1,1,2,2,3,3,4,4,5,5,6,6],"right_children":[2,4,6,8,10,12,14,-1,-1,-1,-1,-1,-1,-1,-1],"split_conditions":[-3.4611264E-1,-8.602944E-1,7.8821933E-1,-8.968352E-1,-6.958606E-1,-1.7437069E-1,1.954916E0,-3.170932E-4,-1.6304989E-3,3.5496397E-4,-2.6596684E-4,8.429728E-4,2.730152E-4,1.0386793E-3,7.627903E-5],"split_indices":[2,2,2,2,2,2,2,0,0,0,0,0,0,0,0],"split_type":[0,0,0,0,0,0,0,0,0,0,0,0,0,0,0],"sum_hessian":[8.214713E3,3.6571836E3,4.5575293E3,2.1284795E3,1.5287042E3,2.590156E3,1.967373E3,2.0078801E3,1.20599396E2,5.033634E2,1.0253408E3,4.6034616E2,2.1298098E3,1.7656786E3,2.016945E2],"tree_param":{"num_deleted":"0","num_feature":"3","num_nodes":"15","size_leaf_vector":"1"}},{"base_weights":[-1.4361446E-2,-7.434954E-2,-2.4481812E-3,-1.965336E-2,-9.8658234E-2,3.8754876E-4,-1.1520394E-2,-6.2331546E-4,2.4389112E-4,-1.1551222E-3,-5.268768E-4,-6.075521E-4,-5.696494E-5],"categories":[],"categories_nodes":[],"categories_segments":[],"categories_sizes":[],"default_left":[0,0,0,0,0,0,0,0,0,0,0,0,0],"id":45,"left_children":[1,3,5,7,9,-1,11,-1,-1,-1,-1,-1,-1],"loss_changes":[5.841692E0,1.79883E0,2.5501685E0,7.8716105E-1,7.2020245E-1,0E0,1.6027935E0,0E0,0E0,0E0,0E0,0E0,0E0],"parents":[2147483647,0,0,1,1,2,2,3,3,4,4,6,6],"right_children":[2,4,6,8,10,-1,12,-1,-1,-1,-1,-1,-1],"split_conditions":[-9.252516E-1,-1.3022133E0,-5.4828984E-1,-1.3964537E0,-1.019492E0,3.8754876E-4,-3.5980898E-1,-6.2331546E-4,2.4389112E-4,-1.1551222E-3,-5.268768E-4,-6.075521E-4,-5.696494E-5],"split_indices":[0,0,0,0,0,0,0,0,0,0,0,0,0],"split_type":[0,0,0,0,0,0,0,0,0,0,0,0,0],"sum_hessian":[8.173409E3,1.3533757E3,6.820033E3,4.1697125E2,9.364045E2,1.2300901E3,5.5899434E3,2.115546E2,2.0541664E2,6.840876E2,2.5231683E2,5.9028503E2,4.999658E3],"tree_param":{"num_deleted":"0","num_feature":"3","num_nodes":"13","size_leaf_vector":"1"}},{"base_weights":[-4.0611174E-2,7.790763E-3,-1.2668562E-1,2.2114377E-2,-1.5563351E-2,-1.0652294E-1,-1.3841602E-1,8.580818E-5,1.3414925E-3,-1.5786426E-3,-5.6369154E-5,-1.1200777E-3,7.311023E-4,-2.3058618E-3,-1.2393553E-3],"categories":[],"categories_nodes":[],"categories_segments":[],"categories_sizes":[],"default_left":[0,0,0,0,0,0,0,0,0,0,0,0,0,0,0],"id":46,"left_children":[1,3,5,7,9,11,13,-1,-1,-1,-1,-1,-1,-1,-1],"loss_changes":[3.4211098E1,1.7588332E0,6.8429947E-1,4.939937E0,2.8228204E0,1.0835152E0,2.460804E0,0E0,0E0,0E0,0E0,0E0,0E0,0E0,0E0],"parents":[2147483647,0,0,1,1,2,2,3,3,4,4,5,5,6,6],"right_children":[2,4,6,8,10,12,14,-1,-1,-1,-1,-1,-1,-1,-1],"split_conditions":[2.8917593E-1,-4.974961E-1,8.4981674E-1,-6.144268E-1,-4.49993E-1,8.252822E-1,1.0064204E0,8.580818E-5,1.3414925E-3,-1.5786426E-3,-5.6369154E-5,-1.1200777E-3,7.311023E-4,-2.3058618E-3,-1.2393553E-3],"split_indices":[2,2,2,2,2,2,2,0,0,0,0,0,0,0,0],"split_type":[0,0,0,0,0,0,0,0,0,0,0,0,0,0,0],"sum_hessian":[8.210406E3,5.255826E3,2.9545806E3,3.2577974E3,1.9980288E3,1.0904148E3,1.8641658E3,2.9076377E3,3.501595E2,1.2931557E2,1.8687131E3,1.0584723E3,3.1942455E1,2.5108089E2,1.6130848E3],"tree_param":{"num_deleted":"0","num_feature":"3","num_nodes":"15","size_leaf_vector":"1"}},{"base_weights":[-4.346139E-2,-4.611243E-3,-1.13247015E-1,2.0648649E-2,-3.8244564E-2,-1.0773264E-1,-2.7469078E-3,1.7466366E-4,3.180017E-3,-2.8927654E-3,-3.1249286E-4,-1.1632051E-3,3.1116305E-4],"categories":[],"categories_nodes":[],"categories_segments":[],"categories_sizes":[],"default_left":[0,0,0,0,0,0,0,0,0,0,0,0,0],"id":47,"left_children":[1,3,5,7,9,11,-1,-1,-1,-1,-1,-1,-1],"loss_changes":[2.224239E1,4.47909E0,2.5823479E0,2.843635E0,3.961775E0,3.3884735E0,0E0,0E0,0E0,0E0,0E0,0E0,0E0],"parents":[2147483647,0,0,1,1,2,2,3,3,4,4,5,5],"right_children":[2,4,6,8,10,12,-1,-1,-1,-1,-1,-1,-1],"split_conditions":[2.9961616E-1,-5.846721E-1,2.0319128E0,-5.9563434E-1,-5.648356E-1,1.9011488E0,-2.7469078E-3,1.7466366E-4,3.180017E-3,-2.8927654E-3,-3.1249286E-4,-1.1632051E-3,3.1116305E-4],"split_indices":[2,2,2,2,2,2,0,0,0,0,0,0,0],"split_type":[0,0,0,0,0,0,0,0,0,0,0,0,0],"sum_hessian":[8.203139E3,5.27023E3,2.9329082E3,3.0099958E3,2.2602341E3,2.8376511E3,9.5257256E1,2.9791714E3,3.082445E1,6.0182354E1,2.2000518E3,2.6725168E3,1.6513428E2],"tree_param":{"num_deleted":"0","num_feature":"3","num_nodes":"13","size_leaf_vector":"1"}},{"base_weights":[1.5445255E-2,1.8289068E-1,-1.8810673E-2,2.3236196E-1,9.760774E-4,4.6751216E-2,-3.75094E-2,3.0304678E-3,2.072408E-3,3.8157942E-4,8.097191E-4,-6.826504E-4,1.4970457E-4],"categories":[],"categories_nodes":[],"categories_segments":[],"categories_sizes":[],"default_left":[0,0,0,0,0,0,0,0,0,0,0,0,0],"id":48,"left_children":[1,3,5,7,-1,9,11,-1,-1,-1,-1,-1,-1],"loss_changes":[4.7212345E1,5.8750687E0,8.378986E0,1.5068359E0,0E0,4.4297647E-1,8.583775E0,0E0,0E0,0E0,0E0,0E0,0E0],"parents":[2147483647,0,0,1,1,2,2,3,3,5,5,6,6],"right_children":[2,4,6,8,-1,10,12,-1,-1,-1,-1,-1,-1],"split_conditions":[-9.252516E-1,-1.1137325E0,-4.540494E-1,-1.3964537E0,9.760774E-4,-5.4828984E-1,6.7683583E-1,3.0304678E-3,2.072408E-3,3.8157942E-4,8.097191E-4,-6.826504E-4,1.4970457E-4],"split_indices":[0,0,0,0,0,0,0,0,0,0,0,0,0],"split_type":[0,0,0,0,0,0,0,0,0,0,0,0,0],"sum_hessian":[8.229285E3,1.3968828E3,6.8324023E3,8.8296466E2,5.1391815E2,1.5158824E3,5.31652E3,2.2861992E2,6.543447E2,1.2133174E3,3.02565E2,3.3518684E3,1.9646516E3],"tree_param":{"num_deleted":"0","num_feature":"3","num_nodes":"13","size_leaf_vector":"1"}},{"base_weights":[5.2015312E-2,1.814806E-2,1.2254342E-1,-3.4977473E-2,3.9124604E-2,1.2691937E-1,-4.6086755E-2,-6.596367E-4,-1.0381005E-4,4.1350315E-4,-1.9803257E-3,1.1843871E-3,3.5818403E-3,2.0228008E-4,-1.1271874E-3],"categories":[],"categories_nodes":[],"categories_segments":[],"categories_sizes":[],"default_left":[0,0,0,0,0,0,0,0,0,0,0,0,0,0,0],"id":49,"left_children":[1,3,5,7,9,11,13,-1,-1,-1,-1,-1,-1,-1,-1],"loss_changes":[1.9677713E1,6.2056494E0,1.978096E0,1.200872E0,2.1152835E0,5.067444E0,3.0423695E-1,0E0,0E0,0E0,0E0,0E0,0E0,0E0,0E0],"parents":[2147483647,0,0,1,1,2,2,3,3,4,4,5,5,6,6],"right_children":[2,4,6,8,10,12,14,-1,-1,-1,-1,-1,-1,-1,-1],"split_conditions":[4.1237074E-1,-1.0362124E0,2.0658436E0,-1.27947E0,3.9671037E-1,1.9771016E0,2.1109977E0,-6.596367E-4,-1.0381005E-4,4.1350315E-4,-1.9803257E-3,1.1843871E-3,3.5818403E-3,2.0228008E-4,-1.1271874E-3],"split_indices":[2,2,2,2,2,2,2,0,0,0,0,0,0,0,0],"split_type":[0,0,0,0,0,0,0,0,0,0,0,0,0,0,0],"sum_hessian":[8.238135E3,5.5664233E3,2.6717117E3,1.5755336E3,3.9908896E3,2.6043755E3,6.733637E1,6.964617E2,8.7907196E2,3.9546016E3,3.6288177E1,2.5137078E3,9.066759E1,3.4097565E1,3.3238808E1],"tree_param":{"num_deleted":"0","num_feature":"3","num_nodes":"15","size_leaf_vector":"1"}},{"base_weights":[3.2867856E-2,-2.2792373E-2,6.900954E-2,-3.171182E-2,-1.5248838E-3,4.668965E-2,9.810282E-2,-1.5572428E-4,-8.734635E-4,6.739016E-4,-4.1176364E-4,7.4427424E-4,3.0996272E-4,1.0750624E-3,6.799372E-5],"categories":[],"categories_nodes":[],"categories_segments":[],"categories_sizes":[],"default_left":[0,0,0,0,0,0,0,0,0,0,0,0,0,0,0],"id":50,"left_children":[1,3,5,7,9,11,13,-1,-1,-1,-1,-1,-1,-1,-1],"loss_changes":[1.6442385E1,6.1044693E-1,3.2133007E0,2.0344963E0,2.6041317E0,1.2191734E0,1.8455257E0,0E0,0E0,0E0,0E0,0E0,0E0,0E0,0E0],"parents":[2147483647,0,0,1,1,2,2,3,3,4,4,5,5,6,6],"right_children":[2,4,6,8,10,12,14,-1,-1,-1,-1,-1,-1,-1,-1],"split_conditions":[-5.084583E-1,-8.169674E-1,6.86949E-1,-9.7618103E-1,-7.0421284E-1,-1.2817264E-1,1.954916E0,-1.5572428E-4,-8.734635E-4,6.739016E-4,-4.1176364E-4,7.4427424E-4,3.0996272E-4,1.0750624E-3,6.799372E-5],"split_indices":[2,2,2,2,2,2,2,0,0,0,0,0,0,0,0],"split_type":[0,0,0,0,0,0,0,0,0,0,0,0,0,0,0],"sum_hessian":[8.1717812E3,3.217311E3,4.95447E3,2.266334E3,9.509771E2,2.8050703E3,2.1494E3,1.7577085E3,5.0862543E2,3.4706747E2,6.039096E2,1.01222943E3,1.7928408E3,1.9485405E3,2.0085936E2],"tree_param":{"num_deleted":"0","num_feature":"3","num_nodes":"15","size_leaf_vector":"1"}},{"base_weights":[-1.0187337E-2,-1.067078E-3,4.2138775E-4],"categories":[],"categories_nodes":[],"categories_segments":[],"categories_sizes":[],"default_left":[0,0,0],"id":51,"left_children":[1,-1,-1],"loss_changes":[4.1471466E1,0E0,0E0],"parents":[2147483647,0,0],"right_children":[2,-1,-1],"split_conditions":[7.8633666E-1,-1.067078E-3,4.2138775E-4],"split_indices":[1,0,0],"split_type":[0,0,0],"sum_hessian":[8.209401E3,2.8856003E3,5.3238013E3],"tree_param":{"num_deleted":"0","num_feature":"3","num_nodes":"3","size_leaf_vector":"1"}},{"base_weights":[-2.9430317E-2,-1.4213937E-2,-8.445205E-2,-4.4135462E-2,6.0176225E-3,-8.251799E-2,-3.2888794E-1,-1.0227428E-3,-3.2503018E-4,1.1741597E-4,-2.265389E-4,-9.1577007E-4,-3.85346E-4,-5.3357217E-3,7.7256904E-4],"categories":[],"categories_nodes":[],"categories_segments":[],"categories_sizes":[],"default_left":[0,0,0,0,0,0,0,0,0,0,0,0,0,0,0],"id":52,"left_children":[1,3,5,7,9,11,13,-1,-1,-1,-1,-1,-1,-1,-1],"loss_changes":[6.868279E0,3.8919175E0,8.13097E-1,1.7505956E0,6.2985176E-1,6.996136E-1,1.173261E0,0E0,0E0,0E0,0E0,0E0,0E0,0E0,0E0],"parents":[2147483647,0,0,1,1,2,2,3,3,4,4,5,5,6,6],"right_children":[2,4,6,8,10,12,14,-1,-1,-1,-1,-1,-1,-1,-1],"split_conditions":[7.7107626E-1,-5.4828984E-1,3.127087E0,-1.3022133E0,4.8835495E-1,2.0904424E0,3.2213275E0,-1.0227428E-3,-3.2503018E-4,1.1741597E-4,-2.265389E-4,-9.1577007E-4,-3.85346E-4,-5.3357217E-3,7.7256904E-4],"split_indices":[0,0,0,0,0,0,0,0,0,0,0,0,0,0,0],"split_type":[0,0,0,0,0,0,0,0,0,0,0,0,0,0,0],"sum_hessian":[8.203994E3,6.427667E3,1.776327E3,2.5924194E3,3.8352476E3,1.7637095E3,1.2617454E1,4.309155E2,2.161504E3,3.1974917E3,6.37756E2,1.4615914E3,3.0211807E2,8.180825E0,4.436628E0],"tree_param":{"num_deleted":"0","num_feature":"3","num_nodes":"15","size_leaf_vector":"1"}},{"base_weights":[-4.005697E-2,-9.890915E-3,-1.22638345E-1,3.0952167E-2,-3.7167232E-2,-3.4758179E-3,-1.1549763E-1,2.58809E-4,3.89449E-3,-4.2058236E-4,9.390544E-4,-1.0870231E-3,-2.5689022E-3],"categories":[],"categories_nodes":[],"categories_segments":[],"categories_sizes":[],"default_left":[0,0,0,0,0,0,0,0,0,0,0,0,0],"id":53,"left_children":[1,3,5,7,9,-1,11,-1,-1,-1,-1,-1,-1],"loss_changes":[2.0523205E1,6.725157E0,3.5004768E0,4.384713E0,2.3242064E0,0E0,2.0262318E0,0E0,0E0,0E0,0E0,0E0,0E0],"parents":[2147483647,0,0,1,1,2,2,3,3,4,4,6,6],"right_children":[2,4,6,8,10,-1,12,-1,-1,-1,-1,-1,-1],"split_conditions":[6.681566E-1,-7.772945E-1,7.0574147E-1,-7.856467E-1,6.039491E-1,-3.4758179E-3,2.0319128E0,2.58809E-4,3.89449E-3,-4.2058236E-4,9.390544E-4,-1.0870231E-3,-2.5689022E-3],"split_indices":[2,2,2,2,2,0,2,0,0,0,0,0,0],"split_type":[0,0,0,0,0,0,0,0,0,0,0,0,0],"sum_hessian":[8.237917E3,6.0346475E3,2.2032695E3,2.416335E3,3.6183125E3,6.632287E1,2.1369468E3,2.3836877E3,3.264724E1,3.4888062E3,1.2950635E2,2.0406423E3,9.6304344E1],"tree_param":{"num_deleted":"0","num_feature":"3","num_nodes":"13","size_leaf_vector":"1"}},{"base_weights":[1.761208E-2,2.6347907E-3,-1.1765463E-3],"categories":[],"categories_nodes":[],"categories_segments":[],"categories_sizes":[],"default_left":[0,0,0],"id":54,"left_children":[1,-1,-1],"loss_changes":[2.73685E2,0E0,0E0],"parents":[2147483647,0,0],"right_children":[2,-1,-1],"split_conditions":[7.8633666E-1,2.6347907E-3,-1.1765463E-3],"split_indices":[1,0,0],"split_type":[0,0,0],"sum_hessian":[8.22731E3,2.9195867E3,5.3077227E3],"tree_param":{"num_deleted":"0","num_feature":"3","num_nodes":"3","size_leaf_vector":"1"}},{"base_weights":[5.674868E-2,1.9571087E-3,-1.9499322E-4],"categories":[],"categories_nodes":[],"categories_segments":[],"categories_sizes":[],"default_left":[0,0,0],"id":55,"left_children":[1,-1,-1],"loss_changes":[8.713028E1,0E0,0E0],"parents":[2147483647,0,0],"right_children":[2,-1,-1],"split_conditions":[7.8633666E-1,1.9571087E-3,-1.9499322E-4],"split_indices":[1,0,0],"split_type":[0,0,0],"sum_hessian":[8.221898E3,2.9124265E3,5.3094717E3],"tree_param":{"num_deleted":"0","num_feature":"3","num_nodes":"3","size_leaf_vector":"1"}},{"base_weights":[3.0258859E-2,-1.3674043E-2,5.9259444E-2,-2.3002714E-2,7.3929983E-3,3.524736E-2,7.5827375E-2,6.017742E-5,-4.1928195E-4,4.4811374E-4,-1.2852601E-4,4.4637884E-4,-1.3745303E-3,1.8242822E-3,7.0790126E-4],"categories":[],"categories_nodes":[],"categories_segments":[],"categories_sizes":[],"default_left":[0,0,0,0,0,0,0,0,0,0,0,0,0,0,0],"id":56,"left_children":[1,3,5,7,9,11,13,-1,-1,-1,-1,-1,-1,-1,-1],"loss_changes":[1.0477846E1,6.429359E-1,1.9680252E0,1.2453929E0,7.615674E-1,3.2890651E0,1.5605755E0,0E0,0E0,0E0,0E0,0E0,0E0,0E0,0E0],"parents":[2147483647,0,0,1,1,2,2,3,3,4,4,5,5,6,6],"right_children":[2,4,6,8,10,12,14,-1,-1,-1,-1,-1,-1,-1,-1],"split_conditions":[-4.974961E-1,-8.169674E-1,2.9961616E-1,-1.2267468E0,-7.0421284E-1,2.578552E-1,3.5651547E-1,6.017742E-5,-4.1928195E-4,4.4811374E-4,-1.2852601E-4,4.4637884E-4,-1.3745303E-3,1.8242822E-3,7.0790126E-4],"split_indices":[2,2,2,2,2,2,2,0,0,0,0,0,0,0,0],"split_type":[0,0,0,0,0,0,0,0,0,0,0,0,0,0,0],"sum_hessian":[8.222218E3,3.2696152E3,4.952602E3,2.2660823E3,1.00353296E3,2.023316E3,2.9292861E3,8.947495E2,1.3713329E3,3.5191055E2,6.5162244E2,1.9196758E3,1.036402E2,1.305841E2,2.7987021E3],"tree_param":{"num_deleted":"0","num_feature":"3","num_nodes":"15","size_leaf_vector":"1"}},{"base_weights":[-1.1742102E-2,2.2198688E-2,-3.495034E-2,2.7908778E-3,1.9700382E-2,-1.05461836E-1,-2.514558E-2,-3.7222088E-4,2.908115E-4,-7.405631E-4,-2.2546367E-3,1.6929145E-3,-2.828864E-4],"categories":[],"categories_nodes":[],"categories_segments":[],"categories_sizes":[],"default_left":[0,0,0,0,0,0,0,0,0,0,0,0,0],"id":57,"left_children":[1,3,5,-1,7,9,11,-1,-1,-1,-1,-1,-1],"loss_changes":[6.474574E0,2.1368954E0,3.3720832E0,0E0,1.7669913E0,2.2279177E0,2.6245632E0,0E0,0E0,0E0,0E0,0E0,0E0],"parents":[2147483647,0,0,1,1,2,2,4,4,5,5,6,6],"right_children":[2,4,6,-1,8,10,12,-1,-1,-1,-1,-1,-1],"split_conditions":[-4.7348353E-1,-1.4757465E0,-2.4745236E-1,2.7908778E-3,-1.3363693E0,-2.9521647E-1,-2.2604987E-1,-3.7222088E-4,2.908115E-4,-7.405631E-4,-2.2546367E-3,1.6929145E-3,-2.828864E-4],"split_indices":[2,2,2,0,2,2,2,0,0,0,0,0,0],"split_type":[0,0,0,0,0,0,0,0,0,0,0,0,0],"sum_hessian":[8.217547E3,3.337166E3,4.8803813E3,3.1075808E1,3.3060903E3,5.9459076E2,4.2857905E3,4.6733505E2,2.8387551E3,4.7254007E2,1.22050705E2,6.733647E1,4.218454E3],"tree_param":{"num_deleted":"0","num_feature":"3","num_nodes":"13","size_leaf_vector":"1"}},{"base_weights":[-3.0730266E-2,1.0402923E-2,-1.0409329E-1,2.9704373E-2,-2.119358E-2,-8.519269E-2,-1.491708E-1,1.1214509E-4,1.2116625E-3,-2.9651885E-4,9.9148E-4,-1.0122713E-3,1.8021137E-5,-3.2187658E-3,-1.4282279E-3],"categories":[],"categories_nodes":[],"categories_segments":[],"categories_sizes":[],"default_left":[0,0,0,0,0,0,0,0,0,0,0,0,0,0,0],"id":58,"left_children":[1,3,5,7,9,11,13,-1,-1,-1,-1,-1,-1,-1,-1],"loss_changes":[2.4696627E1,3.1990778E0,2.4922428E0,5.5051765E0,2.0279462E0,2.8930454E0,9.048233E-1,0E0,0E0,0E0,0E0,0E0,0E0,0E0,0E0],"parents":[2147483647,0,0,1,1,2,2,3,3,4,4,5,5,6,6],"right_children":[2,4,6,8,10,12,14,-1,-1,-1,-1,-1,-1,-1,-1],"split_conditions":[2.8917593E-1,-4.974961E-1,1.4561336E0,-6.775902E-1,2.317546E-1,1.2520269E0,1.4757091E0,1.1214509E-4,1.2116625E-3,-2.9651885E-4,9.9148E-4,-1.0122713E-3,1.8021137E-5,-3.2187658E-3,-1.4282279E-3],"split_indices":[2,2,2,2,2,2,2,0,0,0,0,0,0,0,0],"split_type":[0,0,0,0,0,0,0,0,0,0,0,0,0,0,0],"sum_hessian":[8.1826865E3,5.2435757E3,2.9391106E3,3.2551516E3,1.9884242E3,2.072866E3,8.662446E2,2.708688E3,5.464636E2,1.8585482E3,1.2987596E2,1.7501277E3,3.2273816E2,2.8948849E1,8.372958E2],"tree_param":{"num_deleted":"0","num_feature":"3","num_nodes":"15","size_leaf_vector":"1"}},{"base_weights":[-4.6226658E-2,-1.1766149E-2,-1.4151552E-1,2.9918926E-2,-4.6969913E-2,-4.010829E-3,-1.3732985E-1,2.561711E-4,2.212214E-3,-6.9900166E-4,-1.706816E-5,2.0744593E-4,-1.4471987E-3],"categories":[],"categories_nodes":[],"categories_segments":[],"categories_sizes":[],"default_left":[0,0,0,0,0,0,0,0,0,0,0,0,0],"id":59,"left_children":[1,3,5,7,9,-1,11,-1,-1,-1,-1,-1,-1],"loss_changes":[2.6895926E1,8.83088E0,2.308464E0,2.2618976E0,3.3858833E0,0E0,2.505745E0,0E0,0E0,0E0,0E0,0E0,0E0],"parents":[2147483647,0,0,1,1,2,2,3,3,4,4,6,6],"right_children":[2,4,6,8,10,-1,12,-1,-1,-1,-1,-1,-1],"split_conditions":[6.681566E-1,-6.6453993E-1,6.86949E-1,-6.8698645E-1,1.5345281E-1,-4.010829E-3,7.375842E-1,2.561711E-4,2.212214E-3,-6.9900166E-4,-1.706816E-5,2.0744593E-4,-1.4471987E-3],"split_indices":[2,2,2,2,2,0,2,0,0,0,0,0,0],"split_type":[0,0,0,0,0,0,0,0,0,0,0,0,0],"sum_hessian":[8.1902373E3,6.015794E3,2.1744434E3,2.7544163E3,3.2613777E3,3.300294E1,2.1414404E3,2.694949E3,5.9467365E1,2.1643667E3,1.0970111E3,9.5560974E1,2.0458795E3],"tree_param":{"num_deleted":"0","num_feature":"3","num_nodes":"13","size_leaf_vector":"1"}},{"base_weights":[1.1829992E-2,-3.967315E-2,6.71863E-2,-8.129361E-2,-2.940093E-2,6.268881E-2,3.116439E-1,-4.7686274E-4,-1.2815633E-3,1.2639539E-3,-3.2358099E-4,5.32878E-4,9.6767826E-4,3.8546138E-3,2.366873E-3],"categories":[],"categories_nodes":[],"categories_segments":[],"categories_sizes":[],"default_left":[0,0,0,0,0,0,0,0,0,0,0,0,0,0,0],"id":60,"left_children":[1,3,5,7,9,11,13,-1,-1,-1,-1,-1,-1,-1,-1],"loss_changes":[2.3536503E1,1.8260517E0,4.3549557E0,1.326302E0,1.5851285E0,1.2469368E0,3.0508852E-1,0E0,0E0,0E0,0E0,0E0,0E0,0E0,0E0],"parents":[2147483647,0,0,1,1,2,2,3,3,4,4,5,5,6,6],"right_children":[2,4,6,8,10,12,14,-1,-1,-1,-1,-1,-1,-1,-1],"split_conditions":[-1.2817264E-1,-1.2465832E0,2.0658436E0,-1.3462875E0,-1.2267468E0,1.4376022E0,2.1109977E0,-4.7686274E-4,-1.2815633E-3,1.2639539E-3,-3.2358099E-4,5.32878E-4,9.6767826E-4,3.8546138E-3,2.366873E-3],"split_indices":[2,2,2,2,2,2,2,0,0,0,0,0,0,0,0],"split_type":[0,0,0,0,0,0,0,0,0,0,0,0,0,0,0],"sum_hessian":[8.2535205E3,4.275711E3,3.9778093E3,8.450137E2,3.4306973E3,3.907182E3,7.062737E1,4.9327905E2,3.5173462E2,6.3127537E1,3.3675696E3,3.064402E3,8.4277985E2,3.3496975E1,3.7130398E1],"tree_param":{"num_deleted":"0","num_feature":"3","num_nodes":"15","size_leaf_vector":"1"}},{"base_weights":[5.129915E-2,3.8484424E-2,1.0443447E-1,8.8133655E-2,2.1601083E-2,1.007404E-1,5.093547E-3,6.167151E-4,9.7144936E-4,3.9982714E-4,7.434889E-5,1.1655798E-3,4.934328E-4],"categories":[],"categories_nodes":[],"categories_segments":[],"categories_sizes":[],"default_left":[0,0,0,0,0,0,0,0,0,0,0,0,0],"id":61,"left_children":[1,3,5,7,9,11,-1,-1,-1,-1,-1,-1,-1],"loss_changes":[5.6227455E0,5.5803347E0,2.3496017E0,3.9690304E-1,1.2941031E0,1.2883759E0,0E0,0E0,0E0,0E0,0E0,0E0,0E0],"parents":[2147483647,0,0,1,1,2,2,3,3,4,4,5,5],"right_children":[2,4,6,8,10,12,-1,-1,-1,-1,-1,-1,-1],"split_conditions":[8.653167E-1,-8.310112E-1,3.127087E0,-1.3022133E0,-1.7132811E-1,1.9962019E0,5.093547E-3,6.167151E-4,9.7144936E-4,3.9982714E-4,7.434889E-5,1.1655798E-3,4.934328E-4],"split_indices":[0,0,0,0,0,0,0,0,0,0,0,0,0],"split_type":[0,0,0,0,0,0,0,0,0,0,0,0,0],"sum_hessian":[8.262538E3,6.6584365E3,1.6041012E3,1.6885775E3,4.969859E3,1.5908369E3,1.3264326E1,4.3094064E2,1.2576368E3,2.1623003E3,2.8075586E3,1.2154972E3,3.7533975E2],"tree_param":{"num_deleted":"0","num_feature":"3","num_nodes":"13","size_leaf_vector":"1"}},{"base_weights":[2.6448078E-2,-2.1892859E-2,5.977253E-2,-3.2087043E-2,-1.7405064E-3,3.2799672E-2,8.7798804E-2,-2.0116953E-4,-1.3119725E-3,2.835436E-4,-2.673252E-4,4.547199E-4,-4.780289E-4,9.5527706E-4,1.4880106E-4],"categories":[],"categories_nodes":[],"categories_segments":[],"categories_sizes":[],"default_left":[0,0,0,0,0,0,0,0,0,0,0,0,0,0,0],"id":62,"left_children":[1,3,5,7,9,11,13,-1,-1,-1,-1,-1,-1,-1,-1],"loss_changes":[1.3241709E1,6.8910575E-1,3.6751595E0,2.6401587E0,8.4913146E-1,2.5362403E0,1.3430233E0,0E0,0E0,0E0,0E0,0E0,0E0,0E0,0E0],"parents":[2147483647,0,0,1,1,2,2,3,3,4,4,5,5,6,6],"right_children":[2,4,6,8,10,12,14,-1,-1,-1,-1,-1,-1,-1,-1],"split_conditions":[-4.7348353E-1,-8.3680385E-1,5.496599E-1,-9.067535E-1,-6.775902E-1,3.8261604E-1,1.9298595E0,-2.0116953E-4,-1.3119725E-3,2.835436E-4,-2.673252E-4,4.547199E-4,-4.780289E-4,9.5527706E-4,1.4880106E-4],"split_indices":[2,2,2,2,2,2,2,0,0,0,0,0,0,0,0],"split_type":[0,0,0,0,0,0,0,0,0,0,0,0,0,0,0],"sum_hessian":[8.218076E3,3.3536157E3,4.864461E3,2.2266565E3,1.1269592E3,2.4799219E3,2.384539E3,1.9877838E3,2.3887265E2,5.1122183E2,6.157373E2,2.1433765E3,3.3654538E2,2.155735E3,2.2880377E2],"tree_param":{"num_deleted":"0","num_feature":"3","num_nodes":"15","size_leaf_vector":"1"}},{"base_weights":[-6.67306E-3,4.1307963E-2,-2.3663266E-2,2.1446146E-2,1.3388418E-1,-3.2494433E-2,2.3824262E-2,3.9831255E-4,-9.1282843E-4,1.9378144E-3,7.1980216E-4,-2.4965382E-4,-1.4076387E-3,1.0371096E-3,-2.5903562E-4],"categories":[],"categories_nodes":[],"categories_segments":[],"categories_sizes":[],"default_left":[0,0,0,0,0,0,0,0,0,0,0,0,0,0,0],"id":63,"left_children":[1,3,5,7,9,11,13,-1,-1,-1,-1,-1,-1,-1,-1],"loss_changes":[6.6548824E0,3.9224803E0,2.5289102E0,3.6490104E0,1.383615E0,4.140411E0,3.7602577E0,0E0,0E0,0E0,0E0,0E0,0E0,0E0,0E0],"parents":[2147483647,0,0,1,1,2,2,3,3,4,4,5,5,6,6],"right_children":[2,4,6,8,10,12,14,-1,-1,-1,-1,-1,-1,-1,-1],"split_conditions":[-8.602944E-1,-9.7618103E-1,1.4146336E0,-1.0555269E0,-9.177157E-1,1.2157471E0,1.644841E0,3.9831255E-4,-9.1282843E-4,1.9378144E-3,7.1980216E-4,-2.4965382E-4,-1.4076387E-3,1.0371096E-3,-2.5903562E-4],"split_indices":[2,2,2,2,2,2,2,0,0,0,0,0,0,0,0],"split_type":[0,0,0,0,0,0,0,0,0,0,0,0,0,0,0],"sum_hessian":[8.161223E3,2.1338145E3,6.0274087E3,1.7578971E3,3.7591733E2,5.0825347E3,9.448739E2,1.5119569E3,2.459402E2,1.8997261E2,1.8594473E2,4.753226E3,3.2930856E2,3.620932E2,5.827807E2],"tree_param":{"num_deleted":"0","num_feature":"3","num_nodes":"15","size_leaf_vector":"1"}},{"base_weights":[-3.255632E-2,-1.8096933E-3,4.8284532E-4],"categories":[],"categories_nodes":[],"categories_segments":[],"categories_sizes":[],"default_left":[0,0,0],"id":64,"left_children":[1,-1,-1],"loss_changes":[9.76711E1,0E0,0E0],"parents":[2147483647,0,0],"right_children":[2,-1,-1],"split_conditions":[7.8633666E-1,-1.8096933E-3,4.8284532E-4],"split_indices":[1,0,0],"split_type":[0,0,0],"sum_hessian":[8.1389995E3,2.8695857E3,5.269414E3],"tree_param":{"num_deleted":"0","num_feature":"3","num_nodes":"3","size_leaf_vector":"1"}},{"base_weights":[-4.366748E-2,-1.2304153E-2,-1.2963612E-1,4.4016093E-2,-2.7253171E-2,-2.2640903E-1,-1.1286191E-1,-2.132498E-3,6.5156166E-4,-1.0513233E-3,-2.1058643E-4,-1.6834774E-3,-3.521685E-3,-2.1031694E-4,-1.2954695E-3],"categories":[],"categories_nodes":[],"categories_segments":[],"categories_sizes":[],"default_left":[0,0,0,0,0,0,0,0,0,0,0,0,0,0,0],"id":65,"left_children":[1,3,5,7,9,11,13,-1,-1,-1,-1,-1,-1,-1,-1],"loss_changes":[2.2272203E1,5.0981727E0,3.5588226E0,6.9220963E0,2.3060365E0,2.3152847E0,2.8837528E0,0E0,0E0,0E0,0E0,0E0,0E0,0E0,0E0],"parents":[2147483647,0,0,1,1,2,2,3,3,4,4,5,5,6,6],"right_children":[2,4,6,8,10,12,14,-1,-1,-1,-1,-1,-1,-1,-1],"split_conditions":[6.681566E-1,-1.1265205E0,8.4981674E-1,-1.456432E0,-1.0268162E0,7.8821933E-1,1.0293889E0,-2.132498E-3,6.5156166E-4,-1.0513233E-3,-2.1058643E-4,-1.6834774E-3,-3.521685E-3,-2.1031694E-4,-1.2954695E-3],"split_indices":[2,2,2,2,2,2,2,0,0,0,0,0,0,0,0],"split_type":[0,0,0,0,0,0,0,0,0,0,0,0,0,0,0],"sum_hessian":[8.259991E3,6.0528984E3,2.2070928E3,1.2692122E3,4.7836865E3,3.242055E2,1.8828873E3,9.5684494E1,1.1735277E3,3.5128397E2,4.4324023E3,2.2340251E2,1.00802986E2,2.8985577E2,1.5930316E3],"tree_param":{"num_deleted":"0","num_feature":"3","num_nodes":"15","size_leaf_vector":"1"}},{"base_weights":[1.1594496E-2,1.4140528E-1,-2.9373825E-2,2.5069758E-1,8.826607E-2,3.824505E-2,-4.1329674E-2,3.1561856E-3,2.1652055E-3,1.3121091E-3,7.916307E-4,2.46321E-4,6.6681555E-4,-6.84591E-4,4.1505424E-5],"categories":[],"categories_nodes":[],"categories_segments":[],"categories_sizes":[],"default_left":[0,0,0,0,0,0,0,0,0,0,0,0,0,0,0],"id":66,"left_children":[1,3,5,7,9,11,13,-1,-1,-1,-1,-1,-1,-1,-1],"loss_changes":[4.3604298E1,1.1401001E1,5.0401945E0,1.358181E0,5.075798E-1,3.6104882E-1,6.535471E0,0E0,0E0,0E0,0E0,0E0,0E0,0E0,0E0],"parents":[2147483647,0,0,1,1,2,2,3,3,4,4,5,5,6,6],"right_children":[2,4,6,8,10,12,14,-1,-1,-1,-1,-1,-1,-1,-1],"split_conditions":[-7.367707E-1,-1.2079729E0,-4.540494E-1,-1.3964537E0,-1.1137325E0,-5.4828984E-1,6.7683583E-1,3.1561856E-3,2.1652055E-3,1.3121091E-3,7.916307E-4,2.46321E-4,6.6681555E-4,-6.84591E-4,4.1505424E-5],"split_indices":[0,0,0,0,0,0,0,0,0,0,0,0,0,0,0],"split_type":[0,0,0,0,0,0,0,0,0,0,0,0,0,0,0],"sum_hessian":[8.197397E3,1.9658914E3,6.2315063E3,6.4192194E2,1.3239695E3,9.359336E2,5.2955728E3,2.1854669E2,4.2337524E2,2.2921187E2,1.0947576E3,6.3419965E2,3.0173395E2,3.3166506E3,1.9789221E3],"tree_param":{"num_deleted":"0","num_feature":"3","num_nodes":"15","size_leaf_vector":"1"}},{"base_weights":[4.9405023E-2,1.1361887E-3,3.3027235E-2,1.7689869E-2,7.423976E-2,3.4386202E-4,3.835682E-5,6.534331E-4,2.277636E-3],"categories":[],"categories_nodes":[],"categories_segments":[],"categories_sizes":[],"default_left":[0,0,0,0,0,0,0,0,0],"id":67,"left_children":[1,-1,3,5,7,-1,-1,-1,-1],"loss_changes":[8.723682E0,0E0,4.1790485E0,1.1150656E0,2.4345741E0,0E0,0E0,0E0,0E0],"parents":[2147483647,0,0,2,2,3,3,4,4],"right_children":[2,-1,4,6,8,-1,-1,-1,-1],"split_conditions":[-8.310112E-1,1.1361887E-3,7.7107626E-1,-1.7132811E-1,2.655885E0,3.4386202E-4,3.835682E-5,6.534331E-4,2.277636E-3],"split_indices":[0,0,0,0,0,0,0,0,0],"split_type":[0,0,0,0,0,0,0,0,0],"sum_hessian":[8.297557E3,1.6850182E3,6.612538E3,4.820138E3,1.7923998E3,2.1851858E3,2.6349524E3,1.69557E3,9.682985E1],"tree_param":{"num_deleted":"0","num_feature":"3","num_nodes":"9","size_leaf_vector":"1"}},{"base_weights":[2.4261137E-2],"categories":[],"categories_nodes":[],"categories_segments":[],"categories_sizes":[],"default_left":[0],"id":68,"left_children":[-1],"loss_changes":[0E0],"parents":[2147483647],"right_children":[-1],"split_conditions":[2.4261136E-4],"split_indices":[0],"split_type":[0],"sum_hessian":[8.229192E3],"tree_param":{"num_deleted":"0","num_feature":"3","num_nodes":"1","size_leaf_vector":"1"}},{"base_weights":[-6.426711E-3,-5.601879E-3,-2.9491913E-1,-1.2262522E-2,3.0469297E-2,-4.155626E-3,-1.5135785E-3,-3.144274E-4,-6.172049E-5,1.3540835E-3,8.8257526E-5],"categories":[],"categories_nodes":[],"categories_segments":[],"categories_sizes":[],"default_left":[0,0,0,0,0,0,0,0,0,0,0],"id":69,"left_children":[1,3,5,7,9,-1,-1,-1,-1,-1,-1],"loss_changes":[1.9430935E0,1.9585592E0,3.403139E-1,8.035835E-1,2.8848681E0,0E0,0E0,0E0,0E0,0E0,0E0],"parents":[2147483647,0,0,1,1,2,2,3,3,4,4],"right_children":[2,4,6,8,10,-1,-1,-1,-1,-1,-1],"split_conditions":[3.0328467E0,1.0537976E0,3.127087E0,-8.310112E-1,1.2422785E0,-4.155626E-3,-1.5135785E-3,-3.144274E-4,-6.172049E-5,1.3540835E-3,8.8257526E-5],"split_indices":[0,0,0,0,0,0,0,0,0,0,0],"split_type":[0,0,0,0,0,0,0,0,0,0,0],"sum_hessian":[8.171652E3,8.1493716E3,2.2280537E1,6.8796797E3,1.269692E3,1.1077096E1,1.1203442E1,1.6570638E3,5.2226157E3,2.161977E2,1.0534943E3],"tree_param":{"num_deleted":"0","num_feature":"3","num_nodes":"11","size_leaf_vector":"1"}},{"base_weights":[-2.0769102E-2,2.238909E-2,-9.8402016E-2,3.9431535E-2,-5.3046327E-3,-7.6813765E-2,-1.5163091E-1,2.2716328E-4,1.0520373E-3,-1.3369028E-3,1.0389219E-5,-9.0628176E-4,3.6189271E-4,-1.5993201E-3,4.7831464E-4],"categories":[],"categories_nodes":[],"categories_segments":[],"categories_sizes":[],"default_left":[0,0,0,0,0,0,0,0,0,0,0,0,0,0,0],"id":70,"left_children":[1,3,5,7,9,11,13,-1,-1,-1,-1,-1,-1,-1,-1],"loss_changes":[2.7265577E1,2.4688752E0,3.329464E0,3.557541E0,1.6236804E0,3.2356453E0,1.395071E0,0E0,0E0,0E0,0E0,0E0,0E0,0E0,0E0],"parents":[2147483647,0,0,1,1,2,2,3,3,4,4,5,5,6,6],"right_children":[2,4,6,8,10,12,14,-1,-1,-1,-1,-1,-1,-1,-1],"split_conditions":[2.8917593E-1,-4.974961E-1,1.4561336E0,-7.12565E-1,-4.6199927E-1,1.3110143E0,2.1109977E0,2.2716328E-4,1.0520373E-3,-1.3369028E-3,1.0389219E-5,-9.0628176E-4,3.6189271E-4,-1.5993201E-3,4.7831464E-4],"split_indices":[2,2,2,2,2,2,2,0,0,0,0,0,0,0,0],"split_type":[0,0,0,0,0,0,0,0,0,0,0,0,0,0,0],"sum_hessian":[8.136115E3,5.2295703E3,2.9065447E3,3.2370793E3,1.9924908E3,2.0696086E3,8.369362E2,2.5821921E3,6.548874E2,9.286871E1,1.8996221E3,1.8443395E3,2.2526909E2,8.036871E2,3.3249195E1],"tree_param":{"num_deleted":"0","num_feature":"3","num_nodes":"15","size_leaf_vector":"1"}},{"base_weights":[-5.6217205E-2,-1.5619895E-1,-1.7402815E-2,-2.897269E-1,-1.257335E-1,3.645206E-2,-1.250753E-1,-4.1692415E-3,-2.6833003E-3,-1.6340358E-3,-1.1411498E-3,-3.6857068E-4,6.9904595E-4,-7.0244476E-4,-1.452223E-3],"categories":[],"categories_nodes":[],"categories_segments":[],"categories_sizes":[],"default_left":[0,0,0,0,0,0,0,0,0,0,0,0,0,0,0],"id":71,"left_children":[1,3,5,7,9,11,13,-1,-1,-1,-1,-1,-1,-1,-1],"loss_changes":[3.1748783E1,9.27084E0,3.4187294E1,1.0428238E0,7.9746056E-1,9.641054E0,2.1612053E0,0E0,0E0,0E0,0E0,0E0,0E0,0E0,0E0],"parents":[2147483647,0,0,1,1,2,2,3,3,4,4,5,5,6,6],"right_children":[2,4,6,8,10,12,14,-1,-1,-1,-1,-1,-1,-1,-1],"split_conditions":[-6.4253026E-1,-1.3022133E0,6.7683583E-1,-1.4906942E0,-1.1137325E0,-2.6556855E-1,9.595571E-1,-4.1692415E-3,-2.6833003E-3,-1.6340358E-3,-1.1411498E-3,-3.6857068E-4,6.9904595E-4,-7.0244476E-4,-1.452223E-3],"split_indices":[0,0,0,0,0,0,0,0,0,0,0,0,0,0,0],"split_type":[0,0,0,0,0,0,0,0,0,0,0,0,0,0,0],"sum_hessian":[8.180836E3,2.286928E3,5.893908E3,4.2326724E2,1.8636606E3,3.9292598E3,1.9646482E3,5.828672E1,3.6498053E2,4.3623047E2,1.4274302E3,1.2311565E3,2.6981033E3,5.291186E2,1.4355297E3],"tree_param":{"num_deleted":"0","num_feature":"3","num_nodes":"15","size_leaf_vector":"1"}},{"base_weights":[1.2681027E-2,-3.0458018E-2,6.246511E-2,-4.130224E-2,3.1400325E-3,5.2011598E-2,1.2784617E-1,-3.6226958E-4,-6.724626E-4,3.905941E-4,-2.8256865E-4,5.809877E-4,-6.2440784E-4,1.6037702E-3,9.3876425E-4],"categories":[],"categories_nodes":[],"categories_segments":[],"categories_sizes":[],"default_left":[0,0,0,0,0,0,0,0,0,0,0,0,0,0,0],"id":72,"left_children":[1,3,5,7,9,11,13,-1,-1,-1,-1,-1,-1,-1,-1],"loss_changes":[1.7660336E1,1.6053567E0,2.6024408E0,4.3614435E-1,1.2145401E0,2.2977839E0,5.6569767E-1,0E0,0E0,0E0,0E0,0E0,0E0,0E0,0E0],"parents":[2147483647,0,0,1,1,2,2,3,3,4,4,5,5,6,6],"right_children":[2,4,6,8,10,12,14,-1,-1,-1,-1,-1,-1,-1,-1],"split_conditions":[-6.2138125E-2,-4.7348353E-1,1.689212E0,-6.5253365E-1,-2.834712E-1,1.5840266E0,1.9011488E0,-3.6226958E-4,-6.724626E-4,3.905941E-4,-2.8256865E-4,5.809877E-4,-6.2440784E-4,1.6037702E-3,9.3876425E-4],"split_indices":[2,2,2,2,2,2,2,0,0,0,0,0,0,0,0],"split_type":[0,0,0,0,0,0,0,0,0,0,0,0,0,0,0],"sum_hessian":[8.221258E3,4.4047925E3,3.8164653E3,3.3298193E3,1.0749733E3,3.291928E3,5.245374E2,2.7870085E3,5.428106E2,5.0126306E2,5.7371014E2,3.126155E3,1.6577281E2,2.6604266E2,2.5849472E2],"tree_param":{"num_deleted":"0","num_feature":"3","num_nodes":"15","size_leaf_vector":"1"}},{"base_weights":[4.193118E-2,1.08542275E-2,1.0647823E-1,-7.5913325E-2,2.293757E-2,1.0237084E-1,1.5714706E-1,-2.5981106E-5,-1.2530627E-3,3.4690392E-3,2.0570152E-4,1.1553598E-3,7.3554803E-4,2.5532749E-3,6.259468E-4],"categories":[],"categories_nodes":[],"categories_segments":[],"categories_sizes":[],"default_left":[0,0,0,0,0,0,0,0,0,0,0,0,0,0,0],"id":73,"left_children":[1,3,5,7,9,11,13,-1,-1,-1,-1,-1,-1,-1,-1],"loss_changes":[1.6596542E1,5.858719E0,5.435314E-1,2.4733474E0,3.754254E0,9.362068E-1,1.838459E0,0E0,0E0,0E0,0E0,0E0,0E0,0E0,0E0],"parents":[2147483647,0,0,1,1,2,2,3,3,4,4,5,5,6,6],"right_children":[2,4,6,8,10,12,14,-1,-1,-1,-1,-1,-1,-1,-1],"split_conditions":[4.1237074E-1,-1.27947E0,1.954916E0,-1.4037088E0,-1.2711178E0,1.3979293E0,2.0319128E0,-2.5981106E-5,-1.2530627E-3,3.4690392E-3,2.0570152E-4,1.1553598E-3,7.3554803E-4,2.5532749E-3,6.259468E-4],"split_indices":[2,2,2,2,2,2,2,0,0,0,0,0,0,0,0],"split_type":[0,0,0,0,0,0,0,0,0,0,0,0,0,0,0],"sum_hessian":[8.273334E3,5.585363E3,2.6879717E3,6.820982E2,4.903264E3,2.4892085E3,1.9876324E2,2.7498444E2,4.0711377E2,3.451536E1,4.868749E3,1.7065361E3,7.8267224E2,9.667665E1,1.020866E2],"tree_param":{"num_deleted":"0","num_feature":"3","num_nodes":"15","size_leaf_vector":"1"}},{"base_weights":[2.6098106E-2,-2.5913576E-2,6.202698E-2,1.9466095E-3,-2.7970992E-2,4.0244874E-2,8.843439E-2,-3.9850574E-4,-6.48608E-5,2.9141838E-3,3.7586706E-4,9.7125396E-4,1.3876779E-4],"categories":[],"categories_nodes":[],"categories_segments":[],"categories_sizes":[],"default_left":[0,0,0,0,0,0,0,0,0,0,0,0,0],"id":74,"left_children":[1,3,5,-1,7,9,11,-1,-1,-1,-1,-1,-1],"loss_changes":[1.54121275E1,1.534755E0,2.8021107E0,0E0,8.52124E-1,1.7748666E0,1.4267426E0,0E0,0E0,0E0,0E0,0E0,0E0],"parents":[2147483647,0,0,1,1,2,2,4,4,5,5,6,6],"right_children":[2,4,6,-1,8,10,12,-1,-1,-1,-1,-1,-1],"split_conditions":[-4.7348353E-1,-1.4757465E0,6.4832014E-1,1.9466095E-3,-8.602944E-1,-4.6199927E-1,1.9298595E0,-3.9850574E-4,-6.48608E-5,2.9141838E-3,3.7586706E-4,9.7125396E-4,1.3876779E-4],"split_indices":[2,2,2,0,2,2,2,0,0,0,0,0,0],"split_type":[0,0,0,0,0,0,0,0,0,0,0,0,0],"sum_hessian":[8.245559E3,3.3689084E3,4.876651E3,3.0268091E1,3.3386401E3,2.6737424E3,2.2029082E3,2.1493516E3,1.1892887E3,2.6862247E1,2.6468801E3,1.9726575E3,2.3025085E2],"tree_param":{"num_deleted":"0","num_feature":"3","num_nodes":"13","size_leaf_vector":"1"}},{"base_weights":[-1.5980596E-2,-4.8826214E-2,-9.28158E-3,-2.1540077E-4,-6.109814E-2,3.5066538E-2,-1.9076278E-2,-8.224745E-4,-4.2837902E-4,7.213381E-4,2.3757567E-4,-6.9070916E-4,-1.3298901E-4],"categories":[],"categories_nodes":[],"categories_segments":[],"categories_sizes":[],"default_left":[0,0,0,0,0,0,0,0,0,0,0,0,0],"id":75,"left_children":[1,3,5,-1,7,9,11,-1,-1,-1,-1,-1,-1],"loss_changes":[1.8082824E0,4.6490455E-1,2.9670115E0,0E0,3.6715794E-1,5.163019E-1,1.6149042E0,0E0,0E0,0E0,0E0,0E0,0E0],"parents":[2147483647,0,0,1,1,2,2,4,4,5,5,6,6],"right_children":[2,4,6,-1,8,10,12,-1,-1,-1,-1,-1,-1],"split_conditions":[-9.252516E-1,-1.3022133E0,-5.4828984E-1,-2.1540077E-4,-1.1137325E0,-8.310112E-1,-3.5980898E-1,-8.224745E-4,-4.2837902E-4,7.213381E-4,2.3757567E-4,-6.9070916E-4,-1.3298901E-4],"split_indices":[0,0,0,0,0,0,0,0,0,0,0,0,0],"split_type":[0,0,0,0,0,0,0,0,0,0,0,0,0],"sum_hessian":[8.21928E3,1.391313E3,6.8279673E3,4.3247574E2,9.5883734E2,1.2347456E3,5.5932217E3,4.4264932E2,5.16188E2,2.8739062E2,9.47355E2,5.7826227E2,5.0149595E3],"tree_param":{"num_deleted":"0","num_feature":"3","num_nodes":"13","size_leaf_vector":"1"}},{"base_weights":[-3.0784873E-2,-1.7639403E-3,4.8544526E-4],"categories":[],"categories_nodes":[],"categories_segments":[],"categories_sizes":[],"default_left":[0,0,0],"id":76,"left_children":[1,-1,-1],"loss_changes":[9.472249E1,0E0,0E0],"parents":[2147483647,0,0],"right_children":[2,-1,-1],"split_conditions":[7.8633666E-1,-1.7639403E-3,4.8544526E-4],"split_indices":[1,0,0],"split_type":[0,0,0],"sum_hessian":[8.198567E3,2.890969E3,5.3075986E3],"tree_param":{"num_deleted":"0","num_feature":"3","num_nodes":"3","size_leaf_vector":"1"}},{"base_weights":[-4.538007E-2,-1.6116495E-1,-1.5707614E-2,-3.1182605E-1,-1.3861914E-1,2.4408018E-2,-1.4084744E-1,-3.8856268E-3,-2.796197E-3,-1.7460143E-3,-1.2305874E-3,-5.1563414E-4,7.000886E-4,-1.3729216E-3,-5.532751E-3],"categories":[],"categories_nodes":[],"categories_segments":[],"categories_sizes":[],"default_left":[0,0,0,0,0,0,0,0,0,0,0,0,0,0,0],"id":77,"left_children":[1,3,5,7,9,11,13,-1,-1,-1,-1,-1,-1,-1,-1],"loss_changes":[2.79915E1,5.602459E0,3.2569084E1,4.2405128E-1,7.889805E-1,1.7024755E1,2.2332954E0,0E0,0E0,0E0,0E0,0E0,0E0,0E0,0E0],"parents":[2147483647,0,0,1,1,2,2,3,3,4,4,5,5,6,6],"right_children":[2,4,6,8,10,12,14,-1,-1,-1,-1,-1,-1,-1,-1],"split_conditions":[-8.310112E-1,-1.3964537E0,8.653167E-1,-1.4906942E0,-1.2079729E0,-2.6556855E-1,3.127087E0,-3.8856268E-3,-2.796197E-3,-1.7460143E-3,-1.2305874E-3,-5.1563414E-4,7.000886E-4,-1.3729216E-3,-5.532751E-3],"split_indices":[0,0,0,0,0,0,0,0,0,0,0,0,0,0,0],"split_type":[0,0,0,0,0,0,0,0,0,0,0,0,0,0,0],"sum_hessian":[8.14717E3,1.6610715E3,6.4860986E3,2.1454648E2,1.4465251E3,4.912213E3,1.5738856E3,6.0154408E1,1.5439207E2,4.3361057E2,1.01291455E3,1.842485E3,3.0697278E3,1.5617556E3,1.2130078E1],"tree_param":{"num_deleted":"0","num_feature":"3","num_nodes":"15","size_leaf_vector":"1"}},{"base_weights":[2.1303851E-2,2.5655136E-1,-6.6122124E-3,3.9158226E-3,2.0935939E-1,6.361138E-2,-3.356464E-2,2.3738935E-3,1.5544796E-3,8.8742195E-4,4.755039E-4,-5.898998E-4,9.338312E-5],"categories":[],"categories_nodes":[],"categories_segments":[],"categories_sizes":[],"default_left":[0,0,0,0,0,0,0,0,0,0,0,0,0],"id":78,"left_children":[1,3,5,-1,7,9,11,-1,-1,-1,-1,-1,-1],"loss_changes":[5.3749084E1,5.4505043E0,1.3851065E1,0E0,9.385395E-1,8.150501E-1,5.769104E0,0E0,0E0,0E0,0E0,0E0,0E0],"parents":[2147483647,0,0,1,1,2,2,4,4,5,5,6,6],"right_children":[2,4,6,-1,8,10,12,-1,-1,-1,-1,-1,-1],"split_conditions":[-1.1137325E0,-1.3964537E0,-4.540494E-1,3.9158226E-3,-1.2079729E0,-8.310112E-1,6.7683583E-1,2.3738935E-3,1.5544796E-3,8.8742195E-4,4.755039E-4,-5.898998E-4,9.338312E-5],"split_indices":[0,0,0,0,0,0,0,0,0,0,0,0,0],"split_type":[0,0,0,0,0,0,0,0,0,0,0,0,0],"sum_hessian":[8.1832363E3,8.671987E2,7.3160376E3,2.2269661E2,6.4450214E2,2.0287753E3,5.287262E3,4.2179596E2,2.2270615E2,7.8927E2,1.2395052E3,3.319607E3,1.9676554E3],"tree_param":{"num_deleted":"0","num_feature":"3","num_nodes":"13","size_leaf_vector":"1"}},{"base_weights":[4.5889303E-2,1.8526961E-3,-3.1330078E-4],"categories":[],"categories_nodes":[],"categories_segments":[],"categories_sizes":[],"default_left":[0,0,0],"id":79,"left_children":[1,-1,-1],"loss_changes":[8.9439415E1,0E0,0E0],"parents":[2147483647,0,0],"right_children":[2,-1,-1],"split_conditions":[7.8633666E-1,1.8526961E-3,-3.1330078E-4],"split_indices":[1,0,0],"split_type":[0,0,0],"sum_hessian":[8.308465E3,2.9615303E3,5.346935E3],"tree_param":{"num_deleted":"0","num_feature":"3","num_nodes":"3","size_leaf_vector":"1"}},{"base_weights":[2.8063951E-2,6.180741E-4,9.3842864E-2,1.0432953E-3,-4.1381587E-4,7.015737E-2,1.3544343E-1,-3.0443622E-4,3.0380337E-5,5.72258E-4,9.3202066E-4,1.6176333E-3,6.137461E-4],"categories":[],"categories_nodes":[],"categories_segments":[],"categories_sizes":[],"default_left":[0,0,0,0,0,0,0,0,0,0,0,0,0],"id":80,"left_children":[1,3,5,-1,7,9,11,-1,-1,-1,-1,-1,-1],"loss_changes":[1.4865613E1,6.219299E-1,2.379118E0,0E0,5.9662086E-1,4.5561218E-1,1.7025127E0,0E0,0E0,0E0,0E0,0E0,0E0],"parents":[2147483647,0,0,1,1,2,2,4,4,5,5,6,6],"right_children":[2,4,6,-1,8,10,12,-1,-1,-1,-1,-1,-1],"split_conditions":[4.8835495E-1,-1.4906942E0,1.4307593E0,1.0432953E-3,-1.2079729E0,9.595571E-1,2.2789233E0,-3.0443622E-4,3.0380337E-5,5.72258E-4,9.3202066E-4,1.6176333E-3,6.137461E-4],"split_indices":[0,0,0,0,0,0,0,0,0,0,0,0,0],"split_type":[0,0,0,0,0,0,0,0,0,0,0,0,0],"sum_hessian":[8.233187E3,5.810005E3,2.4231821E3,5.6251675E1,5.7537534E3,1.5457742E3,8.7740784E2,5.923871E2,5.161366E3,9.9238135E2,5.533928E2,6.464957E2,2.3091212E2],"tree_param":{"num_deleted":"0","num_feature":"3","num_nodes":"13","size_leaf_vector":"1"}},{"base_weights":[-7.1392255E-3,3.4446683E-2,-3.4484018E-2,2.8470673E-2,1.2681375E-1,-4.99279E-2,-1.5510546E-2,3.2101857E-4,-1.4677921E-3,3.0760998E-3,9.2486903E-4,-4.2304458E-4,-1.2402883E-3,1.8784987E-3,-2.159749E-4],"categories":[],"categories_nodes":[],"categories_segments":[],"categories_sizes":[],"default_left":[0,0,0,0,0,0,0,0,0,0,0,0,0,0,0],"id":81,"left_children":[1,3,5,7,9,11,13,-1,-1,-1,-1,-1,-1,-1,-1],"loss_changes":[9.325023E0,1.7920775E0,1.4488463E0,1.9499147E0,1.1966081E0,1.5351157E0,2.7537198E0,0E0,0E0,0E0,0E0,0E0,0E0,0E0,0E0],"parents":[2147483647,0,0,1,1,2,2,3,3,4,4,5,5,6,6],"right_children":[2,4,6,8,10,12,14,-1,-1,-1,-1,-1,-1,-1,-1],"split_conditions":[-5.084583E-1,-5.7423186E-1,6.4832014E-1,-5.9563434E-1,-5.648356E-1,5.157291E-1,6.86949E-1,3.2101857E-4,-1.4677921E-3,3.0760998E-3,9.2486903E-4,-4.2304458E-4,-1.2402883E-3,1.8784987E-3,-2.159749E-4],"split_indices":[2,2,2,2,2,2,2,0,0,0,0,0,0,0,0],"split_type":[0,0,0,0,0,0,0,0,0,0,0,0,0,0,0],"sum_hessian":[8.198242E3,3.2521377E3,4.9461045E3,3.055744E3,1.9639375E2,2.725771E3,2.2203335E3,2.9945144E3,6.1229614E1,3.0067892E1,1.6632587E2,2.4729292E3,2.5284192E2,6.3659336E1,2.156674E3],"tree_param":{"num_deleted":"0","num_feature":"3","num_nodes":"15","size_leaf_vector":"1"}},{"base_weights":[-2.4490949E-2,-1.7011886E-3,5.4735667E-4],"categories":[],"categories_nodes":[],"categories_segments":[],"categories_sizes":[],"default_left":[0,0,0],"id":82,"left_children":[1,-1,-1],"loss_changes":[9.488057E1,0E0,0E0],"parents":[2147483647,0,0],"right_children":[2,-1,-1],"split_conditions":[7.8633666E-1,-1.7011886E-3,5.4735667E-4],"split_indices":[1,0,0],"split_type":[0,0,0],"sum_hessian":[8.221785E3,2.8965095E3,5.3252754E3],"tree_param":{"num_deleted":"0","num_feature":"3","num_nodes":"3","size_leaf_vector":"1"}},{"base_weights":[-4.9152665E-2,-1.9161537E-3,2.6852233E-4],"categories":[],"categories_nodes":[],"categories_segments":[],"categories_sizes":[],"default_left":[0,0,0],"id":83,"left_children":[1,-1,-1],"loss_changes":[8.8804924E1,0E0,0E0],"parents":[2147483647,0,0],"right_children":[2,-1,-1],"split_conditions":[7.8633666E-1,-1.9161537E-3,2.6852233E-4],"split_indices":[1,0,0],"split_type":[0,0,0],"sum_hessian":[8.200043E3,2.8522664E3,5.3477764E3],"tree_param":{"num_deleted":"0","num_feature":"3","num_nodes":"3","size_leaf_vector":"1"}},{"base_weights":[1.6460475E-2,2.387929E-3,-1.073051E-3],"categories":[],"categories_nodes":[],"categories_segments":[],"categories_sizes":[],"default_left":[0,0,0],"id":84,"left_children":[1,-1,-1],"loss_changes":[2.2671185E2,0E0,0E0],"parents":[2147483647,0,0],"right_children":[2,-1,-1],"split_conditions":[7.8633666E-1,2.387929E-3,-1.073051E-3],"split_indices":[1,0,0],"split_type":[0,0,0],"sum_hessian":[8.237014E3,2.9452458E3,5.2917676E3],"tree_param":{"num_deleted":"0","num_feature":"3","num_nodes":"3","size_leaf_vector":"1"}},{"base_weights":[4.8980143E-2,1.9141559E-3,-2.9226052E-4],"categories":[],"categories_nodes":[],"categories_segments":[],"categories_sizes":[],"default_left":[0,0,0],"id":85,"left_children":[1,-1,-1],"loss_changes":[9.201831E1,0E0,0E0],"parents":[2147483647,0,0],"right_children":[2,-1,-1],"split_conditions":[7.8633666E-1,1.9141559E-3,-2.9226052E-4],"split_indices":[1,0,0],"split_type":[0,0,0],"sum_hessian":[8.259163E3,2.9269382E3,5.3322246E3],"tree_param":{"num_deleted":"0","num_feature":"3","num_nodes":"3","size_leaf_vector":"1"}},{"base_weights":[2.3096241E-2,-1.1680714E-3,8.109421E-2,-2.7173692E-2,6.870112E-5,5.3941507E-2,1.2892535E-1,4.657211E-4,-3.0334236E-4,7.476679E-4,-1.6249994E-6,1.5071804E-3,6.6589087E-4],"categories":[],"categories_nodes":[],"categories_segments":[],"categories_sizes":[],"default_left":[0,0,0,0,0,0,0,0,0,0,0,0,0],"id":86,"left_children":[1,3,5,7,-1,9,11,-1,-1,-1,-1,-1,-1],"loss_changes":[1.1672058E1,1.2227558E0,3.170332E0,3.233199E-1,0E0,1.760262E0,1.1924429E0,0E0,0E0,0E0,0E0,0E0,0E0],"parents":[2147483647,0,0,1,1,2,2,3,3,5,5,6,6],"right_children":[2,4,6,8,-1,10,12,-1,-1,-1,-1,-1,-1],"split_conditions":[4.8835495E-1,-9.252516E-1,1.4307593E0,-1.4906942E0,6.870112E-5,1.0537976E0,2.2789233E0,4.657211E-4,-3.0334236E-4,7.476679E-4,-1.6249994E-6,1.5071804E-3,6.6589087E-4],"split_indices":[0,0,0,0,0,0,0,0,0,0,0,0,0],"split_type":[0,0,0,0,0,0,0,0,0,0,0,0,0],"sum_hessian":[8.29298E3,5.847551E3,2.4454297E3,1.3801205E3,4.46743E3,1.5612623E3,8.841674E2,5.6152966E1,1.3239675E3,1.127061E3,4.342013E2,6.5408276E2,2.3008463E2],"tree_param":{"num_deleted":"0","num_feature":"3","num_nodes":"13","size_leaf_vector":"1"}},{"base_weights":[-5.8579715E-3,-5.719539E-2,4.4521317E-3,8.94427E-4,-6.410159E-2,5.2978653E-2,-1.7784192E-4,-4.6181105E-4,-7.8823685E-4,2.5879862E-4,7.829226E-4,1.4859761E-5,-1.0910393E-3],"categories":[],"categories_nodes":[],"categories_segments":[],"categories_sizes":[],"default_left":[0,0,0,0,0,0,0,0,0,0,0,0,0],"id":87,"left_children":[1,3,5,-1,7,9,11,-1,-1,-1,-1,-1,-1],"loss_changes":[4.34238E0,1.3952436E0,1.5351224E0,0E0,3.4221983E-1,4.062097E-1,1.1307716E0,0E0,0E0,0E0,0E0,0E0,0E0],"parents":[2147483647,0,0,1,1,2,2,4,4,5,5,6,6],"right_children":[2,4,6,-1,8,10,12,-1,-1,-1,-1,-1,-1],"split_conditions":[-9.252516E-1,-1.4906942E0,-7.367707E-1,8.94427E-4,-1.2079729E0,-8.310112E-1,2.655885E0,-4.6181105E-4,-7.8823685E-4,2.5879862E-4,7.829226E-4,1.4859761E-5,-1.0910393E-3],"split_indices":[0,0,0,0,0,0,0,0,0,0,0,0,0],"split_type":[0,0,0,0,0,0,0,0,0,0,0,0,0],"sum_hessian":[8.202615E3,1.3710676E3,6.831548E3,6.1131134E1,1.3099365E3,5.941238E2,6.237424E3,5.926586E2,7.172779E2,2.8792062E2,3.0620316E2,6.1445537E3,9.287013E1],"tree_param":{"num_deleted":"0","num_feature":"3","num_nodes":"13","size_leaf_vector":"1"}},{"base_weights":[-2.568206E-2,2.1679929E-2,-1.1069097E-1,4.5740716E-2,-1.790759E-2,-1.524881E-1,-9.69049E-2,3.542411E-4,8.4651477E-4,-1.138864E-3,4.696473E-6,-6.8185834E-4,-1.7519073E-3,7.0081933E-6,-1.1344366E-3],"categories":[],"categories_nodes":[],"categories_segments":[],"categories_sizes":[],"default_left":[0,0,0,0,0,0,0,0,0,0,0,0,0,0,0],"id":88,"left_children":[1,3,5,7,9,11,13,-1,-1,-1,-1,-1,-1,-1,-1],"loss_changes":[3.284439E1,4.991323E0,1.6670609E0,1.3052545E0,3.4947739E0,1.3702259E0,3.5475655E0,0E0,0E0,0E0,0E0,0E0,0E0,0E0,0E0],"parents":[2147483647,0,0,1,1,2,2,3,3,4,4,5,5,6,6],"right_children":[2,4,6,8,10,12,14,-1,-1,-1,-1,-1,-1,-1,-1],"split_conditions":[2.8917593E-1,-4.974961E-1,6.4832014E-1,-7.12565E-1,-3.7638932E-1,3.5651547E-1,8.252822E-1,3.542411E-4,8.4651477E-4,-1.138864E-3,4.696473E-6,-6.8185834E-4,-1.7519073E-3,7.0081933E-6,-1.1344366E-3],"split_indices":[2,2,2,2,2,2,2,0,0,0,0,0,0,0,0],"split_type":[0,0,0,0,0,0,0,0,0,0,0,0,0,0,0],"sum_hessian":[8.1560864E3,5.238337E3,2.9177498E3,3.2580068E3,1.9803301E3,7.211821E2,2.1965676E3,2.5767349E3,6.8127203E2,3.174077E2,1.6629224E3,1.5385866E2,5.673235E2,3.1840656E2,1.878161E3],"tree_param":{"num_deleted":"0","num_feature":"3","num_nodes":"15","size_leaf_vector":"1"}},{"base_weights":[-4.934102E-2,-1.7559429E-3,1.9176806E-4],"categories":[],"categories_nodes":[],"categories_segments":[],"categories_sizes":[],"default_left":[0,0,0],"id":89,"left_children":[1,-1,-1],"loss_changes":[7.0626465E1,0E0,0E0],"parents":[2147483647,0,0],"right_children":[2,-1,-1],"split_conditions":[7.8633666E-1,-1.7559429E-3,1.9176806E-4],"split_indices":[1,0,0],"split_type":[0,0,0],"sum_hessian":[8.1629536E3,2.8710664E3,5.291887E3],"tree_param":{"num_deleted":"0","num_feature":"3","num_nodes":"3","size_leaf_vector":"1"}},{"base_weights":[2.2068242E-2,-3.2791477E-2,7.938811E-2,-5.4656744E-2,-6.9595203E-3,7.026698E-2,1.7364568E-1,-5.002919E-4,-2.0925868E-3,7.976906E-6,-1.4853254E-3,4.1722748E-4,8.197915E-4,3.4160998E-3,1.1404497E-3],"categories":[],"categories_nodes":[],"categories_segments":[],"categories_sizes":[],"default_left":[0,0,0,0,0,0,0,0,0,0,0,0,0,0,0],"id":90,"left_children":[1,3,5,7,9,11,13,-1,-1,-1,-1,-1,-1,-1,-1],"loss_changes":[2.5856064E1,2.3728323E0,3.4447746E0,1.6174283E0,2.116678E0,1.2228088E0,3.5057821E0,0E0,0E0,0E0,0E0,0E0,0E0,0E0,0E0],"parents":[2147483647,0,0,1,1,2,2,3,3,4,4,5,5,6,6],"right_children":[2,4,6,8,10,12,14,-1,-1,-1,-1,-1,-1,-1,-1],"split_conditions":[-1.5035814E-1,-8.169674E-1,1.822325E0,-8.3680385E-1,-1.8637697E-1,2.8917593E-1,1.9011488E0,-5.002919E-4,-2.0925868E-3,7.976906E-6,-1.4853254E-3,4.1722748E-4,8.197915E-4,3.4160998E-3,1.1404497E-3],"split_indices":[2,2,2,2,2,2,2,0,0,0,0,0,0,0,0],"split_type":[0,0,0,0,0,0,0,0,0,0,0,0,0,0,0],"sum_hessian":[8.220668E3,4.2006943E3,4.0199736E3,2.2744158E3,1.9262783E3,3.6668816E3,3.5309204E2,2.2096016E3,6.481434E1,1.8271572E3,9.912107E1,1.0681677E3,2.5987139E3,9.1237785E1,2.6185425E2],"tree_param":{"num_deleted":"0","num_feature":"3","num_nodes":"15","size_leaf_vector":"1"}},{"base_weights":[5.286308E-2,1.1168557E-1,3.8068753E-2,1.3478601E-1,9.6588425E-4,1.6476875E-2,9.565096E-2,1.1290642E-3,1.7971711E-3,-5.5768737E-4,2.1682921E-4,9.220794E-4,3.2523705E-3],"categories":[],"categories_nodes":[],"categories_segments":[],"categories_sizes":[],"default_left":[0,0,0,0,0,0,0,0,0,0,0,0,0],"id":91,"left_children":[1,3,5,7,-1,9,11,-1,-1,-1,-1,-1,-1],"loss_changes":[7.186943E0,5.65958E-1,8.209642E0,6.222677E-1,0E0,1.8082284E0,1.3935566E0,0E0,0E0,0E0,0E0,0E0,0E0],"parents":[2147483647,0,0,1,1,2,2,3,3,5,5,6,6],"right_children":[2,4,6,8,-1,10,12,-1,-1,-1,-1,-1,-1],"split_conditions":[-8.310112E-1,-1.2079729E0,7.7107626E-1,-1.3022133E0,9.6588425E-4,-7.367707E-1,3.0328467E0,1.1290642E-3,1.7971711E-3,-5.5768737E-4,2.1682921E-4,9.220794E-4,3.2523705E-3],"split_indices":[0,0,0,0,0,0,0,0,0,0,0,0,0],"split_type":[0,0,0,0,0,0,0,0,0,0,0,0,0],"sum_hessian":[8.262474E3,1.6591433E3,6.603331E3,6.526232E2,1.00652E3,4.803446E3,1.7998849E3,4.4126056E2,2.1136267E2,3.2221906E2,4.481227E3,1.7746724E3,2.521254E1],"tree_param":{"num_deleted":"0","num_feature":"3","num_nodes":"13","size_leaf_vector":"1"}},{"base_weights":[2.6346479E-2,1.1730226E-3,8.624927E-2,-4.651731E-2,7.0313946E-3,6.847034E-2,1.1749028E-1,-4.8538295E-5,-1.3367845E-3,7.840583E-6,2.4853845E-4,7.7793E-4,2.9957778E-4,1.919042E-3,9.802098E-4],"categories":[],"categories_nodes":[],"categories_segments":[],"categories_sizes":[],"default_left":[0,0,0,0,0,0,0,0,0,0,0,0,0,0,0],"id":92,"left_children":[1,3,5,7,9,11,13,-1,-1,-1,-1,-1,-1,-1,-1],"loss_changes":[1.2402658E1,1.618595E0,1.343687E0,2.3010025E0,5.7444084E-1,5.554018E-1,1.2579508E0,0E0,0E0,0E0,0E0,0E0,0E0,0E0,0E0],"parents":[2147483647,0,0,1,1,2,2,3,3,4,4,5,5,6,6],"right_children":[2,4,6,8,10,12,14,-1,-1,-1,-1,-1,-1,-1,-1],"split_conditions":[4.8835495E-1,-1.2079729E0,1.4307593E0,-1.3022133E0,1.7152764E-2,1.148038E0,1.6192402E0,-4.8538295E-5,-1.3367845E-3,7.840583E-6,2.4853845E-4,7.7793E-4,2.9957778E-4,1.919042E-3,9.802098E-4],"split_indices":[0,0,0,0,0,0,0,0,0,0,0,0,0,0,0],"split_type":[0,0,0,0,0,0,0,0,0,0,0,0,0,0,0],"sum_hessian":[8.223857E3,5.7911943E3,2.4326628E3,6.328129E2,5.1583813E3,1.5524E3,8.8026294E2,4.2886765E2,2.0394528E2,3.8202917E3,1.3380897E3,1.2490297E3,3.0337033E2,1.8071028E2,6.995527E2],"tree_param":{"num_deleted":"0","num_feature":"3","num_nodes":"15","size_leaf_vector":"1"}},{"base_weights":[-1.6392626E-2,-1.0833534E-3,3.3639348E-4],"categories":[],"categories_nodes":[],"categories_segments":[],"categories_sizes":[],"default_left":[0,0,0],"id":93,"left_children":[1,-1,-1],"loss_changes":[3.7693123E1,0E0,0E0],"parents":[2147483647,0,0],"right_children":[2,-1,-1],"split_conditions":[7.8633666E-1,-1.0833534E-3,3.3639348E-4],"split_indices":[1,0,0],"split_type":[0,0,0],"sum_hessian":[8.19223E3,2.8865366E3,5.305694E3],"tree_param":{"num_deleted":"0","num_feature":"3","num_nodes":"3","size_leaf_vector":"1"}},{"base_weights":[-2.7927238E-2,-1.6200377E-1,-2.0638725E-2,-2.3735308E-3,-1.4976995E-3,-4.756052E-3,-5.6024842E-2,-4.2856223E-4,2.0717068E-4,-6.284544E-4,-1.02306534E-4],"categories":[],"categories_nodes":[],"categories_segments":[],"categories_sizes":[],"default_left":[0,0,0,0,0,0,0,0,0,0,0],"id":94,"left_children":[1,3,5,-1,-1,7,9,-1,-1,-1,-1],"loss_changes":[7.975997E0,3.523903E-1,4.3529143E0,0E0,0E0,5.1904173E0,7.4879694E-1,0E0,0E0,0E0,0E0],"parents":[2147483647,0,0,1,1,2,2,5,5,6,6],"right_children":[2,4,6,-1,-1,8,10,-1,-1,-1,-1],"split_conditions":[-1.3022133E0,-1.4906942E0,4.8835495E-1,-2.3735308E-3,-1.4976995E-3,-5.4828984E-1,2.0904424E0,-4.2856223E-4,2.0717068E-4,-6.284544E-4,-1.02306534E-4],"split_indices":[0,0,0,0,0,0,0,0,0,0,0],"split_type":[0,0,0,0,0,0,0,0,0,0,0],"sum_hessian":[8.1643584E3,4.198444E2,7.744514E3,5.6074455E1,3.6376993E2,5.346107E3,2.3984072E3,2.141853E3,3.204254E3,2.0871711E3,3.112362E2],"tree_param":{"num_deleted":"0","num_feature":"3","num_nodes":"11","size_leaf_vector":"1"}},{"base_weights":[-4.0790785E-2,-3.9767167E-3,-1.4213376E-1,4.388597E-2,-3.6395505E-2,-1.6608106E-1,-1.0122992E-1,3.7370823E-4,2.7561488E-3,-4.2921264E-4,1.0551731E-3,-1.380038E-3,-1.9974334E-3,-6.4847973E-4,-1.5740847E-3],"categories":[],"categories_nodes":[],"categories_segments":[],"categories_sizes":[],"default_left":[0,0,0,0,0,0,0,0,0,0,0,0,0,0,0],"id":95,"left_children":[1,3,5,7,9,11,13,-1,-1,-1,-1,-1,-1,-1,-1],"loss_changes":[3.0472366E1,9.299729E0,2.1150627E0,3.6437044E0,3.3135753E0,1.2683983E0,1.6376486E0,0E0,0E0,0E0,0E0,0E0,0E0,0E0,0E0],"parents":[2147483647,0,0,1,1,2,2,3,3,4,4,5,5,6,6],"right_children":[2,4,6,8,10,12,14,-1,-1,-1,-1,-1,-1,-1,-1],"split_conditions":[6.4832014E-1,-7.772945E-1,1.4939795E0,-7.966089E-1,5.668863E-1,1.0982945E0,1.8468596E0,3.7370823E-4,2.7561488E-3,-4.2921264E-4,1.0551731E-3,-1.380038E-3,-1.9974334E-3,-6.4847973E-4,-1.5740847E-3],"split_indices":[2,2,2,2,2,2,2,0,0,0,0,0,0,0,0],"split_type":[0,0,0,0,0,0,0,0,0,0,0,0,0,0,0],"sum_hessian":[8.166831E3,5.9914155E3,2.1754153E3,2.4192751E3,3.5721406E3,1.3701788E3,8.052366E2,2.3542458E3,6.502923E1,3.4157666E3,1.5637401E2,7.498438E2,6.20335E2,4.900368E2,3.1519977E2],"tree_param":{"num_deleted":"0","num_feature":"3","num_nodes":"15","size_leaf_vector":"1"}},{"base_weights":[1.9209843E-2,2.5319727E-3,-1.0984823E-3],"categories":[],"categories_nodes":[],"categories_segments":[],"categories_sizes":[],"default_left":[0,0,0],"id":96,"left_children":[1,-1,-1],"loss_changes":[2.4771014E2,0E0,0E0],"parents":[2147483647,0,0],"right_children":[2,-1,-1],"split_conditions":[7.8633666E-1,2.5319727E-3,-1.0984823E-3],"split_indices":[1,0,0],"split_type":[0,0,0],"sum_hessian":[8.200953E3,2.914993E3,5.2859604E3],"tree_param":{"num_deleted":"0","num_feature":"3","num_nodes":"3","size_leaf_vector":"1"}},{"base_weights":[4.461573E-2,1.7236089E-3,-2.594636E-4],"categories":[],"categories_nodes":[],"categories_segments":[],"categories_sizes":[],"default_left":[0,0,0],"id":97,"left_children":[1,-1,-1],"loss_changes":[7.447746E1,0E0,0E0],"parents":[2147483647,0,0],"right_children":[2,-1,-1],"split_conditions":[7.8633666E-1,1.7236089E-3,-2.594636E-4],"split_indices":[1,0,0],"split_type":[0,0,0],"sum_hessian":[8.260957E3,2.9389172E3,5.32204E3],"tree_param":{"num_deleted":"0","num_feature":"3","num_nodes":"3","size_leaf_vector":"1"}},{"base_weights":[2.228381E-2,-1.9853595E-3,9.910799E-2,1.8167195E-3,-3.8431133E-3,6.1567947E-2,1.1296655E-1,-1.3113675E-4,1.9141626E-4,9.791796E-4,4.119244E-4,2.3642667E-3,9.981815E-4],"categories":[],"categories_nodes":[],"categories_segments":[],"categories_sizes":[],"default_left":[0,0,0,0,0,0,0,0,0,0,0,0,0],"id":98,"left_children":[1,3,5,-1,7,9,11,-1,-1,-1,-1,-1,-1],"loss_changes":[1.5373962E1,2.1389906E0,1.0229015E0,0E0,1.3225021E0,3.9291E-1,2.3214226E0,0E0,0E0,0E0,0E0,0E0,0E0],"parents":[2147483647,0,0,1,1,2,2,4,4,5,5,6,6],"right_children":[2,4,6,-1,8,10,12,-1,-1,-1,-1,-1,-1],"split_conditions":[6.7683583E-1,-1.4906942E0,9.595571E-1,1.8167195E-3,1.7152764E-2,7.7107626E-1,1.0537976E0,-1.3113675E-4,1.9141626E-4,9.791796E-4,4.119244E-4,2.3642667E-3,9.981815E-4],"split_indices":[0,0,0,0,0,0,0,0,0,0,0,0,0],"split_type":[0,0,0,0,0,0,0,0,0,0,0,0,0],"sum_hessian":[8.244699E3,6.2661597E3,1.9785392E3,6.1780247E1,6.2043794E3,5.349396E2,1.4435996E3,4.421472E3,1.7829073E3,1.9078047E2,3.441591E2,1.3731026E2,1.3062893E3],"tree_param":{"num_deleted":"0","num_feature":"3","num_nodes":"13","size_leaf_vector":"1"}},{"base_weights":[-1.3610307E-2,-9.994075E-4,3.3249907E-4],"categories":[],"categories_nodes":[],"categories_segments":[],"categories_sizes":[],"default_left":[0,0,0],"id":99,"left_children":[1,-1,-1],"loss_changes":[3.347441E1,0E0,0E0],"parents":[2147483647,0,0],"right_children":[2,-1,-1],"split_conditions":[7.8633666E-1,-9.994075E-4,3.3249907E-4],"split_indices":[1,0,0],"split_type":[0,0,0],"sum_hessian":[8.272734E3,2.910182E3,5.3625527E3],"tree_param":{"num_deleted":"0","num_feature":"3","num_nodes":"3","size_leaf_vector":"1"}},{"base_weights":[-3.1378288E-2,1.6561592E-2,-1.08475074E-1,3.646012E-2,-2.0915445E-2,-2.6352175E-3,-1.0534471E-1,1.02386686E-4,7.406183E-4,-1.1609787E-3,-3.871933E-6,-6.108963E-5,-1.1601313E-3],"categories":[],"categories_nodes":[],"categories_segments":[],"categories_sizes":[],"default_left":[0,0,0,0,0,0,0,0,0,0,0,0,0],"id":100,"left_children":[1,3,5,7,9,-1,11,-1,-1,-1,-1,-1,-1],"loss_changes":[3.0225712E1,3.7615376E0,1.4940262E0,3.247435E0,3.418582E0,0E0,3.254795E0,0E0,0E0,0E0,0E0,0E0,0E0],"parents":[2147483647,0,0,1,1,2,2,3,3,4,4,6,6],"right_children":[2,4,6,8,10,-1,12,-1,-1,-1,-1,-1,-1],"split_conditions":[1.9312572E-1,-4.974961E-1,2.1766028E-1,-9.28678E-1,-3.7638932E-1,-2.6352175E-3,3.4294316E-1,1.02386686E-4,7.406183E-4,-1.1609787E-3,-3.871933E-6,-6.108963E-5,-1.1601313E-3],"split_indices":[2,2,2,2,2,0,2,0,0,0,0,0,0],"split_type":[0,0,0,0,0,0,0,0,0,0,0,0,0],"sum_hessian":[8.1764434E3,5.0420254E3,3.134418E3,3.2934087E3,1.7486167E3,6.0384747E1,3.0740332E3,1.9410765E3,1.3523322E3,3.0939645E2,1.4392203E3,2.985497E2,2.7754834E3],"tree_param":{"num_deleted":"0","num_feature":"3","num_nodes":"13","size_leaf_vector":"1"}},{"base_weights":[-3.4778435E-2,-1.5833488E-1,-1.00342985E-2,-2.1693873E-1,-1.0653575E-3,2.4147607E-2,-1.3839647E-1,-4.087502E-3,-1.9794235E-3,-4.0976907E-4,6.716235E-4,-2.2173803E-3,-9.971726E-4],"categories":[],"categories_nodes":[],"categories_segments":[],