{"learner":{"attributes":{"scikit_learn":"{\"_estimator_type\": \"classifier\"}"},"feature_names":[],"feature_types":[],"gradient_booster":{"model":{"gbtree_model_param":{"num_parallel_tree":"1","num_trees":"420"},"iteration_indptr":[0,6,12,18,24,30,36,42,48,54,60,66,72,78,84,90,96,102,108,114,120,126,132,138,144,150,156,162,168,174,180,186,192,198,204,210,216,222,228,234,240,246,252,258,264,270,276,282,288,294,300,306,312,318,324,330,336,342,348,354,360,366,372,378,384,390,396,402,408,414,420],"tree_info":[0,1,2,3,4,5,0,1,2,3,4,5,0,1,2,3,4,5,0,1,2,3,4,5,0,1,2,3,4,5,0,1,2,3,4,5,0,1,2,3,4,5,0,1,2,3,4,5,0,1,2,3,4,5,0,1,2,3,4,5,0,1,2,3,4,5,0,1,2,3,4,5,0,1,2,3,4,5,0,1,2,3,4,5,0,1,2,3,4,5,0,1,2,3,4,5,0,1,2,3,4,5,0,1,2,3,4,5,0,1,2,3,4,5,0,1,2,3,4,5,0,1,2,3,4,5,0,1,2,3,4,5,0,1,2,3,4,5,0,1,2,3,4,5,0,1,2,3,4,5,0,1,2,3,4,5,0,1,2,3,4,5,0,1,2,3,4,5,0,1,2,3,4,5,0,1,2,3,4,5,0,1,2,3,4,5,0,1,2,3,4,5,0,1,2,3,4,5,0,1,2,3,4,5,0,1,2,3,4,5,0,1,2,3,4,5,0,1,2,3,4,5,0,1,2,3,4,5,0,1,2,3,4,5,0,1,2,3,4,5,0,1,2,3,4,5,0,1,2,3,4,5,0,1,2,3,4,5,0,1,2,3,4,5,0,1,2,3,4,5,0,1,2,3,4,5,0,1,2,3,4,5,0,1,2,3,4,5,0,1,2,3,4,5,0,1,2,3,4,5,0,1,2,3,4,5,0,1,2,3,4,5,0,1,2,3,4,5,0,1,2,3,4,5,0,1,2,3,4,5,0,1,2,3,4,5,0,1,2,3,4,5,0,1,2,3,4,5,0,1,2,3,4,5,0,1,2,3,4,5,0,1,2,3,4,5,0,1,2,3,4,5,0,1,2,3,4,5,0,1,2,3,4,5,0,1,2,3,4,5,0,1,2,3,4,5,0,1,2,3,4,5,0,1,2,3,4,5,0,1,2,3,4,5,0,1,2,3,4,5],"trees":[{"base_weights":[2.1911403E-2,1.19164675E-1,-3.6509227E-2,1.052038E-1,2.3490682E-3,-9.1363123E-4,-1.20055135E-2,1.4688667E-3,7.7018794E-4,-1.7347497E-4,9.971799E-4],"categories":[],"categories_nodes":[],"categories_segments":[],"categories_sizes":[],"default_left":[0,0,0,0,0,0,0,0,0,0,0],"id":0,"left_children":[1,3,5,7,-1,-1,9,-1,-1,-1,-1],"loss_changes":[1.0509367E1,1.0968609E0,1.5525124E0,7.184949E-1,0E0,0E0,4.7925225E-1,0E0,0E0,0E0,0E0],"parents":[2147483647,0,0,1,1,2,2,3,3,6,6],"right_children":[2,4,6,8,-1,-1,10,-1,-1,-1,-1],"split_conditions":[-4.0383697E-1,-5.052379E-1,1.0316754E-1,-1.0122423E0,2.3490682E-3,-9.1363123E-4,2.5367892E0,1.4688667E-3,7.7018794E-4,-1.7347497E-4,9.971799E-4],"split_indices":[0,0,0,0,0,0,0,0,0,0,0],"split_type":[0,0,0,0,0,0,0,0,0,0,0],"sum_hessian":[1.8479547E3,6.931023E2,1.1548524E3,6.2020215E2,7.290015E1,3.5574805E2,7.991044E2,2.4849327E2,3.7170886E2,7.634455E2,3.56589E1],"tree_param":{"num_deleted":"0","num_feature":"3","num_nodes":"11","size_leaf_vector":"1"}},{"base_weights":[3.8570564E-2,2.0852914E-2,1.285259E-1,9.352163E-2,2.191794E-3,1.6106638E-3,3.3367995E-2,3.8764186E-4,1.3414532E-3,2.3317797E-4,-2.3901311E-4,-1.8339914E-3,8.4081315E-4],"categories":[],"categories_nodes":[],"categories_segments":[],"categories_sizes":[],"default_left":[0,0,0,0,0,0,0,0,0,0,0,0,0],"id":1,"left_children":[1,3,5,7,9,-1,11,-1,-1,-1,-1,-1,-1],"loss_changes":[2.929324E0,2.0856018E0,9.313717E-1,6.938422E-1,6.757536E-1,0E0,8.7672234E-1,0E0,0E0,0E0,0E0,0E0,0E0],"parents":[2147483647,0,0,1,1,2,2,3,3,4,4,6,6],"right_children":[2,4,6,8,10,-1,12,-1,-1,-1,-1,-1,-1],"split_conditions":[1.0157757E0,-9.1084146E-1,2.0297847E0,-1.2150441E0,1.7666403E-3,1.6106638E-3,2.1311855E0,3.8764186E-4,1.3414532E-3,2.3317797E-4,-2.3901311E-4,-1.8339914E-3,8.4081315E-4],"split_indices":[0,0,0,0,0,0,0,0,0,0,0,0,0],"split_type":[0,0,0,0,0,0,0,0,0,0,0,0,0],"sum_hessian":[1.8386345E3,1.5371152E3,3.0151926E2,3.132539E2,1.2238613E3,2.241691E2,7.735017E1,1.3425E2,1.7900392E2,6.7636005E2,5.475013E2,1.4169252E1,6.3180912E1],"tree_param":{"num_deleted":"0","num_feature":"3","num_nodes":"13","size_leaf_vector":"1"}},{"base_weights":[4.46365E-3,3.296777E-3,3.6413395E-3,-7.950816E-3,3.3556473E-2,4.926682E-4,-2.0382296E-4,1.3035216E-3,1.0326229E-4],"categories":[],"categories_nodes":[],"categories_segments":[],"categories_sizes":[],"default_left":[0,0,0,0,0,0,0,0,0],"id":2,"left_children":[1,3,-1,5,7,-1,-1,-1,-1],"loss_changes":[7.7721477E-1,6.2982756E-1,0E0,9.6077335E-1,1.1261744E0,0E0,0E0,0E0,0E0],"parents":[2147483647,0,0,1,1,3,3,4,4],"right_children":[2,4,-1,6,8,-1,-1,-1,-1],"split_conditions":[3.2465954E0,6.1017203E-1,3.6413395E-3,-1.0122423E0,8.1297386E-1,4.926682E-4,-2.0382296E-4,1.3035216E-3,1.0326229E-4],"split_indices":[0,0,0,0,0,0,0,0,0],"split_type":[0,0,0,0,0,0,0,0,0],"sum_hessian":[1.8537407E3,1.848752E3,4.988712E0,1.348317E3,5.0043503E2,2.4012851E2,1.1081885E3,9.5963486E1,4.0447156E2],"tree_param":{"num_deleted":"0","num_feature":"3","num_nodes":"9","size_leaf_vector":"1"}},{"base_weights":[-2.93899E-2,-1.4355902E-3,2.0519912E-4],"categories":[],"categories_nodes":[],"categories_segments":[],"categories_sizes":[],"default_left":[0,0,0],"id":3,"left_children":[1,-1,-1],"loss_changes":[1.0620073E1,0E0,0E0],"parents":[2147483647,0,0],"right_children":[2,-1,-1],"split_conditions":[7.226949E-1,-1.4355902E-3,2.0519912E-4],"split_indices":[1,0,0],"split_type":[0,0,0],"sum_hessian":[1.8622555E3,5.658933E2,1.2963622E3],"tree_param":{"num_deleted":"0","num_feature":"3","num_nodes":"3","size_leaf_vector":"1"}},{"base_weights":[-4.5649832E-4,3.576491E-2,-9.579923E-2,9.129335E-3,1.11407295E-1,-8.1889175E-2,-2.405334E-1,1.5081486E-4,-5.4361694E-3,3.0217906E-3,5.4800796E-4,-1.1515256E-3,5.020935E-5,-5.16275E-3,-1.8242057E-3],"categories":[],"categories_nodes":[],"categories_segments":[],"categories_sizes":[],"default_left":[0,0,0,0,0,0,0,0,0,0,0,0,0,0,0],"id":4,"left_children":[1,3,5,7,9,11,13,-1,-1,-1,-1,-1,-1,-1,-1],"loss_changes":[6.412759E0,2.71025E0,1.0095477E0,3.286153E0,3.7669501E0,1.3533101E0,6.158354E-1,0E0,0E0,0E0,0E0,0E0,0E0,0E0,0E0],"parents":[2147483647,0,0,1,1,2,2,3,3,4,4,5,5,6,6],"right_children":[2,4,6,8,10,12,14,-1,-1,-1,-1,-1,-1,-1,-1],"split_conditions":[6.113493E-1,5.3133992E-3,1.7913132E0,-3.0807944E-2,1.17690906E-1,1.5545176E0,1.8675693E0,1.5081486E-4,-5.4361694E-3,3.0217906E-3,5.4800796E-4,-1.1515256E-3,5.020935E-5,-5.16275E-3,-1.8242057E-3],"split_indices":[2,2,2,2,2,2,2,0,0,0,0,0,0,0,0],"split_type":[0,0,0,0,0,0,0,0,0,0,0,0,0,0,0],"sum_hessian":[1.8549226E3,1.3446898E3,5.1023276E2,9.9532996E2,3.493599E2,4.669236E2,4.330913E1,9.856885E2,9.641497E0,7.894981E1,2.7041006E2,3.374466E2,1.2947704E2,6.1663203E0,3.714281E1],"tree_param":{"num_deleted":"0","num_feature":"3","num_nodes":"15","size_leaf_vector":"1"}},{"base_weights":[-3.3370864E-2,-1.9474868E-3,3.9553316E-4],"categories":[],"categories_nodes":[],"categories_segments":[],"categories_sizes":[],"default_left":[0,0,0],"id":5,"left_children":[1,-1,-1],"loss_changes":[2.202439E1,0E0,0E0],"parents":[2147483647,0,0],"right_children":[2,-1,-1],"split_conditions":[7.226949E-1,-1.9474868E-3,3.9553316E-4],"split_indices":[1,0,0],"split_type":[0,0,0],"sum_hessian":[1.8698395E3,5.814491E2,1.2883904E3],"tree_param":{"num_deleted":"0","num_feature":"3","num_nodes":"3","size_leaf_vector":"1"}},{"base_weights":[6.2158774E-3,2.9317583E-3,-1.2006169E-3],"categories":[],"categories_nodes":[],"categories_segments":[],"categories_sizes":[],"default_left":[0,0,0],"id":6,"left_children":[1,-1,-1],"loss_changes":[6.715996E1,0E0,0E0],"parents":[2147483647,0,0],"right_children":[2,-1,-1],"split_conditions":[7.226949E-1,2.9317583E-3,-1.2006169E-3],"split_indices":[1,0,0],"split_type":[0,0,0],"sum_hessian":[1.8514016E3,5.653494E2,1.2860522E3],"tree_param":{"num_deleted":"0","num_feature":"3","num_nodes":"3","size_leaf_vector":"1"}},{"base_weights":[3.6815207E-2,2.217404E-2,1.3192391E-1,7.662748E-2,-1.173262E-2,1.072077E-1,1.9770302E-1,5.8643264E-4,1.9343221E-3,-1.234189E-3,-2.5180761E-5,1.4978136E-3,-9.896294E-4,2.9416208E-3,8.2157535E-4],"categories":[],"categories_nodes":[],"categories_segments":[],"categories_sizes":[],"default_left":[0,0,0,0,0,0,0,0,0,0,0,0,0,0,0],"id":7,"left_children":[1,3,5,7,9,11,13,-1,-1,-1,-1,-1,-1,-1,-1],"loss_changes":[2.6174526E0,3.0140069E0,3.866167E-1,1.3044178E0,1.0355978E0,1.6343665E0,7.261863E-1,0E0,0E0,0E0,0E0,0E0,0E0,0E0,0E0],"parents":[2147483647,0,0,1,1,2,2,3,3,4,4,5,5,6,6],"right_children":[2,4,6,8,10,12,14,-1,-1,-1,-1,-1,-1,-1,-1],"split_conditions":[1.2185775E0,-5.052379E-1,2.1311855E0,-6.066388E-1,-4.0383697E-1,1.9283837E0,2.5367892E0,5.8643264E-4,1.9343221E-3,-1.234189E-3,-2.5180761E-5,1.4978136E-3,-9.896294E-4,2.9416208E-3,8.2157535E-4],"split_indices":[0,0,0,0,0,0,0,0,0,0,0,0,0,0,0],"split_type":[0,0,0,0,0,0,0,0,0,0,0,0,0,0,0],"sum_hessian":[1.8807766E3,1.6309406E3,2.498361E2,6.2536176E2,1.00557874E3,1.8351205E2,6.632404E1,5.432245E2,8.213724E1,7.56963E1,9.2988245E2,1.5232986E2,3.1182188E1,3.530503E1,3.1019014E1],"tree_param":{"num_deleted":"0","num_feature":"3","num_nodes":"15","size_leaf_vector":"1"}},{"base_weights":[2.7678948E-2,-9.66836E-5,4.3858486E-4],"categories":[],"categories_nodes":[],"categories_segments":[],"categories_sizes":[],"default_left":[0,0,0],"id":8,"left_children":[1,-1,-1],"loss_changes":[1.1245401E0,0E0,0E0],"parents":[2147483647,0,0],"right_children":[2,-1,-1],"split_conditions":[7.226949E-1,-9.66836E-5,4.3858486E-4],"split_indices":[1,0,0],"split_type":[0,0,0],"sum_hessian":[1.8593121E3,5.621352E2,1.297177E3],"tree_param":{"num_deleted":"0","num_feature":"3","num_nodes":"3","size_leaf_vector":"1"}},{"base_weights":[-3.0518075E-2,3.5275944E-2,-8.2571834E-2,3.069991E-1,2.4202598E-2,-1.7557763E-1,-4.8495825E-2,1.8091534E-3,4.043318E-3,-5.312013E-3,3.0402647E-4,-1.281824E-3,-2.389419E-3,-2.4869392E-4,-2.7057817E-3],"categories":[],"categories_nodes":[],"categories_segments":[],"categories_sizes":[],"default_left":[0,0,0,0,0,0,0,0,0,0,0,0,0,0,0],"id":9,"left_children":[1,3,5,7,9,11,13,-1,-1,-1,-1,-1,-1,-1,-1],"loss_changes":[6.327164E0,2.44886E0,3.2597733E0,3.1808066E-1,2.7209272E0,7.9866123E-1,3.960568E0,0E0,0E0,0E0,0E0,0E0,0E0,0E0,0E0],"parents":[2147483647,0,0,1,1,2,2,3,3,4,4,5,5,6,6],"right_children":[2,4,6,8,10,12,14,-1,-1,-1,-1,-1,-1,-1,-1],"split_conditions":[-2.9569778E-1,-1.4836886E0,2.1802798E-1,-1.5077695E0,-1.4596077E0,-3.0807944E-2,1.7471648E0,1.8091534E-3,4.043318E-3,-5.312013E-3,3.0402647E-4,-1.281824E-3,-2.389419E-3,-2.4869392E-4,-2.7057817E-3],"split_indices":[2,2,2,2,2,2,2,0,0,0,0,0,0,0,0],"split_type":[0,0,0,0,0,0,0,0,0,0,0,0,0,0,0],"sum_hessian":[1.8455903E3,8.153458E2,1.0302445E3,3.0879734E1,7.844661E2,2.751387E2,7.551058E2,1.4698364E1,1.618137E1,7.7256007E0,7.7674054E2,1.5913316E2,1.1600554E2,6.835027E2,7.1603065E1],"tree_param":{"num_deleted":"0","num_feature":"3","num_nodes":"15","size_leaf_vector":"1"}},{"base_weights":[-1.740523E-2,2.1133455E-2,-1.3193373E-1,-2.7578135E-3,8.131503E-2,-4.72903E-3,-1.18121654E-1,6.514524E-4,-5.4770603E-4,1.7642657E-3,3.1941285E-4,4.597842E-3,-1.3529562E-3],"categories":[],"categories_nodes":[],"categories_segments":[],"categories_sizes":[],"default_left":[0,0,0,0,0,0,0,0,0,0,0,0,0],"id":10,"left_children":[1,3,5,7,9,-1,11,-1,-1,-1,-1,-1,-1],"loss_changes":[8.316636E0,2.0278666E0,2.1782637E0,3.5722818E0,1.8764396E0,0E0,4.600395E0,0E0,0E0,0E0,0E0,0E0,0E0],"parents":[2147483647,0,0,1,1,2,2,3,3,4,4,6,6],"right_children":[2,4,6,8,10,-1,12,-1,-1,-1,-1,-1,-1],"split_conditions":[7.116863E-1,5.3133992E-3,7.5182116E-1,-8.736393E-1,2.581628E-1,-4.72903E-3,7.8794247E-1,6.514524E-4,-5.4770603E-4,1.7642657E-3,3.1941285E-4,4.597842E-3,-1.3529562E-3],"split_indices":[2,2,2,2,2,0,2,0,0,0,0,0,0],"split_type":[0,0,0,0,0,0,0,0,0,0,0,0,0],"sum_hessian":[1.8826124E3,1.4092255E3,4.7338696E2,1.00944403E3,3.997814E2,1.7135538E1,4.562514E2,4.3773087E2,5.7171313E2,1.357346E2,2.640468E2,1.2423595E1,4.4382782E2],"tree_param":{"num_deleted":"0","num_feature":"3","num_nodes":"13","size_leaf_vector":"1"}},{"base_weights":[-5.007325E-2,-1.9672145E-3,1.7411902E-4],"categories":[],"categories_nodes":[],"categories_segments":[],"categories_sizes":[],"default_left":[0,0,0],"id":11,"left_children":[1,-1,-1],"loss_changes":[1.8388699E1,0E0,0E0],"parents":[2147483647,0,0],"right_children":[2,-1,-1],"split_conditions":[7.226949E-1,-1.9672145E-3,1.7411902E-4],"split_indices":[1,0,0],"split_type":[0,0,0],"sum_hessian":[1.856741E3,5.845573E2,1.2721837E3],"tree_param":{"num_deleted":"0","num_feature":"3","num_nodes":"3","size_leaf_vector":"1"}},{"base_weights":[6.754571E-3,-1.2642227E-1,2.936066E-2,-1.5455535E-1,-7.962994E-4,1.6432809E-2,1.4878057E-1,-1.1781941E-3,-3.0187417E-3,2.8710577E-4,-7.8151195E-4,2.8250166E-3,7.2280347E-4],"categories":[],"categories_nodes":[],"categories_segments":[],"categories_sizes":[],"default_left":[0,0,0,0,0,0,0,0,0,0,0,0,0],"id":12,"left_children":[1,3,5,7,-1,9,11,-1,-1,-1,-1,-1,-1],"loss_changes":[5.5936785E0,3.4263468E-1,2.4493778E0,8.69977E-1,0E0,1.6676638E0,1.565242E0,0E0,0E0,0E0,0E0,0E0,0E0],"parents":[2147483647,0,0,1,1,2,2,3,3,5,5,6,6],"right_children":[2,4,6,8,-1,10,12,-1,-1,-1,-1,-1,-1],"split_conditions":[-1.1545831E0,-1.279001E0,1.5625446E0,-1.379338E0,-7.962994E-4,1.249493E0,1.6428143E0,-1.1781941E-3,-3.0187417E-3,2.8710577E-4,-7.8151195E-4,2.8250166E-3,7.2280347E-4],"split_indices":[2,2,2,2,0,2,2,0,0,0,0,0,0],"split_type":[0,0,0,0,0,0,0,0,0,0,0,0,0],"sum_hessian":[1.8557573E3,2.6862762E2,1.5871296E3,1.663247E2,1.023029E2,1.4331239E3,1.5400578E2,1.345681E2,3.1756615E1,1.2690831E3,1.640408E2,5.5063282E1,9.8942505E1],"tree_param":{"num_deleted":"0","num_feature":"3","num_nodes":"13","size_leaf_vector":"1"}},{"base_weights":[4.3763034E-2,1.1946353E-1,3.218889E-2,8.004078E-2,1.6669019E-3,1.8234396E-2,8.139911E-2,1.517023E-3,-5.537106E-4,3.4871927E-4,-4.6104027E-4,9.211914E-4,-2.7810482E-4],"categories":[],"categories_nodes":[],"categories_segments":[],"categories_sizes":[],"default_left":[0,0,0,0,0,0,0,0,0,0,0,0,0],"id":13,"left_children":[1,3,5,7,-1,9,11,-1,-1,-1,-1,-1,-1],"loss_changes":[1.6169841E0,4.427278E-1,1.1013247E0,1.3226395E0,0E0,1.3422656E0,4.175861E-1,0E0,0E0,0E0,0E0,0E0,0E0],"parents":[2147483647,0,0,1,1,2,2,3,3,5,5,6,6],"right_children":[2,4,6,8,-1,10,12,-1,-1,-1,-1,-1,-1],"split_conditions":[-1.0122423E0,-1.2150441E0,9.1437477E-1,-1.3164451E0,1.6669019E-3,4.0737024E-1,2.5367892E0,1.517023E-3,-5.537106E-4,3.4871927E-4,-4.6104027E-4,9.211914E-4,-2.7810482E-4],"split_indices":[0,0,0,0,0,0,0,0,0,0,0,0,0],"split_type":[0,0,0,0,0,0,0,0,0,0,0,0,0],"sum_hessian":[1.8489064E3,2.4396117E2,1.6049453E3,1.3443529E2,1.0952587E2,1.2514448E3,3.5350043E2,8.783283E1,4.660246E1,9.946836E2,2.5676126E2,3.2204495E2,3.1455482E1],"tree_param":{"num_deleted":"0","num_feature":"3","num_nodes":"13","size_leaf_vector":"1"}},{"base_weights":[2.8939683E-2,1.4330591E-2,6.376893E-2,4.9194485E-2,6.402318E-5,5.7828452E-2,2.5677532E-1,4.744028E-5,1.9755485E-3,6.273911E-4,-2.6185196E-3,4.431862E-3,8.065693E-4],"categories":[],"categories_nodes":[],"categories_segments":[],"categories_sizes":[],"default_left":[0,0,0,0,0,0,0,0,0,0,0,0,0],"id":14,"left_children":[1,3,5,7,-1,9,11,-1,-1,-1,-1,-1,-1],"loss_changes":[9.5207524E-1,3.6475796E-1,6.1937857E-1,1.6118159E0,0E0,8.609017E-1,4.969772E-1,0E0,0E0,0E0,0E0,0E0,0E0],"parents":[2147483647,0,0,1,1,2,2,3,3,5,5,6,6],"right_children":[2,4,6,8,-1,10,12,-1,-1,-1,-1,-1,-1],"split_conditions":[5.087711E-1,-1.0122423E0,2.840992E0,-1.1136433E0,6.402318E-5,2.63819E0,3.0437937E0,4.744028E-5,1.9755485E-3,6.273911E-4,-2.6185196E-3,4.431862E-3,8.065693E-4],"split_indices":[0,0,0,0,0,0,0,0,0,0,0,0,0],"split_type":[0,0,0,0,0,0,0,0,0,0,0,0,0],"sum_hessian":[1.8719255E3,1.3197635E3,5.5216205E2,2.4355342E2,1.0762101E3,5.3693555E2,1.5226529E1,1.8819887E2,5.5354553E1,5.2960394E2,7.3315763E0,6.6604395E0,8.56609E0],"tree_param":{"num_deleted":"0","num_feature":"3","num_nodes":"13","size_leaf_vector":"1"}},{"base_weights":[-3.1252664E-2,5.1716477E-2,-9.207525E-2,1.6351921E-2,1.8082878E-1,-7.415195E-2,-2.6862645E-3,2.7447913E-4,-8.6896936E-4,2.8090265E-3,3.4936977E-4,-1.3750781E-3,-2.6108063E-4],"categories":[],"categories_nodes":[],"categories_segments":[],"categories_sizes":[],"default_left":[0,0,0,0,0,0,0,0,0,0,0,0,0],"id":15,"left_children":[1,3,5,7,9,11,-1,-1,-1,-1,-1,-1,-1],"loss_changes":[9.276796E0,3.5485945E0,3.3360062E0,7.0315886E-1,2.4304624E0,2.9312148E0,0E0,0E0,0E0,0E0,0E0,0E0,0E0],"parents":[2147483647,0,0,1,1,2,2,3,3,4,4,5,5],"right_children":[2,4,6,8,10,12,-1,-1,-1,-1,-1,-1,-1],"split_conditions":[-3.8800788E-1,-6.528977E-1,1.6428143E0,-7.371809E-1,-4.9637192E-1,3.3441895E-1,-2.6862645E-3,2.7447913E-4,-8.6896936E-4,2.8090265E-3,3.4936977E-4,-1.3750781E-3,-2.6108063E-4],"split_indices":[2,2,2,2,2,2,0,0,0,0,0,0,0],"split_type":[0,0,0,0,0,0,0,0,0,0,0,0,0],"sum_hessian":[1.8363572E3,7.768256E2,1.0595316E3,6.106829E2,1.6614268E2,9.631714E2,9.636019E1,5.520853E2,5.859758E1,9.799678E1,6.8145905E1,4.1458826E2,5.485831E2],"tree_param":{"num_deleted":"0","num_feature":"3","num_nodes":"13","size_leaf_vector":"1"}},{"base_weights":[-4.1782666E-2,-3.726005E-2,-3.0592334E-1,-1.1762495E-1,-2.4750132E-2,-5.400521E-3,-1.8526E-1,2.5773563E-3,-1.3408146E-3,-3.4079823E-4,6.0643523E-4,2.3799506E-3,-3.5214387E-3],"categories":[],"categories_nodes":[],"categories_segments":[],"categories_sizes":[],"default_left":[0,0,0,0,0,0,0,0,0,0,0,0,0],"id":16,"left_children":[1,3,5,7,9,-1,11,-1,-1,-1,-1,-1,-1],"loss_changes":[2.1985972E0,1.8268151E0,7.7582E-1,1.5471983E0,1.2577373E0,0E0,1.6364557E0,0E0,0E0,0E0,0E0,0E0,0E0],"parents":[2147483647,0,0,1,1,2,2,3,3,4,4,6,6],"right_children":[2,4,6,8,10,-1,12,-1,-1,-1,-1,-1,-1],"split_conditions":[2.5367892E0,-1.0122423E0,2.739591E0,-1.5192468E0,1.4213792E0,-5.400521E-3,2.840992E0,2.5773563E-3,-1.3408146E-3,-3.4079823E-4,6.0643523E-4,2.3799506E-3,-3.5214387E-3],"split_indices":[0,0,0,0,0,0,0,0,0,0,0,0,0],"split_type":[0,0,0,0,0,0,0,0,0,0,0,0,0],"sum_hessian":[1.8489775E3,1.8189741E3,3.0003416E1,2.4387776E2,1.5750964E3,9.02197E0,2.0981445E1,9.62719E0,2.3425058E2,1.4205004E3,1.54596E2,5.81279E0,1.5168655E1],"tree_param":{"num_deleted":"0","num_feature":"3","num_nodes":"13","size_leaf_vector":"1"}},{"base_weights":[-5.800697E-2,-1.9242408E-3,1.1400332E-5],"categories":[],"categories_nodes":[],"categories_segments":[],"categories_sizes":[],"default_left":[0,0,0],"id":17,"left_children":[1,-1,-1],"loss_changes":[1.4673539E1,0E0,0E0],"parents":[2147483647,0,0],"right_children":[2,-1,-1],"split_conditions":[7.226949E-1,-1.9242408E-3,1.1400332E-5],"split_indices":[1,0,0],"split_type":[0,0,0],"sum_hessian":[1.844615E3,5.629668E2,1.2816483E3],"tree_param":{"num_deleted":"0","num_feature":"3","num_nodes":"3","size_leaf_vector":"1"}},{"base_weights":[2.8129676E-3,-1.334579E-3,2.3958424E-2,9.670865E-2,2.8690225E-3,8.249007E-4,3.8320168E-3,-1.2888397E-4,1.1553833E-3],"categories":[],"categories_nodes":[],"categories_segments":[],"categories_sizes":[],"default_left":[0,0,0,0,0,0,0,0,0],"id":18,"left_children":[1,-1,3,5,7,-1,-1,-1,-1],"loss_changes":[5.338623E0,0E0,2.4602628E0,1.4364479E0,2.2106662E0,0E0,0E0,0E0,0E0],"parents":[2147483647,0,0,2,2,3,3,4,4],"right_children":[2,-1,4,6,8,-1,-1,-1,-1],"split_conditions":[-1.1666235E0,-1.334579E-3,-6.569112E-1,-6.689517E-1,1.5625446E0,8.249007E-4,3.8320168E-3,-1.2888397E-4,1.1553833E-3],"split_indices":[2,0,2,2,2,0,0,0,0],"split_type":[0,0,0,0,0,0,0,0,0],"sum_hessian":[1.8506075E3,2.4787537E2,1.6027322E3,3.5939023E2,1.243342E3,3.4362418E2,1.5766053E1,1.0915662E3,1.517759E2],"tree_param":{"num_deleted":"0","num_feature":"3","num_nodes":"9","size_leaf_vector":"1"}},{"base_weights":[5.2450366E-2,4.2227533E-2,1.10048816E-1,5.011674E-2,-1.4762235E-3,2.0508938E-1,3.218379E-2,1.7114817E-3,4.4021083E-4,6.8026255E-3,1.8130196E-3,-5.6429603E-4,1.5976375E-3],"categories":[],"categories_nodes":[],"categories_segments":[],"categories_sizes":[],"default_left":[0,0,0,0,0,0,0,0,0,0,0,0,0],"id":19,"left_children":[1,3,5,7,-1,9,11,-1,-1,-1,-1,-1,-1],"loss_changes":[1.0795927E0,2.35207E0,2.0427892E0,1.1018715E0,0E0,1.284195E0,1.7433225E0,0E0,0E0,0E0,0E0,0E0,0E0],"parents":[2147483647,0,0,1,1,2,2,3,3,5,5,6,6],"right_children":[2,4,6,8,-1,10,12,-1,-1,-1,-1,-1,-1],"split_conditions":[1.2615334E0,1.2013311E0,1.5625446E0,-1.4194729E0,-1.4762235E-3,1.3377895E0,1.7792727E0,1.7114817E-3,4.4021083E-4,6.8026255E-3,1.8130196E-3,-5.6429603E-4,1.5976375E-3],"split_indices":[2,2,2,2,0,2,2,0,0,0,0,0,0],"split_type":[0,0,0,0,0,0,0,0,0,0,0,0,0],"sum_hessian":[1.840379E3,1.564447E3,2.75932E2,1.5027368E3,6.1710182E1,1.2352538E2,1.5240663E2,7.075688E1,1.43198E3,4.573255E0,1.18952126E2,9.0267265E1,6.2139362E1],"tree_param":{"num_deleted":"0","num_feature":"3","num_nodes":"13","size_leaf_vector":"1"}},{"base_weights":[2.1555066E-2,-4.4773385E-2,4.7983713E-2,7.212689E-2,-6.1410904E-2,2.8631527E-2,1.0012141E-1,-5.524369E-4,1.994687E-3,-1.2767203E-3,-4.6756372E-4,8.2159654E-4,-1.492769E-4,7.953778E-4,1.5187423E-3],"categories":[],"categories_nodes":[],"categories_segments":[],"categories_sizes":[],"default_left":[0,0,0,0,0,0,0,0,0,0,0,0,0,0,0],"id":20,"left_children":[1,3,5,7,9,11,13,-1,-1,-1,-1,-1,-1,-1,-1],"loss_changes":[3.2240517E0,1.0239555E0,1.323708E0,1.0777779E0,4.4014597E-1,2.2402213E0,3.6662602E-1,0E0,0E0,0E0,0E0,0E0,0E0,0E0,0E0],"parents":[2147483647,0,0,1,1,2,2,3,3,4,4,5,5,6,6],"right_children":[2,4,6,8,10,12,14,-1,-1,-1,-1,-1,-1,-1,-1],"split_conditions":[-7.6527524E-1,-1.4435538E0,1.1692233E0,-1.4836886E0,-1.3512437E0,-5.4888837E-2,1.6428143E0,-5.524369E-4,1.994687E-3,-1.2767203E-3,-4.6756372E-4,8.2159654E-4,-1.492769E-4,7.953778E-4,1.5187423E-3],"split_indices":[2,2,2,2,2,2,2,0,0,0,0,0,0,0,0],"split_type":[0,0,0,0,0,0,0,0,0,0,0,0,0,0,0],"sum_hessian":[1.836967E3,5.2319666E2,1.3137703E3,6.476972E1,4.5842697E2,9.592648E2,3.5450552E2,3.2664257E1,3.2105465E1,8.162837E1,3.7679858E2,4.2998624E2,5.2927856E2,2.554446E2,9.906094E1],"tree_param":{"num_deleted":"0","num_feature":"3","num_nodes":"15","size_leaf_vector":"1"}},{"base_weights":[-1.4609434E-2,-1.640578E-3,5.035886E-4],"categories":[],"categories_nodes":[],"categories_segments":[],"categories_sizes":[],"default_left":[0,0,0],"id":21,"left_children":[1,-1,-1],"loss_changes":[1.8170359E1,0E0,0E0],"parents":[2147483647,0,0],"right_children":[2,-1,-1],"split_conditions":[7.226949E-1,-1.640578E-3,5.035886E-4],"split_indices":[1,0,0],"split_type":[0,0,0],"sum_hessian":[1.8695671E3,5.660171E2,1.30355E3],"tree_param":{"num_deleted":"0","num_feature":"3","num_nodes":"3","size_leaf_vector":"1"}},{"base_weights":[-2.3621643E-2,-1.7402975E-2,-3.7224698E-3,-1.0440302E-1,-3.9440785E-3,3.6536192E-3,-1.3006513E-3,1.5226347E-4,-4.935964E-4],"categories":[],"categories_nodes":[],"categories_segments":[],"categories_sizes":[],"default_left":[0,0,0,0,0,0,0,0,0],"id":22,"left_children":[1,3,-1,5,7,-1,-1,-1,-1],"loss_changes":[4.0319037E0,2.1437144E0,0E0,3.0044854E0,1.382323E0,0E0,0E0,0E0,0E0],"parents":[2147483647,0,0,1,1,3,3,4,4],"right_children":[2,4,-1,6,8,-1,-1,-1,-1],"split_conditions":[2.5367892E0,-1.0122423E0,-3.7224698E-3,-1.5192468E0,6.1017203E-1,3.6536192E-3,-1.3006513E-3,1.5226347E-4,-4.935964E-4],"split_indices":[0,0,0,0,0,0,0,0,0],"split_type":[0,0,0,0,0,0,0,0,0],"sum_hessian":[1.861735E3,1.8301395E3,3.1595522E1,2.4428603E2,1.5858534E3,1.1967857E1,2.3231818E2,1.1156075E3,4.7024588E2],"tree_param":{"num_deleted":"0","num_feature":"3","num_nodes":"9","size_leaf_vector":"1"}},{"base_weights":[-4.241372E-2,-2.080233E-3,3.018051E-4],"categories":[],"categories_nodes":[],"categories_segments":[],"categories_sizes":[],"default_left":[0,0,0],"id":23,"left_children":[1,-1,-1],"loss_changes":[2.2499681E1,0E0,0E0],"parents":[2147483647,0,0],"right_children":[2,-1,-1],"split_conditions":[7.226949E-1,-2.080233E-3,3.018051E-4],"split_indices":[1,0,0],"split_type":[0,0,0],"sum_hessian":[1.8699733E3,5.693185E2,1.3006548E3],"tree_param":{"num_deleted":"0","num_feature":"3","num_nodes":"3","size_leaf_vector":"1"}},{"base_weights":[1.2868085E-2,-1.5526366E-3,2.9658562E-2,1.9253675E-2,1.1023391E-1,3.2940562E-4,-1.2788781E-3,2.0179315E-3,3.5338762E-4],"categories":[],"categories_nodes":[],"categories_segments":[],"categories_sizes":[],"default_left":[0,0,0,0,0,0,0,0,0],"id":24,"left_children":[1,-1,3,5,7,-1,-1,-1,-1],"loss_changes":[5.213471E0,0E0,1.405052E0,3.0003192E0,1.3077166E0,0E0,0E0,0E0,0E0],"parents":[2147483647,0,0,2,2,3,3,4,4],"right_children":[2,-1,4,6,8,-1,-1,-1,-1],"split_conditions":[-1.279001E0,-1.5526366E-3,1.5424773E0,1.249493E0,1.6428143E0,3.2940562E-4,-1.2788781E-3,2.0179315E-3,3.5338762E-4],"split_indices":[2,0,2,2,2,0,0,0,0],"split_type":[0,0,0,0,0,0,0,0,0],"sum_hessian":[1.8441447E3,1.6669492E2,1.6774497E3,1.4867067E3,1.9074304E2,1.3608943E3,1.258123E2,8.5061325E1,1.0568172E2],"tree_param":{"num_deleted":"0","num_feature":"3","num_nodes":"9","size_leaf_vector":"1"}},{"base_weights":[4.3637373E-2,1.1506567E-1,2.933052E-2,7.5735495E-4,1.7383213E-3,1.18428776E-4,1.0712156E-1,1.614963E-3,1.4222682E-5],"categories":[],"categories_nodes":[],"categories_segments":[],"categories_sizes":[],"default_left":[0,0,0,0,0,0,0,0,0],"id":25,"left_children":[1,3,5,-1,-1,-1,7,-1,-1],"loss_changes":[1.8922522E0,7.0149374E-1,2.1029344E0,0E0,0E0,0E0,1.6307232E0,0E0,0E0],"parents":[2147483647,0,0,1,1,2,2,6,6],"right_children":[2,4,6,-1,-1,-1,8,-1,-1],"split_conditions":[-9.1084146E-1,-1.1136433E0,1.1171765E0,7.5735495E-4,1.7383213E-3,1.18428776E-4,1.9283837E0,1.614963E-3,1.4222682E-5],"split_indices":[0,0,0,0,0,0,0,0,0],"split_type":[0,0,0,0,0,0,0,0,0],"sum_hessian":[1.8539768E3,3.082028E2,1.5457739E3,1.8600523E2,1.2219757E2,1.2630002E3,2.8277374E2,1.8637117E2,9.640256E1],"tree_param":{"num_deleted":"0","num_feature":"3","num_nodes":"9","size_leaf_vector":"1"}},{"base_weights":[1.845768E-2,-1.8245833E-4,3.464028E-4],"categories":[],"categories_nodes":[],"categories_segments":[],"categories_sizes":[],"default_left":[0,0,0],"id":26,"left_children":[1,-1,-1],"loss_changes":[1.1034045E0,0E0,0E0],"parents":[2147483647,0,0],"right_children":[2,-1,-1],"split_conditions":[7.226949E-1,-1.8245833E-4,3.464028E-4],"split_indices":[1,0,0],"split_type":[0,0,0],"sum_hessian":[1.8556493E3,5.6777045E2,1.2878789E3],"tree_param":{"num_deleted":"0","num_feature":"3","num_nodes":"3","size_leaf_vector":"1"}},{"base_weights":[-3.976402E-2,2.525662E-2,-9.172646E-2,-1.4177065E-2,9.872554E-2,-1.6278209E-1,-6.562522E-2,9.386943E-4,-5.595295E-4,4.986447E-3,7.1007904E-4,-1.4773866E-3,-3.772882E-3,-2.7638313E-4,-1.725808E-3],"categories":[],"categories_nodes":[],"categories_segments":[],"categories_sizes":[],"default_left":[0,0,0,0,0,0,0,0,0,0,0,0,0,0,0],"id":27,"left_children":[1,3,5,7,9,11,13,-1,-1,-1,-1,-1,-1,-1,-1],"loss_changes":[6.3450966E0,2.419557E0,1.924922E0,2.460799E0,3.1974926E0,8.4683514E-1,3.1031635E0,0E0,0E0,0E0,0E0,0E0,0E0,0E0,0E0],"parents":[2147483647,0,0,1,1,2,2,3,3,4,4,5,5,6,6],"right_children":[2,4,6,8,10,12,14,-1,-1,-1,-1,-1,-1,-1,-1],"split_conditions":[-2.9569778E-1,-7.492213E-1,2.1802798E-1,-1.3512437E0,-7.371809E-1,1.9394708E-1,1.5344503E0,9.386943E-4,-5.595295E-4,4.986447E-3,7.1007904E-4,-1.4773866E-3,-3.772882E-3,-2.7638313E-4,-1.725808E-3],"split_indices":[2,2,2,2,2,2,2,0,0,0,0,0,0,0,0],"split_type":[0,0,0,0,0,0,0,0,0,0,0,0,0,0,0],"sum_hessian":[1.8763225E3,8.3366754E2,1.042655E3,5.4301624E2,2.9065134E2,2.7870294E2,7.63952E2,1.510648E2,3.9195142E2,1.7737574E1,2.7291376E2,2.6201636E2,1.6686605E1,5.646621E2,1.9928995E2],"tree_param":{"num_deleted":"0","num_feature":"3","num_nodes":"15","size_leaf_vector":"1"}},{"base_weights":[-3.3587735E-2,-1.3075914E-4,-1.2273081E-1,-3.5120137E-2,1.0121218E-1,-1.0706299E-1,-5.6469357E-3,3.969373E-4,-9.356627E-4,8.337649E-4,4.471822E-3,-8.845867E-4,-1.9048576E-3],"categories":[],"categories_nodes":[],"categories_segments":[],"categories_sizes":[],"default_left":[0,0,0,0,0,0,0,0,0,0,0,0,0],"id":28,"left_children":[1,3,5,7,9,11,-1,-1,-1,-1,-1,-1,-1],"loss_changes":[5.554881E0,4.8091726E0,3.4591246E0,4.412024E0,2.1105804E0,7.469082E-1,0E0,0E0,0E0,0E0,0E0,0E0,0E0],"parents":[2147483647,0,0,1,1,2,2,3,3,4,4,5,5],"right_children":[2,4,6,8,10,12,-1,-1,-1,-1,-1,-1,-1],"split_conditions":[6.113493E-1,5.3133992E-3,2.0321221E0,-8.736393E-1,5.8726835E-1,1.6428143E0,-5.6469357E-3,3.969373E-4,-9.356627E-4,8.337649E-4,4.471822E-3,-8.845867E-4,-1.9048576E-3],"split_indices":[2,2,2,2,2,2,0,0,0,0,0,0,0],"split_type":[0,0,0,0,0,0,0,0,0,0,0,0,0],"sum_hessian":[1.8615232E3,1.3542505E3,5.0727274E2,1.0071709E3,3.4707953E2,4.9110504E2,1.6167698E1,4.4187305E2,5.6529785E2,3.31244E2,1.5835532E1,4.0323828E2,8.7866776E1],"tree_param":{"num_deleted":"0","num_feature":"3","num_nodes":"13","size_leaf_vector":"1"}},{"base_weights":[-3.540952E-2,-1.9235181E-3,3.328173E-4],"categories":[],"categories_nodes":[],"categories_segments":[],"categories_sizes":[],"default_left":[0,0,0],"id":29,"left_children":[1,-1,-1],"loss_changes":[2.0173264E1,0E0,0E0],"parents":[2147483647,0,0],"right_children":[2,-1,-1],"split_conditions":[7.226949E-1,-1.9235181E-3,3.328173E-4],"split_indices":[1,0,0],"split_type":[0,0,0],"sum_hessian":[1.8696688E3,5.686487E2,1.3010201E3],"tree_param":{"num_deleted":"0","num_feature":"3","num_nodes":"3","size_leaf_vector":"1"}},{"base_weights":[1.7964384E-2,3.1909586E-3,-1.140224E-3],"categories":[],"categories_nodes":[],"categories_segments":[],"categories_sizes":[],"default_left":[0,0,0],"id":30,"left_children":[1,-1,-1],"loss_changes":[7.425817E1,0E0,0E0],"parents":[2147483647,0,0],"right_children":[2,-1,-1],"split_conditions":[7.226949E-1,3.1909586E-3,-1.140224E-3],"split_indices":[1,0,0],"split_type":[0,0,0],"sum_hessian":[1.8664318E3,5.6833716E2,1.2980946E3],"tree_param":{"num_deleted":"0","num_feature":"3","num_nodes":"3","size_leaf_vector":"1"}},{"base_weights":[5.472269E-2,2.4332372E-3,-3.0570215E-4],"categories":[],"categories_nodes":[],"categories_segments":[],"categories_sizes":[],"default_left":[0,0,0],"id":31,"left_children":[1,-1,-1],"loss_changes":[3.010201E1,0E0,0E0],"parents":[2147483647,0,0],"right_children":[2,-1,-1],"split_conditions":[7.226949E-1,2.4332372E-3,-3.0570215E-4],"split_indices":[1,0,0],"split_type":[0,0,0],"sum_hessian":[1.8698168E3,5.816999E2,1.288117E3],"tree_param":{"num_deleted":"0","num_feature":"3","num_nodes":"3","size_leaf_vector":"1"}},{"base_weights":[2.2338167E-2,3.3579145E-3,1.1313955E-1,-8.909288E-2,1.4930753E-2,1.7532413E-1,8.038567E-2,1.0414103E-4,-1.5499607E-3,2.4655275E-4,-1.0937434E-3,1.0883252E-3,2.9321765E-3,3.473925E-4,1.805129E-3],"categories":[],"categories_nodes":[],"categories_segments":[],"categories_sizes":[],"default_left":[0,0,0,0,0,0,0,0,0,0,0,0,0,0,0],"id":32,"left_children":[1,3,5,7,9,11,13,-1,-1,-1,-1,-1,-1,-1,-1],"loss_changes":[3.2407365E0,1.6666635E0,6.48088E-1,1.1381373E0,1.6759251E0,8.406942E-1,9.754344E-1,0E0,0E0,0E0,0E0,0E0,0E0,0E0,0E0],"parents":[2147483647,0,0,1,1,2,2,3,3,4,4,5,5,6,6],"right_children":[2,4,6,8,10,12,14,-1,-1,-1,-1,-1,-1,-1,-1],"split_conditions":[1.2254121E0,-1.3392032E0,1.5103693E0,-1.4435538E0,8.6018515E-1,1.3698975E0,1.7471648E0,1.0414103E-4,-1.5499607E-3,2.4655275E-4,-1.0937434E-3,1.0883252E-3,2.9321765E-3,3.473925E-4,1.805129E-3],"split_indices":[2,2,2,2,2,2,2,0,0,0,0,0,0,0,0],"split_type":[0,0,0,0,0,0,0,0,0,0,0,0,0,0,0],"sum_hessian":[1.8796163E3,1.5555052E3,3.2411096E2,1.7230789E2,1.3831974E3,1.1031694E2,2.1379402E2,6.898686E1,1.0332103E2,1.283583E3,9.961444E1,7.1764885E1,3.855205E1,1.477734E2,6.6020615E1],"tree_param":{"num_deleted":"0","num_feature":"3","num_nodes":"15","size_leaf_vector":"1"}},{"base_weights":[-2.269599E-2,-4.2476576E-2,3.2020204E-2,-3.0354599E-2,-9.951518E-4,1.4594647E-1,-1.3015852E-2,-7.6990627E-4,-1.2503081E-4,2.4327126E-3,9.353488E-4,-1.1212549E-3,1.2751075E-4],"categories":[],"categories_nodes":[],"categories_segments":[],"categories_sizes":[],"default_left":[0,0,0,0,0,0,0,0,0,0,0,0,0],"id":33,"left_children":[1,3,5,7,-1,9,11,-1,-1,-1,-1,-1,-1],"loss_changes":[2.0013647E0,9.356954E-1,2.522281E0,9.3241286E-1,0E0,6.8756604E-1,9.0283746E-1,0E0,0E0,0E0,0E0,0E0,0E0],"parents":[2147483647,0,0,1,1,2,2,3,3,5,5,6,6],"right_children":[2,4,6,8,-1,10,12,-1,-1,-1,-1,-1,-1],"split_conditions":[6.1017203E-1,2.0456845E-1,9.1437477E-1,-9.1084146E-1,-9.951518E-4,7.1157295E-1,1.1171765E0,-7.6990627E-4,-1.2503081E-4,2.4327126E-3,9.353488E-4,-1.1212549E-3,1.2751075E-4],"split_indices":[0,0,0,0,0,0,0,0,0,0,0,0,0],"split_type":[0,0,0,0,0,0,0,0,0,0,0,0,0],"sum_hessian":[1.8468893E3,1.3566625E3,4.9022678E2,1.1201399E3,2.365226E2,1.3825269E2,3.519741E2,3.0916138E2,8.109786E2,4.7117374E1,9.1135315E1,7.1934494E1,2.8003958E2],"tree_param":{"num_deleted":"0","num_feature":"3","num_nodes":"13","size_leaf_vector":"1"}},{"base_weights":[-1.4463527E-2,-9.168881E-3,-5.6524817E-3,-1.1275705E-1,6.7855865E-3,2.8713467E-4,-1.975473E-3,6.7628955E-4,-1.7606025E-4],"categories":[],"categories_nodes":[],"categories_segments":[],"categories_sizes":[],"default_left":[0,0,0,0,0,0,0,0,0],"id":34,"left_children":[1,3,-1,5,7,-1,-1,-1,-1],"loss_changes":[5.418944E0,3.0471745E0,0E0,2.957339E0,2.3730736E0,0E0,0E0,0E0,0E0],"parents":[2147483647,0,0,1,1,3,3,4,4],"right_children":[2,4,-1,6,8,-1,-1,-1,-1],"split_conditions":[2.840992E0,-1.0122423E0,-5.6524817E-3,-1.3164451E0,-4.0383697E-1,2.8713467E-4,-1.975473E-3,6.7628955E-4,-1.7606025E-4],"split_indices":[0,0,0,0,0,0,0,0,0],"split_type":[0,0,0,0,0,0,0,0,0],"sum_hessian":[1.8589921E3,1.8422988E3,1.6693214E1,2.4506816E2,1.5972307E3,9.208609E1,1.5298207E2,4.5657068E2,1.14066E3],"tree_param":{"num_deleted":"0","num_feature":"3","num_nodes":"9","size_leaf_vector":"1"}},{"base_weights":[-6.1730083E-2,-6.718573E-2,4.960918E-3,-6.271242E-2,-2.4759108E-1,-9.70792E-4,-3.5820503E-4,-4.146609E-3,-1.23240925E-5],"categories":[],"categories_nodes":[],"categories_segments":[],"categories_sizes":[],"default_left":[0,0,0,0,0,0,0,0,0],"id":35,"left_children":[1,3,-1,5,7,-1,-1,-1,-1],"loss_changes":[5.6904707E0,1.4707994E0,0E0,1.6587195E0,1.8197162E0,0E0,0E0,0E0,0E0],"parents":[2147483647,0,0,1,1,3,3,4,4],"right_children":[2,4,-1,6,8,-1,-1,-1,-1],"split_conditions":[2.0321221E0,1.7792727E0,4.960918E-3,-3.7596744E-1,1.9598794E0,-9.70792E-4,-3.5820503E-4,-4.146609E-3,-1.23240925E-5],"split_indices":[2,2,0,2,2,0,0,0,0],"split_type":[0,0,0,0,0,0,0,0,0],"sum_hessian":[1.8578955E3,1.8407719E3,1.7123688E1,1.7975476E3,4.3224174E1,7.8795856E2,1.00958905E3,2.5349844E1,1.787433E1],"tree_param":{"num_deleted":"0","num_feature":"3","num_nodes":"9","size_leaf_vector":"1"}},{"base_weights":[1.9631924E-2,8.611811E-4,1.7821187E-1,-1.1251527E-3,1.6945267E-2,2.365683E-1,1.14721194E-1,8.788021E-4,-9.691293E-5,1.6986866E-3,3.978732E-3,-1.1926008E-3,2.379882E-3],"categories":[],"categories_nodes":[],"categories_segments":[],"categories_sizes":[],"default_left":[0,0,0,0,0,0,0,0,0,0,0,0,0],"id":36,"left_children":[1,3,5,-1,7,9,11,-1,-1,-1,-1,-1,-1],"loss_changes":[5.6050105E0,3.074127E0,7.11267E-1,0E0,2.790264E0,1.0395651E0,2.837328E0,0E0,0E0,0E0,0E0,0E0,0E0],"parents":[2147483647,0,0,1,1,2,2,4,4,5,5,6,6],"right_children":[2,4,6,-1,8,10,12,-1,-1,-1,-1,-1,-1],"split_conditions":[1.5224098E0,-1.2428796E0,1.6428143E0,-1.1251527E-3,-6.569112E-1,1.590639E0,1.7471648E0,8.788021E-4,-9.691293E-5,1.6986866E-3,3.978732E-3,-1.1926008E-3,2.379882E-3],"split_indices":[2,2,2,0,2,2,2,0,0,0,0,0,0],"split_type":[0,0,0,0,0,0,0,0,0,0,0,0,0],"sum_hessian":[1.882036E3,1.6837408E3,1.9829509E2,2.0844191E2,1.475299E3,1.01904854E2,9.6390236E1,4.0212198E2,1.073177E3,7.354646E1,2.8358397E1,3.3270256E1,6.311998E1],"tree_param":{"num_deleted":"0","num_feature":"3","num_nodes":"13","size_leaf_vector":"1"}},{"base_weights":[4.3496124E-2,2.2775831E-3,-3.8077676E-4],"categories":[],"categories_nodes":[],"categories_segments":[],"categories_sizes":[],"default_left":[0,0,0],"id":37,"left_children":[1,-1,-1],"loss_changes":[2.762456E1,0E0,0E0],"parents":[2147483647,0,0],"right_children":[2,-1,-1],"split_conditions":[7.226949E-1,2.2775831E-3,-3.8077676E-4],"split_indices":[1,0,0],"split_type":[0,0,0],"sum_hessian":[1.8362662E3,5.629224E2,1.2733439E3],"tree_param":{"num_deleted":"0","num_feature":"3","num_nodes":"3","size_leaf_vector":"1"}},{"base_weights":[2.8414233E-2,5.5111464E-5,3.8624197E-4],"categories":[],"categories_nodes":[],"categories_segments":[],"categories_sizes":[],"default_left":[0,0,0],"id":38,"left_children":[1,-1,-1],"loss_changes":[4.328016E-1,0E0,0E0],"parents":[2147483647,0,0],"right_children":[2,-1,-1],"split_conditions":[7.226949E-1,5.5111464E-5,3.8624197E-4],"split_indices":[1,0,0],"split_type":[0,0,0],"sum_hessian":[1.8507573E3,5.7113104E2,1.2796262E3],"tree_param":{"num_deleted":"0","num_feature":"3","num_nodes":"3","size_leaf_vector":"1"}},{"base_weights":[-2.9386738E-2,-2.049416E-3,4.6867656E-4],"categories":[],"categories_nodes":[],"categories_segments":[],"categories_sizes":[],"default_left":[0,0,0],"id":39,"left_children":[1,-1,-1],"loss_changes":[2.48822E1,0E0,0E0],"parents":[2147483647,0,0],"right_children":[2,-1,-1],"split_conditions":[7.226949E-1,-2.049416E-3,4.6867656E-4],"split_indices":[1,0,0],"split_type":[0,0,0],"sum_hessian":[1.8569896E3,5.618337E2,1.2951559E3],"tree_param":{"num_deleted":"0","num_feature":"3","num_nodes":"3","size_leaf_vector":"1"}},{"base_weights":[-2.5084337E-2,-2.1686496E-2,-3.7423824E-3,-2.3825733E-2,6.386053E-3,-1.0553428E-3,-1.13904294E-4],"categories":[],"categories_nodes":[],"categories_segments":[],"categories_sizes":[],"default_left":[0,0,0,0,0,0,0],"id":40,"left_children":[1,3,-1,5,-1,-1,-1],"loss_changes":[2.1971498E0,2.6170518E0,0E0,1.8653163E0,0E0,0E0,0E0],"parents":[2147483647,0,0,1,1,3,3],"right_children":[2,4,-1,6,-1,-1,-1],"split_conditions":[2.840992E0,2.739591E0,-3.7423824E-3,-1.0122423E0,6.386053E-3,-1.0553428E-3,-1.13904294E-4],"split_indices":[0,0,0,0,0,0,0],"split_type":[0,0,0,0,0,0,0],"sum_hessian":[1.8578351E3,1.8409813E3,1.6853662E1,1.835997E3,4.9844117E0,2.4152484E2,1.5944722E3],"tree_param":{"num_deleted":"0","num_feature":"3","num_nodes":"7","size_leaf_vector":"1"}},{"base_weights":[-5.8969796E-2,-6.8859264E-2,6.85497E-2,-5.795666E-2,-2.09153E-1,1.8964261E-1,-8.382133E-2,-8.6588523E-4,-1.2343643E-4,-1.5296247E-3,-2.6573145E-3,1.4640137E-3,3.28193E-3,-2.3283975E-3,2.775264E-3],"categories":[],"categories_nodes":[],"categories_segments":[],"categories_sizes":[],"default_left":[0,0,0,0,0,0,0,0,0,0,0,0,0,0,0],"id":41,"left_children":[1,3,5,7,9,11,13,-1,-1,-1,-1,-1,-1,-1,-1],"loss_changes":[2.312345E0,2.5860815E0,2.4550767E0,2.0591865E0,3.4754515E-1,3.950858E-1,3.254111E0,0E0,0E0,0E0,0E0,0E0,0E0,0E0,0E0],"parents":[2147483647,0,0,1,1,2,2,3,3,4,4,5,5,6,6],"right_children":[2,4,6,8,10,12,14,-1,-1,-1,-1,-1,-1,-1,-1],"split_conditions":[1.590639E0,1.3698975E0,1.7792727E0,-4.284839E-2,1.5424773E0,1.6829491E0,2.0321221E0,-8.6588523E-4,-1.2343643E-4,-1.5296247E-3,-2.6573145E-3,1.4640137E-3,3.28193E-3,-2.3283975E-3,2.775264E-3],"split_indices":[2,2,2,2,2,2,2,0,0,0,0,0,0,0,0],"split_type":[0,0,0,0,0,0,0,0,0,0,0,0,0,0,0],"sum_hessian":[1.8288501E3,1.6976527E3,1.3119739E2,1.5765481E3,1.21104706E2,7.296541E1,5.8231976E1,9.680147E2,6.085333E2,6.2618816E1,5.8485893E1,5.7177208E1,1.5788198E1,4.1481003E1,1.6750973E1],"tree_param":{"num_deleted":"0","num_feature":"3","num_nodes":"15","size_leaf_vector":"1"}},{"base_weights":[2.1620104E-2,-1.2943272E-3,3.5954036E-2,2.4991633E-2,1.2167696E-1,7.5812294E-4,7.766552E-6,2.1281226E-3,4.5609756E-4],"categories":[],"categories_nodes":[],"categories_segments":[],"categories_sizes":[],"default_left":[0,0,0,0,0,0,0,0,0],"id":42,"left_children":[1,-1,3,5,7,-1,-1,-1,-1],"loss_changes":[4.057867E0,0E0,1.6043992E0,1.8678391E0,1.3330035E0,0E0,0E0,0E0,0E0],"parents":[2147483647,0,0,2,2,3,3,4,4],"right_children":[2,-1,4,6,8,-1,-1,-1,-1],"split_conditions":[-1.279001E0,-1.2943272E-3,1.5424773E0,-5.926955E-1,1.6428143E0,7.5812294E-4,7.766552E-6,2.1281226E-3,4.5609756E-4],"split_indices":[2,0,2,2,2,0,0,0,0],"split_type":[0,0,0,0,0,0,0,0,0],"sum_hessian":[1.8709974E3,1.6146185E2,1.7095355E3,1.5168496E3,1.9268596E2,4.888195E2,1.0280302E3,8.684281E1,1.05843155E2],"tree_param":{"num_deleted":"0","num_feature":"3","num_nodes":"9","size_leaf_vector":"1"}},{"base_weights":[2.8508406E-2,1.5628166E-4,9.496006E-2,5.5891827E-2,-5.046386E-2,4.962359E-3,8.79015E-2,2.3230047E-4,3.5765846E-3,-3.3849681E-4,-2.5575915E-3,1.1609994E-3,1.908825E-4],"categories":[],"categories_nodes":[],"categories_segments":[],"categories_sizes":[],"default_left":[0,0,0,0,0,0,0,0,0,0,0,0,0],"id":43,"left_children":[1,3,5,7,9,-1,11,-1,-1,-1,-1,-1,-1],"loss_changes":[3.536307E0,3.7175457E0,1.5463123E0,6.172901E0,2.3465602E0,0E0,1.0705347E0,0E0,0E0,0E0,0E0,0E0,0E0],"parents":[2147483647,0,0,1,1,2,2,3,3,4,4,6,6],"right_children":[2,4,6,8,10,-1,12,-1,-1,-1,-1,-1,-1],"split_conditions":[5.3509307E-1,-6.528977E-1,5.7121444E-1,-7.371809E-1,4.8291782E-1,4.962359E-3,1.5625446E0,2.3230047E-4,3.5765846E-3,-3.3849681E-4,-2.5575915E-3,1.1609994E-3,1.908825E-4],"split_indices":[2,2,2,2,2,0,2,0,0,0,0,0,0],"split_type":[0,0,0,0,0,0,0,0,0,0,0,0,0],"sum_hessian":[1.8759833E3,1.3156522E3,5.6033105E2,6.2613696E2,6.895152E2,8.488032E0,5.51843E2,5.6595746E2,6.0179546E1,6.389695E2,5.054576E1,3.9095108E2,1.6089192E2],"tree_param":{"num_deleted":"0","num_feature":"3","num_nodes":"13","size_leaf_vector":"1"}},{"base_weights":[2.19766E-2,-3.51301E-2,5.334023E-2,-9.2631415E-2,-2.012863E-2,2.7755182E-3,4.7869608E-2,1.541586E-3,-1.2317938E-3,3.73884E-3,-2.5736477E-4,2.7530544E-4,9.2944544E-4],"categories":[],"categories_nodes":[],"categories_segments":[],"categories_sizes":[],"default_left":[0,0,0,0,0,0,0,0,0,0,0,0,0],"id":44,"left_children":[1,3,5,7,9,-1,11,-1,-1,-1,-1,-1,-1],"loss_changes":[3.3419747E0,5.689334E-1,1.4636903E0,1.0490862E0,1.1720239E0,0E0,1.0761938E0,0E0,0E0,0E0,0E0,0E0,0E0],"parents":[2147483647,0,0,1,1,2,2,3,3,4,4,6,6],"right_children":[2,4,6,8,10,-1,12,-1,-1,-1,-1,-1,-1],"split_conditions":[-5.926955E-1,-1.379338E0,-5.686146E-1,-1.5077695E0,-1.3713111E0,2.7755182E-3,1.1692233E0,1.541586E-3,-1.2317938E-3,3.73884E-3,-2.5736477E-4,2.7530544E-4,9.2944544E-4],"split_indices":[2,2,2,2,2,0,2,0,0,0,0,0,0],"split_type":[0,0,0,0,0,0,0,0,0,0,0,0,0],"sum_hessian":[1.8638597E3,6.6071466E2,1.203145E3,1.3563701E2,5.2507764E2,2.7472174E1,1.1756729E3,1.4494314E1,1.2114269E2,6.446813E0,5.186308E2,8.1123285E2,3.6444006E2],"tree_param":{"num_deleted":"0","num_feature":"3","num_nodes":"13","size_leaf_vector":"1"}},{"base_weights":[-1.0183161E-2,-3.6757026E-2,6.4171076E-2,-1.9206947E-2,-8.3763024E-4,3.8711622E-3,3.0518329E-2,-5.529266E-4,6.68603E-4,9.0341765E-4,-5.450293E-4],"categories":[],"categories_nodes":[],"categories_segments":[],"categories_sizes":[],"default_left":[0,0,0,0,0,0,0,0,0,0,0],"id":45,"left_children":[1,3,5,7,-1,-1,9,-1,-1,-1,-1],"loss_changes":[3.6769314E0,1.1291604E0,5.313696E0,3.107508E0,0E0,0E0,2.267598E0,0E0,0E0,0E0,0E0],"parents":[2147483647,0,0,1,1,2,2,3,3,6,6],"right_children":[2,4,6,8,-1,-1,10,-1,-1,-1,-1],"split_conditions":[6.1017203E-1,1.7666403E-3,7.1157295E-1,-4.0383697E-1,-8.3763024E-4,3.8711622E-3,1.4213792E0,-5.529266E-4,6.68603E-4,9.0341765E-4,-5.450293E-4],"split_indices":[0,0,0,0,0,0,0,0,0,0,0],"split_type":[0,0,0,0,0,0,0,0,0,0,0],"sum_hessian":[1.8587153E3,1.3696974E3,4.8901794E2,9.9836005E2,3.7133734E2,4.5158237E1,4.438597E2,7.0368225E2,2.946778E2,2.60501E2,1.8335869E2],"tree_param":{"num_deleted":"0","num_feature":"3","num_nodes":"11","size_leaf_vector":"1"}},{"base_weights":[-2.3700468E-2,1.7170234E-2,-1.5307997E-1,1.1298693E-2,6.670188E-1,-1.4004529E-1,-4.659358E-3,2.8363496E-4,-9.145283E-4,3.4379007E-3,8.382503E-3,-3.688873E-3,-1.3003602E-3],"categories":[],"categories_nodes":[],"categories_segments":[],"categories_sizes":[],"default_left":[0,0,0,0,0,0,0,0,0,0,0,0,0],"id":46,"left_children":[1,3,5,7,9,11,-1,-1,-1,-1,-1,-1,-1],"loss_changes":[9.777436E0,5.3559937E0,1.744834E0,2.4470751E0,4.075122E-1,9.3133736E-1,0E0,0E0,0E0,0E0,0E0,0E0,0E0],"parents":[2147483647,0,0,1,1,2,2,3,3,4,4,5,5],"right_children":[2,4,6,8,10,12,-1,-1,-1,-1,-1,-1,-1],"split_conditions":[7.8794247E-1,7.5182116E-1,2.0321221E0,3.3441895E-1,7.83929E-1,8.6018515E-1,-4.659358E-3,2.8363496E-4,-9.145283E-4,3.4379007E-3,8.382503E-3,-3.688873E-3,-1.3003602E-3],"split_indices":[2,2,2,2,2,2,0,0,0,0,0,0,0],"split_type":[0,0,0,0,0,0,0,0,0,0,0,0,0],"sum_hessian":[1.847548E3,1.4046799E3,4.4286804E2,1.3931102E3,1.1569707E1,4.265443E2,1.632372E1,1.1953177E3,1.9779245E2,5.048172E0,6.521535E0,1.6372154E1,4.1017215E2],"tree_param":{"num_deleted":"0","num_feature":"3","num_nodes":"13","size_leaf_vector":"1"}},{"base_weights":[-3.395486E-2,-3.8346045E-2,4.4221715E-3,-3.092146E-2,-3.413321E-1,-3.8137197E-4,2.1949932E-3,-4.969562E-3,-9.0621476E-4],"categories":[],"categories_nodes":[],"categories_segments":[],"categories_sizes":[],"default_left":[0,0,0,0,0,0,0,0,0],"id":47,"left_children":[1,3,-1,5,7,-1,-1,-1,-1],"loss_changes":[3.8879402E0,4.1180353E0,0E0,3.2473693E0,1.6638207E0,0E0,0E0,0E0,0E0],"parents":[2147483647,0,0,1,1,3,3,4,4],"right_children":[2,4,-1,6,8,-1,-1,-1,-1],"split_conditions":[2.0321221E0,1.7792727E0,4.4221715E-3,1.598666E0,1.9598794E0,-3.8137197E-4,2.1949932E-3,-4.969562E-3,-9.0621476E-4],"split_indices":[2,2,0,2,2,0,0,0,0],"split_type":[0,0,0,0,0,0,0,0,0],"sum_hessian":[1.8502953E3,1.8342992E3,1.5996155E1,1.791501E3,4.279816E1,1.7421497E3,4.935139E1,2.580067E1,1.699749E1],"tree_param":{"num_deleted":"0","num_feature":"3","num_nodes":"9","size_leaf_vector":"1"}},{"base_weights":[6.613873E-3,1.0664687E-1,-5.256676E-2,1.6227928E-1,7.5440355E-2,-8.273739E-2,-3.5513038E-4,3.929835E-3,1.4904232E-3,5.901843E-4,1.6115431E-3,-3.3493218E-4,-1.0809756E-3],"categories":[],"categories_nodes":[],"categories_segments":[],"categories_sizes":[],"default_left":[0,0,0,0,0,0,0,0,0,0,0,0,0],"id":48,"left_children":[1,3,5,7,9,11,-1,-1,-1,-1,-1,-1,-1],"loss_changes":[1.1081436E1,1.1956601E0,6.022177E-1,7.023196E-1,6.2052464E-1,5.258651E-1,0E0,0E0,0E0,0E0,0E0,0E0,0E0],"parents":[2147483647,0,0,1,1,2,2,3,3,4,4,5,5],"right_children":[2,4,6,8,10,12,-1,-1,-1,-1,-1,-1,-1],"split_conditions":[-4.0383697E-1,-1.0122423E0,2.0456845E-1,-1.5192468E0,-5.052379E-1,-2.0103516E-1,-3.5513038E-4,3.929835E-3,1.4904232E-3,5.901843E-4,1.6115431E-3,-3.3493218E-4,-1.0809756E-3],"split_indices":[0,0,0,0,0,0,0,0,0,0,0,0,0],"split_type":[0,0,0,0,0,0,0,0,0,0,0,0,0],"sum_hessian":[1.8699122E3,6.947591E2,1.1751531E3,2.4815987E2,4.4659924E2,4.2298187E2,7.521712E2,1.1909169E1,2.3625069E2,3.762098E2,7.038943E1,1.4457259E2,2.7840927E2],"tree_param":{"num_deleted":"0","num_feature":"3","num_nodes":"13","size_leaf_vector":"1"}},{"base_weights":[4.4272795E-2,2.7619192E-1,3.4763694E-2,1.5008545E-1,6.8638986E-3,1.811615E-2,1.2412107E-1,-4.6594493E-4,2.5061732E-3,3.0029527E-4,-7.4105576E-4,3.4790002E-3,1.0540164E-3],"categories":[],"categories_nodes":[],"categories_segments":[],"categories_sizes":[],"default_left":[0,0,0,0,0,0,0,0,0,0,0,0,0],"id":49,"left_children":[1,3,5,7,-1,9,11,-1,-1,-1,-1,-1,-1],"loss_changes":[4.1066236E0,3.6923513E0,2.6666327E0,1.1465905E0,0E0,1.6650919E0,1.1428947E0,0E0,0E0,0E0,0E0,0E0,0E0],"parents":[2147483647,0,0,1,1,2,2,3,3,5,5,6,6],"right_children":[2,4,6,8,-1,10,12,-1,-1,-1,-1,-1,-1],"split_conditions":[-1.4194729E0,-1.4515808E0,1.2615334E0,-1.4917156E0,6.8638986E-3,7.5182116E-1,1.3698975E0,-4.6594493E-4,2.5061732E-3,3.0029527E-4,-7.4105576E-4,3.4790002E-3,1.0540164E-3],"split_indices":[2,2,2,2,0,2,2,0,0,0,0,0,0],"split_type":[0,0,0,0,0,0,0,0,0,0,0,0,0],"sum_hessian":[1.8654794E3,7.237077E1,1.7931085E3,5.6398243E1,1.5972528E1,1.5125237E3,2.805849E2,1.9258179E1,3.714006E1,1.3400835E3,1.7244017E2,2.030203E1,2.6028287E2],"tree_param":{"num_deleted":"0","num_feature":"3","num_nodes":"13","size_leaf_vector":"1"}},{"base_weights":[3.781337E-2,3.0570263E-3,3.5649586E-2,-6.291617E-2,4.1968163E-2,1.984529E-4,-1.3559224E-3,3.3950966E-4,9.686444E-4],"categories":[],"categories_nodes":[],"categories_segments":[],"categories_sizes":[],"default_left":[0,0,0,0,0,0,0,0,0],"id":50,"left_children":[1,-1,3,5,7,-1,-1,-1,-1],"loss_changes":[1.0499227E0,0E0,1.1339862E0,6.6332865E-1,7.483058E-1,0E0,0E0,0E0,0E0],"parents":[2147483647,0,0,2,2,3,3,4,4],"right_children":[2,-1,4,6,8,-1,-1,-1,-1],"split_conditions":[-1.5077695E0,3.0570263E-3,-1.3994055E0,-1.4435538E0,1.4782615E0,1.984529E-4,-1.3559224E-3,3.3950966E-4,9.686444E-4],"split_indices":[2,0,2,2,2,0,0,0,0],"split_type":[0,0,0,0,0,0,0,0,0],"sum_hessian":[1.8290928E3,1.3531492E1,1.8155613E3,1.08835754E2,1.7067256E3,5.122693E1,5.7608826E1,1.4906461E3,2.1607947E2],"tree_param":{"num_deleted":"0","num_feature":"3","num_nodes":"9","size_leaf_vector":"1"}},{"base_weights":[-3.1862363E-2,-1.8224015E-3,3.2296716E-4],"categories":[],"categories_nodes":[],"categories_segments":[],"categories_sizes":[],"default_left":[0,0,0],"id":51,"left_children":[1,-1,-1],"loss_changes":[1.7954718E1,0E0,0E0],"parents":[2147483647,0,0],"right_children":[2,-1,-1],"split_conditions":[7.226949E-1,-1.8224015E-3,3.2296716E-4],"split_indices":[1,0,0],"split_type":[0,0,0],"sum_hessian":[1.8593486E3,5.5550366E2,1.303845E3],"tree_param":{"num_deleted":"0","num_feature":"3","num_nodes":"3","size_leaf_vector":"1"}},{"base_weights":[-1.43731E-2,-5.2811587E-3,-3.1039023E-1,-1.2283796E-1,1.8392187E-2,-2.1768159E-3,-5.5675227E-3,1.4160884E-3,-1.3361269E-3,9.906098E-4,-9.140782E-5],"categories":[],"categories_nodes":[],"categories_segments":[],"categories_sizes":[],"default_left":[0,0,0,0,0,0,0,0,0,0,0],"id":52,"left_children":[1,3,5,7,9,-1,-1,-1,-1,-1,-1],"loss_changes":[4.980584E0,5.0033507E0,1.1383362E0,8.77583E-1,3.3251185E0,0E0,0E0,0E0,0E0,0E0,0E0],"parents":[2147483647,0,0,1,1,2,2,3,3,4,4],"right_children":[2,4,6,8,10,-1,-1,-1,-1,-1,-1],"split_conditions":[2.2325864E0,-9.1084146E-1,2.9423928E0,-1.5192468E0,-4.0383697E-1,-2.1768159E-3,-5.5675227E-3,1.4160884E-3,-1.3361269E-3,9.906098E-4,-9.140782E-5],"split_indices":[0,0,0,0,0,0,0,0,0,0,0],"split_type":[0,0,0,0,0,0,0,0,0,0,0],"sum_hessian":[1.8501847E3,1.7960386E3,5.4146122E1,3.0035428E2,1.4956843E3,4.071008E1,1.3436046E1,1.1283284E1,2.8907098E2,3.7993005E2,1.1157543E3],"tree_param":{"num_deleted":"0","num_feature":"3","num_nodes":"11","size_leaf_vector":"1"}},{"base_weights":[-2.7859695E-2,-6.888679E-2,4.150751E-2,-6.549464E-2,-5.288099E-3,2.936138E-2,4.928219E-3,-7.0023857E-4,1.5946586E-3,5.607151E-4,-3.4782176E-3],"categories":[],"categories_nodes":[],"categories_segments":[],"categories_sizes":[],"default_left":[0,0,0,0,0,0,0,0,0,0,0],"id":53,"left_children":[1,3,5,7,-1,9,-1,-1,-1,-1,-1],"loss_changes":[5.3223124E0,1.7983031E0,3.7968297E0,1.2006302E0,0E0,6.851259E0,0E0,0E0,0E0,0E0,0E0],"parents":[2147483647,0,0,1,1,2,2,3,3,5,5],"right_children":[2,4,6,8,-1,10,-1,-1,-1,-1,-1],"split_conditions":[3.2237852E-1,3.1836504E-1,2.0321221E0,2.581628E-1,-5.288099E-3,1.7792727E0,4.928219E-3,-7.0023857E-4,1.5946586E-3,5.607151E-4,-3.4782176E-3],"split_indices":[2,2,2,2,0,2,0,0,0,0,0],"split_type":[0,0,0,0,0,0,0,0,0,0,0],"sum_hessian":[1.8681409E3,1.1738667E3,6.942741E2,1.1664064E3,7.460373E0,6.771161E2,1.7158026E1,1.1440613E3,2.2345083E1,6.3313226E2,4.3983765E1],"tree_param":{"num_deleted":"0","num_feature":"3","num_nodes":"11","size_leaf_vector":"1"}},{"base_weights":[3.4257203E-2,3.6417034E-3,-1.1234188E-3],"categories":[],"categories_nodes":[],"categories_segments":[],"categories_sizes":[],"default_left":[0,0,0],"id":54,"left_children":[1,-1,-1],"loss_changes":[8.9471245E1,0E0,0E0],"parents":[2147483647,0,0],"right_children":[2,-1,-1],"split_conditions":[7.226949E-1,3.6417034E-3,-1.1234188E-3],"split_indices":[1,0,0],"split_type":[0,0,0],"sum_hessian":[1.8480728E3,5.681034E2,1.2799694E3],"tree_param":{"num_deleted":"0","num_feature":"3","num_nodes":"3","size_leaf_vector":"1"}},{"base_weights":[3.1309772E-2,1.9608547E-3,-4.0915515E-4],"categories":[],"categories_nodes":[],"categories_segments":[],"categories_sizes":[],"default_left":[0,0,0],"id":55,"left_children":[1,-1,-1],"loss_changes":[2.2366987E1,0E0,0E0],"parents":[2147483647,0,0],"right_children":[2,-1,-1],"split_conditions":[7.226949E-1,1.9608547E-3,-4.0915515E-4],"split_indices":[1,0,0],"split_type":[0,0,0],"sum_hessian":[1.877751E3,5.7171594E2,1.306035E3],"tree_param":{"num_deleted":"0","num_feature":"3","num_nodes":"3","size_leaf_vector":"1"}},{"base_weights":[3.868387E-2,2.9256532E-2,2.0716226E-1,3.4294978E-2,-1.393001E-3,2.785275E-3,1.4100058E-4,2.3276634E-4,1.2963874E-3],"categories":[],"categories_nodes":[],"categories_segments":[],"categories_sizes":[],"default_left":[0,0,0,0,0,0,0,0,0],"id":56,"left_children":[1,3,5,7,-1,-1,-1,-1,-1],"loss_changes":[2.927761E0,1.4913509E0,1.3424087E0,1.7833295E0,0E0,0E0,0E0,0E0,0E0],"parents":[2147483647,0,0,1,1,2,2,3,3],"right_children":[2,4,6,8,-1,-1,-1,-1,-1],"split_conditions":[1.6428143E0,1.5705715E0,1.9638928E0,1.2254121E0,-1.393001E-3,2.785275E-3,1.4100058E-4,2.3276634E-4,1.2963874E-3],"split_indices":[2,2,2,2,0,0,0,0,0],"split_type":[0,0,0,0,0,0,0,0,0],"sum_hessian":[1.8461431E3,1.7494263E3,9.671683E1,1.6994241E3,5.0002174E1,7.0291115E1,2.6425718E1,1.5244913E3,1.7493277E2],"tree_param":{"num_deleted":"0","num_feature":"3","num_nodes":"9","size_leaf_vector":"1"}},{"base_weights":[-1.0149127E-2,4.6600617E-2,-5.664658E-2,4.1868198E-1,3.5835687E-2,-9.852004E-2,-1.1026007E-2,2.35929E-3,9.31519E-3,-1.4001298E-4,9.959204E-4,-6.872301E-4,-2.8931568E-3,2.6727718E-4,-2.0181723E-3],"categories":[],"categories_nodes":[],"categories_segments":[],"categories_sizes":[],"default_left":[0,0,0,0,0,0,0,0,0,0,0,0,0,0,0],"id":57,"left_children":[1,3,5,7,9,11,13,-1,-1,-1,-1,-1,-1,-1,-1],"loss_changes":[4.910012E0,3.3419113E0,1.952501E0,1.9800792E0,2.5929627E0,3.0108972E0,3.5389335E0,0E0,0E0,0E0,0E0,0E0,0E0,0E0,0E0],"parents":[2147483647,0,0,1,1,2,2,3,3,4,4,5,5,6,6],"right_children":[2,4,6,8,10,12,14,-1,-1,-1,-1,-1,-1,-1,-1],"split_conditions":[-2.9569778E-1,-1.4917156E0,6.75565E-1,-1.5077695E0,-8.3350444E-1,5.3509307E-1,1.6829491E0,2.35929E-3,9.31519E-3,-1.4001298E-4,9.959204E-4,-6.872301E-4,-2.8931568E-3,2.6727718E-4,-2.0181723E-3],"split_indices":[2,2,2,2,2,2,2,0,0,0,0,0,0,0,0],"split_type":[0,0,0,0,0,0,0,0,0,0,0,0,0,0,0],"sum_hessian":[1.8587556E3,8.37091E2,1.0216646E3,2.2471968E1,8.14619E2,5.3210516E2,4.8955948E2,1.7644335E1,4.827632E0,4.5765793E2,3.569611E2,4.6140634E2,7.06988E1,4.094062E2,8.01533E1],"tree_param":{"num_deleted":"0","num_feature":"3","num_nodes":"15","size_leaf_vector":"1"}},{"base_weights":[-2.0399088E-2,1.9180447E-2,-1.478297E-1,1.2348248E-2,6.3334024E-3,-2.5525188E-1,-1.0500538E-1,2.3304572E-4,-2.289573E-3,-2.012164E-3,-3.5178654E-3,-2.8665416E-4,-2.2403644E-3],"categories":[],"categories_nodes":[],"categories_segments":[],"categories_sizes":[],"default_left":[0,0,0,0,0,0,0,0,0,0,0,0,0],"id":58,"left_children":[1,3,5,7,-1,9,11,-1,-1,-1,-1,-1,-1],"loss_changes":[9.422185E0,5.975179E0,2.009776E0,3.7362792E0,0E0,5.8378124E-1,2.8852143E0,0E0,0E0,0E0,0E0,0E0,0E0],"parents":[2147483647,0,0,1,1,2,2,3,3,5,5,6,6],"right_children":[2,4,6,8,-1,10,12,-1,-1,-1,-1,-1,-1],"split_conditions":[7.8794247E-1,7.5182116E-1,1.249493E0,6.113493E-1,6.3334024E-3,1.1692233E0,1.5946524E0,2.3304572E-4,-2.289573E-3,-2.012164E-3,-3.5178654E-3,-2.8665416E-4,-2.2403644E-3],"split_indices":[2,2,2,2,0,2,2,0,0,0,0,0,0],"split_type":[0,0,0,0,0,0,0,0,0,0,0,0,0],"sum_hessian":[1.8665682E3,1.4248606E3,4.417076E2,1.410193E3,1.4667539E1,1.2448475E2,3.1722287E2,1.3498092E3,6.0383812E1,8.178811E1,4.2696636E1,1.9402608E2,1.231968E2],"tree_param":{"num_deleted":"0","num_feature":"3","num_nodes":"13","size_leaf_vector":"1"}},{"base_weights":[-4.000098E-2,-5.113956E-2,1.12299696E-1,-4.0250827E-2,-2.1551925E-1,2.719039E-1,-9.3776055E-2,-7.085682E-4,5.711394E-5,-4.9942317E-3,-1.1709814E-3,1.7020209E-3,3.313883E-3,-3.8552105E-3,3.0683666E-3],"categories":[],"categories_nodes":[],"categories_segments":[],"categories_sizes":[],"default_left":[0,0,0,0,0,0,0,0,0,0,0,0,0,0,0],"id":59,"left_children":[1,3,5,7,9,11,13,-1,-1,-1,-1,-1,-1,-1,-1],"loss_changes":[3.1612084E0,3.0949912E0,4.2052174E0,2.289847E0,2.9452133E0,3.7839317E-1,6.6877666E0,0E0,0E0,0E0,0E0,0E0,0E0,0E0,0E0],"parents":[2147483647,0,0,1,1,2,2,3,3,4,4,5,5,6,6],"right_children":[2,4,6,8,10,12,14,-1,-1,-1,-1,-1,-1,-1,-1],"split_conditions":[1.590639E0,1.4702345E0,1.7792727E0,-4.284839E-2,1.5183963E0,1.6428143E0,1.9638928E0,-7.085682E-4,5.711394E-5,-4.9942317E-3,-1.1709814E-3,1.7020209E-3,3.313883E-3,-3.8552105E-3,3.0683666E-3],"split_indices":[2,2,2,2,2,2,2,0,0,0,0,0,0,0,0],"split_type":[0,0,0,0,0,0,0,0,0,0,0,0,0,0,0],"sum_hessian":[1.8590807E3,1.7330011E3,1.2607962E2,1.626504E3,1.0649697E2,7.0871056E1,5.5208565E1,9.7602954E2,6.5047455E2,2.6366434E1,8.013054E1,2.7579336E1,4.3291718E1,3.1966633E1,2.324193E1],"tree_param":{"num_deleted":"0","num_feature":"3","num_nodes":"15","size_leaf_vector":"1"}},{"base_weights":[3.0987107E-3,-1.4298675E-3,2.0986702E-2,1.4172844E-2,1.8030249E-1,7.2456175E-4,-1.01494006E-4,2.9920111E-3,8.135057E-4],"categories":[],"categories_nodes":[],"categories_segments":[],"categories_sizes":[],"default_left":[0,0,0,0,0,0,0,0,0],"id":60,"left_children":[1,-1,3,5,7,-1,-1,-1,-1],"loss_changes":[4.872529E0,0E0,1.8005943E0,2.2603548E0,7.7619934E-1,0E0,0E0,0E0,0E0],"parents":[2147483647,0,0,2,2,3,3,4,4],"right_children":[2,-1,4,6,8,-1,-1,-1,-1],"split_conditions":[-1.2509066E0,-1.4298675E-3,1.7471648E0,-5.846685E-1,1.8675693E0,7.2456175E-4,-1.01494006E-4,2.9920111E-3,8.135057E-4],"split_indices":[2,0,2,2,2,0,0,0,0],"split_type":[0,0,0,0,0,0,0,0,0],"sum_hessian":[1.8624524E3,2.0241347E2,1.660039E3,1.5929962E3,6.704272E1,4.684564E2,1.1245398E3,2.9532888E1,3.750983E1],"tree_param":{"num_deleted":"0","num_feature":"3","num_nodes":"9","size_leaf_vector":"1"}},{"base_weights":[3.4384973E-2,9.465255E-4,2.288065E-2,2.019634E-3,8.2600286E-4,3.1936716E-4,-3.9731344E-4],"categories":[],"categories_nodes":[],"categories_segments":[],"categories_sizes":[],"default_left":[0,0,0,0,0,0,0],"id":61,"left_children":[1,-1,3,5,-1,-1,-1],"loss_changes":[1.2887344E0,0E0,1.9492106E0,1.4510398E0,0E0,0E0,0E0],"parents":[2147483647,0,0,2,2,3,3],"right_children":[2,-1,4,6,-1,-1,-1],"split_conditions":[-9.1084146E-1,9.465255E-4,8.1297386E-1,1.7666403E-3,8.2600286E-4,3.1936716E-4,-3.9731344E-4],"split_indices":[0,0,0,0,0,0,0],"split_type":[0,0,0,0,0,0,0],"sum_hessian":[1.8608638E3,2.9711948E2,1.5637443E3,1.1596826E3,4.0406168E2,6.7572217E2,4.839604E2],"tree_param":{"num_deleted":"0","num_feature":"3","num_nodes":"7","size_leaf_vector":"1"}},{"base_weights":[1.9637385E-2,-3.2294795E-2,5.8020588E-2,-2.7749626E-2,-2.1718107E-3,4.6221524E-2,1.9241814E-1,-3.1177187E-4,1.5465848E-3,1.2815075E-3,2.8052015E-4,2.8779467E-3,-1.0774183E-4],"categories":[],"categories_nodes":[],"categories_segments":[],"categories_sizes":[],"default_left":[0,0,0,0,0,0,0,0,0,0,0,0,0],"id":62,"left_children":[1,3,5,7,-1,9,11,-1,-1,-1,-1,-1,-1],"loss_changes":[3.7277784E0,6.620701E-1,1.6960583E0,4.9067813E-1,0E0,1.4696925E0,1.6786103E0,0E0,0E0,0E0,0E0,0E0,0E0],"parents":[2147483647,0,0,1,1,2,2,3,3,5,5,6,6],"right_children":[2,4,6,8,-1,10,12,-1,-1,-1,-1,-1,-1],"split_conditions":[-3.8800788E-1,-3.9202136E-1,1.6588682E0,-4.0406182E-1,-2.1718107E-3,-5.4888837E-2,1.9638928E0,-3.1177187E-4,1.5465848E-3,1.2815075E-3,2.8052015E-4,2.8779467E-3,-1.0774183E-4],"split_indices":[2,2,2,2,0,2,2,0,0,0,0,0,0],"split_type":[0,0,0,0,0,0,0,0,0,0,0,0,0],"sum_hessian":[1.8681923E3,7.9403186E2,1.0741604E3,7.7610254E2,1.7929302E1,9.8870374E2,8.545661E1,7.6260187E2,1.3500687E1,1.7836667E2,8.103371E2,5.7874508E1,2.7582106E1],"tree_param":{"num_deleted":"0","num_feature":"3","num_nodes":"13","size_leaf_vector":"1"}},{"base_weights":[1.9266922E-3,2.227744E-2,-1.7841035E-1,1.9614264E-2,4.603617E-3,-1.23573914E-1,-2.9967836E-1,5.1226496E-4,-1.3056087E-4,-3.0038462E-3,-4.2399843E-4,-4.67822E-3,-2.2235515E-3],"categories":[],"categories_nodes":[],"categories_segments":[],"categories_sizes":[],"default_left":[0,0,0,0,0,0,0,0,0,0,0,0,0],"id":63,"left_children":[1,3,5,7,-1,9,11,-1,-1,-1,-1,-1,-1],"loss_changes":[6.783976E0,1.9288131E0,1.2094793E0,1.7068005E0,0E0,1.8642929E0,6.4572954E-1,0E0,0E0,0E0,0E0,0E0,0E0],"parents":[2147483647,0,0,1,1,2,2,3,3,5,5,6,6],"right_children":[2,4,6,8,-1,10,12,-1,-1,-1,-1,-1,-1],"split_conditions":[1.5344503E0,1.5224098E0,1.7792727E0,-2.9569778E-1,4.603617E-3,1.5705715E0,1.7993401E0,5.1226496E-4,-1.3056087E-4,-3.0038462E-3,-4.2399843E-4,-4.67822E-3,-2.2235515E-3],"split_indices":[2,2,2,2,0,2,2,0,0,0,0,0,0],"split_type":[0,0,0,0,0,0,0,0,0,0,0,0,0],"sum_hessian":[1.8464149E3,1.6599667E3,1.8644814E2,1.650975E3,8.99174E0,1.2978113E2,5.6667004E1,8.387867E2,8.121883E2,3.9985508E1,8.979562E1,1.6259527E1,4.0407475E1],"tree_param":{"num_deleted":"0","num_feature":"3","num_nodes":"13","size_leaf_vector":"1"}},{"base_weights":[-2.8453859E-2,-1.8926285E-3,4.2639248E-4],"categories":[],"categories_nodes":[],"categories_segments":[],"categories_sizes":[],"default_left":[0,0,0],"id":64,"left_children":[1,-1,-1],"loss_changes":[2.125221E1,0E0,0E0],"parents":[2147483647,0,0],"right_children":[2,-1,-1],"split_conditions":[7.226949E-1,-1.8926285E-3,4.2639248E-4],"split_indices":[1,0,0],"split_type":[0,0,0],"sum_hessian":[1.857238E3,5.688549E2,1.2883832E3],"tree_param":{"num_deleted":"0","num_feature":"3","num_nodes":"3","size_leaf_vector":"1"}},{"base_weights":[-4.6308782E-2,-1.5919304E-1,-2.2744555E-2,-1.16430044E-1,-2.8924096E-1,-2.9789733E-2,3.6598684E-3,-1.3320257E-3,1.0163234E-4,-4.487036E-3,-2.366374E-3,-2.2120455E-4,-3.4221332E-3],"categories":[],"categories_nodes":[],"categories_segments":[],"categories_sizes":[],"default_left":[0,0,0,0,0,0,0,0,0,0,0,0,0],"id":65,"left_children":[1,3,5,7,9,11,-1,-1,-1,-1,-1,-1,-1],"loss_changes":[4.8879924E0,1.7315216E0,4.180601E0,5.1208925E-1,5.4702806E-1,3.5777617E0,0E0,0E0,0E0,0E0,0E0,0E0,0E0],"parents":[2147483647,0,0,1,1,2,2,3,3,4,4,5,5],"right_children":[2,4,6,8,10,12,-1,-1,-1,-1,-1,-1,-1],"split_conditions":[-1.0783268E0,-1.1666235E0,1.9638928E0,-1.170637E0,-1.1305021E0,1.7792727E0,3.6598684E-3,-1.3320257E-3,1.0163234E-4,-4.487036E-3,-2.366374E-3,-2.2120455E-4,-3.4221332E-3],"split_indices":[2,2,2,2,2,2,0,0,0,0,0,0,0],"split_type":[0,0,0,0,0,0,0,0,0,0,0,0,0],"sum_hessian":[1.8379314E3,3.16411E2,1.5215204E3,2.3953967E2,7.687134E1,1.4953429E3,2.6177496E1,2.1146954E2,2.8070127E1,1.7200314E1,5.9671024E1,1.4605603E3,3.4782578E1],"tree_param":{"num_deleted":"0","num_feature":"3","num_nodes":"13","size_leaf_vector":"1"}},{"base_weights":[1.3481921E-2,1.1850721E-1,-4.8335083E-2,2.2076143E-1,9.359273E-2,-6.5282375E-2,-1.508578E-2,4.811104E-3,1.9436565E-3,7.046935E-4,2.3638925E-3,-2.0147853E-4,-7.595692E-4,-8.35466E-5,-1.7813914E-3],"categories":[],"categories_nodes":[],"categories_segments":[],"categories_sizes":[],"default_left":[0,0,0,0,0,0,0,0,0,0,0,0,0,0,0],"id":66,"left_children":[1,3,5,7,9,11,13,-1,-1,-1,-1,-1,-1,-1,-1],"loss_changes":[1.2241794E1,1.7590714E0,6.6792965E-1,8.419862E-1,1.8438516E0,3.771634E-1,4.398157E-1,0E0,0E0,0E0,0E0,0E0,0E0,0E0,0E0],"parents":[2147483647,0,0,1,1,2,2,3,3,4,4,5,5,6,6],"right_children":[2,4,6,8,10,12,14,-1,-1,-1,-1,-1,-1,-1,-1],"split_conditions":[-4.0383697E-1,-1.2150441E0,8.1297386E-1,-1.5192468E0,-5.052379E-1,-2.0103516E-1,2.9423928E0,4.811104E-3,1.9436565E-3,7.046935E-4,2.3638925E-3,-2.0147853E-4,-7.595692E-4,-8.35466E-5,-1.7813914E-3],"split_indices":[0,0,0,0,0,0,0,0,0,0,0,0,0,0,0],"split_type":[0,0,0,0,0,0,0,0,0,0,0,0,0,0,0],"sum_hessian":[1.8836903E3,6.975893E2,1.186101E3,1.3512936E2,5.6245996E2,7.8501324E2,4.010877E2,1.0853314E1,1.2427605E2,4.8535822E2,7.71017E1,1.5070093E2,6.343123E2,3.861961E2,1.4891593E1],"tree_param":{"num_deleted":"0","num_feature":"3","num_nodes":"15","size_leaf_vector":"1"}},{"base_weights":[4.5584325E-2,3.04286E-2,1.8027031E-1,7.355723E-2,5.340936E-3,2.162899E-1,-1.5326921E-2,5.898488E-4,1.7608806E-3,2.9038882E-4,-6.9716916E-5,2.629106E-3,1.4679587E-3,-6.339971E-4,2.8501232E-3],"categories":[],"categories_nodes":[],"categories_segments":[],"categories_sizes":[],"default_left":[0,0,0,0,0,0,0,0,0,0,0,0,0,0,0],"id":67,"left_children":[1,3,5,7,9,11,13,-1,-1,-1,-1,-1,-1,-1,-1],"loss_changes":[3.8140895E0,1.8207412E0,1.3352861E0,9.143486E-1,3.110124E-1,4.7888422E-1,4.560483E-1,0E0,0E0,0E0,0E0,0E0,0E0,0E0,0E0],"parents":[2147483647,0,0,1,1,2,2,3,3,4,4,5,5,6,6],"right_children":[2,4,6,8,10,12,14,-1,-1,-1,-1,-1,-1,-1,-1],"split_conditions":[1.4213792E0,-5.052379E-1,2.5367892E0,-6.066388E-1,1.7666403E-3,1.9283837E0,3.4493973E0,5.898488E-4,1.7608806E-3,2.9038882E-4,-6.9716916E-5,2.629106E-3,1.4679587E-3,-6.339971E-4,2.8501232E-3],"split_indices":[0,0,0,0,0,0,0,0,0,0,0,0,0,0,0],"split_type":[0,0,0,0,0,0,0,0,0,0,0,0,0,0,0],"sum_hessian":[1.870181E3,1.6821238E3,1.8805734E2,6.1791815E2,1.0642056E3,1.5872252E2,2.9334826E1,5.424035E2,7.5514626E1,3.6340552E2,7.008001E2,9.332881E1,6.539371E1,2.5967354E1,3.3674703E0],"tree_param":{"num_deleted":"0","num_feature":"3","num_nodes":"15","size_leaf_vector":"1"}},{"base_weights":[1.4494976E-2,-2.529196E-4,3.2561366E-4],"categories":[],"categories_nodes":[],"categories_segments":[],"categories_sizes":[],"default_left":[0,0,0],"id":68,"left_children":[1,-1,-1],"loss_changes":[1.3512771E0,0E0,0E0],"parents":[2147483647,0,0],"right_children":[2,-1,-1],"split_conditions":[7.226949E-1,-2.529196E-4,3.2561366E-4],"split_indices":[1,0,0],"split_type":[0,0,0],"sum_hessian":[1.8777448E3,5.8625574E2,1.291489E3],"tree_param":{"num_deleted":"0","num_feature":"3","num_nodes":"3","size_leaf_vector":"1"}},{"base_weights":[-1.02885775E-2,-5.2197367E-2,1.0034214E-1,-4.4204216E-2,-2.3429955E-3,8.856221E-2,5.100445E-1,-1.7445035E-3,-3.9518895E-4,1.5630405E-3,6.0768705E-4,1.0049826E-2,1.6584856E-3],"categories":[],"categories_nodes":[],"categories_segments":[],"categories_sizes":[],"default_left":[0,0,0,0,0,0,0,0,0,0,0,0,0],"id":69,"left_children":[1,3,5,7,-1,9,11,-1,-1,-1,-1,-1,-1],"loss_changes":[8.603954E0,1.9484506E0,2.4156399E0,7.805524E-1,0E0,9.2594147E-1,2.225185E0,0E0,0E0,0E0,0E0,0E0,0E0],"parents":[2147483647,0,0,1,1,2,2,3,3,5,5,6,6],"right_children":[2,4,6,8,-1,10,12,-1,-1,-1,-1,-1,-1],"split_conditions":[6.1017203E-1,5.087711E-1,2.9423928E0,-1.417846E0,-2.3429955E-3,9.1437477E-1,3.1451945E0,-1.7445035E-3,-3.9518895E-4,1.5630405E-3,6.0768705E-4,1.0049826E-2,1.6584856E-3],"split_indices":[0,0,0,0,0,0,0,0,0,0,0,0,0],"split_type":[0,0,0,0,0,0,0,0,0,0,0,0,0],"sum_hessian":[1.8536108E3,1.3447318E3,5.08879E2,1.2893788E3,5.5352947E1,4.9583862E2,1.3040387E1,4.351384E1,1.245865E3,1.4290608E2,3.5293253E2,4.561442E0,8.478946E0],"tree_param":{"num_deleted":"0","num_feature":"3","num_nodes":"13","size_leaf_vector":"1"}},{"base_weights":[-2.7022826E-2,3.5296578E-3,-1.480136E-1,-3.1243881E-2,4.2034507E-2,-2.9107553E-1,-1.15388535E-1,3.375193E-4,-1.1258672E-3,1.2577203E-3,2.654364E-4,-2.306838E-3,-4.122546E-3,4.842198E-4,-1.7036761E-3],"categories":[],"categories_nodes":[],"categories_segments":[],"categories_sizes":[],"default_left":[0,0,0,0,0,0,0,0,0,0,0,0,0,0,0],"id":70,"left_children":[1,3,5,7,9,11,13,-1,-1,-1,-1,-1,-1,-1,-1],"loss_changes":[6.808734E0,1.9714783E0,1.699606E0,4.094566E0,9.0296197E-1,4.047408E-1,2.746469E0,0E0,0E0,0E0,0E0,0E0,0E0,0E0,0E0],"parents":[2147483647,0,0,1,1,2,2,3,3,4,4,5,5,6,6],"right_children":[2,4,6,8,10,12,14,-1,-1,-1,-1,-1,-1,-1,-1],"split_conditions":[9.805896E-1,-3.8800788E-1,1.249493E0,-8.736393E-1,-2.2746858E-1,1.2013311E0,1.4702345E0,3.375193E-4,-1.1258672E-3,1.2577203E-3,2.654364E-4,-2.306838E-3,-4.122546E-3,4.842198E-4,-1.7036761E-3],"split_indices":[2,2,2,2,2,2,2,0,0,0,0,0,0,0,0],"split_type":[0,0,0,0,0,0,0,0,0,0,0,0,0,0,0],"sum_hessian":[1.8407653E3,1.4704255E3,3.7033972E2,7.7274866E2,6.9767694E2,6.7301E1,3.0303873E2,4.298602E2,3.4288846E2,1.0780524E2,5.898717E2,4.68541E1,2.0446901E1,7.61798E1,2.2685892E2],"tree_param":{"num_deleted":"0","num_feature":"3","num_nodes":"15","size_leaf_vector":"1"}},{"base_weights":[-2.4873937E-2,-1.2140422E-3,-1.5944777E-1,-6.721561E-2,6.0259096E-2,-1.9410615E-1,3.137791E-1,-2.1399846E-3,-4.7479203E-4,7.753801E-4,-4.1448485E-4,-3.5808792E-3,-1.3924317E-3,5.407976E-3,-1.9308196E-3],"categories":[],"categories_nodes":[],"categories_segments":[],"categories_sizes":[],"default_left":[0,0,0,0,0,0,0,0,0,0,0,0,0,0,0],"id":71,"left_children":[1,3,5,7,9,11,13,-1,-1,-1,-1,-1,-1,-1,-1],"loss_changes":[5.93354E0,6.4388027E0,4.6310916E0,2.2068374E0,1.4472265E0,2.2914944E0,2.3364034E0,0E0,0E0,0E0,0E0,0E0,0E0,0E0,0E0],"parents":[2147483647,0,0,1,1,2,2,3,3,4,4,5,5,6,6],"right_children":[2,4,6,8,10,12,14,-1,-1,-1,-1,-1,-1,-1,-1],"split_conditions":[1.1171765E0,-3.0243605E-1,2.840992E0,-1.3164451E0,8.1297386E-1,1.3199784E0,3.2465954E0,-2.1399846E-3,-4.7479203E-4,7.753801E-4,-4.1448485E-4,-3.5808792E-3,-1.3924317E-3,5.407976E-3,-1.9308196E-3],"split_indices":[0,0,0,0,0,0,0,0,0,0,0,0,0,0,0],"split_type":[0,0,0,0,0,0,0,0,0,0,0,0,0,0,0],"sum_hessian":[1.8626082E3,1.5849598E3,2.776483E2,7.642827E2,8.206771E2,2.5925098E2,1.8397297E1,8.941866E1,6.748641E2,7.017036E2,1.1897349E2,6.360698E1,1.95644E2,1.2660029E1,5.7372675E0],"tree_param":{"num_deleted":"0","num_feature":"3","num_nodes":"15","size_leaf_vector":"1"}},{"base_weights":[9.266317E-3,-1.4004367E-3,2.3889672E-2,1.4658394E-2,2.4621348E-1,1.8648733E-4,-1.6055423E-3,3.7690024E-3,1.3690623E-3],"categories":[],"categories_nodes":[],"categories_segments":[],"categories_sizes":[],"default_left":[0,0,0,0,0,0,0,0,0],"id":72,"left_children":[1,-1,3,5,7,-1,-1,-1,-1],"loss_changes":[4.0372267E0,0E0,3.4516213E0,1.1338875E0,9.0627193E-1,0E0,0E0,0E0,0E0],"parents":[2147483647,0,0,2,2,3,3,4,4],"right_children":[2,-1,4,6,8,-1,-1,-1,-1],"split_conditions":[-1.279001E0,-1.4004367E-3,1.7471648E0,1.6428143E0,1.8675693E0,1.8648733E-4,-1.6055423E-3,3.7690024E-3,1.3690623E-3],"split_indices":[2,0,2,2,2,0,0,0,0],"split_type":[0,0,0,0,0,0,0,0,0],"sum_hessian":[1.8465117E3,1.639494E2,1.6825623E3,1.6165079E3,6.605434E1,1.5813866E3,3.5121357E1,2.896999E1,3.7084347E1],"tree_param":{"num_deleted":"0","num_feature":"3","num_nodes":"9","size_leaf_vector":"1"}},{"base_weights":[4.577802E-2,2.8570313E-2,1.4385852E-1,1.8672282E-1,2.0934563E-2,2.4776047E-1,6.298405E-2,5.3577044E-4,7.111642E-3,-5.721063E-4,3.5099837E-4,5.5983514E-3,2.3315973E-3,-1.634337E-4,1.4355156E-3],"categories":[],"categories_nodes":[],"categories_segments":[],"categories_sizes":[],"default_left":[0,0,0,0,0,0,0,0,0,0,0,0,0,0,0],"id":73,"left_children":[1,3,5,7,9,11,13,-1,-1,-1,-1,-1,-1,-1,-1],"loss_changes":[3.1591341E0,1.9231375E0,2.3330297E0,5.0850816E0,1.6883097E0,4.2533112E-1,1.0153942E0,0E0,0E0,0E0,0E0,0E0,0E0,0E0,0E0],"parents":[2147483647,0,0,1,1,2,2,3,3,4,4,5,5,6,6],"right_children":[2,4,6,8,10,12,14,-1,-1,-1,-1,-1,-1,-1,-1],"split_conditions":[1.2615334E0,-1.4194729E0,1.5625446E0,-1.4515808E0,-1.0903673E0,1.3377895E0,1.6829491E0,5.3577044E-4,7.111642E-3,-5.721063E-4,3.5099837E-4,5.5983514E-3,2.3315973E-3,-1.634337E-4,1.4355156E-3],"split_indices":[2,2,2,2,2,2,2,0,0,0,0,0,0,0,0],"split_type":[0,0,0,0,0,0,0,0,0,0,0,0,0,0,0],"sum_hessian":[1.8732476E3,1.5947485E3,2.78499E2,7.23695E1,1.5223792E3,1.2099257E2,1.5750641E2,5.8595398E1,1.3774103E1,2.3314659E2,1.2892325E3,3.7387156E0,1.1725385E2,7.9765656E1,7.774076E1],"tree_param":{"num_deleted":"0","num_feature":"3","num_nodes":"15","size_leaf_vector":"1"}},{"base_weights":[9.222967E-3,-6.5438874E-2,3.8043726E-2,-4.3665014E-2,-1.5054415E-3,2.282635E-2,9.938619E-2,-8.794405E-4,3.692298E-4,7.2431494E-4,-9.349241E-5,2.0509965E-3,5.6320336E-4],"categories":[],"categories_nodes":[],"categories_segments":[],"categories_sizes":[],"default_left":[0,0,0,0,0,0,0,0,0,0,0,0,0],"id":74,"left_children":[1,3,5,7,-1,9,11,-1,-1,-1,-1,-1,-1],"loss_changes":[4.0565114E0,9.6643424E-1,1.2671839E0,1.5002307E0,0E0,1.7418659E0,1.2176929E0,0E0,0E0,0E0,0E0,0E0,0E0],"parents":[2147483647,0,0,1,1,2,2,3,3,5,5,6,6],"right_children":[2,4,6,8,-1,10,12,-1,-1,-1,-1,-1,-1],"split_conditions":[-7.6527524E-1,-9.0173364E-1,1.3698975E0,-1.1064212E0,-1.5054415E-3,-5.4888837E-2,1.5424773E0,-8.794405E-4,3.692298E-4,7.2431494E-4,-9.349241E-5,2.0509965E-3,5.6320336E-4],"split_indices":[2,2,2,2,0,2,2,0,0,0,0,0,0],"split_type":[0,0,0,0,0,0,0,0,0,0,0,0,0],"sum_hessian":[1.8830046E3,5.240785E2,1.3589261E3,4.185159E2,1.05562614E2,1.0899192E3,2.6900687E2,2.7004724E2,1.4846864E2,4.283226E2,6.615966E2,7.6777985E1,1.922289E2],"tree_param":{"num_deleted":"0","num_feature":"3","num_nodes":"13","size_leaf_vector":"1"}},{"base_weights":[-3.1677738E-2,-5.37732E-2,3.1064516E-2,-2.914275E-2,-1.1812071E-1,1.8739548E-3,1.4215976E-2,-9.597536E-4,2.1429525E-5,-1.8316302E-3,-8.12218E-4,-1.05727944E-4,1.5901796E-3],"categories":[],"categories_nodes":[],"categories_segments":[],"categories_sizes":[],"default_left":[0,0,0,0,0,0,0,0,0,0,0,0,0],"id":75,"left_children":[1,3,5,7,9,-1,11,-1,-1,-1,-1,-1,-1],"loss_changes":[2.5883489E0,2.1841667E0,1.2789781E0,2.0901105E0,9.0132904E-1,0E0,1.5822232E0,0E0,0E0,0E0,0E0,0E0,0E0],"parents":[2147483647,0,0,1,1,2,2,3,3,4,4,6,6],"right_children":[2,4,6,8,10,-1,12,-1,-1,-1,-1,-1,-1],"split_conditions":[6.1017203E-1,1.7666403E-3,7.1157295E-1,-9.1084146E-1,2.0456845E-1,1.8739548E-3,2.1311855E0,-9.597536E-4,2.1429525E-5,-1.8316302E-3,-8.12218E-4,-1.05727944E-4,1.5901796E-3],"split_indices":[0,0,0,0,0,0,0,0,0,0,0,0,0],"split_type":[0,0,0,0,0,0,0,0,0,0,0,0,0],"sum_hessian":[1.864861E3,1.3792751E3,4.8558582E2,9.9852155E2,3.8075357E2,4.625758E1,4.3932825E2,3.177262E2,6.8079535E2,1.3638373E2,2.4436984E2,3.7590393E2,6.3424316E1],"tree_param":{"num_deleted":"0","num_feature":"3","num_nodes":"13","size_leaf_vector":"1"}},{"base_weights":[-3.9831087E-2,-1.9362792E-3,2.855652E-4],"categories":[],"categories_nodes":[],"categories_segments":[],"categories_sizes":[],"default_left":[0,0,0],"id":76,"left_children":[1,-1,-1],"loss_changes":[1.9693424E1,0E0,0E0],"parents":[2147483647,0,0],"right_children":[2,-1,-1],"split_conditions":[7.226949E-1,-1.9362792E-3,2.855652E-4],"split_indices":[1,0,0],"split_type":[0,0,0],"sum_hessian":[1.8708647E3,5.7528204E2,1.2955826E3],"tree_param":{"num_deleted":"0","num_feature":"3","num_nodes":"3","size_leaf_vector":"1"}},{"base_weights":[-3.5448357E-2,-1.6295632E-2,-1.3709559E-1,-6.658934E-2,3.1670246E-2,-1.5306759E-1,3.4620488E-1,-2.0418442E-3,-4.8460244E-4,6.381136E-4,-1.4840299E-4,-2.0664127E-3,-9.792425E-4,8.470723E-3,-1.2980046E-3],"categories":[],"categories_nodes":[],"categories_segments":[],"categories_sizes":[],"default_left":[0,0,0,0,0,0,0,0,0,0,0,0,0,0,0],"id":77,"left_children":[1,3,5,7,9,11,13,-1,-1,-1,-1,-1,-1,-1,-1],"loss_changes":[3.5980175E0,3.7587378E0,2.315279E0,1.8871291E0,1.1934855E0,8.199115E-1,2.4183E0,0E0,0E0,0E0,0E0,0E0,0E0,0E0,0E0],"parents":[2147483647,0,0,1,1,2,2,3,3,4,4,5,5,6,6],"right_children":[2,4,6,8,10,12,14,-1,-1,-1,-1,-1,-1,-1,-1],"split_conditions":[1.1171765E0,-3.0243605E-1,3.1451945E0,-1.3164451E0,4.0737024E-1,1.624181E0,3.3479965E0,-2.0418442E-3,-4.8460244E-4,6.381136E-4,-1.4840299E-4,-2.0664127E-3,-9.792425E-4,8.470723E-3,-1.2980046E-3],"split_indices":[0,0,0,0,0,0,0,0,0,0,0,0,0,0,0],"split_type":[0,0,0,0,0,0,0,0,0,0,0,0,0,0,0],"sum_hessian":[1.8482975E3,1.5562279E3,2.9206958E2,7.594904E2,7.9673755E2,2.8338754E2,8.682041E0,8.722358E1,6.7226685E2,4.7092963E2,3.258079E2,1.4234601E2,1.4104152E2,3.8506866E0,4.8313546E0],"tree_param":{"num_deleted":"0","num_feature":"3","num_nodes":"15","size_leaf_vector":"1"}},{"base_weights":[2.7263386E-2,1.3006955E-1,-3.214274E-2,6.3858395E-3,1.20889686E-1,-5.9427675E-2,2.254199E-2,1.025788E-3,2.669209E-3,-8.113299E-4,-3.9674042E-4,1.5002692E-3,6.105527E-5],"categories":[],"categories_nodes":[],"categories_segments":[],"categories_sizes":[],"default_left":[0,0,0,0,0,0,0,0,0,0,0,0,0],"id":78,"left_children":[1,3,5,-1,7,9,11,-1,-1,-1,-1,-1,-1],"loss_changes":[1.1338404E1,3.096425E0,1.75749E0,0E0,1.7615843E0,3.33565E-1,8.2153994E-1,0E0,0E0,0E0,0E0,0E0,0E0],"parents":[2147483647,0,0,1,1,2,2,4,4,5,5,6,6],"right_children":[2,4,6,-1,8,10,12,-1,-1,-1,-1,-1,-1],"split_conditions":[-4.0383697E-1,-1.5192468E0,8.1297386E-1,6.3858395E-3,-5.052379E-1,1.0316754E-1,9.1437477E-1,1.025788E-3,2.669209E-3,-8.113299E-4,-3.9674042E-4,1.5002692E-3,6.105527E-5],"split_indices":[0,0,0,0,0,0,0,0,0,0,0,0,0],"split_type":[0,0,0,0,0,0,0,0,0,0,0,0,0],"sum_hessian":[1.8548435E3,6.788536E2,1.1759899E3,1.0821805E1,6.680318E2,7.844847E2,3.9150525E2,5.951129E2,7.291888E1,3.72297E2,4.1218765E2,4.378343E1,3.4772183E2],"tree_param":{"num_deleted":"0","num_feature":"3","num_nodes":"13","size_leaf_vector":"1"}},{"base_weights":[4.885164E-2,2.3790246E-3,-3.424259E-4],"categories":[],"categories_nodes":[],"categories_segments":[],"categories_sizes":[],"default_left":[0,0,0],"id":79,"left_children":[1,-1,-1],"loss_changes":[2.9289011E1,0E0,0E0],"parents":[2147483647,0,0],"right_children":[2,-1,-1],"split_conditions":[7.226949E-1,2.3790246E-3,-3.424259E-4],"split_indices":[1,0,0],"split_type":[0,0,0],"sum_hessian":[1.8629508E3,5.6824713E2,1.2947037E3],"tree_param":{"num_deleted":"0","num_feature":"3","num_nodes":"3","size_leaf_vector":"1"}},{"base_weights":[1.8780699E-2,-1.825805E-3,6.7632236E-2,6.1561473E-2,-1.613195E-2,7.0156015E-2,-2.7918026E-3,-2.684122E-5,2.8088817E-3,-7.4329076E-4,-1.6285165E-5,8.2116545E-4,2.2750438E-4],"categories":[],"categories_nodes":[],"categories_segments":[],"categories_sizes":[],"default_left":[0,0,0,0,0,0,0,0,0,0,0,0,0],"id":80,"left_children":[1,3,5,7,9,11,-1,-1,-1,-1,-1,-1,-1],"loss_changes":[1.861342E0,1.1810969E0,4.997213E-1,3.3801951E0,8.9670825E-1,3.0736423E-1,0E0,0E0,0E0,0E0,0E0,0E0,0E0],"parents":[2147483647,0,0,1,1,2,2,3,3,4,4,5,5],"right_children":[2,4,6,8,10,12,-1,-1,-1,-1,-1,-1,-1],"split_conditions":[5.087711E-1,-1.0122423E0,3.4493973E0,-1.1136433E0,-7.0803964E-1,1.8269829E0,-2.7918026E-3,-2.684122E-5,2.8088817E-3,-7.4329076E-4,-1.6285165E-5,8.2116545E-4,2.2750438E-4],"split_indices":[0,0,0,0,0,0,0,0,0,0,0,0,0],"split_type":[0,0,0,0,0,0,0,0,0,0,0,0,0],"sum_hessian":[1.8479055E3,1.3003541E3,5.475514E2,2.388336E2,1.0615205E3,5.443876E2,3.163837E0,1.854879E2,5.3345707E1,2.1094563E2,8.505749E2,4.3412476E2,1.10262825E2],"tree_param":{"num_deleted":"0","num_feature":"3","num_nodes":"13","size_leaf_vector":"1"}},{"base_weights":[-1.9671427E-2,3.658754E-2,-6.766617E-2,3.3510444E-3,2.341161E-2,-3.9505637E-3,-6.122258E-2,-2.392802E-4,8.159012E-4,-3.7566575E-4,-1.6172334E-3],"categories":[],"categories_nodes":[],"categories_segments":[],"categories_sizes":[],"default_left":[0,0,0,0,0,0,0,0,0,0,0],"id":81,"left_children":[1,3,5,-1,7,-1,9,-1,-1,-1,-1],"loss_changes":[5.03722E0,3.371034E0,2.0992398E0,0E0,2.2708719E0,0E0,2.343613E0,0E0,0E0,0E0,0E0],"parents":[2147483647,0,0,1,1,2,2,4,4,6,6],"right_children":[2,4,6,-1,8,-1,10,-1,-1,-1,-1],"split_conditions":[-2.676034E-1,-1.4836886E0,-2.5957644E-1,3.3510444E-3,-8.3350444E-1,-3.9505637E-3,1.5344503E0,-2.392802E-4,8.159012E-4,-3.7566575E-4,-1.6172334E-3],"split_indices":[2,2,2,0,2,0,2,0,0,0,0],"split_type":[0,0,0,0,0,0,0,0,0,0,0],"sum_hessian":[1.8636271E3,8.5805786E2,1.0055693E3,3.523912E1,8.228187E2,1.8245195E1,9.873241E2,4.5399417E2,3.6882455E2,8.0031793E2,1.8700612E2],"tree_param":{"num_deleted":"0","num_feature":"3","num_nodes":"11","size_leaf_vector":"1"}},{"base_weights":[-3.333006E-2,-1.8228405E-3,3.031003E-4],"categories":[],"categories_nodes":[],"categories_segments":[],"categories_sizes":[],"default_left":[0,0,0],"id":82,"left_children":[1,-1,-1],"loss_changes":[1.7632496E1,0E0,0E0],"parents":[2147483647,0,0],"right_children":[2,-1,-1],"split_conditions":[7.226949E-1,-1.8228405E-3,3.031003E-4],"split_indices":[1,0,0],"split_type":[0,0,0],"sum_hessian":[1.8584937E3,5.557824E2,1.3027112E3],"tree_param":{"num_deleted":"0","num_feature":"3","num_nodes":"3","size_leaf_vector":"1"}},{"base_weights":[-3.032707E-2,-1.9839618E-3,4.4596184E-4],"categories":[],"categories_nodes":[],"categories_segments":[],"categories_sizes":[],"default_left":[0,0,0],"id":83,"left_children":[1,-1,-1],"loss_changes":[2.3656609E1,0E0,0E0],"parents":[2147483647,0,0],"right_children":[2,-1,-1],"split_conditions":[7.226949E-1,-1.9839618E-3,4.4596184E-4],"split_indices":[1,0,0],"split_type":[0,0,0],"sum_hessian":[1.8769562E3,5.782247E2,1.2987314E3],"tree_param":{"num_deleted":"0","num_feature":"3","num_nodes":"3","size_leaf_vector":"1"}},{"base_weights":[1.3083524E-2,3.0446395E-3,-1.1803596E-3],"categories":[],"categories_nodes":[],"categories_segments":[],"categories_sizes":[],"default_left":[0,0,0],"id":84,"left_children":[1,-1,-1],"loss_changes":[7.082357E1,0E0,0E0],"parents":[2147483647,0,0],"right_children":[2,-1,-1],"split_conditions":[7.226949E-1,3.0446395E-3,-1.1803596E-3],"split_indices":[1,0,0],"split_type":[0,0,0],"sum_hessian":[1.8518053E3,5.742828E2,1.2775226E3],"tree_param":{"num_deleted":"0","num_feature":"3","num_nodes":"3","size_leaf_vector":"1"}},{"base_weights":[2.8460354E-2,1.8781291E-3,-4.224703E-4],"categories":[],"categories_nodes":[],"categories_segments":[],"categories_sizes":[],"default_left":[0,0,0],"id":85,"left_children":[1,-1,-1],"loss_changes":[2.116153E1,0E0,0E0],"parents":[2147483647,0,0],"right_children":[2,-1,-1],"split_conditions":[7.226949E-1,1.8781291E-3,-4.224703E-4],"split_indices":[1,0,0],"split_type":[0,0,0],"sum_hessian":[1.8764155E3,5.7619476E2,1.3002208E3],"tree_param":{"num_deleted":"0","num_feature":"3","num_nodes":"3","size_leaf_vector":"1"}},{"base_weights":[2.5214402E-2,-4.112243E-3,1.0564214E-1,5.1305547E-2,-1.6333373E-2,1.1281873E-1,-3.7669774E-2,2.4683497E-4,1.3687847E-3,-2.8193393E-4,2.5505523E-4,1.079165E-3,2.8995082E-3,-1.3150666E-3,2.1424454E-3],"categories":[],"categories_nodes":[],"categories_segments":[],"categories_sizes":[],"default_left":[0,0,0,0,0,0,0,0,0,0,0,0,0,0,0],"id":86,"left_children":[1,3,5,7,9,11,13,-1,-1,-1,-1,-1,-1,-1,-1],"loss_changes":[4.43344E0,9.342601E-1,5.207896E-1,5.6446785E-1,5.6141484E-1,3.842373E-1,6.120631E-1,0E0,0E0,0E0,0E0,0E0,0E0,0E0,0E0],"parents":[2147483647,0,0,1,1,2,2,3,3,4,4,5,5,6,6],"right_children":[2,4,6,8,10,12,14,-1,-1,-1,-1,-1,-1,-1,-1],"split_conditions":[6.1017203E-1,-1.0122423E0,2.739591E0,-1.1136433E0,2.0456845E-1,2.5367892E0,3.2465954E0,2.4683497E-4,1.3687847E-3,-2.8193393E-4,2.5505523E-4,1.079165E-3,2.8995082E-3,-1.3150666E-3,2.1424454E-3],"split_indices":[0,0,0,0,0,0,0,0,0,0,0,0,0,0,0],"split_type":[0,0,0,0,0,0,0,0,0,0,0,0,0,0,0],"sum_hessian":[1.878447E3,1.3772167E3,5.0123044E2,2.4826031E2,1.1289563E3,4.7753006E2,2.370037E1,1.903349E2,5.7925426E1,8.798675E2,2.4908879E2,4.6623596E2,1.1294089E1,1.7616339E1,6.0840325E0],"tree_param":{"num_deleted":"0","num_feature":"3","num_nodes":"15","size_leaf_vector":"1"}},{"base_weights":[-1.1880532E-2,-3.0438995E-2,3.8750775E-2,-1.2823869E-2,-1.5001197E-3,2.8585207E-3,1.1659075E-2,-4.286442E-4,2.906365E-4,2.2410557E-5,3.239916E-3],"categories":[],"categories_nodes":[],"categories_segments":[],"categories_sizes":[],"default_left":[0,0,0,0,0,0,0,0,0,0,0],"id":87,"left_children":[1,3,5,7,-1,-1,9,-1,-1,-1,-1],"loss_changes":[1.7567713E0,2.8790298E0,3.3544683E0,1.5027443E0,0E0,0E0,1.3319957E0,0E0,0E0,0E0,0E0],"parents":[2147483647,0,0,1,1,2,2,3,3,6,6],"right_children":[2,4,6,8,-1,-1,10,-1,-1,-1,-1],"split_conditions":[6.1017203E-1,3.0596933E-1,7.1157295E-1,-4.0383697E-1,-1.5001197E-3,2.8585207E-3,2.9423928E0,-4.286442E-4,2.906365E-4,2.2410557E-5,3.239916E-3],"split_indices":[0,0,0,0,0,0,0,0,0,0,0],"split_type":[0,0,0,0,0,0,0,0,0,0,0],"sum_hessian":[1.8673679E3,1.3667839E3,5.005839E2,1.1922523E3,1.7453171E2,4.8516586E1,4.520673E2,6.942979E2,4.9795435E2,4.3981244E2,1.2254849E1],"tree_param":{"num_deleted":"0","num_feature":"3","num_nodes":"11","size_leaf_vector":"1"}},{"base_weights":[-2.9384937E-2,-8.9585325E-3,-1.6941197E-1,7.568392E-2,-2.673264E-2,-3.4216377E-1,-1.3805412E-1,-5.55203E-4,1.2673573E-3,-1.096421E-3,2.2574607E-4,-2.6655318E-3,-5.330133E-3,-1.1286351E-3,-3.8073554E-3],"categories":[],"categories_nodes":[],"categories_segments":[],"categories_sizes":[],"default_left":[0,0,0,0,0,0,0,0,0,0,0,0,0,0,0],"id":88,"left_children":[1,3,5,7,9,11,13,-1,-1,-1,-1,-1,-1,-1,-1],"loss_changes":[5.2893047E0,2.4322245E0,1.2281094E0,1.8865566E0,5.4630637E0,3.7009764E-1,1.1854067E0,0E0,0E0,0E0,0E0,0E0,0E0,0E0,0E0],"parents":[2147483647,0,0,1,1,2,2,3,3,4,4,5,5,6,6],"right_children":[2,4,6,8,10,12,14,-1,-1,-1,-1,-1,-1,-1,-1],"split_conditions":[1.4702345E0,-1.1104348E0,1.5224098E0,-1.4194729E0,-3.9202136E-1,1.5183963E0,2.0321221E0,-5.55203E-4,1.2673573E-3,-1.096421E-3,2.2574607E-4,-2.6655318E-3,-5.330133E-3,-1.1286351E-3,-3.8073554E-3],"split_indices":[2,2,2,2,2,2,2,0,0,0,0,0,0,0,0],"split_type":[0,0,0,0,0,0,0,0,0,0,0,0,0,0,0],"sum_hessian":[1.848777E3,1.6143484E3,2.3442863E2,2.7960022E2,1.3347482E3,3.4493095E1,1.9993553E2,7.829441E1,2.013058E2,4.9730795E2,8.374402E2,2.6421942E1,8.071154E0,1.8246095E2,1.7474586E1],"tree_param":{"num_deleted":"0","num_feature":"3","num_nodes":"15","size_leaf_vector":"1"}},{"base_weights":[-1.2580182E-2,-1.49036E-3,4.8803145E-4],"categories":[],"categories_nodes":[],"categories_segments":[],"categories_sizes":[],"default_left":[0,0,0],"id":89,"left_children":[1,-1,-1],"loss_changes":[1.5598311E1,0E0,0E0],"parents":[2147483647,0,0],"right_children":[2,-1,-1],"split_conditions":[7.226949E-1,-1.49036E-3,4.8803145E-4],"split_indices":[1,0,0],"split_type":[0,0,0],"sum_hessian":[1.8603693E3,5.767716E2,1.2835977E3],"tree_param":{"num_deleted":"0","num_feature":"3","num_nodes":"3","size_leaf_vector":"1"}},{"base_weights":[1.5177429E-2,-1.21741034E-1,2.8534768E-2,-8.501565E-2,-2.8118193E-3,2.5909264E-2,2.698147E-3,-2.2115302E-3,-6.4138044E-4,2.833055E-4,-1.6672612E-3],"categories":[],"categories_nodes":[],"categories_segments":[],"categories_sizes":[],"default_left":[0,0,0,0,0,0,0,0,0,0,0],"id":90,"left_children":[1,3,5,7,-1,9,-1,-1,-1,-1,-1],"loss_changes":[3.422095E0,9.501023E-1,1.0724094E0,3.7415332E-1,0E0,7.9143417E-1,0E0,0E0,0E0,0E0,0E0],"parents":[2147483647,0,0,1,1,2,2,3,3,5,5],"right_children":[2,4,6,8,-1,10,-1,-1,-1,-1,-1],"split_conditions":[-1.279001E0,-1.3753246E0,2.0321221E0,-1.5077695E0,-2.8118193E-3,1.9598794E0,2.698147E-3,-2.2115302E-3,-6.4138044E-4,2.833055E-4,-1.6672612E-3],"split_indices":[2,2,2,2,0,2,0,0,0,0,0],"split_type":[0,0,0,0,0,0,0,0,0,0,0],"sum_hessian":[1.8682568E3,1.6533972E2,1.7029171E3,1.3563171E2,2.9707998E1,1.6856816E3,1.7235481E1,1.6758846E1,1.1887287E2,1.6655992E3,2.0082424E1],"tree_param":{"num_deleted":"0","num_feature":"3","num_nodes":"11","size_leaf_vector":"1"}},{"base_weights":[5.6216545E-2,4.2591784E-2,2.1747543E-1,1.2011799E-1,1.9008359E-2,2.3969877E-1,-1.1664745E-1,6.15865E-4,1.507638E-3,5.8682093E-5,8.837234E-4,2.2791992E-3,5.0299126E-3,-3.0794607E-3,6.2256213E-4],"categories":[],"categories_nodes":[],"categories_segments":[],"categories_sizes":[],"default_left":[0,0,0,0,0,0,0,0,0,0,0,0,0,0,0],"id":91,"left_children":[1,3,5,7,9,11,13,-1,-1,-1,-1,-1,-1,-1,-1],"loss_changes":[4.0722656E0,3.1318347E0,1.1007986E0,7.075691E-1,1.1985459E0,3.065138E-1,3.5057312E-1,0E0,0E0,0E0,0E0,0E0,0E0,0E0,0E0],"parents":[2147483647,0,0,1,1,2,2,3,3,4,4,5,5,6,6],"right_children":[2,4,6,8,10,12,14,-1,-1,-1,-1,-1,-1,-1,-1],"split_conditions":[1.624181E0,-8.0944055E-1,3.1451945E0,-1.2150441E0,9.1437477E-1,2.9423928E0,3.3479965E0,6.15865E-4,1.507638E-3,5.8682093E-5,8.837234E-4,2.2791992E-3,5.0299126E-3,-3.0794607E-3,6.2256213E-4],"split_indices":[0,0,0,0,0,0,0,0,0,0,0,0,0,0,0],"split_type":[0,0,0,0,0,0,0,0,0,0,0,0,0,0,0],"sum_hessian":[1.8566771E3,1.7131936E3,1.434836E2,3.986409E2,1.3145526E3,1.348003E2,8.683302E0,1.3802733E2,2.606136E2,1.1061002E3,2.0845242E2,1.3081377E2,3.9865332E0,3.8477132E0,4.8355894E0],"tree_param":{"num_deleted":"0","num_feature":"3","num_nodes":"15","size_leaf_vector":"1"}},{"base_weights":[1.8157493E-2,-1.5791425E-2,7.735481E-2,-2.3631845E-3,-1.3550949E-2,7.2670005E-2,5.751452E-3,1.1195444E-4,-3.3932683E-4,9.629804E-4,2.4561152E-5],"categories":[],"categories_nodes":[],"categories_segments":[],"categories_sizes":[],"default_left":[0,0,0,0,0,0,0,0,0,0,0],"id":92,"left_children":[1,3,5,-1,7,9,-1,-1,-1,-1,-1],"loss_changes":[3.732403E0,5.801929E-1,1.5366368E0,0E0,5.90469E-1,1.1140866E0,0E0,0E0,0E0,0E0,0E0],"parents":[2147483647,0,0,1,1,2,2,4,4,5,5],"right_children":[2,4,6,-1,8,10,-1,-1,-1,-1,-1],"split_conditions":[3.0596933E-1,-1.5192468E0,3.2465954E0,-2.3631845E-3,-6.066388E-1,1.5227802E0,5.751452E-3,1.1195444E-4,-3.3932683E-4,9.629804E-4,2.4561152E-5],"split_indices":[0,0,0,0,0,0,0,0,0,0,0],"split_type":[0,0,0,0,0,0,0,0,0,0,0],"sum_hessian":[1.8556001E3,1.1797573E3,6.758428E2,1.0814598E1,1.1689427E3,6.706769E2,5.1658945E0,5.2814655E2,6.4079614E2,5.0153217E2,1.6914468E2],"tree_param":{"num_deleted":"0","num_feature":"3","num_nodes":"11","size_leaf_vector":"1"}},{"base_weights":[-2.1239938E-3,-1.7818449E-3,7.7501044E-4],"categories":[],"categories_nodes":[],"categories_segments":[],"categories_sizes":[],"default_left":[0,0,0],"id":93,"left_children":[1,-1,-1],"loss_changes":[2.5545033E1,0E0,0E0],"parents":[2147483647,0,0],"right_children":[2,-1,-1],"split_conditions":[7.226949E-1,-1.7818449E-3,7.7501044E-4],"split_indices":[1,0,0],"split_type":[0,0,0],"sum_hessian":[1.8202101E3,5.664604E2,1.2537498E3],"tree_param":{"num_deleted":"0","num_feature":"3","num_nodes":"3","size_leaf_vector":"1"}},{"base_weights":[-1.3474036E-2,-5.166902E-3,-2.9482347E-1,-1.5230093E-2,1.21737175E-1,-1.6199084E-3,-3.4847308E-3,1.0275978E-4,-7.7225576E-4,2.8299508E-3,-9.115661E-5],"categories":[],"categories_nodes":[],"categories_segments":[],"categories_sizes":[],"default_left":[0,0,0,0,0,0,0,0,0,0,0],"id":94,"left_children":[1,3,5,7,9,-1,-1,-1,-1,-1,-1],"loss_changes":[4.2725563E0,2.2715523E0,3.1717634E-1,2.6060686E0,2.7602959E0,0E0,0E0,0E0,0E0,0E0,0E0],"parents":[2147483647,0,0,1,1,2,2,3,3,4,4],"right_children":[2,4,6,8,10,-1,-1,-1,-1,-1,-1],"split_conditions":[2.2325864E0,1.4213792E0,2.4353883E0,3.0596933E-1,1.725582E0,-1.6199084E-3,-3.4847308E-3,1.0275978E-4,-7.7225576E-4,2.8299508E-3,-9.115661E-5],"split_indices":[0,0,0,0,0,0,0,0,0,0,0],"split_type":[0,0,0,0,0,0,0,0,0,0,0],"sum_hessian":[1.8277123E3,1.7762839E3,5.1428257E1,1.646593E3,1.2969092E2,1.5951904E1,3.5476353E1,1.1672141E3,4.793789E2,5.7575024E1,7.21159E1],"tree_param":{"num_deleted":"0","num_feature":"3","num_nodes":"11","size_leaf_vector":"1"}},{"base_weights":[-2.9111357E-2,-1.0098193E-1,4.9563583E-2,-9.440537E-2,-3.7839164E-3,4.5712003E-3,3.6737703E-2,-4.7929943E-4,-1.1381421E-3,2.6699243E-4,5.0627417E-3],"categories":[],"categories_nodes":[],"categories_segments":[],"categories_sizes":[],"default_left":[0,0,0,0,0,0,0,0,0,0,0],"id":95,"left_children":[1,3,5,7,-1,-1,9,-1,-1,-1,-1],"loss_changes":[1.047452E1,1.7302189E0,4.6073017E0,8.4865665E-1,0E0,0E0,4.0339355E0,0E0,0E0,0E0,0E0],"parents":[2147483647,0,0,1,1,2,2,3,3,6,6],"right_children":[2,4,6,8,-1,-1,10,-1,-1,-1,-1],"split_conditions":[-4.284839E-2,-8.298322E-2,5.3133992E-3,-1.1064212E0,-3.7839164E-3,4.5712003E-3,2.0321221E0,-4.7929943E-4,-1.1381421E-3,2.6699243E-4,5.0627417E-3],"split_indices":[2,2,2,2,0,0,2,0,0,0,0],"split_type":[0,0,0,0,0,0,0,0,0,0,0],"sum_hessian":[1.8505654E3,9.669555E2,8.8360986E2,9.45872E2,2.1083515E1,2.5902088E1,8.5770776E2,2.796665E2,6.662055E2,8.40789E2,1.6918795E1],"tree_param":{"num_deleted":"0","num_feature":"3","num_nodes":"11","size_leaf_vector":"1"}},{"base_weights":[8.05205E-3,3.0548214E-3,-1.2237474E-3],"categories":[],"categories_nodes":[],"categories_segments":[],"categories_sizes":[],"default_left":[0,0,0],"id":96,"left_children":[1,-1,-1],"loss_changes":[7.258321E1,0E0,0E0],"parents":[2147483647,0,0],"right_children":[2,-1,-1],"split_conditions":[7.226949E-1,3.0548214E-3,-1.2237474E-3],"split_indices":[1,0,0],"split_type":[0,0,0],"sum_hessian":[1.8690823E3,5.6935706E2,1.2997252E3],"tree_param":{"num_deleted":"0","num_feature":"3","num_nodes":"3","size_leaf_vector":"1"}},{"base_weights":[2.5809392E-2,1.9077697E-3,-4.93566E-4],"categories":[],"categories_nodes":[],"categories_segments":[],"categories_sizes":[],"default_left":[0,0,0],"id":97,"left_children":[1,-1,-1],"loss_changes":[2.3222456E1,0E0,0E0],"parents":[2147483647,0,0],"right_children":[2,-1,-1],"split_conditions":[7.226949E-1,1.9077697E-3,-4.93566E-4],"split_indices":[1,0,0],"split_type":[0,0,0],"sum_hessian":[1.8710267E3,5.851825E2,1.2858442E3],"tree_param":{"num_deleted":"0","num_feature":"3","num_nodes":"3","size_leaf_vector":"1"}},{"base_weights":[1.7548036E-2,-6.783119E-3,7.524068E-2,5.2189026E-2,-2.0645225E-2,7.148675E-2,3.7082748E-3,1.9501867E-4,1.6275176E-3,-9.53311E-4,-1.5600545E-4,7.7108643E-4,-4.920561E-3],"categories":[],"categories_nodes":[],"categories_segments":[],"categories_sizes":[],"default_left":[0,0,0,0,0,0,0,0,0,0,0,0,0],"id":98,"left_children":[1,3,5,7,9,11,-1,-1,-1,-1,-1,-1,-1],"loss_changes":[2.6175866E0,1.0738153E0,5.8724165E-1,9.0045375E-1,3.9909682E-1,1.77228E0,0E0,0E0,0E0,0E0,0E0,0E0,0E0],"parents":[2147483647,0,0,1,1,2,2,3,3,4,4,5,5],"right_children":[2,4,6,8,10,12,-1,-1,-1,-1,-1,-1,-1],"split_conditions":[5.087711E-1,-1.0122423E0,3.2465954E0,-1.1136433E0,-9.1084146E-1,3.0437937E0,3.7082748E-3,1.9501867E-4,1.6275176E-3,-9.53311E-4,-1.5600545E-4,7.7108643E-4,-4.920561E-3],"split_indices":[0,0,0,0,0,0,0,0,0,0,0,0,0],"split_type":[0,0,0,0,0,0,0,0,0,0,0,0,0],"sum_hessian":[1.8633748E3,1.3112527E3,5.521221E2,2.4903664E2,1.0622161E3,5.464244E2,5.6977E0,1.9311871E2,5.591792E1,6.607572E1,9.961403E2,5.418817E2,4.542632E0],"tree_param":{"num_deleted":"0","num_feature":"3","num_nodes":"13","size_leaf_vector":"1"}},{"base_weights":[-2.5783937E-2,-1.6394488E-3,3.5078882E-4],"categories":[],"categories_nodes":[],"categories_segments":[],"categories_sizes":[],"default_left":[0,0,0],"id":99,"left_children":[1,-1,-1],"loss_changes":[1.5731934E1,0E0,0E0],"parents":[2147483647,0,0],"right_children":[2,-1,-1],"split_conditions":[7.226949E-1,-1.6394488E-3,3.5078882E-4],"split_indices":[1,0,0],"split_type":[0,0,0],"sum_hessian":[1.8691908E3,5.710933E2,1.2980975E3],"tree_param":{"num_deleted":"0","num_feature":"3","num_nodes":"3","size_leaf_vector":"1"}},{"base_weights":[-1.7758332E-2,1.3229287E-2,-1.3629548E-1,1.1800245E-1,-1.0195108E-2,-1.0698143E-1,-3.5633072E-3,5.7382346E-4,3.3213405E-3,-6.984055E-4,3.499768E-4,-1.7062586E-3,-1.8042092E-5],"categories":[],"categories_nodes":[],"categories_segments":[],"categories_sizes":[],"default_left":[0,0,0,0,0,0,0,0,0,0,0,0,0],"id":100,"left_children":[1,3,5,7,9,11,-1,-1,-1,-1,-1,-1,-1],"loss_changes":[6.8117065E0,3.610539E0,2.44068E0,3.4701219E0,3.2447803E0,2.2793288E0,0E0,0E0,0E0,0E0,0E0,0E0,0E0],"parents":[2147483647,0,0,1,1,2,2,3,3,4,4,5,5],"right_children":[2,4,6,8,10,12,-1,-1,-1,-1,-1,-1,-1],"split_conditions":[8.762391E-1,-1.1305021E0,1.7913132E0,-1.1947179E0,-3.8800788E-1,1.5545176E0,-3.5633072E-3,5.7382346E-4,3.3213405E-3,-6.984055E-4,3.499768E-4,-1.7062586E-3,-1.8042092E-5],"split_indices":[2,2,2,2,2,2,0,0,0,0,0,0,0],"split_type":[0,0,0,0,0,0,0,0,0,0,0,0,0],"sum_hessian":[1.8529509E3,1.4696484E3,3.8330258E2,2.6779797E2,1.2018505E3,3.3955215E2,4.3750427E1,2.0970033E2,5.809764E1,5.178485E2,6.840019E2,2.1115599E2,1.2839616E2],"tree_param":{"num_deleted":"0","num_feature":"3","num_nodes":"13","size_leaf_vector":"1"}},{"base_weights":[-4.3527786E-2,-1.6749881E-2,-1.9611423E-1,-2.7323656E-3,-1.7904103E-3,-1.2268513E-1,-2.3341486E-1,-5.8364816E-4,3.6667517E-4,-2.305972E-3,1.0899542E-3,-3.8139368E-3,-1.566649E-3],"categories":[],"categories_nodes":[],"categories_segments":[],"categories_sizes":[],"default_left":[0,0,0,0,0,0,0,0,0,0,0,0,0],"id":101,"left_children":[1,3,5,-1,7,9,11,-1,-1,-1,-1,-1,-1],"loss_changes":[7.601581E0,6.0788965E0,7.3217773E-1,0E0,3.26169E0,2.4172385E0,2.0197306E0,0E0,0E0,0E0,0E0,0E0,0E0],"parents":[2147483647,0,0,1,1,2,2,4,4,5,5,6,6],"right_children":[2,4,6,-1,8,10,12,-1,-1,-1,-1,-1,-1],"split_conditions":[1.1171765E0,-1.3164451E0,1.4213792E0,-2.7323656E-3,-4.0383697E-1,1.3199784E0,1.725582E0,-5.8364816E-4,3.6667517E-4,-2.305972E-3,1.0899542E-3,-3.8139368E-3,-1.566649E-3],"split_indices":[0,0,0,0,0,0,0,0,0,0,0,0,0],"split_type":[0,0,0,0,0,0,0,0,0,0,0,0,0],"sum_hessian":[1.8602257E3,1.5834506E3,2.7677524E2,8.63129E1,1.4971376E3,9.467986E1,1.8209537E2,6.05656E2,8.9148157E2,6.459671E1,3.0083155E1,6.083408E1,1.2126129E2],"tree_param":{"num_deleted":"0","num_feature":"3","num_nodes":"13","size_leaf_vector":"1"}},{"base_weights":[1.26310205E-2,3.0973807E-3,-1.1909745E-3],"categories":[],"categories_nodes":[],"categories_segments":[],"categories_sizes":[],"default_left":[0,0,0],"id":102,"left_children":[1,-1,-1],"loss_changes":[7.298947E1,0E0,0E0],"parents":[2147483647,0,0],"right_children":[2,-1,-1],"split_conditions":[7.226949E-1,3.0973807E-3,-1.1909745E-3],"split_indices":[1,0,0],"split_type":[0,0,0],"sum_hessian":[1.8630092E3,5.718587E2,1.2911504E3],"tree_param":{"num_deleted":"0","num_feature":"3","num_nodes":"3","size_leaf_vector":"1"}},{"base_weights":[4.8363227E-2,7.7238254E-2,3.386258E-2,5.4862905E-2,2.285103E-3,-7.6832104E-4,4.082885E-2,1.2543518E-4,6.842101E-4,2.4417008E-4,6.679031E-4],"categories":[],"categories_nodes":[],"categories_segments":[],"categories_sizes":[],"default_left":[0,0,0,0,0,0,0,0,0,0,0],"id":103,"left_children":[1,3,5,7,-1,-1,9,-1,-1,-1,-1],"loss_changes":[7.8397894E-1,2.110565E0,9.6888244E-1,3.1342113E-1,0E0,0E0,5.0066185E-1,0E0,0E0,0E0,0E0],"parents":[2147483647,0,0,1,1,2,2,3,3,6,6],"right_children":[2,4,6,8,-1,-1,10,-1,-1,-1,-1],"split_conditions":[-5.052379E-1,-6.066388E-1,-4.0383697E-1,-1.2150441E0,2.285103E-3,-7.6832104E-4,7.1157295E-1,1.2543518E-4,6.842101E-4,2.4417008E-4,6.679031E-4],"split_indices":[0,0,0,0,0,0,0,0,0,0,0],"split_type":[0,0,0,0,0,0,0,0,0,0,0],"sum_hessian":[1.87763E3,6.2625226E2,1.2513778E3,5.467435E2,7.95087E1,7.349568E1,1.1778821E3,1.3312894E2,4.136146E2,7.228589E2,4.5502322E2],"tree_param":{"num_deleted":"0","num_feature":"3","num_nodes":"11","size_leaf_vector":"1"}},{"base_weights":[2.2854265E-2,-2.4876451E-2,4.4320207E-2,-1.8156422E-2,-3.2300171E-3,4.1389983E-2,2.6340538E-3,-1.1221551E-3,-1.1811099E-4,4.8979436E-4,-3.7038108E-4],"categories":[],"categories_nodes":[],"categories_segments":[],"categories_sizes":[],"default_left":[0,0,0,0,0,0,0,0,0,0,0],"id":104,"left_children":[1,3,5,7,-1,9,-1,-1,-1,-1,-1],"loss_changes":[1.9289625E0,1.1648164E0,8.225372E-1,3.403762E-1,0E0,7.6507807E-1,0E0,0E0,0E0,0E0,0E0],"parents":[2147483647,0,0,1,1,2,2,3,3,5,5],"right_children":[2,4,6,8,-1,10,-1,-1,-1,-1,-1],"split_conditions":[-6.850056E-1,-7.1309996E-1,2.0321221E0,-1.4836886E0,-3.2300171E-3,1.590639E0,2.6340538E-3,-1.1221551E-3,-1.1811099E-4,4.8979436E-4,-3.7038108E-4],"split_indices":[2,2,2,2,0,2,0,0,0,0,0],"split_type":[0,0,0,0,0,0,0,0,0,0,0],"sum_hessian":[1.8806012E3,5.833441E2,1.2972571E3,5.715224E2,1.182176E1,1.2813087E3,1.5948331E1,3.506443E1,5.3645795E2,1.1685994E3,1.1270941E2],"tree_param":{"num_deleted":"0","num_feature":"3","num_nodes":"11","size_leaf_vector":"1"}},{"base_weights":[-2.0405974E-2,-1.4607684E-3,3.4091913E-4],"categories":[],"categories_nodes":[],"categories_segments":[],"categories_sizes":[],"default_left":[0,0,0],"id":105,"left_children":[1,-1,-1],"loss_changes":[1.2616385E1,0E0,0E0],"parents":[2147483647,0,0],"right_children":[2,-1,-1],"split_conditions":[7.226949E-1,-1.4607684E-3,3.4091913E-4],"split_indices":[1,0,0],"split_type":[0,0,0],"sum_hessian":[1.8404045E3,5.5618176E2,1.2842228E3],"tree_param":{"num_deleted":"0","num_feature":"3","num_nodes":"3","size_leaf_vector":"1"}},{"base_weights":[-1.3183217E-2,-1.8619198E-3,6.117271E-4],"categories":[],"categories_nodes":[],"categories_segments":[],"categories_sizes":[],"default_left":[0,0,0],"id":106,"left_children":[1,-1,-1],"loss_changes":[2.3900177E1,0E0,0E0],"parents":[2147483647,0,0],"right_children":[2,-1,-1],"split_conditions":[7.226949E-1,-1.8619198E-3,6.117271E-4],"split_indices":[1,0,0],"split_type":[0,0,0],"sum_hessian":[1.8559937E3,5.574454E2,1.2985483E3],"tree_param":{"num_deleted":"0","num_feature":"3","num_nodes":"3","size_leaf_vector":"1"}},{"base_weights":[-5.6568015E-2,-1.6993564E-1,-2.7127208E-2,-5.4813144E-3,-1.5724936E-3,1.378565E-2,-1.087193E-1,-4.9595616E-4,4.2959768E-4,-1.2307701E-3,2.8246911E-3],"categories":[],"categories_nodes":[],"categories_segments":[],"categories_sizes":[],"default_left":[0,0,0,0,0,0,0,0,0,0,0],"id":107,"left_children":[1,3,5,-1,-1,7,9,-1,-1,-1,-1],"loss_changes":[6.1598806E0,1.7397566E0,4.8998938E0,0E0,0E0,1.8109416E0,2.7878733E0,0E0,0E0,0E0,0E0],"parents":[2147483647,0,0,1,1,2,2,5,5,6,6],"right_children":[2,4,6,-1,-1,8,10,-1,-1,-1,-1],"split_conditions":[-8.0944055E-1,-1.5192468E0,6.1017203E-1,-5.4813144E-3,-1.5724936E-3,-4.0383697E-1,2.840992E0,-4.9595616E-4,4.2959768E-4,-1.2307701E-3,2.8246911E-3],"split_indices":[0,0,0,0,0,0,0,0,0,0,0],"split_type":[0,0,0,0,0,0,0,0,0,0,0],"sum_hessian":[1.8459637E3,3.795726E2,1.4663912E3,1.0949392E1,3.686232E2,9.7721545E2,4.8917572E2,3.0780466E2,6.694108E2,4.7251834E2,1.6657383E1],"tree_param":{"num_deleted":"0","num_feature":"3","num_nodes":"11","size_leaf_vector":"1"}},{"base_weights":[1.414411E-2,9.7781956E-2,-3.6993906E-2,6.4247297E-3,8.8481836E-2,-3.4783147E-2,-2.4546995E-3,7.582665E-4,1.9227138E-3,-3.797931E-4,3.4718239E-3],