{"learner":{"attributes":{"scikit_learn":"{\"_estimator_type\": \"classifier\"}"},"feature_names":[],"feature_types":[],"gradient_booster":{"model":{"gbtree_model_param":{"num_parallel_tree":"1","num_trees":"936"},"iteration_indptr":[0,6,12,18,24,30,36,42,48,54,60,66,72,78,84,90,96,102,108,114,120,126,132,138,144,150,156,162,168,174,180,186,192,198,204,210,216,222,228,234,240,246,252,258,264,270,276,282,288,294,300,306,312,318,324,330,336,342,348,354,360,366,372,378,384,390,396,402,408,414,420,426,432,438,444,450,456,462,468,474,480,486,492,498,504,510,516,522,528,534,540,546,552,558,564,570,576,582,588,594,600,606,612,618,624,630,636,642,648,654,660,666,672,678,684,690,696,702,708,714,720,726,732,738,744,750,756,762,768,774,780,786,792,798,804,810,816,822,828,834,840,846,852,858,864,870,876,882,888,894,900,906,912,918,924,930,936],"tree_info":[0,1,2,3,4,5,0,1,2,3,4,5,0,1,2,3,4,5,0,1,2,3,4,5,0,1,2,3,4,5,0,1,2,3,4,5,0,1,2,3,4,5,0,1,2,3,4,5,0,1,2,3,4,5,0,1,2,3,4,5,0,1,2,3,4,5,0,1,2,3,4,5,0,1,2,3,4,5,0,1,2,3,4,5,0,1,2,3,4,5,0,1,2,3,4,5,0,1,2,3,4,5,0,1,2,3,4,5,0,1,2,3,4,5,0,1,2,3,4,5,0,1,2,3,4,5,0,1,2,3,4,5,0,1,2,3,4,5,0,1,2,3,4,5,0,1,2,3,4,5,0,1,2,3,4,5,0,1,2,3,4,5,0,1,2,3,4,5,0,1,2,3,4,5,0,1,2,3,4,5,0,1,2,3,4,5,0,1,2,3,4,5,0,1,2,3,4,5,0,1,2,3,4,5,0,1,2,3,4,5,0,1,2,3,4,5,0,1,2,3,4,5,0,1,2,3,4,5,0,1,2,3,4,5,0,1,2,3,4,5,0,1,2,3,4,5,0,1,2,3,4,5,0,1,2,3,4,5,0,1,2,3,4,5,0,1,2,3,4,5,0,1,2,3,4,5,0,1,2,3,4,5,0,1,2,3,4,5,0,1,2,3,4,5,0,1,2,3,4,5,0,1,2,3,4,5,0,1,2,3,4,5,0,1,2,3,4,5,0,1,2,3,4,5,0,1,2,3,4,5,0,1,2,3,4,5,0,1,2,3,4,5,0,1,2,3,4,5,0,1,2,3,4,5,0,1,2,3,4,5,0,1,2,3,4,5,0,1,2,3,4,5,0,1,2,3,4,5,0,1,2,3,4,5,0,1,2,3,4,5,0,1,2,3,4,5,0,1,2,3,4,5,0,1,2,3,4,5,0,1,2,3,4,5,0,1,2,3,4,5,0,1,2,3,4,5,0,1,2,3,4,5,0,1,2,3,4,5,0,1,2,3,4,5,0,1,2,3,4,5,0,1,2,3,4,5,0,1,2,3,4,5,0,1,2,3,4,5,0,1,2,3,4,5,0,1,2,3,4,5,0,1,2,3,4,5,0,1,2,3,4,5,0,1,2,3,4,5,0,1,2,3,4,5,0,1,2,3,4,5,0,1,2,3,4,5,0,1,2,3,4,5,0,1,2,3,4,5,0,1,2,3,4,5,0,1,2,3,4,5,0,1,2,3,4,5,0,1,2,3,4,5,0,1,2,3,4,5,0,1,2,3,4,5,0,1,2,3,4,5,0,1,2,3,4,5,0,1,2,3,4,5,0,1,2,3,4,5,0,1,2,3,4,5,0,1,2,3,4,5,0,1,2,3,4,5,0,1,2,3,4,5,0,1,2,3,4,5,0,1,2,3,4,5,0,1,2,3,4,5,0,1,2,3,4,5,0,1,2,3,4,5,0,1,2,3,4,5,0,1,2,3,4,5,0,1,2,3,4,5,0,1,2,3,4,5,0,1,2,3,4,5,0,1,2,3,4,5,0,1,2,3,4,5,0,1,2,3,4,5,0,1,2,3,4,5,0,1,2,3,4,5,0,1,2,3,4,5,0,1,2,3,4,5,0,1,2,3,4,5,0,1,2,3,4,5,0,1,2,3,4,5,0,1,2,3,4,5,0,1,2,3,4,5,0,1,2,3,4,5,0,1,2,3,4,5,0,1,2,3,4,5,0,1,2,3,4,5,0,1,2,3,4,5,0,1,2,3,4,5,0,1,2,3,4,5,0,1,2,3,4,5,0,1,2,3,4,5,0,1,2,3,4,5,0,1,2,3,4,5,0,1,2,3,4,5,0,1,2,3,4,5,0,1,2,3,4,5,0,1,2,3,4,5,0,1,2,3,4,5,0,1,2,3,4,5,0,1,2,3,4,5,0,1,2,3,4,5,0,1,2,3,4,5,0,1,2,3,4,5,0,1,2,3,4,5,0,1,2,3,4,5,0,1,2,3,4,5,0,1,2,3,4,5,0,1,2,3,4,5,0,1,2,3,4,5,0,1,2,3,4,5,0,1,2,3,4,5,0,1,2,3,4,5,0,1,2,3,4,5,0,1,2,3,4,5],"trees":[{"base_weights":[2.5599292E-2,1.3707028E-1,-1.5902497E-2,2.0546958E-1,9.9449255E-2,3.290817E-2,-2.8544163E-2,2.6375952E-3,1.7209869E-3,1.337908E-3,7.941397E-4,5.4170866E-4,2.5610978E-4,-3.9125612E-4,-8.84754E-5],"categories":[],"categories_nodes":[],"categories_segments":[],"categories_sizes":[],"default_left":[0,0,0,0,0,0,0,0,0,0,0,0,0,0,0],"id":0,"left_children":[1,3,5,7,9,11,13,-1,-1,-1,-1,-1,-1,-1,-1],"loss_changes":[4.195554E2,6.3292847E1,4.077942E1,1.6935822E1,1.0912415E1,2.1080503E0,1.0939964E1,0E0,0E0,0E0,0E0,0E0,0E0,0E0,0E0],"parents":[2147483647,0,0,1,1,2,2,3,3,4,4,5,5,6,6],"right_children":[2,4,6,8,10,12,14,-1,-1,-1,-1,-1,-1,-1,-1],"split_conditions":[-6.696021E-1,-1.1411072E0,-2.9239798E-1,-1.3297093E0,-9.525052E-1,-5.7530105E-1,8.392143E-1,2.6375952E-3,1.7209869E-3,1.337908E-3,7.941397E-4,5.4170866E-4,2.5610978E-4,-3.9125612E-4,-8.84754E-5],"split_indices":[0,0,0,0,0,0,0,0,0,0,0,0,0,0,0],"split_type":[0,0,0,0,0,0,0,0,0,0,0,0,0,0,0],"sum_hessian":[9.068877E4,2.4603398E4,6.6085375E4,8.728869E3,1.587453E4,1.3594423E4,5.249095E4,3.1753984E3,5.5534707E3,5.84692E3,1.002761E4,3.4718008E3,1.0122622E4,3.4146E4,1.8344951E4],"tree_param":{"num_deleted":"0","num_feature":"3","num_nodes":"15","size_leaf_vector":"1"}},{"base_weights":[4.907094E-2,3.7127614E-2,1.0258658E-1,5.0897382E-2,2.2529872E-2,8.0368534E-4,1.1367221E-1,6.0479244E-4,4.2531587E-4,1.4302983E-4,6.5410376E-4,1.154613E-3,7.6404004E-4],"categories":[],"categories_nodes":[],"categories_segments":[],"categories_sizes":[],"default_left":[0,0,0,0,0,0,0,0,0,0,0,0,0],"id":1,"left_children":[1,3,5,7,9,-1,11,-1,-1,-1,-1,-1,-1],"loss_changes":[5.8002304E1,1.4913094E1,4.0691376E0,3.057991E0,1.2705133E1,0E0,7.2753906E-1,0E0,0E0,0E0,0E0,0E0,0E0],"parents":[2147483647,0,0,1,1,2,2,3,3,4,4,6,6],"right_children":[2,4,6,8,10,-1,12,-1,-1,-1,-1,-1,-1],"split_conditions":[9.3351537E-1,-2.9239798E-1,1.3107195E0,-8.582041E-1,6.506123E-1,8.0368534E-4,2.913837E0,6.0479244E-4,4.2531587E-4,1.4302983E-4,6.5410376E-4,1.154613E-3,7.6404004E-4],"split_indices":[0,0,0,0,0,0,0,0,0,0,0,0,0],"split_type":[0,0,0,0,0,0,0,0,0,0,0,0,0],"sum_hessian":[9.0753445E4,7.41964E4,1.6557047E4,3.817972E4,3.601668E4,5.5140093E3,1.1043037E4,1.7793502E4,2.0386217E4,3.0220102E4,5.7965786E3,1.0535189E4,5.078477E2],"tree_param":{"num_deleted":"0","num_feature":"3","num_nodes":"13","size_leaf_vector":"1"}},{"base_weights":[2.3965875E-2,-1.072246E-3,1.2318083E-1,-5.320401E-3,2.9449929E-2,9.333333E-2,1.956049E-1,-1.1687436E-4,2.4130937E-5,2.5698767E-4,4.2921503E-4,7.424549E-4,1.1798012E-3,1.5010174E-3,2.1330728E-3],"categories":[],"categories_nodes":[],"categories_segments":[],"categories_sizes":[],"default_left":[0,0,0,0,0,0,0,0,0,0,0,0,0,0,0],"id":2,"left_children":[1,3,5,7,9,11,13,-1,-1,-1,-1,-1,-1,-1,-1],"loss_changes":[2.2493388E2,9.375076E0,3.942398E1,3.1252236E0,4.4530773E-1,6.0709076E0,4.2566376E0,0E0,0E0,0E0,0E0,0E0,0E0,0E0,0E0],"parents":[2147483647,0,0,1,1,2,2,3,3,4,4,5,5,6,6],"right_children":[2,4,6,8,10,12,14,-1,-1,-1,-1,-1,-1,-1,-1],"split_conditions":[8.392143E-1,4.620102E-1,1.8765256E0,-3.86699E-1,7.449133E-1,1.3107195E0,2.0651276E0,-1.1687436E-4,2.4130937E-5,2.5698767E-4,4.2921503E-4,7.424549E-4,1.1798012E-3,1.5010174E-3,2.1330728E-3],"split_indices":[0,0,0,0,0,0,0,0,0,0,0,0,0,0,0],"split_type":[0,0,0,0,0,0,0,0,0,0,0,0,0,0,0],"sum_hessian":[9.054636E4,7.2301234E4,1.8245121E4,6.346837E4,8.832866E3,1.2921984E4,5.3231367E3,3.4809215E4,2.8659154E4,6.911317E3,1.9215492E3,7.2844883E3,5.637496E3,1.4935386E3,3.8295981E3],"tree_param":{"num_deleted":"0","num_feature":"3","num_nodes":"15","size_leaf_vector":"1"}},{"base_weights":[-1.5606304E-2,-1.1433632E-3,3.0323362E-4],"categories":[],"categories_nodes":[],"categories_segments":[],"categories_sizes":[],"default_left":[0,0,0],"id":3,"left_children":[1,-1,-1],"loss_changes":[4.1016537E2,0E0,0E0],"parents":[2147483647,0,0],"right_children":[2,-1,-1],"split_conditions":[7.299337E-1,-1.1433632E-3,3.0323362E-4],"split_indices":[1,0,0],"split_type":[0,0,0],"sum_hessian":[9.044988E4,2.87175E4,6.1732383E4],"tree_param":{"num_deleted":"0","num_feature":"3","num_nodes":"3","size_leaf_vector":"1"}},{"base_weights":[-3.104614E-2,6.0025924E-3,-8.701953E-2,3.0561112E-2,-1.7321669E-2,-7.848219E-2,-1.1802554E-1,4.781295E-4,1.6947024E-4,-3.1006428E-5,-2.705224E-4,-6.566169E-4,-8.274526E-4,-1.8421314E-3,-1.1148476E-3],"categories":[],"categories_nodes":[],"categories_segments":[],"categories_sizes":[],"default_left":[0,0,0,0,0,0,0,0,0,0,0,0,0,0,0],"id":4,"left_children":[1,3,5,7,9,11,13,-1,-1,-1,-1,-1,-1,-1,-1],"loss_changes":[1.8786443E2,3.1225454E1,9.5416565E0,6.235815E0,3.8688688E0,1.5409698E0,3.3509445E0,0E0,0E0,0E0,0E0,0E0,0E0,0E0,0E0],"parents":[2147483647,0,0,1,1,2,2,3,3,4,4,5,5,6,6],"right_children":[2,4,6,8,10,12,14,-1,-1,-1,-1,-1,-1,-1,-1],"split_conditions":[1.9287908E-1,-7.871653E-1,1.5298784E0,-1.2191236E0,-4.206181E-1,4.887088E-1,1.5718191E0,4.781295E-4,1.6947024E-4,-3.1006428E-5,-2.705224E-4,-6.566169E-4,-8.274526E-4,-1.8421314E-3,-1.1148476E-3],"split_indices":[2,2,2,2,2,2,2,0,0,0,0,0,0,0,0],"split_type":[0,0,0,0,0,0,0,0,0,0,0,0,0,0,0],"sum_hessian":[9.059071E4,5.45109E4,3.6079816E4,2.6552742E4,2.7958156E4,2.8293014E4,7.786801E3,1.1710557E4,1.4842187E4,1.1358813E4,1.6599342E4,7.064395E3,2.122862E4,6.978571E2,7.088944E3],"tree_param":{"num_deleted":"0","num_feature":"3","num_nodes":"15","size_leaf_vector":"1"}},{"base_weights":[-5.27866E-2,-2.0217607E-3,1.6971357E-4],"categories":[],"categories_nodes":[],"categories_segments":[],"categories_sizes":[],"default_left":[0,0,0],"id":5,"left_children":[1,-1,-1],"loss_changes":[9.44943E2,0E0,0E0],"parents":[2147483647,0,0],"right_children":[2,-1,-1],"split_conditions":[7.299337E-1,-2.0217607E-3,1.6971357E-4],"split_indices":[1,0,0],"split_type":[0,0,0],"sum_hessian":[9.067458E4,2.8862494E4,6.1812086E4],"tree_param":{"num_deleted":"0","num_feature":"3","num_nodes":"3","size_leaf_vector":"1"}},{"base_weights":[2.5482943E-2,2.4396153E-3,-7.6625147E-4],"categories":[],"categories_nodes":[],"categories_segments":[],"categories_sizes":[],"default_left":[0,0,0],"id":6,"left_children":[1,-1,-1],"loss_changes":[2.0218726E3,0E0,0E0],"parents":[2147483647,0,0],"right_children":[2,-1,-1],"split_conditions":[7.299337E-1,2.4396153E-3,-7.6625147E-4],"split_indices":[1,0,0],"split_type":[0,0,0],"sum_hessian":[9.063082E4,2.8865822E4,6.1765E4],"tree_param":{"num_deleted":"0","num_feature":"3","num_nodes":"3","size_leaf_vector":"1"}},{"base_weights":[5.031968E-2,3.8157254E-2,1.0483029E-1,5.451332E-2,2.0775186E-2,8.520652E-4,1.14783674E-1,6.628128E-4,4.7311708E-4,1.4115311E-4,5.543255E-4,1.1925627E-3,8.352293E-4],"categories":[],"categories_nodes":[],"categories_segments":[],"categories_sizes":[],"default_left":[0,0,0,0,0,0,0,0,0,0,0,0,0],"id":7,"left_children":[1,3,5,7,9,-1,11,-1,-1,-1,-1,-1,-1],"loss_changes":[6.008185E1,2.1065323E1,3.2192993E0,3.23217E0,8.291041E0,0E0,1.5232239E0,0E0,0E0,0E0,0E0,0E0,0E0],"parents":[2147483647,0,0,1,1,2,2,3,3,4,4,6,6],"right_children":[2,4,6,8,10,-1,12,-1,-1,-1,-1,-1,-1],"split_conditions":[9.3351537E-1,-2.9239798E-1,1.3107195E0,-9.525052E-1,6.506123E-1,8.520652E-4,2.5366328E0,6.628128E-4,4.7311708E-4,1.4115311E-4,5.543255E-4,1.1925627E-3,8.352293E-4],"split_indices":[0,0,0,0,0,0,0,0,0,0,0,0,0],"split_type":[0,0,0,0,0,0,0,0,0,0,0,0,0],"sum_hessian":[9.0628805E4,7.409779E4,1.653102E4,3.817448E4,3.592331E4,5.5662837E3,1.0964736E4,1.4489455E4,2.3685023E4,3.0134055E4,5.7892515E3,9.589861E3,1.3748757E3],"tree_param":{"num_deleted":"0","num_feature":"3","num_nodes":"13","size_leaf_vector":"1"}},{"base_weights":[2.6840286E-2,2.3888364E-4,2.822102E-4],"categories":[],"categories_nodes":[],"categories_segments":[],"categories_sizes":[],"default_left":[0,0,0],"id":8,"left_children":[1,-1,-1],"loss_changes":[3.6780548E-1,0E0,0E0],"parents":[2147483647,0,0],"right_children":[2,-1,-1],"split_conditions":[7.299337E-1,2.3888364E-4,2.822102E-4],"split_indices":[1,0,0],"split_type":[0,0,0],"sum_hessian":[9.040557E4,2.881637E4,6.1589203E4],"tree_param":{"num_deleted":"0","num_feature":"3","num_nodes":"3","size_leaf_vector":"1"}},{"base_weights":[-1.37338145E-2,5.7043046E-2,-2.1350777E-2,5.297776E-2,1.034834E-3,-4.323833E-3,-3.8181886E-2,7.1586546E-4,3.8597273E-4,-5.1554816E-5,1.0396242E-3,-6.7218207E-4,-3.602199E-4],"categories":[],"categories_nodes":[],"categories_segments":[],"categories_sizes":[],"default_left":[0,0,0,0,0,0,0,0,0,0,0,0,0],"id":9,"left_children":[1,3,5,7,-1,9,11,-1,-1,-1,-1,-1,-1],"loss_changes":[4.88111E1,1.655386E0,2.3425797E1,2.1624718E0,0E0,3.660056E0,2.575653E0,0E0,0E0,0E0,0E0,0E0,0E0],"parents":[2147483647,0,0,1,1,2,2,3,3,5,5,6,6],"right_children":[2,4,6,8,-1,10,12,-1,-1,-1,-1,-1,-1],"split_conditions":[-1.2971884E0,-1.3159647E0,-1.0072447E-3,-1.4305618E0,1.034834E-3,-1.4579288E-2,1.10018186E-1,7.1586546E-4,3.8597273E-4,-5.1554816E-5,1.0396242E-3,-6.7218207E-4,-3.602199E-4],"split_indices":[2,2,2,2,0,2,2,0,0,0,0,0,0],"split_type":[0,0,0,0,0,0,0,0,0,0,0,0,0],"sum_hessian":[9.053778E4,8.796273E3,8.174151E4,8.090215E3,7.060583E2,4.0634984E4,4.1106527E4,3.5249038E3,4.565311E3,4.0326227E4,3.087569E2,2.843957E3,3.826257E4],"tree_param":{"num_deleted":"0","num_feature":"3","num_nodes":"13","size_leaf_vector":"1"}},{"base_weights":[-3.4172475E-2,5.487399E-3,-9.121411E-2,3.8634557E-2,-1.4612814E-2,-6.313837E-2,-1.0096285E-1,5.0717493E-4,2.3156207E-4,7.1943105E-5,-1.9784042E-4,-9.266553E-4,-5.070325E-4,-9.6644287E-4,-1.3029237E-3],"categories":[],"categories_nodes":[],"categories_segments":[],"categories_sizes":[],"default_left":[0,0,0,0,0,0,0,0,0,0,0,0,0,0,0],"id":10,"left_children":[1,3,5,7,9,11,13,-1,-1,-1,-1,-1,-1,-1,-1],"loss_changes":[2.0486229E2,3.5590816E1,1.0158813E1,3.770111E0,3.750164E0,3.5109406E0,3.4789124E0,0E0,0E0,0E0,0E0,0E0,0E0,0E0,0E0],"parents":[2147483647,0,0,1,1,2,2,3,3,4,4,5,5,6,6],"right_children":[2,4,6,8,10,12,14,-1,-1,-1,-1,-1,-1,-1,-1],"split_conditions":[1.509384E-1,-9.769698E-1,5.489156E-1,-1.2291241E0,-7.871653E-1,2.6451498E-1,1.7731547E0,5.0717493E-4,2.3156207E-4,7.1943105E-5,-1.9784042E-4,-9.266553E-4,-5.070325E-4,-9.6644287E-4,-1.3029237E-3],"split_indices":[2,2,2,2,2,2,2,0,0,0,0,0,0,0,0],"split_type":[0,0,0,0,0,0,0,0,0,0,0,0,0,0,0],"sum_hessian":[9.055509E4,5.3416562E4,3.713853E4,2.0163732E4,3.3252832E4,9.57387E3,2.756466E4,1.1322626E4,8.841107E3,6.373848E3,2.6878982E4,2.835214E3,6.7386567E3,2.4030621E4,3.534039E3],"tree_param":{"num_deleted":"0","num_feature":"3","num_nodes":"15","size_leaf_vector":"1"}},{"base_weights":[-5.2894436E-2,-1.993802E-3,1.5413431E-4],"categories":[],"categories_nodes":[],"categories_segments":[],"categories_sizes":[],"default_left":[0,0,0],"id":11,"left_children":[1,-1,-1],"loss_changes":[9.0621735E2,0E0,0E0],"parents":[2147483647,0,0],"right_children":[2,-1,-1],"split_conditions":[7.299337E-1,-1.993802E-3,1.5413431E-4],"split_indices":[1,0,0],"split_type":[0,0,0],"sum_hessian":[9.056492E4,2.8800508E4,6.1764414E4],"tree_param":{"num_deleted":"0","num_feature":"3","num_nodes":"3","size_leaf_vector":"1"}},{"base_weights":[2.7040208E-2,-1.4330099E-2,7.176352E-2,-5.301411E-2,2.9256325E-3,6.922863E-2,1.2090501E-1,-7.956463E-4,-3.762517E-4,-1.3368107E-4,2.0763092E-4,6.1686005E-4,7.377244E-4,1.0971567E-3,1.4306634E-3],"categories":[],"categories_nodes":[],"categories_segments":[],"categories_sizes":[],"default_left":[0,0,0,0,0,0,0,0,0,0,0,0,0,0,0],"id":12,"left_children":[1,3,5,7,9,11,13,-1,-1,-1,-1,-1,-1,-1,-1],"loss_changes":[1.6767703E2,3.1425766E1,5.416321E0,5.930561E0,9.462568E0,1.4148102E0,5.136814E-1,0E0,0E0,0E0,0E0,0E0,0E0,0E0,0E0],"parents":[2147483647,0,0,1,1,2,2,3,3,4,4,5,5,6,6],"right_children":[2,4,6,8,10,12,14,-1,-1,-1,-1,-1,-1,-1,-1],"split_conditions":[-9.5807455E-2,-1.1385077E0,1.8620362E0,-1.3856617E0,-6.324644E-1,5.346292E-1,1.9675512E0,-7.956463E-4,-3.762517E-4,-1.3368107E-4,2.0763092E-4,6.1686005E-4,7.377244E-4,1.0971567E-3,1.4306634E-3],"split_indices":[2,2,2,2,2,2,2,0,0,0,0,0,0,0,0],"split_type":[0,0,0,0,0,0,0,0,0,0,0,0,0,0,0],"sum_hessian":[9.062403E4,4.707709E4,4.3546938E4,1.452123E4,3.2555861E4,4.141311E4,2.1338293E3,5.3267773E3,9.194453E3,1.7014295E4,1.5541565E4,1.5574468E4,2.583864E4,1.4218717E3,7.1195764E2],"tree_param":{"num_deleted":"0","num_feature":"3","num_nodes":"15","size_leaf_vector":"1"}},{"base_weights":[4.965776E-2,3.7401922E-2,1.0460598E-1,5.232654E-2,2.1571212E-2,8.332353E-4,1.15268536E-1,6.025475E-4,4.546756E-4,1.4990295E-4,5.576769E-4,1.2002632E-3,8.244513E-4],"categories":[],"categories_nodes":[],"categories_segments":[],"categories_sizes":[],"default_left":[0,0,0,0,0,0,0,0,0,0,0,0,0],"id":13,"left_children":[1,3,5,7,9,-1,11,-1,-1,-1,-1,-1,-1],"loss_changes":[6.10903E1,1.752452E1,3.7445984E0,2.0735016E0,8.100222E0,0E0,1.7109375E0,0E0,0E0,0E0,0E0,0E0,0E0],"parents":[2147483647,0,0,1,1,2,2,3,3,4,4,6,6],"right_children":[2,4,6,8,10,-1,12,-1,-1,-1,-1,-1,-1],"split_conditions":[9.3351537E-1,-2.9239798E-1,1.3107195E0,-8.582041E-1,6.506123E-1,8.332353E-4,2.5366328E0,6.025475E-4,4.546756E-4,1.4990295E-4,5.576769E-4,1.2002632E-3,8.244513E-4],"split_indices":[0,0,0,0,0,0,0,0,0,0,0,0,0],"split_type":[0,0,0,0,0,0,0,0,0,0,0,0,0],"sum_hessian":[9.0719055E4,7.417622E4,1.6542834E4,3.8179582E4,3.5996637E4,5.5245854E3,1.1018249E4,1.7705832E4,2.0473748E4,3.0188475E4,5.8081616E3,9.62102E3,1.3972297E3],"tree_param":{"num_deleted":"0","num_feature":"3","num_nodes":"13","size_leaf_vector":"1"}},{"base_weights":[2.4015969E-2,3.0804556E-4,1.3059473E-1,-4.5690206E-3,4.0168606E-2,1.0604274E-1,2.1150917E-1,-1.09010856E-4,2.5354102E-5,3.4138327E-4,6.170808E-4,9.0369437E-4,1.3822393E-3,2.022461E-3,2.9986396E-3],"categories":[],"categories_nodes":[],"categories_segments":[],"categories_sizes":[],"default_left":[0,0,0,0,0,0,0,0,0,0,0,0,0,0,0],"id":14,"left_children":[1,3,5,7,9,11,13,-1,-1,-1,-1,-1,-1,-1,-1],"loss_changes":[2.2914667E2,1.4422263E1,3.2761047E1,2.9735894E0,1.048378E0,6.374344E0,3.0826569E0,0E0,0E0,0E0,0E0,0E0,0E0,0E0,0E0],"parents":[2147483647,0,0,1,1,2,2,3,3,4,4,5,5,6,6],"right_children":[2,4,6,8,10,12,14,-1,-1,-1,-1,-1,-1,-1,-1],"split_conditions":[9.3351537E-1,5.5631125E-1,2.0651276E0,-3.86699E-1,8.392143E-1,1.5936226E0,3.008138E0,-1.09010856E-4,2.5354102E-5,3.4138327E-4,6.170808E-4,9.0369437E-4,1.3822393E-3,2.022461E-3,2.9986396E-3],"split_indices":[0,0,0,0,0,0,0,0,0,0,0,0,0,0,0],"split_type":[0,0,0,0,0,0,0,0,0,0,0,0,0,0,0],"sum_hessian":[9.068691E4,7.418567E4,1.6501234E4,6.609912E4,8.0865513E3,1.2661613E4,3.8396213E3,3.494905E4,3.1150066E4,6.3198154E3,1.7667357E3,8.517243E3,4.14437E3,3.478253E3,3.613686E2],"tree_param":{"num_deleted":"0","num_feature":"3","num_nodes":"15","size_leaf_vector":"1"}},{"base_weights":[-1.3642901E-2,4.6610877E-2,-2.352713E-2,9.126365E-2,3.5696235E-2,-1.6796935E-2,-4.7588915E-2,7.2030455E-4,1.3912461E-3,4.7732858E-4,1.6052532E-4,-9.388724E-5,-2.6380902E-4,-5.409503E-4,-3.0038258E-4],"categories":[],"categories_nodes":[],"categories_segments":[],"categories_sizes":[],"default_left":[0,0,0,0,0,0,0,0,0,0,0,0,0,0,0],"id":15,"left_children":[1,3,5,7,9,11,13,-1,-1,-1,-1,-1,-1,-1,-1],"loss_changes":[5.401094E1,6.225548E0,1.2615604E1,2.3002205E0,2.427926E0,4.322304E0,1.9427147E0,0E0,0E0,0E0,0E0,0E0,0E0,0E0,0E0],"parents":[2147483647,0,0,1,1,2,2,3,3,4,4,5,5,6,6],"right_children":[2,4,6,8,10,12,14,-1,-1,-1,-1,-1,-1,-1,-1],"split_conditions":[-1.1897346E0,-1.4553587E0,1.0511832E0,-1.4728086E0,-1.2971884E0,-9.5807455E-2,1.7082537E0,7.2030455E-4,1.3912461E-3,4.7732858E-4,1.6052532E-4,-9.388724E-5,-2.6380902E-4,-5.409503E-4,-3.0038258E-4],"split_indices":[2,2,2,2,2,2,2,0,0,0,0,0,0,0,0],"split_type":[0,0,0,0,0,0,0,0,0,0,0,0,0,0,0],"sum_hessian":[9.068616E4,1.2779464E4,7.790669E4,2.5087173E3,1.0270747E4,6.087997E4,1.7026723E4,1.7913561E3,7.173612E2,6.3675923E3,3.9031545E3,3.4338773E4,2.6541193E4,1.2420354E4,4.6063677E3],"tree_param":{"num_deleted":"0","num_feature":"3","num_nodes":"15","size_leaf_vector":"1"}},{"base_weights":[-3.4473103E-2,-2.2341836E-2,-1.1290524E-1,-4.3388043E-2,-1.2778764E-2,-1.0640025E-1,-1.2689665E-1,-5.385262E-4,-3.7668503E-4,-4.733649E-5,-4.7210287E-4,-1.1024365E-3,-6.734301E-4,-1.5163275E-3,-9.640708E-4],"categories":[],"categories_nodes":[],"categories_segments":[],"categories_sizes":[],"default_left":[0,0,0,0,0,0,0,0,0,0,0,0,0,0,0],"id":16,"left_children":[1,3,5,7,9,11,13,-1,-1,-1,-1,-1,-1,-1,-1],"loss_changes":[8.604565E1,1.5763241E1,1.0890503E0,1.4625359E0,1.4917763E1,1.2348251E0,2.8810654E0,0E0,0E0,0E0,0E0,0E0,0E0,0E0,0E0],"parents":[2147483647,0,0,1,1,2,2,3,3,4,4,5,5,6,6],"right_children":[2,4,6,8,10,12,14,-1,-1,-1,-1,-1,-1,-1,-1],"split_conditions":[1.2164184E0,-6.696021E-1,2.0651276E0,-1.1411072E0,6.506123E-1,1.9708266E0,2.4423318E0,-5.385262E-4,-3.7668503E-4,-4.733649E-5,-4.7210287E-4,-1.1024365E-3,-6.734301E-4,-1.5163275E-3,-9.640708E-4],"split_indices":[0,0,0,0,0,0,0,0,0,0,0,0,0,0,0],"split_type":[0,0,0,0,0,0,0,0,0,0,0,0,0,0,0],"sum_hessian":[9.0435E4,7.832205E4,1.2112953E4,2.4468578E4,5.385347E4,8.274509E3,3.8384443E3,8.644331E3,1.5824247E4,4.3654492E4,1.0198975E4,7.5315503E3,7.429587E2,2.1169749E3,1.7214696E3],"tree_param":{"num_deleted":"0","num_feature":"3","num_nodes":"15","size_leaf_vector":"1"}},{"base_weights":[-4.957352E-2,-1.9749757E-3,1.9083121E-4],"categories":[],"categories_nodes":[],"categories_segments":[],"categories_sizes":[],"default_left":[0,0,0],"id":17,"left_children":[1,-1,-1],"loss_changes":[9.1999304E2,0E0,0E0],"parents":[2147483647,0,0],"right_children":[2,-1,-1],"split_conditions":[7.299337E-1,-1.9749757E-3,1.9083121E-4],"split_indices":[1,0,0],"split_type":[0,0,0],"sum_hessian":[9.058506E4,2.8715102E4,6.1869957E4],"tree_param":{"num_deleted":"0","num_feature":"3","num_nodes":"3","size_leaf_vector":"1"}},{"base_weights":[2.5598384E-2,-3.0364223E-2,6.0372375E-2,-8.224559E-2,-2.0994216E-2,2.6213506E-2,7.009236E-2,-9.5497776E-4,-6.2290375E-4,-3.6247558E-4,-1.1373332E-4,3.3799818E-4,9.392361E-5,6.543778E-4,9.7314944E-4],"categories":[],"categories_nodes":[],"categories_segments":[],"categories_sizes":[],"default_left":[0,0,0,0,0,0,0,0,0,0,0,0,0,0,0],"id":18,"left_children":[1,3,5,7,9,11,13,-1,-1,-1,-1,-1,-1,-1,-1],"loss_changes":[1.7682294E2,1.6926563E1,1.8604813E1,1.4026985E0,4.328287E0,1.5840349E0,5.5214233E0,0E0,0E0,0E0,0E0,0E0,0E0,0E0,0E0],"parents":[2147483647,0,0,1,1,2,2,3,3,4,4,5,5,6,6],"right_children":[2,4,6,8,10,12,14,-1,-1,-1,-1,-1,-1,-1,-1],"split_conditions":[-5.3082716E-1,-1.3856617E0,-9.5807455E-2,-1.4385213E0,-1.08075E0,-2.3479334E-1,1.6082493E0,-9.5497776E-4,-6.2290375E-4,-3.6247558E-4,-1.1373332E-4,3.3799818E-4,9.392361E-5,6.543778E-4,9.7314944E-4],"split_indices":[2,2,2,2,2,2,2,0,0,0,0,0,0,0,0],"split_type":[0,0,0,0,0,0,0,0,0,0,0,0,0,0,0],"sum_hessian":[9.086085E4,3.4821656E4,5.603919E4,5.325698E3,2.9495959E4,1.2414541E4,4.3624652E4,3.1980786E3,2.1276196E3,1.1407412E4,1.8088547E4,8.555165E3,3.8593765E3,3.7257664E4,6.366987E3],"tree_param":{"num_deleted":"0","num_feature":"3","num_nodes":"15","size_leaf_vector":"1"}},{"base_weights":[4.8481066E-2,1.3452036E-2,1.0902162E-1,-3.1790514E-2,2.7364716E-2,8.327425E-2,1.1686666E-1,-4.3743954E-4,-2.4815684E-4,1.3872389E-4,4.381172E-4,1.4636049E-3,8.0265483E-4,1.070533E-3,1.2612717E-3],"categories":[],"categories_nodes":[],"categories_segments":[],"categories_sizes":[],"default_left":[0,0,0,0,0,0,0,0,0,0,0,0,0,0,0],"id":19,"left_children":[1,3,5,7,9,11,13,-1,-1,-1,-1,-1,-1,-1,-1],"loss_changes":[1.9244781E2,3.61864E1,6.708832E0,1.1262064E0,9.756248E0,1.4633484E0,2.30307E0,0E0,0E0,0E0,0E0,0E0,0E0,0E0,0E0],"parents":[2147483647,0,0,1,1,2,2,3,3,4,4,5,5,6,6],"right_children":[2,4,6,8,10,12,14,-1,-1,-1,-1,-1,-1,-1,-1],"split_conditions":[3.0941498E-1,-1.1703459E0,6.4483833E-1,-1.3959683E0,-4.33884E-1,3.2492587E-1,1.243845E0,-4.3743954E-4,-2.4815684E-4,1.3872389E-4,4.381172E-4,1.4636049E-3,8.0265483E-4,1.070533E-3,1.2612717E-3],"split_indices":[2,2,2,2,2,2,2,0,0,0,0,0,0,0,0],"split_type":[0,0,0,0,0,0,0,0,0,0,0,0,0,0,0],"sum_hessian":[9.074799E4,5.748699E4,3.3261E4,1.3520025E4,4.3966965E4,7.770359E3,2.549064E4,4.9800156E3,8.54001E3,2.4154018E4,1.9812947E4,3.5155276E2,7.418806E3,1.2382E4,1.3108642E4],"tree_param":{"num_deleted":"0","num_feature":"3","num_nodes":"15","size_leaf_vector":"1"}},{"base_weights":[2.4252044E-2,3.0356098E-3,7.2611116E-2,-2.509709E-2,1.2033795E-2,5.9582606E-2,9.242275E-2,-3.745213E-4,-1.9140966E-4,6.0247366E-5,2.3362452E-4,6.107101E-4,-8.857959E-5,8.3851814E-4,1.0043606E-3],"categories":[],"categories_nodes":[],"categories_segments":[],"categories_sizes":[],"default_left":[0,0,0,0,0,0,0,0,0,0,0,0,0,0,0],"id":20,"left_children":[1,3,5,7,9,11,13,-1,-1,-1,-1,-1,-1,-1,-1],"loss_changes":[9.302573E1,1.5953537E1,7.130966E0,1.1231623E0,3.2503538E0,1.6999359E0,7.44812E-1,0E0,0E0,0E0,0E0,0E0,0E0,0E0,0E0],"parents":[2147483647,0,0,1,1,2,2,3,3,4,4,5,5,6,6],"right_children":[2,4,6,8,10,12,14,-1,-1,-1,-1,-1,-1,-1,-1],"split_conditions":[5.489156E-1,-1.119017E0,1.3540541E0,-1.3959683E0,-1.19481996E-1,1.3345634E0,1.6479449E0,-3.745213E-4,-1.9140966E-4,6.0247366E-5,2.3362452E-4,6.107101E-4,-8.857959E-5,8.3851814E-4,1.0043606E-3],"split_indices":[2,2,2,2,2,2,2,0,0,0,0,0,0,0,0],"split_type":[0,0,0,0,0,0,0,0,0,0,0,0,0,0,0],"sum_hessian":[9.066693E4,6.301959E4,2.7647336E4,1.5271541E4,4.774805E4,1.6681363E4,1.0965975E4,4.965697E3,1.0305845E4,3.1200113E4,1.6547938E4,1.6326411E4,3.5495105E2,5.304164E3,5.6618105E3],"tree_param":{"num_deleted":"0","num_feature":"3","num_nodes":"15","size_leaf_vector":"1"}},{"base_weights":[-1.4667276E-2,-1.1435882E-3,3.1883296E-4],"categories":[],"categories_nodes":[],"categories_segments":[],"categories_sizes":[],"default_left":[0,0,0],"id":21,"left_children":[1,-1,-1],"loss_changes":[4.2049692E2,0E0,0E0],"parents":[2147483647,0,0],"right_children":[2,-1,-1],"split_conditions":[7.299337E-1,-1.1435882E-3,3.1883296E-4],"split_indices":[1,0,0],"split_type":[0,0,0],"sum_hessian":[9.060891E4,2.8841406E4,6.17675E4],"tree_param":{"num_deleted":"0","num_feature":"3","num_nodes":"3","size_leaf_vector":"1"}},{"base_weights":[-3.18633E-2,-1.6660402E-2,-9.1980025E-2,-4.105E-2,-4.1558575E-3,-6.112355E-4,-1.0776813E-1,-5.4181926E-4,-3.3835616E-4,-1.5600433E-5,-3.230971E-4,-1.0597028E-3,-2.5335676E-3],"categories":[],"categories_nodes":[],"categories_segments":[],"categories_sizes":[],"default_left":[0,0,0,0,0,0,0,0,0,0,0,0,0],"id":22,"left_children":[1,3,5,7,9,-1,11,-1,-1,-1,-1,-1,-1],"loss_changes":[8.285576E1,2.2068493E1,8.907913E0,2.3216476E0,3.495956E0,0E0,3.1412659E0,0E0,0E0,0E0,0E0,0E0,0E0],"parents":[2147483647,0,0,1,1,2,2,3,3,4,4,6,6],"right_children":[2,4,6,8,10,-1,12,-1,-1,-1,-1,-1,-1],"split_conditions":[8.392143E-1,-6.696021E-1,1.2164184E0,-1.1411072E0,6.506123E-1,-6.112355E-4,3.19674E0,-5.4181926E-4,-3.3835616E-4,-1.5600433E-5,-3.230971E-4,-1.0597028E-3,-2.5335676E-3],"split_indices":[0,0,0,0,0,0,0,0,0,0,0,0,0],"split_type":[0,0,0,0,0,0,0,0,0,0,0,0,0],"sum_hessian":[9.065759E4,7.235982E4,1.8297771E4,2.4524164E4,4.7835652E4,6.195018E3,1.2102754E4,8.693455E3,1.5830709E4,4.3798445E4,4.0372065E3,1.1956829E4,1.4592441E2],"tree_param":{"num_deleted":"0","num_feature":"3","num_nodes":"13","size_leaf_vector":"1"}},{"base_weights":[-5.0372295E-2,-1.964964E-3,1.7560716E-4],"categories":[],"categories_nodes":[],"categories_segments":[],"categories_sizes":[],"default_left":[0,0,0],"id":23,"left_children":[1,-1,-1],"loss_changes":[9.00019E2,0E0,0E0],"parents":[2147483647,0,0],"right_children":[2,-1,-1],"split_conditions":[7.299337E-1,-1.964964E-3,1.7560716E-4],"split_indices":[1,0,0],"split_type":[0,0,0],"sum_hessian":[9.0665586E4,2.8772963E4,6.1892617E4],"tree_param":{"num_deleted":"0","num_feature":"3","num_nodes":"3","size_leaf_vector":"1"}},{"base_weights":[2.6817573E-2,-3.1109829E-2,5.7791945E-2,-6.5721884E-2,-1.6887177E-2,2.3207925E-2,7.009203E-2,-9.292581E-4,-5.1242334E-4,-1.9638016E-4,9.198809E-5,2.6332756E-4,-8.937208E-5,6.5538276E-4,9.6532045E-4],"categories":[],"categories_nodes":[],"categories_segments":[],"categories_sizes":[],"default_left":[0,0,0,0,0,0,0,0,0,0,0,0,0,0,0],"id":24,"left_children":[1,3,5,7,9,11,13,-1,-1,-1,-1,-1,-1,-1,-1],"loss_changes":[1.625538E2,1.5537596E1,2.5109467E1,3.6162415E0,1.605658E0,1.556016E0,5.2364197E0,0E0,0E0,0E0,0E0,0E0,0E0,0E0,0E0],"parents":[2147483647,0,0,1,1,2,2,3,3,4,4,5,5,6,6],"right_children":[2,4,6,8,10,12,14,-1,-1,-1,-1,-1,-1,-1,-1],"split_conditions":[-6.324644E-1,-1.2879022E0,-9.5807455E-2,-1.4385213E0,-6.974673E-1,-1.4570767E-1,1.6082493E0,-9.292581E-4,-5.1242334E-4,-1.9638016E-4,9.198809E-5,2.6332756E-4,-8.937208E-5,6.5538276E-4,9.6532045E-4],"split_indices":[2,2,2,2,2,2,2,0,0,0,0,0,0,0,0],"split_type":[0,0,0,0,0,0,0,0,0,0,0,0,0,0,0],"sum_hessian":[9.059433E4,3.1564076E4,5.9030254E4,9.191687E3,2.2372389E4,1.5487396E4,4.3542855E4,3.1910244E3,6.000662E3,2.0238438E4,2.1339517E3,1.4115416E4,1.3719806E3,3.71483E4,6.394554E3],"tree_param":{"num_deleted":"0","num_feature":"3","num_nodes":"15","size_leaf_vector":"1"}},{"base_weights":[4.8956618E-2,3.558765E-2,1.0871553E-1,5.4155648E-2,1.9150935E-2,9.237563E-4,1.16868295E-1,6.3068606E-4,4.4879733E-4,1.2519251E-4,5.7491346E-4,1.1935995E-3,9.955969E-4],"categories":[],"categories_nodes":[],"categories_segments":[],"categories_sizes":[],"default_left":[0,0,0,0,0,0,0,0,0,0,0,0,0],"id":25,"left_children":[1,3,5,7,9,-1,11,-1,-1,-1,-1,-1,-1],"loss_changes":[7.258424E1,2.265966E1,2.2019196E0,2.8795776E0,1.0013787E1,0E0,4.6583557E-1,0E0,0E0,0E0,0E0,0E0,0E0],"parents":[2147483647,0,0,1,1,2,2,3,3,4,4,6,6],"right_children":[2,4,6,8,10,-1,12,-1,-1,-1,-1,-1,-1],"split_conditions":[9.3351537E-1,-3.86699E-1,1.3107195E0,-8.582041E-1,6.506123E-1,9.237563E-4,2.5366328E0,6.3068606E-4,4.4879733E-4,1.2519251E-4,5.7491346E-4,1.1935995E-3,9.955969E-4],"split_indices":[0,0,0,0,0,0,0,0,0,0,0,0,0],"split_type":[0,0,0,0,0,0,0,0,0,0,0,0,0],"sum_hessian":[9.0857375E4,7.424847E4,1.6608904E4,3.486283E4,3.938564E4,5.53264E3,1.1076264E4,1.7776293E4,1.7086535E4,3.357888E4,5.806762E3,9.677274E3,1.3989899E3],"tree_param":{"num_deleted":"0","num_feature":"3","num_nodes":"13","size_leaf_vector":"1"}},{"base_weights":[2.6480244E-2],"categories":[],"categories_nodes":[],"categories_segments":[],"categories_sizes":[],"default_left":[0],"id":26,"left_children":[-1],"loss_changes":[0E0],"parents":[2147483647],"right_children":[-1],"split_conditions":[2.6480245E-4],"split_indices":[0],"split_type":[0],"sum_hessian":[9.091268E4],"tree_param":{"num_deleted":"0","num_feature":"3","num_nodes":"1","size_leaf_vector":"1"}},{"base_weights":[-1.6452223E-2,4.63142E-2,-2.6757432E-2,1.4064778E-3,4.3732934E-2,-9.451655E-3,-4.232862E-2,4.0076543E-6,4.6320795E-4,-1.0334412E-4,9.113642E-4,-3.48422E-4,-5.293882E-4],"categories":[],"categories_nodes":[],"categories_segments":[],"categories_sizes":[],"default_left":[0,0,0,0,0,0,0,0,0,0,0,0,0],"id":27,"left_children":[1,3,5,-1,7,9,11,-1,-1,-1,-1,-1,-1],"loss_changes":[5.8573174E1,3.103592E0,2.0960033E1,0E0,1.3941154E0,3.2722418E0,3.250389E0,0E0,0E0,0E0,0E0,0E0,0E0],"parents":[2147483647,0,0,1,1,2,2,4,4,5,5,6,6],"right_children":[2,4,6,-1,8,10,12,-1,-1,-1,-1,-1,-1],"split_conditions":[-1.1897346E0,-1.5056672E0,-1.0072447E-3,1.4064778E-3,-1.4888297E0,-1.4579288E-2,1.0511832E0,4.0076543E-6,4.6320795E-4,-1.0334412E-4,9.113642E-4,-3.48422E-4,-5.293882E-4],"split_indices":[2,2,2,0,2,2,2,0,0,0,0,0,0],"split_type":[0,0,0,0,0,0,0,0,0,0,0,0,0],"sum_hessian":[9.055253E4,1.2770028E4,7.778251E4,3.3869662E2,1.2431332E4,3.684011E4,4.09424E4,7.006432E2,1.1730688E4,3.6520504E4,3.196053E2,2.4007389E4,1.693501E4],"tree_param":{"num_deleted":"0","num_feature":"3","num_nodes":"13","size_leaf_vector":"1"}},{"base_weights":[-3.5151765E-2,2.7010324E-3,-8.959826E-2,4.823725E-2,-1.2628404E-2,-6.945672E-2,-9.692098E-2,7.355421E-4,3.7905414E-4,3.4979923E-5,-2.0495342E-4,-8.5365435E-4,-6.308561E-4,-1.3002782E-3,-9.413433E-4],"categories":[],"categories_nodes":[],"categories_segments":[],"categories_sizes":[],"default_left":[0,0,0,0,0,0,0,0,0,0,0,0,0,0,0],"id":28,"left_children":[1,3,5,7,9,11,13,-1,-1,-1,-1,-1,-1,-1,-1],"loss_changes":[1.8683679E2,3.733048E1,5.476776E0,3.520298E0,5.075934E0,9.9970245E-1,2.5029907E0,0E0,0E0,0E0,0E0,0E0,0E0,0E0,0E0],"parents":[2147483647,0,0,1,1,2,2,3,3,4,4,5,5,6,6],"right_children":[2,4,6,8,10,12,14,-1,-1,-1,-1,-1,-1,-1,-1],"split_conditions":[1.509384E-1,-1.1703459E0,5.6514084E-1,-1.422092E0,-7.871653E-1,2.6451498E-1,6.6198194E-1,7.355421E-4,3.7905414E-4,3.4979923E-5,-2.0495342E-4,-8.5365435E-4,-6.308561E-4,-1.3002782E-3,-9.413433E-4],"split_indices":[2,2,2,2,2,2,2,0,0,0,0,0,0,0,0],"split_type":[0,0,0,0,0,0,0,0,0,0,0,0,0,0,0],"sum_hessian":[9.065445E4,5.347678E4,3.717767E4,1.3467958E4,4.0008824E4,9.915374E3,2.7262299E4,3.9015479E3,9.56641E3,1.3118281E4,2.6890541E4,2.831842E3,7.0835317E3,2.1130046E3,2.5149295E4],"tree_param":{"num_deleted":"0","num_feature":"3","num_nodes":"15","size_leaf_vector":"1"}},{"base_weights":[-5.2576985E-2,-1.9642948E-3,1.4164599E-4],"categories":[],"categories_nodes":[],"categories_segments":[],"categories_sizes":[],"default_left":[0,0,0],"id":29,"left_children":[1,-1,-1],"loss_changes":[8.6879254E2,0E0,0E0],"parents":[2147483647,0,0],"right_children":[2,-1,-1],"split_conditions":[7.299337E-1,-1.9642948E-3,1.4164599E-4],"split_indices":[1,0,0],"split_type":[0,0,0],"sum_hessian":[9.048905E4,2.8677219E4,6.181183E4],"tree_param":{"num_deleted":"0","num_feature":"3","num_nodes":"3","size_leaf_vector":"1"}},{"base_weights":[2.6498634E-2,2.437522E-3,-7.541986E-4],"categories":[],"categories_nodes":[],"categories_segments":[],"categories_sizes":[],"default_left":[0,0,0],"id":30,"left_children":[1,-1,-1],"loss_changes":[2.0086875E3,0E0,0E0],"parents":[2147483647,0,0],"right_children":[2,-1,-1],"split_conditions":[7.299337E-1,2.437522E-3,-7.541986E-4],"split_indices":[1,0,0],"split_type":[0,0,0],"sum_hessian":[9.071596E4,2.8967111E4,6.174885E4],"tree_param":{"num_deleted":"0","num_feature":"3","num_nodes":"3","size_leaf_vector":"1"}},{"base_weights":[4.881981E-2,2.1032833E-3,-2.628016E-4],"categories":[],"categories_nodes":[],"categories_segments":[],"categories_sizes":[],"default_left":[0,0,0],"id":31,"left_children":[1,-1,-1],"loss_changes":[1.1002588E3,0E0,0E0],"parents":[2147483647,0,0],"right_children":[2,-1,-1],"split_conditions":[7.299337E-1,2.1032833E-3,-2.628016E-4],"split_indices":[1,0,0],"split_type":[0,0,0],"sum_hessian":[9.070948E4,2.8790783E4,6.1918695E4],"tree_param":{"num_deleted":"0","num_feature":"3","num_nodes":"3","size_leaf_vector":"1"}},{"base_weights":[2.6363023E-2,6.4805676E-3,7.149153E-2,-2.3108657E-2,1.6214555E-2,6.3739635E-2,1.1412034E-1,-4.6921286E-4,-1.6992386E-4,1.1477967E-4,2.6612412E-4,5.0508336E-4,7.353104E-4,1.5896735E-3,9.903896E-4],"categories":[],"categories_nodes":[],"categories_segments":[],"categories_sizes":[],"default_left":[0,0,0,0,0,0,0,0,0,0,0,0,0,0,0],"id":32,"left_children":[1,3,5,7,9,11,13,-1,-1,-1,-1,-1,-1,-1,-1],"loss_changes":[8.1475174E1,1.815566E1,9.169693E0,2.2718182E0,2.335721E0,3.0407944E0,2.8734627E0,0E0,0E0,0E0,0E0,0E0,0E0,0E0,0E0],"parents":[2147483647,0,0,1,1,2,2,3,3,4,4,5,5,6,6],"right_children":[2,4,6,8,10,12,14,-1,-1,-1,-1,-1,-1,-1,-1],"split_conditions":[5.489156E-1,-1.1101391E0,1.7282547E0,-1.4385213E0,-5.6622006E-2,1.014651E0,1.7956047E0,-4.6921286E-4,-1.6992386E-4,1.1477967E-4,2.6612412E-4,5.0508336E-4,7.353104E-4,1.5896735E-3,9.903896E-4],"split_indices":[2,2,2,2,2,2,2,0,0,0,0,0,0,0,0],"split_type":[0,0,0,0,0,0,0,0,0,0,0,0,0,0,0],"sum_hessian":[9.080337E4,6.303356E4,2.776981E4,1.5602858E4,4.74307E4,2.349908E4,4.2707295E3,3.187237E3,1.2415621E4,3.2587885E4,1.4842815E4,9.996623E3,1.3502458E4,1.0723567E3,3.1983728E3],"tree_param":{"num_deleted":"0","num_feature":"3","num_nodes":"15","size_leaf_vector":"1"}},{"base_weights":[-1.7481288E-2,-1.24061955E-2,-2.938245E-2,-1.7236186E-2,-6.584748E-6,-3.372292E-2,-8.07906E-3,-1.1254841E-4,-2.7092645E-4,-3.1593142E-4,-9.4253744E-4,-1.3739523E-4,9.911496E-5],"categories":[],"categories_nodes":[],"categories_segments":[],"categories_sizes":[],"default_left":[0,0,0,0,0,0,0,0,0,0,0,0,0],"id":33,"left_children":[1,3,5,7,-1,9,11,-1,-1,-1,-1,-1,-1],"loss_changes":[5.466402E0,3.6004362E0,2.501646E0,2.6506662E0,0E0,2.894743E0,4.6664742E-1,0E0,0E0,0E0,0E0,0E0,0E0],"parents":[2147483647,0,0,1,1,2,2,3,3,5,5,6,6],"right_children":[2,4,6,8,-1,10,12,-1,-1,-1,-1,-1,-1],"split_conditions":[4.620102E-1,-1.0379593E-1,1.9708266E0,-5.7530105E-1,-6.584748E-6,1.8765256E0,2.6309338E0,-1.1254841E-4,-2.7092645E-4,-3.1593142E-4,-9.4253744E-4,-1.3739523E-4,9.911496E-5],"split_indices":[0,0,0,0,0,0,0,0,0,0,0,0,0],"split_type":[0,0,0,0,0,0,0,0,0,0,0,0,0],"sum_hessian":[9.050913E4,6.3452645E4,2.7056492E4,4.49651E4,1.8487545E4,2.2476438E4,4.5800547E3,2.7984803E4,1.6980299E4,2.1713955E4,7.624821E2,3.4840776E3,1.0959773E3],"tree_param":{"num_deleted":"0","num_feature":"3","num_nodes":"13","size_leaf_vector":"1"}},{"base_weights":[-3.1490803E-2,-1.986913E-2,-1.07254736E-1,-4.8388787E-2,-1.1568173E-2,-9.766856E-2,-1.2787001E-1,-5.641102E-4,-4.065984E-4,-2.815934E-5,-4.5365334E-4,-1.0348201E-3,-3.9193485E-4,-1.7154722E-3,-1.079332E-3],"categories":[],"categories_nodes":[],"categories_segments":[],"categories_sizes":[],"default_left":[0,0,0,0,0,0,0,0,0,0,0,0,0,0,0],"id":34,"left_children":[1,3,5,7,9,11,13,-1,-1,-1,-1,-1,-1,-1,-1],"loss_changes":[7.978719E1,1.8599543E1,2.3690948E0,1.0959206E0,1.8001217E1,2.7937927E0,3.309578E0,0E0,0E0,0E0,0E0,0E0,0E0,0E0,0E0],"parents":[2147483647,0,0,1,1,2,2,3,3,4,4,5,5,6,6],"right_children":[2,4,6,8,10,12,14,-1,-1,-1,-1,-1,-1,-1,-1],"split_conditions":[1.2164184E0,-8.582041E-1,2.0651276E0,-1.1411072E0,5.5631125E-1,1.9708266E0,2.2537296E0,-5.641102E-4,-4.065984E-4,-2.815934E-5,-4.5365334E-4,-1.0348201E-3,-3.9193485E-4,-1.7154722E-3,-1.079332E-3],"split_indices":[0,0,0,0,0,0,0,0,0,0,0,0,0,0,0],"split_type":[0,0,0,0,0,0,0,0,0,0,0,0,0,0,0],"sum_hessian":[9.061681E4,7.856651E4,1.2050307E4,1.7711195E4,6.0855312E4,8.22936E3,3.8209463E3,8.687615E3,9.02358E3,4.833848E4,1.2516831E4,7.4845E3,7.4486017E2,1.1951116E3,2.6258347E3],"tree_param":{"num_deleted":"0","num_feature":"3","num_nodes":"15","size_leaf_vector":"1"}},{"base_weights":[-5.0481606E-2,1.3138799E-2,-9.5401876E-2,2.3195762E-2,-1.7757677E-2,-6.107236E-2,-1.2709324E-1,5.366545E-4,1.6748645E-4,-2.1981551E-4,3.321534E-4,-5.52875E-4,-8.302613E-4,-1.0922241E-3,-1.5427871E-3],"categories":[],"categories_nodes":[],"categories_segments":[],"categories_sizes":[],"default_left":[0,0,0,0,0,0,0,0,0,0,0,0,0,0,0],"id":35,"left_children":[1,3,5,7,9,11,13,-1,-1,-1,-1,-1,-1,-1,-1],"loss_changes":[2.5827228E2,1.1622194E1,5.7622406E1,5.542241E0,1.9783907E0,3.2249146E0,1.3364349E1,0E0,0E0,0E0,0E0,0E0,0E0,0E0,0E0],"parents":[2147483647,0,0,1,1,2,2,3,3,4,4,5,5,6,6],"right_children":[2,4,6,8,10,12,14,-1,-1,-1,-1,-1,-1,-1,-1],"split_conditions":[-4.33884E-1,-7.308362E-1,5.489156E-1,-1.3959683E0,-4.5847693E-1,3.2492587E-1,1.3540541E0,5.366545E-4,1.6748645E-4,-2.1981551E-4,3.321534E-4,-5.52875E-4,-8.302613E-4,-1.0922241E-3,-1.5427871E-3],"split_indices":[2,2,2,2,2,2,2,0,0,0,0,0,0,0,0],"split_type":[0,0,0,0,0,0,0,0,0,0,0,0,0,0,0],"sum_hessian":[9.037162E4,3.740118E4,5.2970438E4,2.8216736E4,9.184444E3,2.542829E4,2.7542146E4,4.926466E3,2.329027E4,8.482141E3,7.023034E2,2.0128033E4,5.3002563E3,1.6621047E4,1.0921101E4],"tree_param":{"num_deleted":"0","num_feature":"3","num_nodes":"15","size_leaf_vector":"1"}},{"base_weights":[2.3696793E-2,-2.9173538E-2,5.6444827E-2,-5.7415675E-2,-1.1320991E-2,2.6372185E-2,6.597602E-2,-8.917319E-4,-4.7537297E-4,-1.6798658E-4,5.116005E-5,3.4241565E-4,1.6773745E-4,6.1330275E-4,8.6640887E-4],"categories":[],"categories_nodes":[],"categories_segments":[],"categories_sizes":[],"default_left":[0,0,0,0,0,0,0,0,0,0,0,0,0,0,0],"id":36,"left_children":[1,3,5,7,9,11,13,-1,-1,-1,-1,-1,-1,-1,-1],"loss_changes":[1.5721794E2,1.75109E1,1.6070145E1,4.215641E0,1.9161813E0,1.0188446E0,4.0822296E0,0E0,0E0,0E0,0E0,0E0,0E0,0E0,0E0],"parents":[2147483647,0,0,1,1,2,2,3,3,4,4,5,5,6,6],"right_children":[2,4,6,8,10,12,14,-1,-1,-1,-1,-1,-1,-1,-1],"split_conditions":[-5.3082716E-1,-1.1703459E0,-5.6622006E-2,-1.4385213E0,-6.974673E-1,-2.746931E-1,1.5298784E0,-8.917319E-4,-4.7537297E-4,-1.6798658E-4,5.116005E-5,3.4241565E-4,1.6773745E-4,6.1330275E-4,8.6640887E-4],"split_indices":[2,2,2,2,2,2,2,0,0,0,0,0,0,0,0],"split_type":[0,0,0,0,0,0,0,0,0,0,0,0,0,0,0],"sum_hessian":[9.0802016E4,3.473076E4,5.6071254E4,1.3450422E4,2.1280342E4,1.3495202E4,4.257605E4,3.189294E3,1.0261128E4,1.596121E4,5.3191313E3,7.4141045E3,6.0810977E3,3.4764484E4,7.811567E3],"tree_param":{"num_deleted":"0","num_feature":"3","num_nodes":"15","size_leaf_vector":"1"}},{"base_weights":[4.7459934E-2,2.0715306E-3,-2.713471E-4],"categories":[],"categories_nodes":[],"categories_segments":[],"categories_sizes":[],"default_left":[0,0,0],"id":37,"left_children":[1,-1,-1],"loss_changes":[1.0824703E3,0E0,0E0],"parents":[2147483647,0,0],"right_children":[2,-1,-1],"split_conditions":[7.299337E-1,2.0715306E-3,-2.713471E-4],"split_indices":[1,0,0],"split_type":[0,0,0],"sum_hessian":[9.086887E4,2.8931082E4,6.193779E4],"tree_param":{"num_deleted":"0","num_feature":"3","num_nodes":"3","size_leaf_vector":"1"}},{"base_weights":[2.5410704E-2],"categories":[],"categories_nodes":[],"categories_segments":[],"categories_sizes":[],"default_left":[0],"id":38,"left_children":[-1],"loss_changes":[0E0],"parents":[2147483647],"right_children":[-1],"split_conditions":[2.5410703E-4],"split_indices":[0],"split_type":[0],"sum_hessian":[9.076942E4],"tree_param":{"num_deleted":"0","num_feature":"3","num_nodes":"1","size_leaf_vector":"1"}},{"base_weights":[-1.5939793E-2,-1.1522206E-3,3.0284096E-4],"categories":[],"categories_nodes":[],"categories_segments":[],"categories_sizes":[],"default_left":[0,0,0],"id":39,"left_children":[1,-1,-1],"loss_changes":[4.159738E2,0E0,0E0],"parents":[2147483647,0,0],"right_children":[2,-1,-1],"split_conditions":[7.299337E-1,-1.1522206E-3,3.0284096E-4],"split_indices":[1,0,0],"split_type":[0,0,0],"sum_hessian":[9.0639875E4,2.8793686E4,6.184619E4],"tree_param":{"num_deleted":"0","num_feature":"3","num_nodes":"3","size_leaf_vector":"1"}},{"base_weights":[-3.093299E-2,-1.8948069E-2,-1.0881098E-1,-4.0626455E-2,-9.095525E-3,-1.0088948E-1,-1.2580739E-1,-7.8870944E-4,-3.9249932E-4,-3.5018365E-5,-5.2059314E-4,-1.0469576E-3,-6.218627E-4,-1.5848265E-3,-8.634933E-4],"categories":[],"categories_nodes":[],"categories_segments":[],"categories_sizes":[],"default_left":[0,0,0,0,0,0,0,0,0,0,0,0,0,0,0],"id":40,"left_children":[1,3,5,7,9,11,13,-1,-1,-1,-1,-1,-1,-1,-1],"loss_changes":[8.45054E1,1.6759146E1,1.6130676E0,1.2876663E0,1.2965263E1,1.2075806E0,4.930378E0,0E0,0E0,0E0,0E0,0E0,0E0,0E0,0E0],"parents":[2147483647,0,0,1,1,2,2,3,3,4,4,5,5,6,6],"right_children":[2,4,6,8,10,12,14,-1,-1,-1,-1,-1,-1,-1,-1],"split_conditions":[1.2164184E0,-6.696021E-1,2.0651276E0,-1.4240103E0,8.392143E-1,1.9708266E0,2.4423318E0,-7.8870944E-4,-3.9249932E-4,-3.5018365E-5,-5.2059314E-4,-1.0469576E-3,-6.218627E-4,-1.5848265E-3,-8.634933E-4],"split_indices":[0,0,0,0,0,0,0,0,0,0,0,0,0,0,0],"split_type":[0,0,0,0,0,0,0,0,0,0,0,0,0,0,0],"sum_hessian":[9.053997E4,7.846583E4,1.2074142E4,2.4517428E4,5.39484E4,8.240457E3,3.833684E3,8.4983453E2,2.3667592E4,4.773465E4,6.2137515E3,7.5010586E3,7.393986E2,2.0954353E3,1.7382488E3],"tree_param":{"num_deleted":"0","num_feature":"3","num_nodes":"15","size_leaf_vector":"1"}},{"base_weights":[-4.8305105E-2,-8.5902313E-4,-1.0117231E-1,1.6912205E-2,-4.1745782E-2,-8.105521E-2,-1.451214E-1,3.5266485E-4,5.4755496E-5,-2.345036E-4,-4.3725522E-4,-6.4566795E-4,-9.089041E-4,-1.2535317E-3,-1.694748E-3],"categories":[],"categories_nodes":[],"categories_segments":[],"categories_sizes":[],"default_left":[0,0,0,0,0,0,0,0,0,0,0,0,0,0,0],"id":41,"left_children":[1,3,5,7,9,11,13,-1,-1,-1,-1,-1,-1,-1,-1],"loss_changes":[2.2696953E2,3.4651905E1,3.782715E1,6.97762E0,5.22295E-1,4.7555847E0,6.447876E0,0E0,0E0,0E0,0E0,0E0,0E0,0E0,0E0],"parents":[2147483647,0,0,1,1,2,2,3,3,4,4,5,5,6,6],"right_children":[2,4,6,8,10,12,14,-1,-1,-1,-1,-1,-1,-1,-1],"split_conditions":[-6.845928E-2,-5.7572716E-1,1.2263952E0,-1.1897346E0,-5.3082716E-1,3.6870337E-1,1.6287605E0,3.5266485E-4,5.4755496E-5,-2.345036E-4,-4.3725522E-4,-6.4566795E-4,-9.089041E-4,-1.2535317E-3,-1.694748E-3],"split_indices":[2,2,2,2,2,2,2,0,0,0,0,0,0,0,0],"split_type":[0,0,0,0,0,0,0,0,0,0,0,0,0,0,0],"sum_hessian":[9.048493E4,4.7687992E4,4.279694E4,3.324068E4,1.4447311E4,2.9360441E4,1.3436499E4,1.2760203E4,2.0480477E4,1.4119414E3,1.3035369E4,1.0972667E4,1.8387773E4,7.4198105E3,6.0166885E3],"tree_param":{"num_deleted":"0","num_feature":"3","num_nodes":"15","size_leaf_vector":"1"}},{"base_weights":[2.6291722E-2,-2.534387E-2,6.104773E-2,-5.787783E-2,-6.4276624E-3,3.8633183E-2,7.5080544E-2,-8.3487504E-4,-4.1340498E-4,-1.226683E-4,1.4857092E-4,2.8115688E-4,4.942676E-4,7.216982E-4,1.1761778E-3],"categories":[],"categories_nodes":[],"categories_segments":[],"categories_sizes":[],"default_left":[0,0,0,0,0,0,0,0,0,0,0,0,0,0,0],"id":42,"left_children":[1,3,5,7,9,11,13,-1,-1,-1,-1,-1,-1,-1,-1],"loss_changes":[1.6256888E2,2.2427704E1,1.7026886E1,5.6711235E0,2.8644388E0,2.3652554E0,4.113968E0,0E0,0E0,0E0,0E0,0E0,0E0,0E0,0E0],"parents":[2147483647,0,0,1,1,2,2,3,3,4,4,5,5,6,6],"right_children":[2,4,6,8,10,12,14,-1,-1,-1,-1,-1,-1,-1,-1],"split_conditions":[-4.703142E-1,-1.1703459E0,3.0941498E-1,-1.3856617E0,-6.324644E-1,-9.5807455E-2,1.8620362E0,-8.3487504E-4,-4.1340498E-4,-1.226683E-4,1.4857092E-4,2.8115688E-4,4.942676E-4,7.216982E-4,1.1761778E-3],"split_indices":[2,2,2,2,2,2,2,0,0,0,0,0,0,0,0],"split_type":[0,0,0,0,0,0,0,0,0,0,0,0,0,0,0],"sum_hessian":[9.058357E4,3.644258E4,5.4140996E4,1.3397749E4,2.304483E4,2.084659E4,3.3294406E4,5.2553223E3,8.1424272E3,1.808413E4,4.9606987E3,1.0560154E4,1.0286437E4,3.1164582E4,2.1298215E3],"tree_param":{"num_deleted":"0","num_feature":"3","num_nodes":"15","size_leaf_vector":"1"}},{"base_weights":[4.735807E-2,1.0286023E-2,1.0225564E-1,-9.823631E-3,3.840245E-2,7.6135546E-2,1.146094E-1,-2.865494E-4,4.130179E-5,2.3564632E-4,4.379158E-4,6.9159566E-4,8.559075E-4,1.0489486E-3,1.2377322E-3],"categories":[],"categories_nodes":[],"categories_segments":[],"categories_sizes":[],"default_left":[0,0,0,0,0,0,0,0,0,0,0,0,0,0,0],"id":43,"left_children":[1,3,5,7,9,11,13,-1,-1,-1,-1,-1,-1,-1,-1],"loss_changes":[1.850497E2,3.068873E1,1.1818054E1,8.3152895E0,1.8087387E0,7.705231E-1,2.2019958E0,0E0,0E0,0E0,0E0,0E0,0E0,0E0,0E0],"parents":[2147483647,0,0,1,1,2,2,3,3,4,4,5,5,6,6],"right_children":[2,4,6,8,10,12,14,-1,-1,-1,-1,-1,-1,-1,-1],"split_conditions":[1.7910294E-1,-6.324644E-1,6.760642E-1,-1.1703459E0,-4.33884E-1,4.6044222E-1,1.2599682E0,-2.865494E-4,4.130179E-5,2.3564632E-4,4.379158E-4,6.9159566E-4,8.559075E-4,1.0489486E-3,1.2377322E-3],"split_indices":[2,2,2,2,2,2,2,0,0,0,0,0,0,0,0],"split_type":[0,0,0,0,0,0,0,0,0,0,0,0,0,0,0],"sum_hessian":[9.092566E4,5.427513E4,3.6650527E4,3.1643479E4,2.2631648E4,1.1770599E4,2.487993E4,1.3467464E4,1.8176016E4,6.031254E3,1.6600395E4,6.7780913E3,4.992507E3,1.2083111E4,1.2796817E4],"tree_param":{"num_deleted":"0","num_feature":"3","num_nodes":"15","size_leaf_vector":"1"}},{"base_weights":[2.4587953E-2,4.803074E-3,6.9567814E-2,-2.3455799E-2,1.3821458E-2,5.312343E-2,8.6797364E-2,-4.8308814E-4,-1.690825E-4,7.7233184E-5,2.734494E-4,4.7013367E-4,6.728939E-4,7.9480145E-4,1.02561E-3],"categories":[],"categories_nodes":[],"categories_segments":[],"categories_sizes":[],"default_left":[0,0,0,0,0,0,0,0,0,0,0,0,0,0,0],"id":44,"left_children":[1,3,5,7,9,11,13,-1,-1,-1,-1,-1,-1,-1,-1],"loss_changes":[8.077211E1,1.606538E1,7.851303E0,2.480897E0,3.9407415E0,1.2249985E0,1.5534897E0,0E0,0E0,0E0,0E0,0E0,0E0,0E0,0E0],"parents":[2147483647,0,0,1,1,2,2,3,3,4,4,5,5,6,6],"right_children":[2,4,6,8,10,12,14,-1,-1,-1,-1,-1,-1,-1,-1],"split_conditions":[5.489156E-1,-1.119017E0,1.2263952E0,-1.4385213E0,-5.6622006E-2,1.014651E0,1.7282547E0,-4.8308814E-4,-1.690825E-4,7.7233184E-5,2.734494E-4,4.7013367E-4,6.728939E-4,7.9480145E-4,1.02561E-3],"split_indices":[2,2,2,2,2,2,2,0,0,0,0,0,0,0,0],"split_type":[0,0,0,0,0,0,0,0,0,0,0,0,0,0,0],"sum_hessian":[9.07626E4,6.303645E4,2.7726156E4,1.5249847E4,4.77866E4,1.4188406E4,1.3537751E4,3.1785208E3,1.2071326E4,3.2936242E4,1.4850358E4,9.915831E3,4.2725747E3,9.250066E3,4.287684E3],"tree_param":{"num_deleted":"0","num_feature":"3","num_nodes":"15","size_leaf_vector":"1"}},{"base_weights":[-1.585153E-2,-9.222329E-3,-3.6117777E-2,-1.2346724E-2,-3.168984E-3,-4.0061418E-2,-6.5572774E-3,-1.01923186E-4,-3.8684002E-4,-1.4916308E-5,-1.8510198E-4,-3.7626422E-4,-5.1082246E-4,5.4643647E-4,-2.0579775E-4],"categories":[],"categories_nodes":[],"categories_segments":[],"categories_sizes":[],"default_left":[0,0,0,0,0,0,0,0,0,0,0,0,0,0,0],"id":45,"left_children":[1,3,5,7,9,11,13,-1,-1,-1,-1,-1,-1,-1,-1],"loss_changes":[1.2156221E1,1.2895174E0,2.5996609E0,2.55133E0,5.973083E-1,5.2612114E-1,2.2550073E0,0E0,0E0,0E0,0E0,0E0,0E0,0E0,0E0],"parents":[2147483647,0,0,1,1,2,2,3,3,4,4,5,5,6,6],"right_children":[2,4,6,8,10,12,14,-1,-1,-1,-1,-1,-1,-1,-1],"split_conditions":[6.506123E-1,-1.0379593E-1,2.2537296E0,-1.9809696E-1,5.5631125E-1,1.7822245E0,2.3480308E0,-1.01923186E-4,-3.8684002E-4,-1.4916308E-5,-1.8510198E-4,-3.7626422E-4,-5.1082246E-4,5.4643647E-4,-2.0579775E-4],"split_indices":[0,0,0,0,0,0,0,0,0,0,0,0,0,0,0],"split_type":[0,0,0,0,0,0,0,0,0,0,0,0,0,0,0],"sum_hessian":[9.048385E4,6.818245E4,2.2301398E4,4.497029E4,2.3212166E4,1.9676078E4,2.6253218E3,4.157113E4,3.3991572E3,2.092536E4,2.286807E3,1.6119069E4,3.5570085E3,4.8884967E2,2.1364722E3],"tree_param":{"num_deleted":"0","num_feature":"3","num_nodes":"15","size_leaf_vector":"1"}},{"base_weights":[-3.390469E-2,3.1523416E-3,-9.068085E-2,2.6103316E-2,-1.844409E-2,-5.790298E-2,-9.833159E-2,4.3006628E-4,1.3459733E-4,-1.11237154E-4,-2.6530403E-4,-1.196414E-3,-4.1402353E-4,-9.6494774E-4,-1.7237271E-3],"categories":[],"categories_nodes":[],"categories_segments":[],"categories_sizes":[],"default_left":[0,0,0,0,0,0,0,0,0,0,0,0,0,0,0],"id":46,"left_children":[1,3,5,7,9,11,13,-1,-1,-1,-1,-1,-1,-1,-1],"loss_changes":[1.9037964E2,2.7138832E1,8.955841E0,5.672367E0,1.6695337E0,6.886713E0,3.9234314E0,0E0,0E0,0E0,0E0,0E0,0E0,0E0,0E0],"parents":[2147483647,0,0,1,1,2,2,3,3,4,4,5,5,6,6],"right_children":[2,4,6,8,10,12,14,-1,-1,-1,-1,-1,-1,-1,-1],"split_conditions":[2.0645113E-1,-7.871653E-1,4.887088E-1,-1.2291241E0,-2.984697E-1,2.6451498E-1,1.9675512E0,4.3006628E-4,1.3459733E-4,-1.11237154E-4,-2.6530403E-4,-1.196414E-3,-4.1402353E-4,-9.6494774E-4,-1.7237271E-3],"split_indices":[2,2,2,2,2,2,2,0,0,0,0,0,0,0,0],"split_type":[0,0,0,0,0,0,0,0,0,0,0,0,0,0,0],"sum_hessian":[9.048536E4,5.4751043E4,3.573432E4,2.654302E4,2.8208023E4,6.7640093E3,2.8970309E4,1.1357148E4,1.518587E4,1.4806435E4,1.3401588E4,1.4252119E3,5.3387974E3,2.8271258E4,6.9905133E2],"tree_param":{"num_deleted":"0","num_feature":"3","num_nodes":"15","size_leaf_vector":"1"}},{"base_weights":[-5.0397422E-2,-2.8032642E-3,-1.0336019E-1,1.7114956E-2,-3.6797516E-2,-7.9639204E-2,-1.3710876E-1,5.923678E-4,8.0245656E-5,-6.4333534E-4,-3.3123328E-4,-6.2700425E-4,-9.27527E-4,-1.2536789E-3,-1.579066E-3],"categories":[],"categories_nodes":[],"categories_segments":[],"categories_sizes":[],"default_left":[0,0,0,0,0,0,0,0,0,0,0,0,0,0,0],"id":47,"left_children":[1,3,5,7,9,11,13,-1,-1,-1,-1,-1,-1,-1,-1],"loss_changes":[2.2779843E2,3.222994E1,3.4230896E1,1.1491925E1,1.7770805E0,5.574112E0,4.2908936E0,0E0,0E0,0E0,0E0,0E0,0E0,0E0,0E0],"parents":[2147483647,0,0,1,1,2,2,3,3,4,4,5,5,6,6],"right_children":[2,4,6,8,10,12,14,-1,-1,-1,-1,-1,-1,-1,-1],"split_conditions":[-6.845928E-2,-6.775685E-1,1.014651E0,-1.3856617E0,-6.115451E-1,3.6870337E-1,1.6082493E0,5.923678E-4,8.0245656E-5,-6.4333534E-4,-3.3123328E-4,-6.2700425E-4,-9.27527E-4,-1.2536789E-3,-1.579066E-3],"split_indices":[2,2,2,2,2,2,2,0,0,0,0,0,0,0,0],"split_type":[0,0,0,0,0,0,0,0,0,0,0,0,0,0,0],"sum_hessian":[9.036955E4,4.7597688E4,4.277186E4,3.0012809E4,1.7584879E4,2.5119432E4,1.7652428E4,5.3264243E3,2.4686385E4,2.0682168E3,1.5516662E4,1.0963547E4,1.4155885E4,1.1287437E4,6.364992E3],"tree_param":{"num_deleted":"0","num_feature":"3","num_nodes":"15","size_leaf_vector":"1"}},{"base_weights":[2.3834972E-2,1.3487647E-1,-1.736176E-2,2.0348625E-1,9.7146265E-2,2.8661212E-2,-2.9264318E-2,3.0839317E-3,1.9205118E-3,1.2662997E-3,7.995977E-4,3.9213354E-4,1.782127E-4,-3.9850853E-4,-9.531042E-5],"categories":[],"categories_nodes":[],"categories_segments":[],"categories_sizes":[],"default_left":[0,0,0,0,0,0,0,0,0,0,0,0,0,0,0],"id":48,"left_children":[1,3,5,7,9,11,13,-1,-1,-1,-1,-1,-1,-1,-1],"loss_changes":[4.1505188E2,6.3537903E1,3.625303E1,1.0390015E1,8.017838E0,1.5548143E0,1.09841385E1,0E0,0E0,0E0,0E0,0E0,0E0,0E0,0E0],"parents":[2147483647,0,0,1,1,2,2,3,3,4,4,5,5,6,6],"right_children":[2,4,6,8,10,12,14,-1,-1,-1,-1,-1,-1,-1,-1],"split_conditions":[-6.696021E-1,-1.1411072E0,-2.9239798E-1,-1.4240103E0,-9.525052E-1,-4.8100004E-1,8.392143E-1,3.0839317E-3,1.9205118E-3,1.2662997E-3,7.995977E-4,3.9213354E-4,1.782127E-4,-3.9850853E-4,-9.531042E-5],"split_indices":[0,0,0,0,0,0,0,0,0,0,0,0,0,0,0],"split_type":[0,0,0,0,0,0,0,0,0,0,0,0,0,0,0],"sum_hessian":[9.0729195E4,2.455134E4,6.617786E4,8.7094375E3,1.5841902E4,1.359796E4,5.25799E4,8.5348425E2,7.8559526E3,5.8315E3,1.0010401E4,6.8891245E3,6.708835E3,3.4220316E4,1.835958E4],"tree_param":{"num_deleted":"0","num_feature":"3","num_nodes":"15","size_leaf_vector":"1"}},{"base_weights":[4.537103E-2,9.0340525E-3,1.0202314E-1,-3.3402696E-2,2.274552E-2,7.188044E-2,1.0956893E-1,-7.431654E-4,-2.9928592E-4,7.798241E-5,4.3091146E-4,7.625929E-4,5.4654636E-4,9.971526E-4,1.2038834E-3],"categories":[],"categories_nodes":[],"categories_segments":[],"categories_sizes":[],"default_left":[0,0,0,0,0,0,0,0,0,0,0,0,0,0,0],"id":49,"left_children":[1,3,5,7,9,11,13,-1,-1,-1,-1,-1,-1,-1,-1],"loss_changes":[1.8727795E2,3.2251717E1,8.077972E0,1.92171E0,1.273945E1,5.3292847E-1,3.0190125E0,0E0,0E0,0E0,0E0,0E0,0E0,0E0,0E0],"parents":[2147483647,0,0,1,1,2,2,3,3,4,4,5,5,6,6],"right_children":[2,4,6,8,10,12,14,-1,-1,-1,-1,-1,-1,-1,-1],"split_conditions":[2.2012521E-1,-1.1703459E0,5.198327E-1,-1.4888297E0,-4.33884E-1,4.6044222E-1,1.2263952E0,-7.431654E-4,-2.9928592E-4,7.798241E-5,4.3091146E-4,7.625929E-4,5.4654636E-4,9.971526E-4,1.2038834E-3],"split_indices":[2,2,2,2,2,2,2,0,0,0,0,0,0,0,0],"split_type":[0,0,0,0,0,0,0,0,0,0,0,0,0,0,0],"sum_hessian":[9.0974375E4,5.5425387E4,3.554899E4,1.3534601E4,4.189079E4,7.1195366E3,2.8429453E4,1.0577141E3,1.2476887E4,2.4149969E4,1.774082E4,5.6738096E3,1.4457273E3,1.4884123E4,1.3545329E4],"tree_param":{"num_deleted":"0","num_feature":"3","num_nodes":"15","size_leaf_vector":"1"}},{"base_weights":[2.522033E-2,5.6053544E-3,7.0006415E-2,-2.2176482E-2,1.4445107E-2,5.6709204E-2,9.028078E-2,-3.449281E-4,-1.1472608E-4,8.213423E-5,2.737133E-4,4.942465E-4,6.653437E-4,8.294714E-4,1.0184363E-3],"categories":[],"categories_nodes":[],"categories_segments":[],"categories_sizes":[],"default_left":[0,0,0,0,0,0,0,0,0,0,0,0,0,0,0],"id":50,"left_children":[1,3,5,7,9,11,13,-1,-1,-1,-1,-1,-1,-1,-1],"loss_changes":[7.96541E1,1.5486274E1,7.44014E0,2.0062618E0,3.8531666E0,1.1905937E0,9.1898346E-1,0E0,0E0,0E0,0E0,0E0,0E0,0E0,0E0],"parents":[2147483647,0,0,1,1,2,2,3,3,4,4,5,5,6,6],"right_children":[2,4,6,8,10,12,14,-1,-1,-1,-1,-1,-1,-1,-1],"split_conditions":[5.489156E-1,-1.119017E0,1.3540541E0,-1.343619E0,-8.01945E-2,9.9822164E-1,1.7282547E0,-3.449281E-4,-1.1472608E-4,8.213423E-5,2.737133E-4,4.942465E-4,6.653437E-4,8.294714E-4,1.0184363E-3],"split_indices":[2,2,2,2,2,2,2,0,0,0,0,0,0,0,0],"split_type":[0,0,0,0,0,0,0,0,0,0,0,0,0,0,0],"sum_hessian":[9.067228E4,6.305652E4,2.7615758E4,1.5220276E4,4.7836242E4,1.6679848E4,1.093591E4,7.076052E3,8.144225E3,3.2277174E4,1.5559069E4,9.581777E3,7.0980703E3,6.6967383E3,4.239172E3],"tree_param":{"num_deleted":"0","num_feature":"3","num_nodes":"15","size_leaf_vector":"1"}},{"base_weights":[-1.3519655E-2,-1.0927574E-3,3.1046095E-4],"categories":[],"categories_nodes":[],"categories_segments":[],"categories_sizes":[],"default_left":[0,0,0],"id":51,"left_children":[1,-1,-1],"loss_changes":[3.859315E2,0E0,0E0],"parents":[2147483647,0,0],"right_children":[2,-1,-1],"split_conditions":[7.299337E-1,-1.0927574E-3,3.1046095E-4],"split_indices":[1,0,0],"split_type":[0,0,0],"sum_hessian":[9.043447E4,2.8721227E4,6.1713246E4],"tree_param":{"num_deleted":"0","num_feature":"3","num_nodes":"3","size_leaf_vector":"1"}},{"base_weights":[-3.3302847E-2,-2.1448215E-2,-1.0213517E-1,-4.922138E-2,-8.519977E-3,-1.0070316E-1,-2.2411277E-3,-8.99531E-4,-4.7758236E-4,-4.6052923E-5,-4.6572692E-4,-6.506172E-4,-1.0451805E-3],"categories":[],"categories_nodes":[],"categories_segments":[],"categories_sizes":[],"default_left":[0,0,0,0,0,0,0,0,0,0,0,0,0],"id":52,"left_children":[1,3,5,7,9,11,-1,-1,-1,-1,-1,-1,-1],"loss_changes":[7.389491E1,2.7739677E1,2.3015137E0,1.4581795E0,7.853076E0,1.7815552E0,0E0,0E0,0E0,0E0,0E0,0E0,0E0],"parents":[2147483647,0,0,1,1,2,2,3,3,4,4,5,5],"right_children":[2,4,6,8,10,12,-1,-1,-1,-1,-1,-1,-1],"split_conditions":[1.1221174E0,-6.696021E-1,3.19674E0,-1.4240103E0,8.392143E-1,1.2164184E0,-2.2411277E-3,-8.99531E-4,-4.7758236E-4,-4.6052923E-5,-4.6572692E-4,-6.506172E-4,-1.0451805E-3],"split_indices":[0,0,0,0,0,0,0,0,0,0,0,0,0],"split_type":[0,0,0,0,0,0,0,0,0,0,0,0,0],"sum_hessian":[9.056122E4,7.725697E4,1.3304253E4,2.4538715E4,5.271825E4,1.3151679E4,1.525738E2,8.488041E2,2.3689912E4,4.780175E4,4.9164985E3,1.2733362E3,1.1878343E4],"tree_param":{"num_deleted":"0","num_feature":"3","num_nodes":"13","size_leaf_vector":"1"}},{"base_weights":[-4.9473695E-2,1.0480008E-2,-9.120589E-2,2.2748742E-2,-1.7600983E-2,-6.254987E-2,-1.2622301E-1,5.7470636E-4,1.8460266E-4,-7.435752E-4,-1.17432806E-4,-5.686404E-4,-7.822092E-4,-1.1448765E-3,-1.6127937E-3],"categories":[],"categories_nodes":[],"categories_segments":[],"categories_sizes":[],"default_left":[0,0,0,0,0,0,0,0,0,0,0,0,0,0,0],"id":53,"left_children":[1,3,5,7,9,11,13,-1,-1,-1,-1,-1,-1,-1,-1],"loss_changes":[2.2608664E2,1.2777111E1,5.3453278E1,3.8421354E0,3.7482615E0,2.6064224E0,9.845398E0,0E0,0E0,0E0,0E0,0E0,0E0,0E0,0E0],"parents":[2147483647,0,0,1,1,2,2,3,3,4,4,5,5,6,6],"right_children":[2,4,6,8,10,12,14,-1,-1,-1,-1,-1,-1,-1,-1],"split_conditions":[-4.4643557E-1,-8.095132E-1,7.087188E-1,-1.446889E0,-7.751239E-1,3.6870337E-1,1.6287605E0,5.7470636E-4,1.8460266E-4,-7.435752E-4,-1.17432806E-4,-5.686404E-4,-7.822092E-4,-1.1448765E-3,-1.6127937E-3],"split_indices":[2,2,2,2,2,2,2,0,0,0,0,0,0,0,0],"split_type":[0,0,0,0,0,0,0,0,0,0,0,0,0,0,0],"sum_hessian":[9.0361016E4,3.7084734E4,5.327628E4,2.5808885E4,1.1275849E4,2.9300895E4,2.3975387E4,2.835851E3,2.2973033E4,1.0537869E3,1.0222062E4,2.1503541E4,7.7973555E3,1.796555E4,6.0098354E3],"tree_param":{"num_deleted":"0","num_feature":"3","num_nodes":"15","size_leaf_vector":"1"}},{"base_weights":[2.3150003E-2,2.3939281E-3,-7.790856E-4],"categories":[],"categories_nodes":[],"categories_segments":[],"categories_sizes":[],"default_left":[0,0,0],"id":54,"left_children":[1,-1,-1],"loss_changes":[1.9835752E3,0E0,0E0],"parents":[2147483647,0,0],"right_children":[2,-1,-1],"split_conditions":[7.299337E-1,2.3939281E-3,-7.790856E-4],"split_indices":[1,0,0],"split_type":[0,0,0],"sum_hessian":[9.076637E4,2.8908102E4,6.1858266E4],"tree_param":{"num_deleted":"0","num_feature":"3","num_nodes":"3","size_leaf_vector":"1"}},{"base_weights":[4.94685E-2,2.0407909E-3,-2.3182093E-4],"categories":[],"categories_nodes":[],"categories_segments":[],"categories_sizes":[],"default_left":[0,0,0],"id":55,"left_children":[1,-1,-1],"loss_changes":[1.0208316E3,0E0,0E0],"parents":[2147483647,0,0],"right_children":[2,-1,-1],"split_conditions":[7.299337E-1,2.0407909E-3,-2.3182093E-4],"split_indices":[1,0,0],"split_type":[0,0,0],"sum_hessian":[9.088012E4,2.9051873E4,6.1828246E4],"tree_param":{"num_deleted":"0","num_feature":"3","num_nodes":"3","size_leaf_vector":"1"}},{"base_weights":[2.5226427E-2,4.859247E-3,7.1561724E-2,-1.4888692E-2,1.7363317E-2,5.3817112E-2,9.110225E-2,-3.2763934E-4,-7.618722E-5,1.0035205E-4,2.9020684E-4,4.7161136E-4,6.8140676E-4,7.9877925E-4,1.1429127E-3],"categories":[],"categories_nodes":[],"categories_segments":[],"categories_sizes":[],"default_left":[0,0,0,0,0,0,0,0,0,0,0,0,0,0,0],"id":56,"left_children":[1,3,5,7,9,11,13,-1,-1,-1,-1,-1,-1,-1,-1],"loss_changes":[8.56395E1,1.5566498E1,9.602921E0,3.1758885E0,3.297121E0,1.3814888E0,3.4228668E0,0E0,0E0,0E0,0E0,0E0,0E0,0E0,0E0],"parents":[2147483647,0,0,1,1,2,2,3,3,4,4,5,5,6,6],"right_children":[2,4,6,8,10,12,14,-1,-1,-1,-1,-1,-1,-1,-1],"split_conditions":[5.489156E-1,-8.5155594E-1,1.243845E0,-1.343619E0,-5.6622006E-2,1.014651E0,1.7282547E0,-3.2763934E-4,-7.618722E-5,1.0035205E-4,2.9020684E-4,4.7161136E-4,6.8140676E-4,7.9877925E-4,1.1429127E-3],"split_indices":[2,2,2,2,2,2,2,0,0,0,0,0,0,0,0],"split_type":[0,0,0,0,0,0,0,0,0,0,0,0,0,0,0],"sum_hessian":[9.074617E4,6.303817E4,2.7708004E4,2.443976E4,3.859841E4,1.4523273E4,1.31847295E4,7.0649946E3,1.7374766E4,2.3701145E4,1.4897268E4,9.918546E3,4.6047275E3,8.887365E3,4.297364E3],"tree_param":{"num_deleted":"0","num_feature":"3","num_nodes":"15","size_leaf_vector":"1"}},{"base_weights":[-1.5440702E-2,3.8832035E-2,-2.582154E-2,5.3763118E-2,1.561878E-2,-1.187357E-2,-3.767063E-2,4.919401E-4,1.0563208E-3,-2.4605013E-5,2.9771516E-4,-3.8354378E-4,-8.197963E-5,-7.77188E-4,-3.469488E-4],"categories":[],"categories_nodes":[],"categories_segments":[],"categories_sizes":[],"default_left":[0,0,0,0,0,0,0,0,0,0,0,0,0,0,0],"id":57,"left_children":[1,3,5,7,9,11,13,-1,-1,-1,-1,-1,-1,-1,-1],"loss_changes":[5.0972588E1,5.03409E0,1.2551258E1,2.0898304E0,1.4553856E0,3.3951569E0,4.8908195E0,0E0,0E0,0E0,0E0,0E0,0E0,0E0,0E0],"parents":[2147483647,0,0,1,1,2,2,3,3,4,4,5,5,6,6],"right_children":[2,4,6,8,10,12,14,-1,-1,-1,-1,-1,-1,-1,-1],"split_conditions":[-1.1385077E0,-1.2971884E0,-1.0072447E-3,-1.3159647E0,-1.2291241E0,-1.0193187E0,1.10018186E-1,4.919401E-4,1.0563208E-3,-2.4605013E-5,2.9771516E-4,-3.8354378E-4,-8.197963E-5,-7.77188E-4,-3.469488E-4],"split_indices":[2,2,2,2,2,2,2,0,0,0,0,0,0,0,0],"split_type":[0,0,0,0,0,0,0,0,0,0,0,0,0,0,0],"sum_hessian":[9.047096E4,1.4525661E4,7.59453E4,8.838987E3,5.686673E3,3.488407E4,4.1061227E4,8.1251934E3,7.137945E2,2.4973206E3,3.1893525E3,4.2506865E3,3.0633383E4,2.8382627E3,3.8222965E4],"tree_param":{"num_deleted":"0","num_feature":"3","num_nodes":"15","size_leaf_vector":"1"}},{"base_weights":[-3.2454755E-2,6.5611196E-3,-8.8614635E-2,3.1388313E-2,-1.7979382E-2,-5.9147824E-2,-9.734782E-2,4.847405E-4,1.3684998E-4,-9.489023E-5,-2.8482816E-4,-8.4516837E-4,-4.657028E-4,-9.242422E-4,-1.2298389E-3],"categories":[],"categories_nodes":[],"categories_segments":[],"categories_sizes":[],"default_left":[0,0,0,0,0,0,0,0,0,0,0,0,0,0,0],"id":58,"left_children":[1,3,5,7,9,11,13,-1,-1,-1,-1,-1,-1,-1,-1],"loss_changes":[1.9802808E2,3.249256E1,9.52832E0,8.017967E0,2.391491E0,2.699482E0,3.5957031E0,0E0,0E0,0E0,0E0,0E0,0E0,0E0,0E0],"parents":[2147483647,0,0,1,1,2,2,3,3,4,4,5,5,6,6],"right_children":[2,4,6,8,10,12,14,-1,-1,-1,-1,-1,-1,-1,-1],"split_conditions":[1.509384E-1,-7.871653E-1,5.040156E-1,-1.1703459E0,-2.984697E-1,2.6451498E-1,1.7082537E0,4.847405E-4,1.3684998E-4,-9.489023E-5,-2.8482816E-4,-8.4516837E-4,-4.657028E-4,-9.242422E-4,-1.2298389E-3],"split_indices":[2,2,2,2,2,2,2,0,0,0,0,0,0,0,0],"split_type":[0,0,0,0,0,0,0,0,0,0,0,0,0,0,0],"sum_hessian":[9.0376E4,5.3328234E4,3.7047766E4,2.6509133E4,2.6819104E4,8.471537E3,2.8576229E4,1.3488979E4,1.3020153E4,1.4831829E4,1.1987274E4,2.80603E3,5.665507E3,2.3976062E4,4.600167E3],"tree_param":{"num_deleted":"0","num_feature":"3","num_nodes":"15","size_leaf_vector":"1"}},{"base_weights":[-4.8314646E-2,-3.644226E-3,-9.8201774E-2,1.9255875E-2,-3.9125204E-2,-6.833429E-2,-1.21435285E-1,4.430185E-4,1.4067789E-4,-4.0111237E-4,1.8856605E-4,-1.126385E-3,-6.3705974E-4,-1.1032649E-3,-1.5460495E-3],"categories":[],"categories_nodes":[],"categories_segments":[],"categories_sizes":[],"default_left":[0,0,0,0,0,0,0,0,0,0,0,0,0,0,0],"id":59,"left_children":[1,3,5,7,9,11,13,-1,-1,-1,-1,-1,-1,-1,-1],"loss_changes":[2.0109467E2,3.8684406E1,2.9573853E1,3.7592506E0,1.0684547E0,3.8179703E0,8.817749E0,0E0,0E0,0E0,0E0,0E0,0E0,0E0,0E0],"parents":[2147483647,0,0,1,1,2,2,3,3,4,4,5,5,6,6],"right_children":[2,4,6,8,10,12,14,-1,-1,-1,-1,-1,-1,-1,-1],"split_conditions":[-6.845928E-2,-7.094067E-1,7.087188E-1,-1.3959683E0,-8.01945E-2,-1.0072447E-3,1.6287605E0,4.430185E-4,1.4067789E-4,-4.0111237E-4,1.8856605E-4,-1.126385E-3,-6.3705974E-4,-1.1032649E-3,-1.5460495E-3],"split_indices":[2,2,2,2,2,2,2,0,0,0,0,0,0,0,0],"split_type":[0,0,0,0,0,0,0,0,0,0,0,0,0,0,0],"sum_hessian":[9.023769E4,4.76086E4,4.2629086E4,2.8934305E4,1.8674295E4,1.8653414E4,2.397567E4,4.9637563E3,2.3970549E4,1.8362336E4,3.1195877E2,1.7621376E3,1.6891277E4,1.7963775E4,6.011895E3],"tree_param":{"num_deleted":"0","num_feature":"3","num_nodes":"15","size_leaf_vector":"1"}},{"base_weights":[2.2968864E-2,-2.7997233E-2,5.4585434E-2,-5.7121754E-2,-1.1095816E-2,2.2780323E-2,6.461125E-2,-7.6424493E-4,-4.3397988E-4,-1.4830031E-4,1.0761343E-4,3.1492923E-4,1.20693905E-4,6.16926E-4,1.0058994E-3],"categories":[],"categories_nodes":[],"categories_segments":[],"categories_sizes":[],"default_left":[0,0,0,0,0,0,0,0,0,0,0,0,0,0,0],"id":60,"left_children":[1,3,5,7,9,11,13,-1,-1,-1,-1,-1,-1,-1,-1],"loss_changes":[1.4633502E2,1.7113838E1,1.786995E1,3.3787804E0,1.795949E0,1.2533092E0,4.468521E0,0E0,0E0,0E0,0E0,0E0,0E0,0E0,0E0],"parents":[2147483647,0,0,1,1,2,2,3,3,4,4,5,5,6,6],"right_children":[2,4,6,8,10,12,14,-1,-1,-1,-1,-1,-1,-1,-1],"split_conditions":[-5.3082716E-1,-1.1897346E0,-5.6622006E-2,-1.3856617E0,-6.324644E-1,-2.746931E-1,1.7956047E0,-7.6424493E-4,-4.3397988E-4,-1.4830031E-4,1.0761343E-4,3.1492923E-4,1.20693905E-4,6.16926E-4,1.0058994E-3],"split_indices":[2,2,2,2,2,2,2,0,0,0,0,0,0,0,0],"split_type":[0,0,0,0,0,0,0,0,0,0,0,0,0,0,0],"sum_hessian":[9.0811914E4,3.476716E4,5.6044754E4,1.2766151E4,2.200101E4,1.3433295E4,4.261146E4,5.302921E3,7.4632305E3,1.8790965E4,3.2100461E3,7.4066E3,6.026695E3,3.9416633E4,3.194825E3],"tree_param":{"num_deleted":"0","num_feature":"3","num_nodes":"15","size_leaf_vector":"1"}},{"base_weights":[4.8226684E-2,3.683782E-2,9.906908E-2,5.0773595E-2,2.2011412E-2,8.39611E-4,1.06667995E-1,5.751952E-4,4.4923957E-4,1.5720462E-4,5.4723397E-4,1.1136925E-3,7.393352E-4],"categories":[],"categories_nodes":[],"categories_segments":[],"categories_sizes":[],"default_left":[0,0,0,0,0,0,0,0,0,0,0,0,0],"id":61,"left_children":[1,3,5,7,9,-1,11,-1,-1,-1,-1,-1,-1],"loss_changes":[5.268956E1,1.5360672E1,1.9029388E0,1.5097656E0,7.412733E0,0E0,1.6963806E0,0E0,0E0,0E0,0E0,0E0,0E0],"parents":[2147483647,0,0,1,1,2,2,3,3,4,4,6,6],"right_children":[2,4,6,8,10,-1,12,-1,-1,-1,-1,-1,-1],"split_conditions":[9.3351537E-1,-2.9239798E-1,1.3107195E0,-8.582041E-1,6.506123E-1,8.39611E-4,2.5366328E0,5.751952E-4,4.4923957E-4,1.5720462E-4,5.4723397E-4,1.1136925E-3,7.393352E-4],"split_indices":[0,0,0,0,0,0,0,0,0,0,0,0,0],"split_type":[0,0,0,0,0,0,0,0,0,0,0,0,0],"sum_hessian":[9.100043E4,7.434796E4,1.6652465E4,3.832384E4,3.6024125E4,5.5768203E3,1.1075644E4,1.7794275E4,2.0529562E4,3.021488E4,5.809242E3,9.682643E3,1.3930011E3],"tree_param":{"num_deleted":"0","num_feature":"3","num_nodes":"13","size_leaf_vector":"1"}},{"base_weights":[2.2985905E-2,3.4015726E-3,6.754178E-2,-2.6171342E-2,1.08776465E-2,5.990365E-2,1.0971523E-1,-3.6337218E-4,-1.3468495E-4,6.176133E-5,2.2080404E-4,5.0214527E-4,7.479634E-4,1.4420735E-3,9.843961E-4],"categories":[],"categories_nodes":[],"categories_segments":[],"categories_sizes":[],"default_left":[0,0,0,0,0,0,0,0,0,0,0,0,0,0,0],"id":62,"left_children":[1,3,5,7,9,11,13,-1,-1,-1,-1,-1,-1,-1,-1],"loss_changes":[7.934662E1,1.3966077E1,8.93718E0,1.6455908E0,2.6555958E0,3.388588E0,1.6411438E0,0E0,0E0,0E0,0E0,0E0,0E0,0E0,0E0],"parents":[2147483647,0,0,1,1,2,2,3,3,4,4,5,5,6,6],"right_children":[2,4,6,8,10,12,14,-1,-1,-1,-1,-1,-1,-1,-1],"split_conditions":[5.489156E-1,-1.1897346E0,1.7282547E0,-1.343619E0,-5.6622006E-2,1.2263952E0,1.7956047E0,-3.6337218E-4,-1.3468495E-4,6.176133E-5,2.2080404E-4,5.0214527E-4,7.479634E-4,1.4420735E-3,9.843961E-4],"split_indices":[2,2,2,2,2,2,2,0,0,0,0,0,0,0,0],"split_type":[0,0,0,0,0,0,0,0,0,0,0,0,0,0,0],"sum_hessian":[9.093084E4,6.31671E4,2.7763742E4,1.2745915E4,5.0421188E4,2.350849E4,4.2552515E3,7.0789155E3,5.6669995E3,3.5517105E4,1.490408E4,1.4245076E4,9.263414E3,1.0454453E3,3.2098062E3],"tree_param":{"num_deleted":"0","num_feature":"3","num_nodes":"15","size_leaf_vector":"1"}},{"base_weights":[-1.4205414E-2,5.992679E-2,-2.3340896E-2,7.807543E-2,4.6176713E-2,-6.5818336E-3,-3.9522234E-2,7.340185E-4,1.2884501E-3,3.2965917E-4,6.807208E-4,3.887897E-5,-1.2165638E-4,-2.9701256E-4,-5.34658E-4],"categories":[],"categories_nodes":[],"categories_segments":[],"categories_sizes":[],"default_left":[0,0,0,0,0,0,0,0,0,0,0,0,0,0,0],"id":63,"left_children":[1,3,5,7,9,11,13,-1,-1,-1,-1,-1,-1,-1,-1],"loss_changes":[6.1365543E1,2.4771996E0,2.1876083E1,1.0069828E0,1.6345091E0,2.3167758E0,5.618698E0,0E0,0E0,0E0,0E0,0E0,0E0,0E0,0E0],"parents":[2147483647,0,0,1,1,2,2,3,3,4,4,5,5,6,6],"right_children":[2,4,6,8,10,12,14,-1,-1,-1,-1,-1,-1,-1,-1],"split_conditions":[-1.2685136E0,-1.4137243E0,-1.0072447E-3,-1.422092E0,-1.3249447E0,-8.713528E-1,1.0511832E0,7.340185E-4,1.2884501E-3,3.2965917E-4,6.807208E-4,3.887897E-5,-1.2165638E-4,-2.9701256E-4,-5.34658E-4],"split_indices":[2,2,2,2,2,2,2,0,0,0,0,0,0,0,0],"split_type":[0,0,0,0,0,0,0,0,0,0,0,0,0,0,0],"sum_hessian":[9.060904E4,9.940308E3,8.066873E4,4.282795E3,5.657512E3,3.9627656E4,4.1041074E4,3.924017E3,3.587779E2,3.5300972E3,2.127415E3,1.3783557E4,2.58441E4,2.4082201E4,1.6958871E4],"tree_param":{"num_deleted":"0","num_feature":"3","num_nodes":"15","size_leaf_vector":"1"}},{"base_weights":[-3.4153096E-2,-1.6523763E-3,2.69577E-4],"categories":[],"categories_nodes":[],"categories_segments":[],"categories_sizes":[],"default_left":[0,0,0],"id":64,"left_children":[1,-1,-1],"loss_changes":[7.24476E2,0E0,0E0],"parents":[2147483647,0,0],"right_children":[2,-1,-1],"split_conditions":[7.299337E-1,-1.6523763E-3,2.69577E-4],"split_indices":[1,0,0],"split_type":[0,0,0],"sum_hessian":[9.04372E4,2.8755045E4,6.168216E4],"tree_param":{"num_deleted":"0","num_feature":"3","num_nodes":"3","size_leaf_vector":"1"}},{"base_weights":[-5.058312E-2,-3.3455435E-3,-1.0349439E-1,1.0079598E-2,-3.4107637E-2,-6.8774484E-2,-1.3055918E-1,4.135765E-4,4.1015046E-5,-4.1739855E-4,-1.7496212E-4,-1.1943755E-3,-6.351709E-4,-1.1850771E-3,-1.666978E-3],"categories":[],"categories_nodes":[],"categories_segments":[],"categories_sizes":[],"default_left":[0,0,0,0,0,0,0,0,0,0,0,0,0,0,0],"id":65,"left_children":[1,3,5,7,9,11,13,-1,-1,-1,-1,-1,-1,-1,-1],"loss_changes":[2.257528E2,1.9708431E1,4.0024445E1,6.2119713E0,1.8374863E0,4.9637604E0,1.0406464E1,0E0,0E0,0E0,0E0,0E0,0E0,0E0,0E0],"parents":[2147483647,0,0,1,1,2,2,3,3,4,4,5,5,6,6],"right_children":[2,4,6,8,10,12,14,-1,-1,-1,-1,-1,-1,-1,-1],"split_conditions":[-6.845928E-2,-5.7572716E-1,7.087188E-1,-1.3856617E0,-2.3479334E-1,-1.0072447E-3,1.6287605E0,4.135765E-4,4.1015046E-5,-4.1739855E-4,-1.7496212E-4,-1.1943755E-3,-6.351709E-4,-1.1850771E-3,-1.666978E-3],"split_indices":[2,2,2,2,2,2,2,0,0,0,0,0,0,0,0],"split_type":[0,0,0,0,0,0,0,0,0,0,0,0,0,0,0],"sum_hessian":[9.032194E4,4.7720016E4,4.2601918E4,3.3222E4,1.4498017E4,1.8663322E4,2.3938596E4,5.329827E3,2.7892174E4,9.932814E3,4.565202E3,1.7525983E3,1.6910725E4,1.79552E4,5.9833975E3],"tree_param":{"num_deleted":"0","num_feature":"3","num_nodes":"15","size_leaf_vector":"1"}},{"base_weights":[2.4200637E-2,1.3582529E-1,-1.7312562E-2,2.0328431E-1,9.876159E-2,3.0393956E-2,-2.967451E-2,3.320966E-3,1.8927658E-3,1.3243605E-3,7.9151924E-4,4.8559948E-4,2.416844E-4,-3.9233E-4,-8.816449E-5],"categories":[],"categories_nodes":[],"categories_segments":[],"categories_sizes":[],"default_left":[0,0,0,0,0,0,0,0,0,0,0,0,0,0,0],"id":66,"left_children":[1,3,5,7,9,11,13,-1,-1,-1,-1,-1,-1,-1,-1],"loss_changes":[4.2025943E2,6.144986E1,3.8987625E1,1.56657715E1,1.0468704E1,1.537487E0,1.0467335E1,0E0,0E0,0E0,0E0,0E0,0E0,0E0,0E0],"parents":[2147483647,0,0,1,1,2,2,3,3,4,4,5,5,6,6],"right_children":[2,4,6,8,10,12,14,-1,-1,-1,-1,-1,-1,-1,-1],"split_conditions":[-6.696021E-1,-1.1411072E0,-2.9239798E-1,-1.4240103E0,-9.525052E-1,-5.7530105E-1,9.3351537E-1,3.320966E-3,1.8927658E-3,1.3243605E-3,7.9151924E-4,4.8559948E-4,2.416844E-4,-3.9233E-4,-8.816449E-5],"split_indices":[0,0,0,0,0,0,0,0,0,0,0,0,0,0,0],"split_type":[0,0,0,0,0,0,0,0,0,0,0,0,0,0,0],"sum_hessian":[9.0690945E4,2.4584234E4,6.610671E4,8.715967E3,1.5868269E4,1.3604302E4,5.2502406E4,8.526307E2,7.8633354E3,5.837734E3,1.0030534E4,3.47053E3,1.0133771E4,3.6002766E4,1.6499639E4],"tree_param":{"num_deleted":"0","num_feature":"3","num_nodes":"15","size_leaf_vector":"1"}},{"base_weights":[4.5838766E-2,3.3962127E-2,9.9172324E-2,5.042084E-2,1.9381972E-2,8.350195E-2,1.07018426E-1,5.384178E-4,4.225394E-4,1.4222863E-4,4.9167324E-4,9.151003E-4,7.2614144E-4,1.0943101E-3,8.526783E-4],"categories":[],"categories_nodes":[],"categories_segments":[],"categories_sizes":[],"default_left":[0,0,0,0,0,0,0,0,0,0,0,0,0,0,0],"id":67,"left_children":[1,3,5,7,9,11,13,-1,-1,-1,-1,-1,-1,-1,-1],"loss_changes":[5.7664E1,1.7867508E1,2.029663E0,9.749222E-1,6.0668764E0,4.7608948E-1,5.702591E-1,0E0,0E0,0E0,0E0,0E0,0E0,0E0,0E0],"parents":[2147483647,0,0,1,1,2,2,3,3,4,4,5,5,6,6],"right_children":[2,4,6,8,10,12,14,-1,-1,-1,-1,-1,-1,-1,-1],"split_conditions":[9.3351537E-1,-3.86699E-1,1.3107195E0,-6.696021E-1,6.506123E-1,1.1221174E0,2.6309338E0,5.384178E-4,4.225394E-4,1.4222863E-4,4.9167324E-4,9.151003E-4,7.2614144E-4,1.0943101E-3,8.526783E-4],"split_indices":[0,0,0,0,0,0,0,0,0,0,0,0,0,0,0],"split_type":[0,0,0,0,0,0,0,0,0,0,0,0,0,0,0],"sum_hessian":[9.103975E4,7.446015E4,1.6579602E4,3.4975652E4,3.94845E4,5.535546E3,1.1044057E4,2.4646258E4,1.0329394E4,3.365637E4,5.8281294E3,3.1853118E3,2.350234E3,9.937727E3,1.1063302E3],"tree_param":{"num_deleted":"0","num_feature":"3","num_nodes":"15","size_leaf_vector":"1"}},{"base_weights":[2.340193E-2,2.0090498E-4,2.49446E-4],"categories":[],"categories_nodes":[],"categories_segments":[],"categories_sizes":[],"default_left":[0,0,0],"id":68,"left_children":[1,-1,-1],"loss_changes":[4.6342468E-1,0E0,0E0],"parents":[2147483647,0,0],"right_children":[2,-1,-1],"split_conditions":[7.299337E-1,2.0090498E-4,2.49446E-4],"split_indices":[1,0,0],"split_type":[0,0,0],"sum_hessian":[9.081528E4,2.886621E4,6.1949074E4],"tree_param":{"num_deleted":"0","num_feature":"3","num_nodes":"3","size_leaf_vector":"1"}},{"base_weights":[-1.4935027E-2,-8.966716E-3,-3.0902917E-2,-2.264265E-4,-7.6229274E-3,-3.174348E-2,1.0271062E-3,-3.1621177E-5,-1.0215841E-4,-3.4807913E-4,-1.7926989E-4],"categories":[],"categories_nodes":[],"categories_segments":[],"categories_sizes":[],"default_left":[0,0,0,0,0,0,0,0,0,0,0],"id":69,"left_children":[1,3,5,-1,7,9,-1,-1,-1,-1,-1],"loss_changes":[8.635046E0,1.2119956E0,2.772009E0,0E0,6.9464374E-1,1.036665E0,0E0,0E0,0E0,0E0,0E0],"parents":[2147483647,0,0,1,1,2,2,4,4,5,5],"right_children":[2,4,6,-1,8,10,-1,-1,-1,-1,-1],"split_conditions":[5.5631125E-1,-1.2354082E0,3.19674E0,-2.264265E-4,-5.7530105E-1,1.9708266E0,1.0271062E-3,-3.1621177E-5,-1.0215841E-4,-3.4807913E-4,-1.7926989E-4],"split_indices":[0,0,0,0,0,0,0,0,0,0,0],"split_type":[0,0,0,0,0,0,0,0,0,0,0],"sum_hessian":[9.06097E4,6.5958125E4,2.4651578E4,5.8997407E3,6.0058383E4,2.4498223E4,1.5335616E2,2.2077982E4,3.7980402E4,2.0049762E4,4.448461E3],"tree_param":{"num_deleted":"0","num_feature":"3","num_nodes":"11","size_leaf_vector":"1"}},{"base_weights":[-3.4019828E-2,2.8689E-3,-8.722376E-2,2.71336E-2,-1.9316314E-2,-5.6760725E-2,-9.7255915E-2,7.1045395E-4,2.4526377E-4,-8.8348934E-5,-2.7682705E-4,-7.77638E-4,-4.7394144E-4,-1.3003189E-3,-9.358192E-4],"categories":[],"categories_nodes":[],"categories_segments":[],"categories_sizes":[],"default_left":[0,0,0,0,0,0,0,0,0,0,0,0,0,0,0],"id":70,"left_children":[1,3,5,7,9,11,13,-1,-1,-1,-1,-1,-1,-1,-1],"loss_changes":[1.7753735E2,2.875811E1,1.1313873E1,2.9194431E0,2.4469662E0,1.8019295E0,3.3428955E0,0E0,0E0,0E0,0E0,0E0,0E0,0E0,0E0],"parents":[2147483647,0,0,1,1,2,2,3,3,4,4,5,5,6,6],"right_children":[2,4,6,8,10,12,14,-1,-1,-1,-1,-1,-1,-1,-1],"split_conditions":[1.509384E-1,-8.205341E-1,5.346292E-1,-1.4809722E0,-4.206181E-1,2.6451498E-1,6.6198194E-1,7.1045395E-4,2.4526377E-4,-8.8348934E-5,-2.7682705E-4,-7.77638E-4,-4.7394144E-4,-1.3003189E-3,-9.358192E-4],"split_indices":[2,2,2,2,2,2,2,0,0,0,0,0,0,0,0],"split_type":[0,0,0,0,0,0,0,0,0,0,0,0,0,0,0],"sum_hessian":[9.045797E4,5.3420223E4,3.7037746E4,2.5514236E4,2.7905986E4,9.177265E3,2.786048E4,1.4285103E3,2.4085727E4,1.2388154E4,1.5517831E4,2.8281907E3,6.3490737E3,2.8047454E3,2.5055734E4],"tree_param":{"num_deleted":"0","num_feature":"3","num_nodes":"15","size_leaf_vector":"1"}},{"base_weights":[-4.6972338E-2,-1.5329772E-1,-2.111987E-2,-3.0520468E-3,-1.457415E-1,-7.1681603E-3,-1.343893E-1,-1.6243464E-3,-1.16902E-3,-5.159446E-4,1.3288247E-4,-1.3014511E-3,-2.2393463E-3],"categories":[],"categories_nodes":[],"categories_segments":[],"categories_sizes":[],"default_left":[0,0,0,0,0,0,0,0,0,0,0,0,0],"id":71,"left_children":[1,3,5,-1,7,9,11,-1,-1,-1,-1,-1,-1],"loss_changes":[2.482331E2,2.022995E1,1.1480166E2,0E0,8.082306E0,5.878232E1,2.9985504E0,0E0,0E0,0E0,0E0,0E0,0E0],"parents":[2147483647,0,0,1,1,2,2,4,4,5,5,6,6],"right_children":[2,4,6,-1,8,10,12,-1,-1,-1,-1,-1,-1],"split_conditions":[-8.582041E-1,-1.4240103E0,1.5936226E0,-3.0520468E-3,-1.0468062E0,-2.9239798E-1,3.008138E0,-1.6243464E-3,-1.16902E-3,-5.159446E-4,1.3288247E-4,-1.3014511E-3,-2.2393463E-3],"split_indices":[0,0,0,0,0,0,0,0,0,0,0,0,0],"split_type":[0,0,0,0,0,0,0,0,0,0,0,0,0],"sum_hessian":[9.030703E4,1.766205E4,7.2644984E4,8.3505615E2,1.6826994E4,6.4679312E4,7.965668E3,1.0654967E4,6.1720283E3,2.03918E4,4.428751E4,7.6075464E3,3.5812158E2],"tree_param":{"num_deleted":"0","num_feature":"3","num_nodes":"13","size_leaf_vector":"1"}},{"base_weights":[2.3423905E-2,-3.1791247E-2,5.2756574E-2,-6.564274E-2,-1.7096596E-2,1.952886E-2,6.5690815E-2,-9.1235404E-4,-5.279349E-4,-2.8509932E-4,-1.4643108E-4,2.3881851E-4,9.2115086E-5,6.031214E-4,9.6343225E-4],"categories":[],"categories_nodes":[],"categories_segments":[],"categories_sizes":[],"default_left":[0,0,0,0,0,0,0,0,0,0,0,0,0,0,0],"id":72,"left_children":[1,3,5,7,9,11,13,-1,-1,-1,-1,-1,-1,-1,-1],"loss_changes":[1.4699994E2,1.5662682E1,2.5473022E1,3.129486E0,6.144862E-1,7.4573135E-1,7.028351E0,0E0,0E0,0E0,0E0,0E0,0E0,0E0,0E0],"parents":[2147483647,0,0,1,1,2,2,3,3,4,4,5,5,6,6],"right_children":[2,4,6,8,10,12,14,-1,-1,-1,-1,-1,-1,-1,-1],"split_conditions":[-6.324644E-1,-1.2782079E0,-5.6622006E-2,-1.4385213E0,-1.1703459E0,-2.3479334E-1,1.6082493E0,-9.1235404E-4,-5.279349E-4,-2.8509932E-4,-1.4643108E-4,2.3881851E-4,9.2115086E-5,6.031214E-4,9.6343225E-4],"split_indices":[2,2,2,2,2,2,2,0,0,0,0,0,0,0,0],"split_type":[0,0,0,0,0,0,0,0,0,0,0,0,0,0,0],"sum_hessian":[9.076064E4,3.1488088E4,5.927255E4,9.530222E3,2.1957867E4,1.6608441E4,4.266411E4,3.1834465E3,6.3467754E3,3.8831768E3,1.807469E4,1.1679453E4,4.9289883E3,3.6297793E4,6.366316E3],"tree_param":{"num_deleted":"0","num_feature":"3","num_nodes":"15","size_leaf_vector":"1"}},{"base_weights":[4.407813E-2,7.12736E-3,9.9698246E-2,-3.8261764E-2,2.202344E-2,8.576875E-2,1.24226406E-1,-7.477238E-4,-3.393084E-4,9.8788514E-5,3.9248454E-4,5.6484056E-4,8.984415E-4,1.3151498E-3,1.0898139E-3],"categories":[],"categories_nodes":[],"categories_segments":[],"categories_sizes":[],"default_left":[0,0,0,0,0,0,0,0,0,0,0,0,0,0,0],"id":73,"left_children":[1,3,5,7,9,11,13,-1,-1,-1,-1,-1,-1,-1,-1],"loss_changes":[1.8697842E2,3.6960464E1,1.2396912E1,2.133339E0,8.60943E0,2.7595825E0,1.4469757E0,0E0,0E0,0E0,0E0,0E0,0E0,0E0,0E0],"parents":[2147483647,0,0,1,1,2,2,3,3,4,4,5,5,6,6],"right_children":[2,4,6,8,10,12,14,-1,-1,-1,-1,-1,-1,-1,-1],"split_conditions":[1.9287908E-1,-1.1703459E0,1.243845E0,-1.4809722E0,-4.33884E-1,3.0941498E-1,1.7282547E0,-7.477238E-4,-3.393084E-4,9.8788514E-5,3.9248454E-4,5.6484056E-4,8.984415E-4,1.3151498E-3,1.0898139E-3],"split_indices":[2,2,2,2,2,2,2,0,0,0,0,0,0,0,0],"split_type":[0,0,0,0,0,0,0,0,0,0,0,0,0,0,0],"sum_hessian":[9.097728E4,5.4663293E4,3.631399E4,1.3506555E4,4.115674E4,2.3163799E4,1.31501875E4,1.4305382E3,1.2076017E4,2.4138992E4,1.7017748E4,2.8315977E3,2.0332201E4,8.89155E3,4.2586367E3],"tree_param":{"num_deleted":"0","num_feature":"3","num_nodes":"15","size_leaf_vector":"1"}},{"base_weights":[2.3457568E-2,4.384086E-3,6.674227E-2,-2.023153E-2,1.2470354E-2,4.9273677E-2,8.5056946E-2,-4.1433744E-4,-1.4798412E-4,6.41598E-5,2.5746418E-4,9.995423E-4,4.6570785E-4,7.230481E-4,9.249272E-4],"categories":[],"categories_nodes":[],"categories_segments":[],"categories_sizes":[],"default_left":[0,0,0,0,0,0,0,0,0,0,0,0,0,0,0],"id":74,"left_children":[1,3,5,7,9,11,13,-1,-1,-1,-1,-1,-1,-1,-1],"loss_changes":[7.496756E1,1.2546616E1,8.881744E0,1.7948446E0,3.8134875E0,1.9429855E0,1.2788544E0,0E0,0E0,0E0,0E0,0E0,0E0,0E0,0E0],"parents":[2147483647,0,0,1,1,2,2,3,3,4,4,5,5,6,6],"right_children":[2,4,6,8,10,12,14,-1,-1,-1,-1,-1,-1,-1,-1],"split_conditions":[5.489156E-1,-1.1101391E0,1.2263952E0,-1.4385213E0,-5.6622006E-2,5.8085585E-1,1.4873254E0,-4.1433744E-4,-1.4798412E-4,6.41598E-5,2.5746418E-4,9.995423E-4,4.6570785E-4,7.230481E-4,9.249272E-4],"split_indices":[2,2,2,2,2,2,2,0,0,0,0,0,0,0,0],"split_type":[0,0,0,0,0,0,0,0,0,0,0,0,0,0,0],"sum_hessian":[9.080418E4,6.3030695E4,2.7773486E4,1.558537E4,4.7445324E4,1.4216979E4,1.3556508E4,3.177777E3,1.2407594E4,3.2586268E4,1.4859057E4,7.1800793E2,1.3498971E4,4.9971953E3,8.5593125E3],"tree_param":{"num_deleted":"0","num_feature":"3","num_nodes":"15","size_leaf_vector":"1"}},{"base_weights":[-1.3484078E-2,-6.0349903E-3,-3.0917102E-2,-3.1194874E-4,-4.7224155E-3,-3.40307E-2,-1.8876124E-3,1.3491505E-5,-8.9697605E-5,-2.067844E-4,-3.5542133E-4,5.4775545E-4,-1.4621374E-4],"categories":[],"categories_nodes":[],"categories_segments":[],"categories_sizes":[],"default_left":[0,0,0,0,0,0,0,0,0,0,0,0,0],"id":75,"left_children":[1,3,5,-1,7,9,11,-1,-1,-1,-1,-1,-1],"loss_changes":[1.1744436E1,2.09247E0,2.447176E0,0E0,1.5531081E0,4.9274445E-1,1.8939395E0,0E0,0E0,0E0,0E0,0E0,0E0],"parents":[2147483647,0,0,1,1,2,2,4,4,5,5,6,6],"right_children":[2,4,6,-1,8,10,12,-1,-1,-1,-1,-1,-1],"split_conditions":[4.620102E-1,-1.3297093E0,2.2537296E0,-3.1194874E-4,-5.7530105E-1,5.5631125E-1,2.3480308E0,1.3491505E-5,-8.9697605E-5,-2.067844E-4,-3.5542133E-4,5.4775545E-4,-1.4621374E-4],"split_indices":[0,0,0,0,0,0,0,0,0,0,0,0,0],"split_type":[0,0,0,0,0,0,0,0,0,0,0,0,0],"sum_hessian":[9.043954E4,6.3365125E4,2.7074414E4,3.1406824E3,6.022444E4,2.4451648E4,2.6227646E3,2.4789137E4,3.5435305E4,2.4878945E3,2.1963754E4,4.8064987E2,2.1421147E3],"tree_param":{"num_deleted":"0","num_feature":"3","num_nodes":"13","size_leaf_vector":"1"}},{"base_weights":[-2.9540129E-2,-1.6216716E-3,3.2174087E-4],"categories":[],"categories_nodes":[],"categories_segments":[],"categories_sizes":[],"default_left":[0,0,0],"id":76,"left_children":[1,-1,-1],"loss_changes":[7.398889E2,0E0,0E0],"parents":[2147483647,0,0],"right_children":[2,-1,-1],"split_conditions":[7.299337E-1,-1.6216716E-3,3.2174087E-4],"split_indices":[1,0,0],"split_type":[0,0,0],"sum_hessian":[9.039437E4,2.870475E4,6.1689617E4],"tree_param":{"num_deleted":"0","num_feature":"3","num_nodes":"3","size_leaf_vector":"1"}},{"base_weights":[-4.533445E-2,-1.533567E-1,-1.9098422E-2,-2.282065E-1,-1.3724329E-1,1.3410775E-3,-1.1019528E-1,-2.9664072E-3,-2.026007E-3,-1.5371911E-3,-1.1503638E-3,-4.1747003E-4,2.3773941E-4,-6.461036E-4,-1.4071608E-3],"categories":[],"categories_nodes":[],"categories_segments":[],"categories_sizes":[],"default_left":[0,0,0,0,0,0,0,0,0,0,0,0,0,0,0],"id":77,"left_children":[1,3,5,7,9,11,13,-1,-1,-1,-1,-1,-1,-1,-1],"loss_changes":[2.5576302E2,2.1238464E1,1.3520245E2,5.411438E0,5.292633E0,5.7326313E1,1.8504105E1,0E0,0E0,0E0,0E0,0E0,0E0,0E0,0E0],"parents":[2147483647,0,0,1,1,2,2,3,3,4,4,5,5,6,6],"right_children":[2,4,6,8,10,12,14,-1,-1,-1,-1,-1,-1,-1,-1],"split_conditions":[-8.582041E-1,-1.3297093E0,1.1221174E0,-1.4240103E0,-1.0468062E0,-2.9239798E-1,1.5936226E0,-2.9664072E-3,-2.026007E-3,-1.5371911E-3,-1.1503638E-3,-4.1747003E-4,2.3773941E-4,-6.461036E-4,-1.4071608E-3],"split_indices":[0,0,0,0,0,0,0,0,0,0,0,0,0,0,0],"split_type":[0,0,0,0,0,0,0,0,0,0,0,0,0,0,0],"sum_hessian":[9.024573E4,1.7634389E4,7.261134E4,3.1214597E3,1.4512929E4,5.9305816E4,1.3305524E4,8.47048E2,2.2744116E3,8.328154E3,6.184774E3,2.0304652E4,3.9001164E4,5.3371865E3,7.968338E3],"tree_param":{"num_deleted":"0","num_feature":"3","num_nodes":"15","size_leaf_vector":"1"}},{"base_weights":[2.4383089E-2,1.4189425E-1,-1.1295339E-2,1.9903272E-1,1.01577826E-1,3.611064E-2,-2.6763728E-2,3.13157E-3,1.8666212E-3,1.2499745E-3,8.073501E-4,6.047938E-4,2.9851915E-4,-3.790322E-4,-5.9874237E-5],"categories":[],"categories_nodes":[],"categories_segments":[],"categories_sizes":[],"default_left":[0,0,0,0,0,0,0,0,0,0,0,0,0,0,0],"id":78,"left_children":[1,3,5,7,9,11,13,-1,-1,-1,-1,-1,-1,-1,-1],"loss_changes":[3.810631E2,4.8743683E1,5.1127235E1,1.2303436E1,6.049179E0,2.6143684E0,1.2166222E1,0E0,0E0,0E0,0E0,0E0,0E0,0E0,0E0],"parents":[2147483647,0,0,1,1,2,2,3,3,4,4,5,5,6,6],"right_children":[2,4,6,8,10,12,14,-1,-1,-1,-1,-1,-1,-1,-1],"split_conditions":[-7.639031E-1,-1.1411072E0,-2.9239798E-1,-1.4240103E0,-9.525052E-1,-6.696021E-1,8.392143E-1,3.13157E-3,1.8666212E-3,1.2499745E-3,8.073501E-4,6.047938E-4,2.9851915E-4,-3.790322E-4,-5.9874237E-5],"split_indices":[0,0,0,0,0,0,0,0,0,0,0,0,0,0,0],"split_type":[0,0,0,0,0,0,0,0,0,0,0,0,0,0,0],"sum_hessian":[9.088777E4,2.1167408E4,6.972037E4,8.755185E3,1.2412224E4,1.7152316E4,5.2568047E4,8.5383716E2,7.901347E3,5.842459E3,6.5697646E3,3.5033074E3,1.3649009E4,3.4219812E4,1.8348234E4],"tree_param":{"num_deleted":"0","num_feature":"3","num_nodes":"15","size_leaf_vector":"1"}},{"base_weights":[4.5919526E-2,2.051589E-3,-2.8585581E-4],"categories":[],"categories_nodes":[],"categories_segments":[],"categories_sizes":[],"default_left":[0,0,0],"id":79,"left_children":[1,-1,-1],"loss_changes":[1.080741E3,0E0,0E0],"parents":[2147483647,0,0],"right_children":[2,-1,-1],"split_conditions":[7.299337E-1,2.051589E-3,-2.8585581E-4],"split_indices":[1,0,0],"split_type":[0,0,0],"sum_hessian":[9.1091516E4,2.9034488E4,6.2057023E4],"tree_param":{"num_deleted":"0","num_feature":"3","num_nodes":"3","size_leaf_vector":"1"}},{"base_weights":[2.4267027E-2,5.2602275E-4,1.3038683E-1,-5.022382E-3,3.386224E-2,1.0538649E-1,2.1297777E-1,-1.1195276E-4,2.4771456E-5,2.3820392E-4,5.2584865E-4,7.827006E-4,1.2003616E-3,2.0357003E-3,2.7540002E-3],"categories":[],"categories_nodes":[],"categories_segments":[],"categories_sizes":[],"default_left":[0,0,0,0,0,0,0,0,0,0,0,0,0,0,0],"id":80,"left_children":[1,3,5,7,9,11,13,-1,-1,-1,-1,-1,-1,-1,-1],"loss_changes":[2.2855109E2,1.3712036E1,3.422174E1,2.9422753E0,1.9875345E0,5.048752E0,2.2064667E0,0E0,0E0,0E0,0E0,0E0,0E0,0E0,0E0],"parents":[2147483647,0,0,1,1,2,2,3,3,4,4,5,5,6,6],"right_children":[2,4,6,8,10,12,14,-1,-1,-1,-1,-1,-1,-1,-1],"split_conditions":[9.3351537E-1,4.620102E-1,2.0651276E0,-3.86699E-1,7.449133E-1,1.2164184E0,2.913837E0,-1.1195276E-4,2.4771456E-5,2.3820392E-4,5.2584865E-4,7.827006E-4,1.2003616E-3,2.0357003E-3,2.7540002E-3],"split_indices":[0,0,0,0,0,0,0,0,0,0,0,0,0,0,0],"split_type":[0,0,0,0,0,0,0,0,0,0,0,0,0,0,0],"sum_hessian":[9.0715836E4,7.413209E4,1.6583746E4,6.3554992E4,1.0577101E4,1.2732028E4,3.8517178E3,3.4860594E4,2.86944E4,6.8860522E3,3.6910483E3,4.46805E3,8.263979E3,3.3509526E3,5.0076514E2],"tree_param":{"num_deleted":"0","num_feature":"3","num_nodes":"15","size_leaf_vector":"1"}},{"base_weights":[-1.4276478E-2,4.648734E-2,-2.4230938E-2,9.242185E-2,3.539329E-2,-8.0569675E-3,-3.876496E-2,7.788982E-4,1.2834795E-3,3.1144437E-4,9.417183E-4,-8.828517E-5,8.0506486E-4,-7.8427215E-4,-3.5829662E-4],"categories":[],"categories_nodes":[],"categories_segments":[],"categories_sizes":[],"default_left":[0,0,0,0,0,0,0,0,0,0,0,0,0,0,0],"id":81,"left_children":[1,3,5,7,9,11,13,-1,-1,-1,-1,-1,-1,-1,-1],"loss_changes":[5.4719486E1,6.486019E0,1.8271847E1,1.2829876E0,2.5590343E0,2.5146515E0,4.7634697E0,0E0,0E0,0E0,0E0,0E0,0E0,0E0,0E0],"parents":[2147483647,0,0,1,1,2,2,3,3,4,4,5,5,6,6],"right_children":[2,4,6,8,10,12,14,-1,-1,-1,-1,-1,-1,-1,-1],"split_conditions":[-1.1897346E0,-1.4553587E0,-1.0072447E-3,-1.4728086E0,-1.2093272E0,-1.4579288E-2,1.10018186E-1,7.788982E-4,1.2834795E-3,3.1144437E-4,9.417183E-4,-8.828517E-5,8.0506486E-4,-7.8427215E-4,-3.5829662E-4],"split_indices":[2,2,2,2,2,2,2,0,0,0,0,0,0,0,0],"split_type":[0,0,0,0,0,0,0,0,0,0,0,0,0,0,0],"sum_hessian":[9.046187E4,1.2733094E4,7.772877E4,2.4756057E3,1.0257488E4,3.6789586E4,4.0939188E4,1.7648828E3,7.107229E2,9.56743E3,6.900592E2,3.6472742E4,3.168439E2,2.819252E3,3.8119938E4],"tree_param":{"num_deleted":"0","num_feature":"3","num_nodes":"15","size_leaf_vector":"1"}},{"base_weights":[-3.0339343E-2,-1.6128527E-3,3.069486E-4],"categories":[],"categories_nodes":[],"categories_segments":[],"categories_sizes":[],"default_left":[0,0,0],"id":82,"left_children":[1,-1,-1],"loss_changes":[7.2170905E2,0E0,0E0],"parents":[2147483647,0,0],"right_children":[2,-1,-1],"split_conditions":[7.299337E-1,-1.6128527E-3,3.069486E-4],"split_indices":[1,0,0],"split_type":[0,0,0],"sum_hessian":[9.030028E4,2.8707688E4,6.159259E4],"tree_param":{"num_deleted":"0","num_feature":"3","num_nodes":"3","size_leaf_vector":"1"}},{"base_weights":[-4.8947904E-2,-1.9457154E-3,1.8428273E-4],"categories":[],"categories_nodes":[],"categories_segments":[],"categories_sizes":[],"default_left":[0,0,0],"id":83,"left_children":[1,-1,-1],"loss_changes":[8.843018E2,0E0,0E0],"parents":[2147483647,0,0],"right_children":[2,-1,-1],"split_conditions":[7.299337E-1,-1.9457154E-3,1.8428273E-4],"split_indices":[1,0,0],"split_type":[0,0,0],"sum_hessian":[9.012715E4,2.8508455E4,6.1618695E4],"tree_param":{"num_deleted":"0","num_feature":"3","num_nodes":"3","size_leaf_vector":"1"}},{"base_weights":[2.3827681E-2,2.3970103E-3,-7.7461853E-4],"categories":[],"categories_nodes":[],"categories_segments":[],"categories_sizes":[],"default_left":[0,0,0],"id":84,"left_children":[1,-1,-1],"loss_changes":[1.9876338E3,0E0,0E0],"parents":[2147483647,0,0],"right_children":[2,-1,-1],"split_conditions":[7.299337E-1,2.3970103E-3,-7.7461853E-4],"split_indices":[1,0,0],"split_type":[0,0,0],"sum_hessian":[9.090002E4,2.9029508E4,6.187051E4],"tree_param":{"num_deleted":"0","num_feature":"3","num_nodes":"3","size_leaf_vector":"1"}},{"base_weights":[4.516864E-2,1.9762286E-3,-2.650897E-4],"categories":[],"categories_nodes":[],"categories_segments":[],"categories_sizes":[],"default_left":[0,0,0],"id":85,"left_children":[1,-1,-1],"loss_changes":[9.960493E2,0E0,0E0],"parents":[2147483647,0,0],"right_children":[2,-1,-1],"split_conditions":[7.299337E-1,1.9762286E-3,-2.650897E-4],"split_indices":[1,0,0],"split_type":[0,0,0],"sum_hessian":[9.114878E4,2.9148922E4,6.199986E4],"tree_param":{"num_deleted":"0","num_feature":"3","num_nodes":"3","size_leaf_vector":"1"}},{"base_weights":[2.5279947E-2,1.0703427E-3,1.20912656E-1,-3.902352E-3,2.7511507E-2,9.8908775E-2,2.0342161E-1,-1.0414329E-4,4.7929865E-5,2.25131E-4,3.6630707E-4,7.7202707E-4,1.15286E-3,1.957723E-3,2.7539793E-3],"categories":[],"categories_nodes":[],"categories_segments":[],"categories_sizes":[],"default_left":[0,0,0,0,0,0,0,0,0,0,0,0,0,0,0],"id":86,"left_children":[1,3,5,7,9,11,13,-1,-1,-1,-1,-1,-1,-1,-1],"loss_changes":[2.1041203E2,9.535781E0,3.331134E1,3.4566078E0,5.2246475E-1,5.144165E0,2.0737E0,0E0,0E0,0E0,0E0,0E0,0E0,0E0,0E0],"parents":[2147483647,0,0,1,1,2,2,3,3,4,4,5,5,6,6],"right_children":[2,4,6,8,10,12,14,-1,-1,-1,-1,-1,-1,-1,-1],"split_conditions":[8.392143E-1,3.677092E-1,2.0651276E0,-3.86699E-1,6.506123E-1,1.2164184E0,3.008138E0,-1.0414329E-4,4.7929865E-5,2.25131E-4,3.6630707E-4,7.7202707E-4,1.15286E-3,1.957723E-3,2.7539793E-3],"split_indices":[0,0,0,0,0,0,0,0,0,0,0,0,0,0,0],"split_type":[0,0,0,0,0,0,0,0,0,0,0,0,0,0,0],"sum_hessian":[9.088074E4,7.252253E4,1.8358207E4,6.104321E4,1.1479324E4,1.449485E4,3.8633577E3,3.4903574E4,2.6139637E4,7.4172554E3,4.0620693E3,6.2357812E3,8.259068E3,3.4955828E3,3.6777487E2],"tree_param":{"num_deleted":"0","num_feature":"3","num_nodes":"15","size_leaf_vector":"1"}},{"base_weights":[-1.3017422E-2,-9.3282815E-3,-2.9536355E-2,-1.3448617E-2,-2.9462457E-3,-3.201916E-2,5.1069832E-3,-1.1345209E-4,-3.8670312E-4,9.144367E-5,-9.2339906E-5,-3.034118E-4,-7.1143976E-4,5.5527483E-4,-2.8943116E-4],"categories":[],"categories_nodes":[],"categories_segments":[],"categories_sizes":[],"default_left":[0,0,0,0,0,0,0,0,0,0,0,0,0,0,0],"id":87,"left_children":[1,3,5,7,9,11,13,-1,-1,-1,-1,-1,-1,-1,-1],"loss_changes":[5.5156145E0,1.9456158E0,1.4213753E0,2.3848505E0,2.2069798E0,1.0100679E0,1.9001637E0,0E0,0E0,0E0,0E0,0E0,0E0,0E0,0E0],"parents":[2147483647,0,0,1,1,2,2,3,3,4,4,5,5,6,6],"right_children":[2,4,6,8,10,12,14,-1,-1,-1,-1,-1,-1,-1,-1],"split_conditions":[9.3351537E-1,-1.0379593E-1,2.6309338E0,-1.9809696E-1,1.7910714E-1,2.4423318E0,2.8195357E0,-1.1345209E-4,-3.8670312E-4,9.144367E-5,-9.2339906E-5,-3.034118E-4,-7.1143976E-4,5.5527483E-4,-2.8943116E-4],"split_indices":[0,0,0,0,0,0,0,0,0,0,0,0,0,0,0],"split_type":[0,0,0,0,0,0,0,0,0,0,0,0,0,0,0],"sum_hessian":[9.0511484E4,7.3989195E4,1.6522293E4,4.496076E4,2.902843E4,1.5417438E4,1.1048544E3,4.1501152E4,3.4596118E3,9.931274E3,1.9097156E4,1.4785113E4,6.3232544E2,4.4511255E2,6.597418E2],"tree_param":{"num_deleted":"0","num_feature":"3","num_nodes":"15","size_leaf_vector":"1"}},{"base_weights":[-3.0982455E-2,4.8625693E-3,-8.2696095E-2,2.8202886E-2,-1.8223694E-2,-6.761019E-2,-1.0830508E-1,7.451248E-4,2.489389E-4,-4.349278E-5,-2.783869E-4,-5.0402794E-4,-7.882037E-4,-9.429084E-4,-1.1916048E-3],"categories":[],"categories_nodes":[],"categories_segments":[],"categories_sizes":[],"default_left":[0,0,0,0,0,0,0,0,0,0,0,0,0,0,0],"id":88,"left_children":[1,3,5,7,9,11,13,-1,-1,-1,-1,-1,-1,-1,-1],"loss_changes":[1.6756216E2,2.8768862E1,1.4289322E1,4.066469E0,3.5805826E0,4.4886627E0,2.0755005E0,0E0,0E0,0E0,0E0,0E0,0E0,0E0,0E0],"parents":[2147483647,0,0,1,1,2,2,3,3,4,4,5,5,6,6],"right_children":[2,4,6,8,10,12,14,-1,-1,-1,-1,-1,-1,-1,-1],"split_conditions":[1.509384E-1,-7.871653E-1,1.210068E0,-1.4728086E0,-4.33884E-1,5.346292E-1,1.5298784E0,7.451248E-4,2.489389E-4,-4.349278E-5,-2.783869E-4,-5.0402794E-4,-7.882037E-4,-9.429084E-4,-1.1916048E-3],"split_indices":[2,2,2,2,2,2,2,0,0,0,0,0,0,0,0],"split_type":[0,0,0,0,0,0,0,0,0,0,0,0,0,0,0],"sum_hessian":[9.039327E4,5.338834E4,3.700493E4,2.6547986E4,2.6840355E4,2.328921E4,1.371572E4,1.7690144E3,2.477897E4,1.0987244E4,1.5853112E4,9.189311E3,1.4099899E4,5.99103E3,7.7246895E3],"tree_param":{"num_deleted":"0","num_feature":"3","num_nodes":"15","size_leaf_vector":"1"}},{"base_weights":[-4.782286E-2,-1.9281284E-3,1.9351115E-4],"categories":[],"categories_nodes":[],"categories_segments":[],"categories_sizes":[],"default_left":[0,0,0],"id":89,"left_children":[1,-1,-1],"loss_changes":[8.777795E2,0E0,0E0],"parents":[2147483647,0,0],"right_children":[2,-1,-1],"split_conditions":[7.299337E-1,-1.9281284E-3,1.9351115E-4],"split_indices":[1,0,0],"split_type":[0,0,0],"sum_hessian":[9.012384E4,2.8533834E4,6.159001E4],"tree_param":{"num_deleted":"0","num_feature":"3","num_nodes":"3","size_leaf_vector":"1"}},{"base_weights":[2.3334913E-2,-3.755482E-2,5.2526582E-2,-7.917627E-2,-2.5980748E-2,2.1246824E-2,6.5126844E-2,-9.687695E-4,-6.497253E-4,-4.4717127E-4,-1.8824065E-4,2.2751387E-4,-6.334259E-4,6.062774E-4,9.138878E-4],"categories":[],"categories_nodes":[],"categories_segments":[],"categories_sizes":[],"default_left":[0,0,0,0,0,0,0,0,0,0,0,0,0,0,0],"id":90,"left_children":[1,3,5,7,9,11,13,-1,-1,-1,-1,-1,-1,-1,-1],"loss_changes":[1.6157617E2,1.4188671E1,2.4215805E1,1.6049957E0,3.0899467E0,2.2471652E0,5.169647E0,0E0,0E0,0E0,0E0,0E0,0E0,0E0,0E0],"parents":[2147483647,0,0,1,1,2,2,3,3,4,4,5,5,6,6],"right_children":[2,4,6,8,10,12,14,-1,-1,-1,-1,-1,-1,-1,-1],"split_conditions":[-6.974673E-1,-1.3606607E0,-9.5807455E-2,-1.446889E0,-1.1897346E0,-1.0723654E-1,1.6082493E0,-9.687695E-4,-6.497253E-4,-4.4717127E-4,-1.8824065E-4,2.2751387E-4,-6.334259E-4,6.062774E-4,9.138878E-4],"split_indices":[2,2,2,2,2,2,2,0,0,0,0,0,0,0,0],"split_type":[0,0,0,0,0,0,0,0,0,0,0,0,0,0,0],"sum_hessian":[9.090008E4,2.9456875E4,6.1443203E4,6.407841E3,2.3049033E4,1.7644348E4,4.3798855E4,2.8501562E3,3.5576843E3,6.36916E3,1.6679873E4,1.7336717E4,3.07631E2,3.7395664E4,6.403192E3],"tree_param":{"num_deleted":"0","num_feature":"3","num_nodes":"15","size_leaf_vector":"1"}},{"base_weights":[4.645661E-2,3.50851E-2,9.74986E-2,5.2928664E-2,2.1870092E-2,8.4693544E-4,1.0585907E-1,8.884299E-4,5.193064E-4,1.7067906E-4,5.2407E-4,1.1020087E-3,7.886948E-4],"categories":[],"categories_nodes":[],"categories_segments":[],"categories_sizes":[],"default_left":[0,0,0,0,0,0,0,0,0,0,0,0,0],"id":91,"left_children":[1,3,5,7,9,-1,11,-1,-1,-1,-1,-1,-1],"loss_changes":[5.2903152E1,1.7576927E1,1.7689056E0,1.1322403E0,6.2797413E0,0E0,1.1681824E0,0E0,0E0,0E0,0E0,0E0,0E0],"parents":[2147483647,0,0,1,1,2,2,3,3,4,4,6,6],"right_children":[2,4,6,8,10,-1,12,-1,-1,-1,-1,-1,-1],"split_conditions":[9.3351537E-1,-4.8100004E-1,1.4050205E0,-1.4240103E0,6.506123E-1,8.4693544E-4,2.5366328E0,8.884299E-4,5.193064E-4,1.7067906E-4,5.2407E-4,1.1020087E-3,7.886948E-4],"split_indices":[0,0,0,0,0,0,0,0,0,0,0,0,0],"split_type":[0,0,0,0,0,0,0,0,0,0,0,0,0],"sum_hessian":[9.115056E4,7.454466E4,1.6605914E4,3.1716479E4,4.2828176E4,6.5638003E3,1.0042113E4,8.551585E2,3.086132E4,3.7009656E4,5.818518E3,8.6478545E3,1.3942594E3],"tree_param":{"num_deleted":"0","num_feature":"3","num_nodes":"13","size_leaf_vector":"1"}},{"base_weights":[2.3734339E-2,6.0230365E-4,1.270106E-1,-5.8174585E-3,3.9075155E-2,1.0152682E-1,2.109812E-1,-1.0553335E-4,-1.1679117E-5,3.0811332E-4,5.444303E-4,7.7220344E-4,1.1450284E-3,2.0236238E-3,2.9233994E-3],"categories":[],"categories_nodes":[],"categories_segments":[],"categories_sizes":[],"default_left":[0,0,0,0,0,0,0,0,0,0,0,0,0,0,0],"id":92,"left_children":[1,3,5,7,9,11,13,-1,-1,-1,-1,-1,-1,-1,-1],"loss_changes":[2.1684215E2,1.831635E1,3.5521973E1,1.3994355E0,1.3451252E0,4.0108337E0,2.651947E0,0E0,0E0,0E0,0E0,0E0,0E0,0E0,0E0],"parents":[2147483647,0,0,1,1,2,2,3,3,4,4,5,5,6,6],"right_children":[2,4,6,8,10,12,14,-1,-1,-1,-1,-1,-1,-1,-1],"split_conditions":[9.3351537E-1,4.620102E-1,2.0651276E0,-4.8100004E-1,7.449133E-1,1.2164184E0,3.008138E0,-1.0553335E-4,-1.1679117E-5,3.0811332E-4,5.444303E-4,7.7220344E-4,1.1450284E-3,2.0236238E-3,2.9233994E-3],"split_indices":[0,0,0,0,0,0,0,0,0,0,0,0,0,0,0],"split_type":[0,0,0,0,0,0,0,0,0,0,0,0,0,0,0],"sum_hessian":[9.076631E4,7.415739E4,1.6608922E4,6.3553414E4,1.0603975E4,1.2743635E4,3.8652878E3,3.148379E4,3.2069625E4,6.8978013E3,3.706174E3,4.437791E3,8.305844E3,3.4981907E3,3.6709717E2],"tree_param":{"num_deleted":"0","num_feature":"3","num_nodes":"15","size_leaf_vector":"1"}},{"base_weights":[-1.2919507E-2,-1.0791486E-3,3.131306E-4],"categories":[],"categories_nodes":[],"categories_segments":[],"categories_sizes":[],"default_left":[0,0,0],"id":93,"left_children":[1,-1,-1],"loss_changes":[3.7988184E2,0E0,0E0],"parents":[2147483647,0,0],"right_children":[2,-1,-1],"split_conditions":[7.299337E-1,-1.0791486E-3,3.131306E-4],"split_indices":[1,0,0],"split_type":[0,0,0],"sum_hessian":[9.040559E4,2.8721305E4,6.1684293E4],"tree_param":{"num_deleted":"0","num_feature":"3","num_nodes":"3","size_leaf_vector":"1"}},{"base_weights":[-2.9546026E-2,-1.8603398E-2,-1.0091416E-1,-3.978756E-2,-8.97166E-3,-9.158036E-4,-1.2111188E-1,-7.46436E-4,-3.85251E-4,-3.249804E-5,-5.302358E-4,-1.450537E-3,-9.1792445E-4],"categories":[],"categories_nodes":[],"categories_segments":[],"categories_sizes":[],"default_left":[0,0,0,0,0,0,0,0,0,0,0,0,0],"id":94,"left_children":[1,3,5,7,9,-1,11,-1,-1,-1,-1,-1,-1],"loss_changes":[7.051751E1,1.597509E1,2.2519913E0,1.0739746E0,1.3566886E1,0E0,2.6478348E0,0E0,0E0,0E0,0E0,0E0,0E0],"parents":[2147483647,0,0,1,1,2,2,3,3,4,4,6,6],"right_children":[2,4,6,8,10,-1,12,-1,-1,-1,-1,-1,-1],"split_conditions":[1.2164184E0,-6.696021E-1,2.0651276E0,-1.4240103E0,8.392143E-1,-9.158036E-4,2.4423318E0,-7.46436E-4,-3.85251E-4,-3.249804E-5,-5.302358E-4,-1.450537E-3,-9.1792445E-4],"split_indices":[0,0,0,0,0,0,0,0,0,0,0,0,0],"split_type":[0,0,0,0,0,0,0,0,0,0,0,0,0],"sum_hessian":[9.029792E4,7.829455E4,1.200337E4,2.447056E4,5.382399E4,8.213343E3,3.7900273E3,8.532936E2,2.3617268E4,4.763748E4,6.1865073E3,2.0841736E3,1.7058538E3],"tree_param":{"num_deleted":"0","num_feature":"3","num_nodes":"13","size_leaf_vector":"1"}},{"base_weights":[-4.835965E-2,-2.7971477E-3,-9.9332325E-2,2.0678831E-2,-3.0559659E-2,-7.551594E-2,-1.2620117E-1,5.207323E-4,1.3858604E-4,-1.1555887E-4,-4.0342964E-4,-6.483185E-4,-8.6190953E-4,-1.1515531E-3,-1.5440941E-3],"categories":[],"categories_nodes":[],"categories_segments":[],"categories_sizes":[],"default_left":[0,0,0,0,0,0,0,0,0,0,0,0,0,0,0],"id":95,"left_children":[1,3,5,7,9,11,13,-1,-1,-1,-1,-1,-1,-1,-1],"loss_changes":[2.0914598E2,3.0992575E1,2.7189392E1,5.5161104E0,4.050207E0,2.5644836E0,6.204712E0,0E0,0E0,0E0,0E0,0E0,0E0,0E0,0E0],"parents":[2147483647,0,0,1,1,2,2,3,3,4,4,5,5,6,6],"right_children":[2,4,6,8,10,12,14,-1,-1,-1,-1,-1,-1,-1,-1],"split_conditions":[-6.845928E-2,-8.095132E-1,8.936251E-1,-1.4055606E0,-5.7572716E-1,3.828877E-1,1.6479449E0,5.207323E-4,1.3858604E-4,-1.1555887E-4,-4.0342964E-4,-6.483185E-4,-8.6190953E-4,-1.1515531E-3,-1.5440941E-3],"split_indices":[2,2,2,2,2,2,2,0,0,0,0,0,0,0,0],"split_type":[0,0,0,0,0,0,0,0,0,0,0,0,0,0,0],"sum_hessian":[9.005344E4,4.755073E4,4.2502707E4,2.5764514E4,2.1786217E4,2.2533213E4,1.9969494E4,4.5970513E3,2.1167463E4,7.4048E3,